{
  "fc1": {
    "kernel": [
      -0.046781837940216064,
      0.0338321253657341,
      0.04513731226325035,
      -0.021695878356695175,
      0.039525289088487625,
      -0.035458531230688095,
      -0.009672561660408974,
      0.010033988393843174,
      -0.07069690525531769,
      0.011897454038262367,
      0.022997481748461723,
      0.002654610900208354,
      0.2139328271150589,
      0.041611187160015106,
      0.01991918683052063,
      0.04109234735369682,
      0.05122589319944382,
      0.0025491516571491957,
      0.003685803385451436,
      -0.03713346645236015,
      0.03409966081380844,
      0.0016839662566781044,
      -0.07841314375400543,
      0.4361952841281891,
      -0.006587634328752756,
      -0.003136030398309231,
      -0.04379785805940628,
      -0.010953729972243309,
      -0.02252606302499771,
      -0.015446200966835022,
      -0.05876455083489418,
      0.00715684425085783,
      -0.5404067635536194,
      -0.0038778444286435843,
      0.014931363053619862,
      -0.07727032899856567,
      0.06388676911592484,
      0.10081112384796143,
      -0.0479128435254097,
      -0.014327449724078178,
      0.0379740409553051,
      0.003503545420244336,
      -0.03263796120882034,
      0.02173086628317833,
      0.0338987335562706,
      0.06137855350971222,
      -0.016205929219722748,
      0.025755511596798897,
      -0.008548364974558353,
      -0.014790141023695469,
      0.016918102279305458,
      0.020903078839182854,
      -0.0172913558781147,
      -0.01607745699584484,
      -0.019498785957694054,
      0.0005916712107136846,
      0.039547670632600784,
      -0.007730665151029825,
      -0.10938070714473724,
      0.008936825208365917,
      0.008311309851706028,
      -0.06691969186067581,
      0.015120483003556728,
      -0.03947464004158974,
      0.07663056999444962,
      0.01084057241678238,
      0.01233061496168375,
      -0.03944515436887741,
      0.027088597416877747,
      0.05728909745812416,
      0.007442844565957785,
      -0.02528783679008484,
      -0.005496086087077856,
      0.021893586963415146,
      -0.08058930188417435,
      0.015895774587988853,
      0.105134978890419,
      0.018534544855356216,
      -0.02259320393204689,
      -0.08955099433660507,
      0.019760800525546074,
      -0.0032405885867774487,
      0.008189689368009567,
      0.008507107384502888,
      -0.03313848376274109,
      -0.011101002804934978,
      -0.033144500106573105,
      0.1173824742436409,
      0.0948805883526802,
      -0.017915569245815277,
      -0.026223069056868553,
      -0.038650572299957275,
      -0.04250282794237137,
      -0.031691186130046844,
      -0.029140079393982887,
      0.038199715316295624,
      -0.10783382505178452,
      -0.027230899780988693,
      0.02413679100573063,
      -0.030094584450125694,
      0.1045025885105133,
      0.07050695270299911,
      -0.021968545392155647,
      0.03351917862892151,
      0.031543660908937454,
      0.022320466116070747,
      -0.014991546981036663,
      0.03938225656747818,
      -0.03279946744441986,
      -0.0016744486056268215,
      0.0043939813040196896,
      0.01031180564314127,
      -0.018603961914777756,
      -0.022277148440480232,
      0.020869379863142967,
      -0.03152646869421005,
      -0.01894998922944069,
      0.08179868757724762,
      -0.028478100895881653,
      0.0417935773730278,
      0.00039550074143335223,
      -0.04860379174351692,
      -0.08014076948165894,
      -0.031497854739427567,
      0.012972458265721798,
      0.0203871987760067,
      -0.06302746385335922,
      -0.049392666667699814,
      -0.06020085886120796,
      0.010642074048519135,
      0.002640416147187352,
      0.04921010136604309,
      0.3790569007396698,
      0.15087755024433136,
      0.11713459342718124,
      0.006651841104030609,
      0.0010509679559618235,
      -0.11352095007896423,
      -0.02838749997317791,
      0.028645377606153488,
      -0.02032153680920601,
      0.006116858217865229,
      0.010440323501825333,
      0.01556321419775486,
      0.019815685227513313,
      0.01830134727060795,
      0.039695121347904205,
      -0.07715710997581482,
      0.004485657438635826,
      -0.17417357861995697,
      0.00040897016879171133,
      -0.014320003800094128,
      -0.014761552214622498,
      0.014490478672087193,
      0.009920528158545494,
      -0.3009668290615082,
      0.002317461185157299,
      -0.011337078176438808,
      0.07578510046005249,
      -0.013368090614676476,
      0.0019224577117711306,
      0.03299851343035698,
      -0.02234829217195511,
      0.01021865289658308,
      -0.017971282824873924,
      -0.0019531222060322762,
      0.035049282014369965,
      0.03844344988465309,
      0.19439713656902313,
      0.24642345309257507,
      0.022326083853840828,
      0.038021888583898544,
      0.008260081522166729,
      0.01823417842388153,
      0.0057816822081804276,
      -0.09786509722471237,
      -0.18161293864250183,
      -0.2964285612106323,
      0.08955970406532288,
      -0.07866605371236801,
      0.027340000495314598,
      -0.035183824598789215,
      -0.321666419506073,
      0.003766910405829549,
      0.010141304694116116,
      -0.025324469432234764,
      0.18465061485767365,
      -0.0371650867164135,
      -0.056998834013938904,
      -0.004494472406804562,
      0.040674254298210144,
      0.03470863029360771,
      -0.16397546231746674,
      0.049125418066978455,
      0.04509305953979492,
      0.11886698752641678,
      0.25160568952560425,
      0.14931395649909973,
      0.1586347073316574,
      0.11960400640964508,
      0.002040682127699256,
      -0.19661112129688263,
      -0.053625259548425674,
      -0.15298119187355042,
      -0.05965214967727661,
      0.01913251169025898,
      0.1171824261546135,
      0.06909049302339554,
      0.05685027688741684,
      -0.20289559662342072,
      -0.06474201381206512,
      -0.1358523666858673,
      0.0850592702627182,
      -0.13556398451328278,
      0.006665080785751343,
      -0.03805484250187874,
      -0.21919001638889313,
      0.10359260439872742,
      0.035549767315387726,
      -0.23382259905338287,
      0.0027879357803612947,
      0.005732981488108635,
      0.18046776950359344,
      -0.0018180941697210073,
      0.03267895430326462,
      0.1379418969154358,
      -0.2082473784685135,
      -0.0017005902482196689,
      -0.24006402492523193,
      -0.2546367645263672,
      -0.004546551965177059,
      0.10205116122961044,
      0.109730064868927,
      0.283862829208374,
      0.07697034627199173,
      -0.24542298913002014,
      0.11511973291635513,
      0.0696907564997673,
      0.003432774217799306,
      -0.16673265397548676,
      -0.12719358503818512,
      -0.1651693731546402,
      0.10730454325675964,
      0.1447085440158844,
      0.09767676889896393,
      -0.2090388983488083,
      -0.2336215376853943,
      0.13511443138122559,
      0.060701485723257065,
      -0.256690114736557,
      0.2548469603061676,
      0.1274387389421463,
      -0.11557912826538086,
      -0.3102573752403259,
      0.17968237400054932,
      0.155889093875885,
      -0.01818825677037239,
      -0.017769742757081985,
      -0.02411327138543129,
      -0.15052759647369385,
      -0.006830137223005295,
      0.4332945942878723,
      0.20674918591976166,
      -0.034143250435590744,
      0.046616747975349426,
      -0.02305682562291622,
      0.32001304626464844,
      -0.16132381558418274,
      -0.025403905659914017,
      -0.046682003885507584,
      -0.06738290935754776,
      0.051298584789037704,
      -0.028172625228762627,
      0.053938768804073334,
      0.07902542501688004,
      0.010489792563021183,
      -0.03886070102453232,
      -0.04630324989557266,
      0.05627493932843208,
      -0.027426546439528465,
      0.07334528118371964,
      -0.09264753013849258,
      0.06629418581724167,
      -0.09674081951379776,
      0.09737824648618698,
      0.002427786123007536,
      0.10105905681848526,
      0.02205103076994419,
      -0.0766543447971344,
      0.025197269394993782,
      -0.05182548239827156,
      0.06337795406579971,
      -0.029200369492173195,
      -0.01872507482767105,
      0.0667487233877182,
      -0.004696624353528023,
      0.1695883721113205,
      -0.6081862449645996,
      -0.11730358004570007,
      -0.03324955701828003,
      -0.05553780496120453,
      -0.025155387818813324,
      -0.006767244078218937,
      0.7073543071746826,
      -0.04942305013537407,
      -0.02198673225939274,
      0.11297725886106491,
      -0.04582016542553902,
      -0.11408054828643799,
      -0.04516246169805527,
      -0.0456223301589489,
      0.0018471602816134691,
      -0.02692834846675396,
      -0.14739561080932617,
      -0.055302154272794724,
      -0.011418872512876987,
      -0.19948628544807434,
      -0.14377078413963318,
      0.13633649051189423,
      -0.06443672627210617
    ],
    "kernelShape": [
      5,
      64
    ],
    "bias": [
      0.030077911913394928,
      0.05276557058095932,
      0.061746492981910706,
      0.016949689015746117,
      0.16526953876018524,
      -0.054367098957300186,
      0.025434736162424088,
      0.015752900391817093,
      -0.08045479655265808,
      0.2359386682510376,
      -0.14159029722213745,
      -0.16612130403518677,
      -0.3170776665210724,
      0.053406573832035065,
      -0.03323247283697128,
      0.1200285255908966,
      0.035365983843803406,
      0.2347584068775177,
      0.020838772878050804,
      0.3144787549972534,
      -0.002464761259034276,
      0.006316846236586571,
      -0.04861810803413391,
      -0.7990360260009766,
      0.16887784004211426,
      -0.04091941565275192,
      -0.05016288161277771,
      0.046788912266492844,
      0.0902986004948616,
      0.0628872662782669,
      0.21553801000118256,
      0.05802062898874283,
      -1.0389673709869385,
      0.13468962907791138,
      -0.12123921513557434,
      -0.00955293234437704,
      0.031788334250450134,
      -0.04523289203643799,
      0.03813595697283745,
      0.11600213497877121,
      0.018255742266774178,
      0.20361216366291046,
      -0.019093185663223267,
      0.11644576489925385,
      -0.014191885478794575,
      0.03552665561437607,
      0.05187614634633064,
      -0.0997309610247612,
      0.02084459736943245,
      0.09270777553319931,
      0.03045281022787094,
      0.16671834886074066,
      -0.03855675458908081,
      0.018819034099578857,
      0.056002140045166016,
      0.048586487770080566,
      0.018343452364206314,
      0.10720261931419373,
      -0.25626039505004883,
      0.14765982329845428,
      -0.2114717662334442,
      -0.12116388231515884,
      0.16763707995414734,
      0.056651096791028976
    ],
    "biasShape": [
      64
    ]
  },
  "hidden": {
    "kernel": [
      -0.012795115821063519,
      0.01709851063787937,
      -0.00012832763604819775,
      0.010680845938622952,
      -0.0035893877502530813,
      0.024966301396489143,
      0.029431253671646118,
      0.010743706487119198,
      0.003132984507828951,
      -0.001165658817626536,
      0.006089757662266493,
      -0.01994873769581318,
      0.001256717136129737,
      0.013641036115586758,
      -0.006196014117449522,
      0.009850138798356056,
      -0.012139256112277508,
      0.019813450053334236,
      -0.009756279177963734,
      -0.03186565637588501,
      -0.012125231325626373,
      -0.005004569888114929,
      0.0025403702165931463,
      0.03915880620479584,
      -0.03625577688217163,
      -0.013862141408026218,
      -0.008336993865668774,
      -0.00725795840844512,
      0.015372087247669697,
      0.010931245051324368,
      -0.002476900815963745,
      0.003224393352866173,
      -0.007715309504419565,
      -0.0009936788119375706,
      -0.005774910561740398,
      -0.0025370900984853506,
      -0.016409188508987427,
      0.06191819906234741,
      -0.007752927020192146,
      0.00818558968603611,
      -0.00865290965884924,
      -0.0075272745452821255,
      -0.0033741516526788473,
      -0.007466099690645933,
      0.0024541132152080536,
      -0.0055454024113714695,
      -0.0018915962427854538,
      -0.0008943061111494899,
      0.017699873074889183,
      -0.014552666805684566,
      0.02281324192881584,
      -0.0050262645818293095,
      -0.01675930619239807,
      0.019139546900987625,
      -0.0014872357714921236,
      -0.007205447647720575,
      -0.010355683974921703,
      -5.142880399944261e-05,
      -0.002197936410084367,
      -0.007555125281214714,
      -0.010275076143443584,
      -0.012549099512398243,
      -0.0065513113513588905,
      0.003860791912302375,
      -0.021081548184156418,
      -0.004880108404904604,
      0.017373325303196907,
      -0.001982526620849967,
      0.001593033317476511,
      -0.0002537504769861698,
      0.002222915645688772,
      0.004415213130414486,
      0.005263791885226965,
      -0.004690840374678373,
      0.006588519085198641,
      -0.006893139332532883,
      0.003981600049883127,
      -0.01176613848656416,
      -0.000596827594563365,
      -0.020512325689196587,
      0.005365113262087107,
      -0.004620739258825779,
      -0.001748321927152574,
      -0.0007341400487348437,
      0.0011696236906573176,
      0.001471261028200388,
      -0.004944983404129744,
      -0.006526410114020109,
      -0.004746752325445414,
      -0.004336218815296888,
      -0.001968379132449627,
      -0.00961312372237444,
      -0.008379206992685795,
      0.013725664466619492,
      0.017665991559624672,
      -0.0038619244005531073,
      -0.0005998428096063435,
      -0.00542010273784399,
      0.000468147627543658,
      -0.010651912540197372,
      -0.007192069664597511,
      -0.01622326858341694,
      -0.0005803857930004597,
      -0.0076112025417387486,
      0.012394683435559273,
      0.017697766423225403,
      0.0012034800602123141,
      0.015226108022034168,
      0.002308962866663933,
      -0.006282486952841282,
      0.019542958587408066,
      -0.0020891225431114435,
      -0.012235727161169052,
      -0.006339565850794315,
      -0.006136860232800245,
      0.01033459696918726,
      0.006500364746898413,
      -0.008776991628110409,
      0.006013600621372461,
      0.0007026893435977399,
      0.00932317040860653,
      0.004752037581056356,
      0.006694669369608164,
      0.015434635803103447,
      -0.0006104171625338495,
      0.002669342327862978,
      0.001690473174676299,
      0.0010831626132130623,
      -0.01752532087266445,
      -0.003877215785905719,
      0.018371310085058212,
      -0.005500397644937038,
      0.001757513266056776,
      -0.0032931440509855747,
      0.0024656818713992834,
      0.00268884957768023,
      0.0056767771020531654,
      -0.006214133929461241,
      0.007233227137476206,
      -0.005533001385629177,
      0.0049695041961967945,
      -0.02000134252011776,
      0.0002428037696518004,
      -0.023125367239117622,
      0.006437064614146948,
      -0.005521848332136869,
      0.0006269033765420318,
      0.0006169040570966899,
      0.0014047963777557015,
      0.0020451738964766264,
      -0.004986013751477003,
      -0.006197870243340731,
      -0.006928770802915096,
      -0.0014298766618594527,
      -3.3877815440064296e-05,
      -0.014145709574222565,
      -0.013257868587970734,
      0.014403524808585644,
      0.019675791263580322,
      -0.0037073756102472544,
      -0.0014296387089416385,
      -0.006362621206790209,
      0.0020245485939085484,
      -0.0109983179718256,
      -0.00772187951952219,
      -0.023036470636725426,
      -2.8869251764263026e-05,
      -0.007865178398787975,
      0.007834842428565025,
      0.01908707432448864,
      0.0018088814103975892,
      0.018023716285824776,
      0.0013615923235192895,
      -0.00574368704110384,
      0.0223996564745903,
      -0.0017563231522217393,
      -0.017662467435002327,
      -0.0048120045103132725,
      -0.0042549436911940575,
      0.012201212346553802,
      0.00892682746052742,
      -0.008973401039838791,
      0.007517246529459953,
      0.0009380789124406874,
      0.011234353296458721,
      0.005917670205235481,
      0.007964011281728745,
      0.017450375482439995,
      0.0008037988445721567,
      0.003616503207013011,
      0.0026134634390473366,
      0.0015767376171424985,
      -0.050510212779045105,
      0.01842663809657097,
      -0.01751953363418579,
      0.0264967642724514,
      -0.00988376047462225,
      0.023800555616617203,
      0.021607620641589165,
      -0.0007760825101286173,
      -0.0017381868092343211,
      0.0063989246264100075,
      -0.017712248489260674,
      0.012248066253960133,
      -0.012644735164940357,
      -0.0275637898594141,
      -0.018685948103666306,
      0.051130373030900955,
      -0.0005646731005981565,
      -0.007736598141491413,
      -0.016681313514709473,
      0.015456798486411572,
      0.008300417102873325,
      0.022844670340418816,
      -0.011692095547914505,
      0.005838984157890081,
      -0.02362874709069729,
      -0.0017665348714217544,
      -0.00029606689349748194,
      0.00818839855492115,
      -0.013176321052014828,
      -0.006575321778655052,
      0.008630560711026192,
      -0.0073663536459207535,
      -0.0008351443684659898,
      -0.0019403952173888683,
      -0.0006299983360804617,
      0.006799308583140373,
      -0.001858817064203322,
      -0.06987107545137405,
      0.013122388161718845,
      0.025029171258211136,
      0.011931521818041801,
      -0.0014010588638484478,
      0.0054246000945568085,
      0.00245989509858191,
      0.01764463447034359,
      0.003694237908348441,
      -0.01441837940365076,
      0.012303628958761692,
      0.011035681702196598,
      0.011524233035743237,
      -0.010202949866652489,
      -0.0004956286866217852,
      -0.019657235592603683,
      0.01930953748524189,
      -0.0031958480831235647,
      0.004684967454522848,
      -0.01566997356712818,
      0.01701107621192932,
      -0.007133192848414183,
      0.0014284850331023335,
      -0.0051704831421375275,
      0.0058366223238408566,
      0.002284336369484663,
      -0.0018885416211560369,
      -0.03136366233229637,
      -0.14628317952156067,
      0.03930748254060745,
      0.06641815602779388,
      0.08824048936367035,
      -0.055752579122781754,
      -0.05602264031767845,
      0.04546402767300606,
      0.1013750433921814,
      -0.06905969977378845,
      0.12407433241605759,
      -0.15076212584972382,
      0.03234713152050972,
      -0.015139346942305565,
      0.14095576107501984,
      -0.04516604170203209,
      0.08174220472574234,
      0.06504449248313904,
      -0.09742554277181625,
      0.06467373669147491,
      -0.08478531241416931,
      0.060225047171115875,
      0.08256454765796661,
      0.06218558922410011,
      -0.009360860101878643,
      0.0036677387543022633,
      -0.11636606603860855,
      -0.2602140009403229,
      -0.004709466826170683,
      -0.008238664828240871,
      0.020588763058185577,
      0.0596647635102272,
      0.10219685733318329,
      0.058692626655101776,
      0.06377590447664261,
      -0.15333828330039978,
      -0.0494559220969677,
      -0.01611386053264141,
      -0.09278783947229385,
      -0.054452236741781235,
      0.15903544425964355,
      0.15202046930789948,
      -0.09100335836410522,
      0.10939054191112518,
      0.042310360819101334,
      -0.1306505650281906,
      -0.11064724624156952,
      0.09392967075109482,
      0.05138614773750305,
      -0.052601054310798645,
      -0.048582617193460464,
      0.0769955962896347,
      0.059014901518821716,
      -0.1722743660211563,
      -0.05366838723421097,
      -0.06921021640300751,
      0.029135974124073982,
      -0.06436283886432648,
      0.11789915710687637,
      0.13073311746120453,
      -0.1054622158408165,
      -0.038519490510225296,
      -0.031040333211421967,
      0.03456049785017967,
      -0.04803147539496422,
      0.008013238199055195,
      0.0632794126868248,
      -0.04044819623231888,
      -0.03598640486598015,
      0.07649467140436172,
      -0.08975809067487717,
      0.08546086400747299,
      -0.09043587744235992,
      0.10393855720758438,
      -0.11188647896051407,
      0.09325291216373444,
      -0.019072698429226875,
      0.2214513123035431,
      -0.07048415392637253,
      0.06082156300544739,
      -0.01713646948337555,
      -0.13740840554237366,
      -0.09661762416362762,
      -0.05921689793467522,
      0.052733540534973145,
      -0.09119830280542374,
      -0.02569187618792057,
      -0.0015189854893833399,
      0.09763015061616898,
      -0.08897519111633301,
      -0.10070028156042099,
      0.07122943550348282,
      0.19376564025878906,
      0.12474620342254639,
      0.0075804670341312885,
      0.07962161302566528,
      0.03583061695098877,
      -0.05602302402257919,
      -0.14372222125530243,
      0.0006724544800817966,
      0.09039046615362167,
      0.17250849306583405,
      -0.05596158280968666,
      0.03416925668716431,
      -0.031204525381326675,
      -0.06904282420873642,
      0.015248924493789673,
      -0.1292283982038498,
      -0.13658367097377777,
      0.11372025310993195,
      0.09610172361135483,
      -0.04840768501162529,
      -0.01925649307668209,
      -0.09180295467376709,
      0.03823761269450188,
      -0.12567919492721558,
      -0.11619465798139572,
      -0.003938708454370499,
      -0.029367174953222275,
      0.05683010816574097,
      -0.04433732107281685,
      0.0031062772031873465,
      -0.12499479949474335,
      -0.010079842992126942,
      0.11347589641809464,
      -0.1146409660577774,
      -0.05799178406596184,
      -0.06630811095237732,
      -0.07182236015796661,
      -0.013336678966879845,
      0.03128078207373619,
      -0.03425220027565956,
      -0.008485853672027588,
      0.05192118510603905,
      0.013462943956255913,
      0.009501799941062927,
      0.013043836690485477,
      0.034570373594760895,
      0.022553065791726112,
      -0.013699754141271114,
      -0.0003058586153201759,
      0.08808375149965286,
      -0.018812809139490128,
      -0.01840943656861782,
      0.011186937801539898,
      -0.04499087482690811,
      -0.039643485099077225,
      -0.022005105391144753,
      0.002579580759629607,
      -0.0033215624280273914,
      -0.020271923393011093,
      -0.050642166286706924,
      0.0019165510311722755,
      0.009541437029838562,
      -0.02790706790983677,
      -0.033896878361701965,
      0.06068260967731476,
      0.04962719976902008,
      0.04213118925690651,
      -0.01927415281534195,
      -0.024186499416828156,
      -0.008076414465904236,
      0.0008817327325232327,
      -0.01726515218615532,
      0.009205669164657593,
      0.11726308614015579,
      -0.017235323786735535,
      0.014975310303270817,
      -0.019400350749492645,
      0.031046396121382713,
      0.0032200634013861418,
      0.013910720124840736,
      0.01636454463005066,
      0.006274513900279999,
      0.020227402448654175,
      -0.023730311542749405,
      -0.025785082951188087,
      -0.017811253666877747,
      -0.059353310614824295,
      0.016050267964601517,
      -0.01642434671521187,
      -0.022686868906021118,
      0.005877243354916573,
      -0.0025990805588662624,
      -0.016408734023571014,
      0.018518710508942604,
      0.016684992238879204,
      0.013144847005605698,
      -0.006829032674431801,
      -0.01399335265159607,
      -0.004607370588928461,
      -0.008277013897895813,
      -0.05775544419884682,
      0.023662365972995758,
      0.020868344232439995,
      0.025158781558275223,
      -0.007866385392844677,
      -0.010387237183749676,
      0.013607805594801903,
      0.0019435363356024027,
      0.00352055998519063,
      0.00020715010759886354,
      0.004888803698122501,
      -0.0044599734246730804,
      0.0019267264287918806,
      0.0035309712402522564,
      -0.01731622964143753,
      -0.0017421501688659191,
      0.0039094057865440845,
      0.006732555106282234,
      -0.005740904249250889,
      -0.0070822639390826225,
      0.012897510081529617,
      0.004033536184579134,
      -0.012978622689843178,
      -0.003140954999253154,
      -0.00869494117796421,
      -0.007645090576261282,
      -0.007411796599626541,
      0.0017297639278694987,
      0.003944096155464649,
      0.01573152095079422,
      0.021579820662736893,
      -0.008822515606880188,
      -0.0024644320365041494,
      -0.008849140256643295,
      -0.010018984787166119,
      -0.001783466897904873,
      -0.016520442441105843,
      -0.026504838839173317,
      -0.004711963701993227,
      0.001803529798053205,
      0.01888364367187023,
      0.01139972172677517,
      0.005948658101260662,
      0.002155749127268791,
      0.012852915562689304,
      0.0006679979851469398,
      0.01756359077990055,
      0.0004715329559985548,
      0.006177704315632582,
      -0.014722869731485844,
      -0.018248455598950386,
      0.0005057196249254048,
      -0.011540021747350693,
      -0.006309885997325182,
      0.005355780478566885,
      -0.0030049411579966545,
      0.01628900319337845,
      0.0036741718649864197,
      -0.007201476488262415,
      0.006899415981024504,
      -0.0031232915353029966,
      0.006723735015839338,
      -0.0007121330127120018,
      0.009514953941106796,
      -0.0158728938549757,
      0.02584429644048214,
      0.002007929142564535,
      -0.030783098191022873,
      0.0023674906697124243,
      0.017971234396100044,
      -0.006175651680678129,
      0.0024297074414789677,
      0.004251027479767799,
      0.009799708612263203,
      -0.004400212317705154,
      0.0011826324043795466,
      0.0158391036093235,
      0.03841641917824745,
      0.005872074048966169,
      -0.049278367310762405,
      0.002971851034089923,
      -0.01649441197514534,
      -0.0029819514602422714,
      -0.00405493937432766,
      0.021385760977864265,
      -0.001222609425894916,
      -0.011819944716989994,
      -0.047390297055244446,
      -0.01268708985298872,
      0.005850435700267553,
      -0.00606771232560277,
      -0.006175955291837454,
      0.02214379794895649,
      0.013589014299213886,
      0.016080928966403008,
      -0.00031624233815819025,
      -0.006665288005024195,
      -0.0072908177971839905,
      -0.0001501302613178268,
      0.004082563333213329,
      0.004174142610281706,
      0.04437140375375748,
      0.0016929010162129998,
      -0.018157923594117165,
      -0.02171807549893856,
      0.012209382839500904,
      0.002666042884811759,
      0.00544735649600625,
      0.0016779846046119928,
      -0.001456952071748674,
      0.007140266243368387,
      -0.0035359796602278948,
      -0.025341428816318512,
      -0.0032073173206299543,
      0.02546234428882599,
      0.005643678829073906,
      0.0032185965683311224,
      -0.009227914735674858,
      0.0013046368258073926,
      0.001881472417153418,
      -0.01101505383849144,
      0.006409729365259409,
      0.005591299384832382,
      0.004472033120691776,
      -0.006396132055670023,
      -0.004335398785769939,
      -0.000751705898437649,
      -0.01047324389219284,
      0.08358778059482574,
      0.011553648859262466,
      -0.05864601954817772,
      -0.07940945029258728,
      0.026415705680847168,
      -0.07691655308008194,
      0.051708534359931946,
      0.009707075543701649,
      -0.012943863868713379,
      -0.030709940940141678,
      0.0029438671190291643,
      0.007515039294958115,
      0.0372544601559639,
      -0.07946005463600159,
      0.01416245847940445,
      0.040061432868242264,
      -0.03527626767754555,
      0.034592755138874054,
      0.028411202132701874,
      0.03755081072449684,
      -0.005062393378466368,
      0.01491427794098854,
      -0.01996934972703457,
      0.02854803577065468,
      -0.0681765228509903,
      0.023605162277817726,
      0.0038737838622182608,
      -0.000921074126381427,
      -0.05661584809422493,
      -0.000361739716026932,
      -0.005586179904639721,
      0.043760672211647034,
      -0.03166710212826729,
      -0.016476470977067947,
      0.02016727440059185,
      0.018521249294281006,
      -0.028104443103075027,
      0.07571353018283844,
      0.018054375424981117,
      0.008866860531270504,
      -0.05793607607483864,
      -0.01832067407667637,
      -0.004194240085780621,
      0.0274820514023304,
      -0.03009931743144989,
      -0.018467742949724197,
      -0.01727602444589138,
      0.049241360276937485,
      -0.02478967420756817,
      0.017287148162722588,
      0.05611960589885712,
      0.01631828024983406,
      -0.04290134832262993,
      0.035394325852394104,
      -0.01277073659002781,
      -0.007627260405570269,
      0.02886304259300232,
      -0.020677892491221428,
      -0.025484377518296242,
      0.014138747937977314,
      -0.02030104771256447,
      0.0334869883954525,
      -0.004605092573910952,
      -0.00808943621814251,
      -0.010648406110703945,
      0.06489506363868713,
      0.0014081619447097182,
      -0.04576735571026802,
      -0.008852403610944748,
      0.012687924318015575,
      -0.027689363807439804,
      -0.008265592157840729,
      0.005617944989353418,
      0.017927860841155052,
      -0.005498330108821392,
      0.010089127346873283,
      0.014189321547746658,
      0.15159554779529572,
      0.002648997586220503,
      -0.1543741375207901,
      -0.0002877806837204844,
      -0.07027817517518997,
      -0.00023885529662948102,
      -0.008352537639439106,
      0.035410936921834946,
      0.013730349019169807,
      -0.02252836897969246,
      -0.1088375598192215,
      -0.004053244832903147,
      -0.0003622457152232528,
      -0.005919958930462599,
      -0.005582504905760288,
      0.08502223342657089,
      0.04074345901608467,
      0.05276591703295708,
      -0.020911211147904396,
      0.002019686158746481,
      0.0002924353757407516,
      0.0012540329480543733,
      0.0037005532067269087,
      0.0026326761581003666,
      0.13416771590709686,
      -0.008110783994197845,
      -0.05062776803970337,
      -0.026122448965907097,
      0.01208558026701212,
      0.006529555656015873,
      0.005680457688868046,
      0.0007681544520892203,
      -0.010495658032596111,
      0.01350688561797142,
      -0.027244772762060165,
      -0.04762360453605652,
      0.014252672903239727,
      0.06004061922430992,
      0.008981558494269848,
      -0.01770210452377796,
      -0.0357993021607399,
      0.009540430270135403,
      0.002896025078371167,
      -0.02292078174650669,
      0.0038923248648643494,
      -0.004641831386834383,
      0.009047619067132473,
      -0.013832676224410534,
      -0.007164820563048124,
      0.0006961704348213971,
      -0.020003804937005043,
      -0.006641791667789221,
      0.026131344959139824,
      0.010805008932948112,
      0.06157543510198593,
      -0.012664937414228916,
      0.008472613990306854,
      -0.013465233147144318,
      0.012480261735618114,
      -0.024728622287511826,
      0.005452685058116913,
      -0.0073295640759170055,
      -0.016893036663532257,
      -0.011153586208820343,
      0.021932359784841537,
      -0.0785520076751709,
      0.12096161395311356,
      -0.015104024671018124,
      0.02147277072072029,
      -0.002737677190452814,
      -0.011595562100410461,
      0.015052628703415394,
      -0.04205650836229324,
      0.021281801164150238,
      0.10178423672914505,
      0.028588447719812393,
      -0.0425347164273262,
      0.009426048025488853,
      0.009594620205461979,
      0.004255667794495821,
      -0.011262478306889534,
      -0.018309034407138824,
      -0.00878711324185133,
      -0.006583940703421831,
      -0.026054147630929947,
      -0.03266429156064987,
      0.0199081189930439,
      -0.013143060728907585,
      0.027473824098706245,
      0.007234749849885702,
      0.05485478788614273,
      0.045394010841846466,
      -0.04938511550426483,
      0.006569290533661842,
      -0.045577071607112885,
      -0.004524116404354572,
      -0.0036420614924281836,
      0.01658637635409832,
      -0.008655678480863571,
      0.03748927637934685,
      -0.014666277915239334,
      0.0003904082113876939,
      -0.038134828209877014,
      -0.017957104369997978,
      0.0035702178720384836,
      -0.007317740470170975,
      -0.005174424033612013,
      -0.007243764121085405,
      0.009952634572982788,
      -0.04133867472410202,
      -0.04137615114450455,
      0.004204579163342714,
      -0.02786026895046234,
      -0.012528756633400917,
      0.014725158922374249,
      0.004489375278353691,
      -0.025528043508529663,
      0.09220773726701736,
      0.06568364053964615,
      -0.06263978779315948,
      0.1650082767009735,
      0.07984508574008942,
      -0.06753005087375641,
      -0.016250310465693474,
      0.04887056350708008,
      0.0017633322859182954,
      -0.05552452430129051,
      -0.038638338446617126,
      0.0710965171456337,
      -0.0062277778051793575,
      -0.09142637252807617,
      0.03630134463310242,
      -0.09664939343929291,
      0.0231946874409914,
      0.12487915903329849,
      -0.10307245701551437,
      -0.03169260546565056,
      -0.04499760642647743,
      0.020166685804724693,
      0.07214900106191635,
      -0.01982337236404419,
      0.130775585770607,
      0.06723885238170624,
      0.035407934337854385,
      -0.11068796366453171,
      -0.03503987938165665,
      -0.10620341449975967,
      0.028862496837973595,
      -0.013473974540829659,
      -0.018116939812898636,
      0.016389857977628708,
      0.024593982845544815,
      0.1333901733160019,
      0.09194381535053253,
      0.011307992972433567,
      -0.015510858036577702,
      0.013352211564779282,
      0.05775962769985199,
      -0.010742598213255405,
      0.10718213766813278,
      0.017079753801226616,
      0.06961694359779358,
      -0.13534100353717804,
      -0.0958934798836708,
      0.0038517185021191835,
      -0.034036580473184586,
      -0.0032564199063926935,
      0.12153603881597519,
      0.03243863210082054,
      0.07881303131580353,
      -0.06892002373933792,
      0.07191271334886551,
      0.09173614531755447,
      0.00182245799805969,
      -0.07403793931007385,
      0.1196620836853981,
      -0.11532818526029587,
      0.05684349313378334,
      0.1410514861345291,
      -0.0026282223407179117,
      0.001989018637686968,
      0.009901303797960281,
      -0.0043235039338469505,
      0.0031780179124325514,
      -0.006715984083712101,
      0.003531283000484109,
      0.004076906945556402,
      0.003172464668750763,
      -0.010541215538978577,
      0.005804169457405806,
      -0.002462405012920499,
      0.005468848627060652,
      -0.03176815062761307,
      -0.0005134277162142098,
      -0.007665201090276241,
      0.0017128718318417668,
      0.0016723490552976727,
      0.004110609646886587,
      0.0040740966796875,
      0.0024024266749620438,
      0.003986462485045195,
      -0.00023563361901324242,
      -0.0005620441515929997,
      -0.0039968048222362995,
      -0.0001873830915428698,
      0.0001592781482031569,
      -0.010227483697235584,
      -0.019930697977542877,
      0.005128856748342514,
      0.008280917070806026,
      -0.0009654354653321207,
      0.0016767384950071573,
      -0.002706852974370122,
      0.003216167213395238,
      -0.0043328916653990746,
      -0.006789551116526127,
      -0.025318747386336327,
      -0.0004354641423560679,
      -0.004070668015629053,
      0.007401104085147381,
      0.007988444529473782,
      0.001889968290925026,
      0.010316125117242336,
      0.0006274250335991383,
      -0.004739360883831978,
      0.012340879999101162,
      0.001061942777596414,
      -0.008536068722605705,
      -0.0003606880782172084,
      0.004599457141011953,
      0.005705439951270819,
      0.004173989873379469,
      -0.00661786925047636,
      0.003793855430558324,
      0.0023312726989388466,
      0.009489319287240505,
      0.0007929574931040406,
      0.002774264896288514,
      0.011234884150326252,
      0.0002772756852209568,
      0.004705887753516436,
      0.002065181965008378,
      -0.00047998741501942277,
      -0.06508111953735352,
      0.026856286451220512,
      0.019624868407845497,
      0.026020100340247154,
      -0.0023228824138641357,
      -0.001524372142739594,
      0.0066946581937372684,
      -0.0025692996568977833,
      0.0028553763404488564,
      0.001182823907583952,
      0.0029925985727459192,
      -0.007365525234490633,
      0.010903541930019855,
      0.009452538564801216,
      -0.007763891946524382,
      -0.011852060444653034,
      0.004094436299055815,
      0.007629694417119026,
      0.0015720323426648974,
      -0.012237644754350185,
      0.01759622059762478,
      -2.5315968741779216e-05,
      -0.008913739584386349,
      -0.009979542344808578,
      -0.011620749719440937,
      0.001951532787643373,
      -0.006827903911471367,
      -0.008201067335903645,
      0.007690853904932737,
      0.01331571489572525,
      0.023486560210585594,
      -0.008591205812990665,
      -0.0012304282281547785,
      -0.006076904479414225,
      -0.008254101499915123,
      0.001931068254634738,
      -0.009304418228566647,
      -0.049714114516973495,
      -0.005439328961074352,
      -0.0032678365241736174,
      0.024118589237332344,
      0.019186465069651604,
      0.005040360148996115,
      0.00486679608002305,
      0.008676214143633842,
      -0.00017941750411409885,
      0.016290469095110893,
      0.0072443136014044285,
      0.01914646103978157,
      -0.019516287371516228,
      -0.022452963516116142,
      0.005222240462899208,
      -0.006225042510777712,
      -0.014602798037230968,
      0.006326411850750446,
      -0.0027594605926424265,
      -0.0011661644093692303,
      -0.005204515065997839,
      -0.0030325250700116158,
      0.0072197215631604195,
      -0.0027996147982776165,
      0.0017139128176495433,
      0.0003458395367488265,
      0.014850319363176823,
      -0.029663223773241043,
      -0.021927937865257263,
      0.009239841252565384,
      -0.030185487121343613,
      -0.014416808262467384,
      0.037858907133340836,
      0.01679985411465168,
      0.010478752665221691,
      0.0020917209330946207,
      0.03431518003344536,
      0.0006356245139613748,
      0.011106082238256931,
      -0.020642057061195374,
      -0.01770109497010708,
      -0.043345846235752106,
      0.04888097196817398,
      0.02904101274907589,
      -0.019215604290366173,
      -0.032785434275865555,
      0.002269116463139653,
      -0.019023779779672623,
      -0.01589454710483551,
      -0.009980717673897743,
      -0.022744761779904366,
      -0.009024995379149914,
      -0.008408362045884132,
      -0.005696530919522047,
      -0.010672505013644695,
      -0.011317926459014416,
      -0.0015245989197865129,
      0.005353483371436596,
      -0.0035461713559925556,
      -0.01715448498725891,
      -0.017066126689314842,
      0.00380653771571815,
      0.0023314771242439747,
      0.023298626765608788,
      0.01790805719792843,
      0.014070214703679085,
      0.03315034136176109,
      -0.03162446618080139,
      0.0012163696810603142,
      -0.006403530947864056,
      0.01302038412541151,
      0.012066702358424664,
      0.018515145406126976,
      -0.0031376422848552465,
      -0.012621710076928139,
      -0.05290022864937782,
      -0.005978761240839958,
      -0.0162039827555418,
      0.0022749914787709713,
      0.03361250460147858,
      0.042735643684864044,
      0.0032030860893428326,
      -0.0015922955935820937,
      0.025649182498455048,
      0.0397014319896698,
      0.03288690000772476,
      0.002088031265884638,
      0.009258667938411236,
      -0.0020314278081059456,
      0.003548751352354884,
      -0.027977537363767624,
      -0.02581879124045372,
      -0.002963704289868474,
      0.017710523679852486,
      0.0035576149821281433,
      0.0009081675088964403,
      -0.002633766271173954,
      0.0039030590560287237,
      0.003604979021474719,
      0.003926800098270178,
      -0.007657952141016722,
      0.005049770697951317,
      -0.008110474795103073,
      0.00019622895342763513,
      -0.0137278838083148,
      -0.0009322618134319782,
      -0.017666244879364967,
      0.004539988003671169,
      -0.000572761578951031,
      -0.0008534922963008285,
      -0.0025159595534205437,
      -0.00108805438503623,
      0.0019601124804466963,
      -0.0032064616680145264,
      0.002724608639255166,
      -0.005042389500886202,
      -0.007569670211523771,
      0.0003953017294406891,
      -0.006671350449323654,
      -0.00794044230133295,
      0.012121174484491348,
      0.01710144802927971,
      -0.004592730663716793,
      0.00011754528532037511,
      -0.004858183208853006,
      -0.0024584562052041292,
      -0.012018396519124508,
      -0.009382917545735836,
      -0.030570557340979576,
      0.0003692911413963884,
      -0.007912701927125454,
      0.01989518478512764,
      0.01418816763907671,
      0.0016825752099975944,
      0.013040539808571339,
      0.0025436144787818193,
      -0.007522327825427055,
      0.022479088976979256,
      0.0004330252995714545,
      -0.0031181685626506805,
      -0.006735870614647865,
      -0.008816491812467575,
      0.008818678557872772,
      0.006076191086322069,
      -0.004350325092673302,
      0.007208710070699453,
      -9.861651960818563e-06,
      0.01030911784619093,
      0.005322207231074572,
      0.004833251237869263,
      0.013627750799059868,
      -0.0013412728440016508,
      0.00383759755641222,
      0.0009608040563762188,
      0.005214595701545477,
      -0.1561914086341858,
      -0.033492930233478546,
      -0.015473446808755398,
      -0.054261431097984314,
      -0.010407881811261177,
      0.04445784166455269,
      -0.010515648871660233,
      0.03648330643773079,
      0.0003300431708339602,
      0.030390676110982895,
      0.004919662605971098,
      0.003323469776660204,
      0.0011362568475306034,
      0.020090293139219284,
      0.023139595985412598,
      0.057944461703300476,
      0.013630367815494537,
      0.008962358348071575,
      -0.05961419641971588,
      0.03358752653002739,
      -0.010456417687237263,
      0.020028410479426384,
      -0.03253531455993652,
      0.007807434536516666,
      0.014517311938107014,
      -0.02845684625208378,
      -0.05781342834234238,
      0.030482612550258636,
      -0.0023536288645118475,
      0.023409130051732063,
      0.013207257725298405,
      0.0401076078414917,
      -0.0070448643527925014,
      -2.690170003916137e-05,
      0.001852094428613782,
      -0.014979693107306957,
      0.01760988123714924,
      0.10196509212255478,
      0.017625842243433,
      0.03324402496218681,
      -0.0279488917440176,
      0.014754450879991055,
      -0.02963649109005928,
      0.03135250136256218,
      -0.036219146102666855,
      -0.015166711062192917,
      -0.012572145089507103,
      0.019230008125305176,
      -0.054107364267110825,
      -0.02382540889084339,
      -0.027919132262468338,
      0.007434919010847807,
      0.023841751739382744,
      0.03079683892428875,
      -0.01920105703175068,
      -0.001738392747938633,
      -0.004284552298486233,
      0.017253631725907326,
      0.019333314150571823,
      0.04675660282373428,
      -0.01783018559217453,
      0.004221305251121521,
      -0.011188071221113205,
      -0.0399799570441246,
      0.00432727113366127,
      0.010268591344356537,
      -0.00510341115295887,
      -0.034802865236997604,
      0.0005696761072613299,
      0.016809307038784027,
      -0.0037707677111029625,
      0.0007677674293518066,
      0.002759366063401103,
      0.00891926046460867,
      -0.0030734327156096697,
      0.00364512437954545,
      0.014511275105178356,
      0.022802427411079407,
      -0.0011145536554977298,
      -0.027824951335787773,
      0.0008062617853283882,
      -0.008806112222373486,
      0.0033139281440526247,
      0.006811228115111589,
      0.004112884867936373,
      0.006664879620075226,
      -0.012090226635336876,
      -0.047958116978406906,
      -0.007167362608015537,
      0.0008607261115685105,
      -0.001490869210101664,
      -0.010533230379223824,
      0.010317346081137657,
      0.006204650271683931,
      0.006674738135188818,
      0.0029953415505588055,
      -0.0036549640353769064,
      1.7646010746830143e-05,
      0.006856874562799931,
      0.009473487734794617,
      0.0008135501411743462,
      0.03743797913193703,
      0.005802674684673548,
      -0.011414806358516216,
      -0.019509335979819298,
      0.004509474150836468,
      0.002467338228598237,
      0.004239762667566538,
      -0.00568658160045743,
      0.003136846935376525,
      0.0009434525854885578,
      -9.612498251954094e-05,
      -0.03671274706721306,
      0.0078548239544034,
      0.017670340836048126,
      0.00369609915651381,
      0.0016309641068801284,
      0.0021768396254628897,
      0.001902119256556034,
      0.0019093817099928856,
      -0.01184032391756773,
      0.007546735927462578,
      0.005967274773865938,
      0.0019019871251657605,
      -0.001448688912205398,
      0.004726629238575697,
      0.0002476057270541787,
      -0.012969219125807285,
      0.0713387280702591,
      -0.00674047414213419,
      -0.0470050610601902,
      -0.07457674294710159,
      0.02659022994339466,
      -0.07895275205373764,
      0.06770617514848709,
      0.018168188631534576,
      -0.010064048692584038,
      -0.03444933146238327,
      0.013262762688100338,
      0.001972606871277094,
      0.03859863430261612,
      -0.11359687149524689,
      0.010731462389230728,
      0.06907026469707489,
      -0.0319659598171711,
      0.02664772793650627,
      0.0193986427038908,
      0.049346815794706345,
      -0.005646808538585901,
      0.011067897081375122,
      -0.031001321971416473,
      0.03006339818239212,
      -0.07604394853115082,
      0.024180244654417038,
      -0.0010171050671488047,
      -0.003121409798040986,
      -0.08591768890619278,
      -0.0012994854478165507,
      -0.009391666390001774,
      0.04110516607761383,
      -0.02529996633529663,
      -0.014192906208336353,
      0.02529301308095455,
      0.01666366495192051,
      -0.036358028650283813,
      0.08133865147829056,
      0.016937127336859703,
      0.023494116961956024,
      -0.04634730890393257,
      -0.012338019907474518,
      -0.003505370346829295,
      0.03467061370611191,
      -0.02553982473909855,
      -0.017390122637152672,
      -0.022423870861530304,
      0.045105356723070145,
      -0.025319520384073257,
      0.01106991246342659,
      0.041672103106975555,
      0.01704290695488453,
      -0.02982439287006855,
      0.027282513678073883,
      -0.012497806921601295,
      -0.008530495688319206,
      0.057099971920251846,
      -0.01416715793311596,
      -0.02162838913500309,
      0.02151608280837536,
      -0.019263867288827896,
      0.02671651542186737,
      -0.002895122626796365,
      -0.016839580610394478,
      -0.05236412584781647,
      0.006413185503333807,
      0.019585732370615005,
      0.020922070369124413,
      -0.004271346610039473,
      1.993451405724045e-05,
      0.003427785122767091,
      -0.0034581192303448915,
      0.0040040332823991776,
      0.0034089921973645687,
      0.0006899684085510671,
      -0.00943912286311388,
      -0.002527560107409954,
      0.00784695241600275,
      -0.011195606552064419,
      -0.00764918839558959,
      0.008783305995166302,
      0.010325092822313309,
      -0.007369214203208685,
      -0.008142863400280476,
      0.0010567153804004192,
      0.000395209644921124,
      -0.0002315239398740232,
      0.009030399844050407,
      -0.013736969791352749,
      -0.014720296487212181,
      -0.0060112071223556995,
      0.0053454674780368805,
      0.003671147394925356,
      0.00873083621263504,
      0.016084015369415283,
      -0.004103443585336208,
      -0.0015326401917263865,
      -0.00889255478978157,
      -0.007726184092462063,
      -0.008243861608207226,
      -0.012711137533187866,
      -0.02356228418648243,
      -0.00040745973819866776,
      -0.0042342240922153,
      0.025959061458706856,
      0.00872274674475193,
      -0.00024406479496974498,
      0.00519656203687191,
      0.00233136466704309,
      -0.006375670898705721,
      0.01620618812739849,
      0.003818932455033064,
      0.01380594726651907,
      -0.014035355299711227,
      -0.013440852053463459,
      0.0032894525211304426,
      0.0030861343257129192,
      -0.0010433269198983908,
      0.0049012149684131145,
      -0.003282369114458561,
      0.012738537974655628,
      0.002186241326853633,
      0.0009515272104181349,
      0.008349314332008362,
      -0.0058894711546599865,
      -0.0006824310403317213,
      -0.0009101694449782372,
      0.01715766452252865,
      -0.02569895051419735,
      0.02139025367796421,
      -0.017748482525348663,
      0.039096977561712265,
      0.007696711458265781,
      -0.007372746709734201,
      0.021116651594638824,
      0.016602952033281326,
      0.011778101325035095,
      -0.010892987251281738,
      -0.016144685447216034,
      -0.00947937648743391,
      0.004193490371108055,
      0.00022647013247478753,
      -0.00019827851792797446,
      0.021304981783032417,
      -0.009960089810192585,
      0.02952665463089943,
      -0.020716283470392227,
      -0.05619790032505989,
      0.000919112644623965,
      0.011353905312716961,
      0.013112588785588741,
      0.03071758523583412,
      -0.033883120864629745,
      -0.001335581298917532,
      -0.02525327354669571,
      -0.01021342072635889,
      0.006290914956480265,
      0.006376954726874828,
      0.0067656030878424644,
      0.017624806612730026,
      0.0006776652298867702,
      0.00714917341247201,
      0.014831758104264736,
      -0.026354189962148666,
      -0.010735255666077137,
      0.023623716086149216,
      -0.003477266523987055,
      0.008262034505605698,
      0.027507463470101357,
      -0.00902276486158371,
      -0.0151261817663908,
      0.008084109053015709,
      -0.013514549471437931,
      -0.011537124402821064,
      -0.012811883352696896,
      0.020289581269025803,
      0.04209103062748909,
      -0.015898605808615685,
      0.03696448355913162,
      0.005107949487864971,
      -0.01259682048112154,
      0.018591508269309998,
      -0.0017200368456542492,
      -0.012597604654729366,
      -0.060230039060115814,
      -0.019056100398302078,
      0.0013804786140099168,
      0.007329034619033337,
      -0.027983408421278,
      -0.014653942547738552,
      -0.008292080834507942,
      0.03271856531500816,
      -0.01674140803515911,
      0.03102077543735504,
      -0.004319616127759218,
      -0.037968363612890244,
      0.004177759401500225,
      0.016561733558773994,
      0.0036323126405477524,
      0.004866611212491989,
      0.004741328302770853,
      0.012341031804680824,
      -0.006082308012992144,
      0.00637321500107646,
      0.027816202491521835,
      0.031827669590711594,
      -0.008466461673378944,
      -0.02485683560371399,
      0.0015437313122674823,
      -0.02306974306702614,
      -0.0013736315304413438,
      0.005375848151743412,
      0.025398079305887222,
      0.00020246364874765277,
      -0.012042173184454441,
      -0.07561188191175461,
      -0.025779079645872116,
      0.01685020886361599,
      -0.007125982083380222,
      -0.004162895027548075,
      0.010556096211075783,
      0.00551412720233202,
      0.01635080762207508,
      -0.0007030399283394217,
      -0.002115254756063223,
      0.0005533494986593723,
      0.0005002790712751448,
      0.00807120930403471,
      0.01062915101647377,
      0.03575393930077553,
      0.005782803986221552,
      -0.010615972802042961,
      -0.021501099690794945,
      -5.086881355964579e-05,
      -0.00011518378596520051,
      0.010519745759665966,
      -0.004528182093054056,
      0.0032944881822913885,
      0.0016390196979045868,
      0.0027470109052956104,
      -0.03513005003333092,
      0.0018649493576958776,
      0.02669890597462654,
      0.007575700990855694,
      -0.005684227682650089,
      -0.007275378797203302,
      0.001748028676956892,
      0.0034792812075465918,
      -0.003980032633990049,
      0.01158891897648573,
      0.0035523399710655212,
      0.0037091351114213467,
      -0.007163917180150747,
      -0.004253048449754715,
      0.0009519766317680478,
      -0.015111919492483139,
      -0.1201055571436882,
      0.1273716539144516,
      -0.008214874193072319,
      -0.04066561907529831,
      0.06293869018554688,
      0.16424694657325745,
      -0.054335691034793854,
      -0.12230496108531952,
      0.036304011940956116,
      0.18617062270641327,
      -0.0035270079970359802,
      -0.08730927109718323,
      -0.01434246078133583,
      0.19901062548160553,
      -0.07527751475572586,
      -0.24538786709308624,
      -0.04841551557183266,
      -0.08114941418170929,
      -0.11798778176307678,
      -0.10467124730348587,
      -0.004050145391374826,
      0.019395092502236366,
      0.0770445391535759,
      -0.30706143379211426,
      -0.08840519934892654,
      -0.13935880362987518,
      0.11344310641288757,
      -0.12073057144880295,
      0.1634811908006668,
      -0.0023170639760792255,
      -0.11616143584251404,
      -0.10882265865802765,
      -0.00534051563590765,
      0.015100011602044106,
      -0.006233482621610165,
      0.1158444881439209,
      0.1599259078502655,
      0.3475949764251709,
      -0.12314607203006744,
      -0.04023515805602074,
      -0.04566563665866852,
      -0.08091363310813904,
      0.025074422359466553,
      -0.14105862379074097,
      -0.09032003581523895,
      0.18219031393527985,
      -0.0753621906042099,
      0.02182350680232048,
      0.0412675105035305,
      -0.08145032078027725,
      -0.10807817429304123,
      -0.09840144217014313,
      -0.05087084323167801,
      0.05341186746954918,
      0.12429703772068024,
      0.13424551486968994,
      0.04075324535369873,
      0.05950355529785156,
      0.1171327754855156,
      -0.0063376035541296005,
      -0.06992689520120621,
      -0.10659674555063248,
      0.031439777463674545,
      0.1703868806362152,
      -0.12374816089868546,
      -0.03679446130990982,
      0.012904823757708073,
      -0.048224784433841705,
      -0.009289147332310677,
      0.0506758913397789,
      -0.005761501379311085,
      0.025152314454317093,
      0.005666240584105253,
      0.0030635204166173935,
      0.02028304524719715,
      -0.0017616292461752892,
      0.004458121955394745,
      0.03997195139527321,
      0.03348051384091377,
      0.004917372018098831,
      0.017227191478013992,
      -0.011765694245696068,
      -0.03537888452410698,
      0.039822228252887726,
      -0.019217586144804955,
      0.008893418125808239,
      -0.030721532180905342,
      0.01288088783621788,
      0.00951168593019247,
      -0.027156256139278412,
      -0.03620980307459831,
      0.014185457490384579,
      0.017293665558099747,
      0.03590948134660721,
      0.019352277740836143,
      0.030867382884025574,
      -0.015449573285877705,
      -0.00975306797772646,
      -0.006634163204580545,
      -0.00667472742497921,
      -0.001986510818824172,
      0.06439889967441559,
      0.004222316667437553,
      0.01361963339149952,
      -0.04090459272265434,
      0.019461655989289284,
      -0.015962911769747734,
      0.026127981022000313,
      -0.023225080221891403,
      -0.015111291781067848,
      0.01768735982477665,
      -0.0017506369622424245,
      -0.0603032186627388,
      -0.027860494330525398,
      -0.03994864597916603,
      0.010284281335771084,
      0.02647368051111698,
      0.007609058637171984,
      -0.009139055386185646,
      -0.0005404471303336322,
      0.017308391630649567,
      0.017665795981884003,
      0.020333459600806236,
      0.04091095179319382,
      -0.0007276007090695202,
      0.010985675267875195,
      -0.008544550277292728,
      -0.0330427810549736,
      -0.06203794106841087,
      0.02145901322364807,
      0.012970877811312675,
      0.030469322577118874,
      0.0017323015490546823,
      -0.0067108506336808205,
      0.006150330416858196,
      0.00046162272337824106,
      -8.83724496816285e-05,
      -0.000894676661118865,
      0.0024194279685616493,
      -0.007025010418146849,
      0.00845326017588377,
      0.00989479012787342,
      -0.002036940772086382,
      0.005015431437641382,
      0.0002497218956705183,
      0.00843674037605524,
      -0.0006251136655919254,
      -0.00755313690751791,
      0.016654031351208687,
      -0.00017546753224451095,
      -0.006687904708087444,
      0.0008736983290873468,
      -0.010820578783750534,
      0.001365088508464396,
      -0.007312980480492115,
      -0.004049004055559635,
      0.007087907753884792,
      0.006138641387224197,
      0.016691578552126884,
      -0.003979943692684174,
      0.0015483868774026632,
      -0.0028825518675148487,
      -0.009229134768247604,
      -0.0002327278780285269,
      -0.011358890682458878,
      -0.06335987895727158,
      -0.0034563725348562002,
      0.0014893566258251667,
      0.024547727778553963,
      0.014028840698301792,
      0.003718314226716757,
      0.004715931136161089,
      0.0075070662423968315,
      -0.0019349704962223768,
      0.008521699346601963,
      0.013726111501455307,
      0.025534605607390404,
      -0.01719185896217823,
      -0.022871866822242737,
      0.004758372902870178,
      -0.00814081635326147,
      -0.013109720312058926,
      0.0025165483821183443,
      -0.0030338228680193424,
      0.0007493269513361156,
      -0.0050584678538143635,
      -0.008296008221805096,
      0.007658414077013731,
      -0.003753606928512454,
      0.001753243152052164,
      -0.0009664793615229428,
      0.015576408244669437,
      -0.021016856655478477,
      0.030444249510765076,
      -0.004802630748599768,
      -0.035205475986003876,
      0.0040083834901452065,
      0.0180294681340456,
      0.007184139918535948,
      0.004545651841908693,
      0.007060523144900799,
      0.01036419440060854,
      -0.00974425021559,
      0.008657402358949184,
      0.024798134341835976,
      0.028222741559147835,
      -0.012887869961559772,
      -0.013778410851955414,
      0.005424719303846359,
      -0.019447889178991318,
      -0.0045951176434755325,
      0.010095720179378986,
      0.0216380525380373,
      0.006358166225254536,
      -0.016044199466705322,
      -0.07249977439641953,
      -0.02697732485830784,
      0.012665185146033764,
      -0.008826889097690582,
      -0.011474180035293102,
      0.011844788677990437,
      0.005531846079975367,
      0.014962654560804367,
      0.0024448391050100327,
      -0.0044321538880467415,
      -0.0018324689008295536,
      0.000589227769523859,
      0.008423169143497944,
      0.010639527812600136,
      0.03541635349392891,
      0.007674213498830795,
      -0.006935921031981707,
      -0.02024022303521633,
      -0.0005933584761805832,
      -0.0004828906094189733,
      0.008787455968558788,
      -0.008253726176917553,
      0.004012518562376499,
      -0.0016925560776144266,
      0.00444570928812027,
      -0.04097149521112442,
      0.004990922287106514,
      0.027500953525304794,
      0.005404260475188494,
      -0.003299935022369027,
      -0.003860277822241187,
      0.0008310144185088575,
      0.003785052103921771,
      -0.006760483141988516,
      0.013565108180046082,
      0.0067034694366157055,
      0.0024936655536293983,
      -0.007496614940464497,
      0.001782866776920855,
      0.00032791512785479426,
      -0.017515670508146286,
      0.09260915964841843,
      0.08290332555770874,
      -0.0858786404132843,
      0.0541815385222435,
      0.03743061050772667,
      -0.04081457853317261,
      0.02240585722029209,
      -0.006122693885117769,
      -0.019794153049588203,
      -0.003992939833551645,
      -0.0531199611723423,
      0.008629731833934784,
      0.017240917310118675,
      -0.009588710963726044,
      -0.014261468313634396,
      0.09677494317293167,
      -0.06080638989806175,
      0.07498124986886978,
      0.023194171488285065,
      -0.05853740870952606,
      0.024056151509284973,
      0.021757179871201515,
      0.03723673149943352,
      0.046453386545181274,
      -0.051104236394166946,
      0.010281717404723167,
      0.005729650147259235,
      -0.06520067900419235,
      -0.006955871358513832,
      -0.03446277603507042,
      -0.04341839626431465,
      0.035364869982004166,
      -0.012926778756082058,
      0.009854404255747795,
      0.015391270630061626,
      0.012164931744337082,
      -0.010127630084753036,
      -0.005603213794529438,
      0.00817166455090046,
      0.016685670241713524,
      0.06371655315160751,
      -0.08811181038618088,
      0.0015008978080004454,
      -0.03592197969555855,
      -0.0416657030582428,
      0.015236211009323597,
      -0.036292098462581635,
      0.04711799696087837,
      0.09210018068552017,
      0.031256161630153656,
      0.13925117254257202,
      -0.02704015001654625,
      -0.08588247746229172,
      0.05542925372719765,
      -0.014525702223181725,
      -0.009279687888920307,
      -0.12833178043365479,
      -0.04438310116529465,
      -0.0764922946691513,
      -0.034316252917051315,
      -0.013072795234620571,
      -0.010162616148591042,
      -0.006496550515294075,
      0.03554156795144081,
      -0.02419459819793701,
      0.00611954415217042,
      -0.0049322363920509815,
      -0.041855424642562866,
      0.002925032516941428,
      0.02299385517835617,
      0.011335593648254871,
      0.01344852801412344,
      0.008606177754700184,
      0.015646900981664658,
      -0.0020816249307245016,
      0.01133756898343563,
      0.019110992550849915,
      0.010936547070741653,
      -0.0023978049866855145,
      0.00024554753326810896,
      0.010185105726122856,
      -0.025300702080130577,
      -0.01222655363380909,
      0.0273180790245533,
      0.004584792535752058,
      0.007483138702809811,
      -0.029596107080578804,
      -0.06620144844055176,
      -0.026836639270186424,
      0.0050218976102769375,
      -0.012407956644892693,
      -0.032975491136312485,
      -0.003878398798406124,
      0.006166878156363964,
      0.009861413389444351,
      0.0018950137309730053,
      -0.003567841835319996,
      0.00013841362670063972,
      0.009259838610887527,
      0.009333889931440353,
      0.00726189324632287,
      0.034708697348833084,
      0.01289175171405077,
      -0.0001625933509785682,
      -0.02007247880101204,
      0.004529357887804508,
      -0.0015169979305937886,
      0.016836613416671753,
      0.00023923272965475917,
      0.010252767242491245,
      -0.013474796898663044,
      -0.00012732237519230694,
      -0.06087804585695267,
      0.007031424902379513,
      0.01775296963751316,
      0.007104735355824232,
      0.011353335343301296,
      -0.0034742450807243586,
      -0.00018129139789380133,
      -8.00393354438711e-06,
      0.006275455933064222,
      0.031157808378338814,
      0.014658119529485703,
      0.012264289893209934,
      -0.000997763592749834,
      0.00975471269339323,
      0.0032556515652686357,
      -0.0319373719394207,
      -0.024544965475797653,
      -0.007931540720164776,
      0.00319466320797801,
      -0.010532829910516739,
      0.0041732219979166985,
      0.013679197058081627,
      0.0025759374257177114,
      0.011759447865188122,
      0.006345181260257959,
      0.009639354422688484,
      0.004085569176822901,
      0.002202053787186742,
      0.004003705456852913,
      -0.007856780663132668,
      0.007936934940516949,
      0.008956894278526306,
      0.005856087431311607,
      -0.009486442431807518,
      -0.014603850431740284,
      0.011281203478574753,
      0.0036103338934481144,
      0.0046036443673074245,
      -0.011782949790358543,
      -0.022559240460395813,
      -0.020272009074687958,
      0.002891656942665577,
      -0.01107062492519617,
      -0.011780926026403904,
      -0.010930835269391537,
      0.0012250912841409445,
      0.004613024182617664,
      0.00400059949606657,
      0.0042337216436862946,
      0.003267579711973667,
      0.006154688075184822,
      -0.0025305862072855234,
      0.004285323433578014,
      -0.00703304260969162,
      0.005007748492062092,
      0.004239316564053297,
      -0.004488455131649971,
      0.0077987792901694775,
      -0.0047330791130661964,
      0.017281366512179375,
      0.007462925277650356,
      0.002086161868646741,
      -0.010732385329902172,
      0.00148029625415802,
      -0.02494729310274124,
      -0.0050240810960531235,
      -0.001367933233268559,
      0.008404551073908806,
      0.007705897092819214,
      -0.0014002835378050804,
      -0.0026004055980592966,
      0.0005362292868085206,
      0.0033093031961470842,
      0.01777871698141098,
      0.00567680923268199,
      0.01673349179327488,
      -0.003019144758582115,
      0.0031479522585868835,
      0.002717707073315978,
      -0.014713629148900509,
      -0.1172114685177803,
      -0.04440886899828911,
      0.053856655955314636,
      -0.0063310652039945126,
      -0.0156366229057312,
      0.06800885498523712,
      0.052965302020311356,
      0.03235498070716858,
      0.0013478461187332869,
      0.025679385289549828,
      0.042573198676109314,
      -0.01588336005806923,
      -0.006966379005461931,
      0.007563136518001556,
      -0.057891108095645905,
      0.0891866609454155,
      0.004736959934234619,
      -0.024167099967598915,
      -0.05359456315636635,
      0.014537251554429531,
      -0.021411284804344177,
      -0.033966656774282455,
      -0.05309372767806053,
      0.053366366773843765,
      0.014635228551924229,
      -0.03847816213965416,
      -0.02783809043467045,
      0.020926794037222862,
      -0.00834643468260765,
      0.03804171830415726,
      0.02554512768983841,
      -0.02426532655954361,
      -0.027882685884833336,
      -0.03016727790236473,
      -0.019078953191637993,
      -0.005893104709684849,
      -0.004542342387139797,
      0.07846258580684662,
      0.000975334201939404,
      0.06126977503299713,
      -0.022969990968704224,
      0.022234031930565834,
      0.0013135055778548121,
      0.011316170915961266,
      0.050819650292396545,
      0.0034056436270475388,
      0.019127588719129562,
      -0.040552761405706406,
      -0.05427790433168411,
      -0.03879684954881668,
      -0.09116733074188232,
      0.002155950991436839,
      -0.003711806843057275,
      0.0035614909138530493,
      -0.0001636691449675709,
      -0.007191545329988003,
      0.04899325966835022,
      0.0469539612531662,
      -0.002903630491346121,
      0.014484051614999771,
      0.014974577352404594,
      0.007909510284662247,
      -0.0005719443433918059,
      -0.033924467861652374,
      -0.0039302329532802105,
      -0.006770620122551918,
      0.008010943420231342,
      -0.018389010801911354,
      0.002705430379137397,
      0.015901587903499603,
      0.006552483886480331,
      0.003850108478218317,
      0.0026521580293774605,
      -0.004138439893722534,
      0.011622854508459568,
      -0.004055907018482685,
      0.006821625400334597,
      -0.006213901098817587,
      -0.0010333157842978835,
      -0.008456284180283546,
      -0.003350475337356329,
      -0.0016473139403387904,
      2.799974572553765e-05,
      0.011609101668000221,
      -0.0057775177992880344,
      0.0010773064568638802,
      -0.00607322109863162,
      -0.005828219465911388,
      -0.004888514988124371,
      -0.001979629509150982,
      0.00018397250096313655,
      -0.014826114289462566,
      -0.008307833224534988,
      0.005795654375106096,
      0.0042296163737773895,
      -0.0016565213445574045,
      -0.001935083419084549,
      -0.0006782119744457304,
      0.0010394458658993244,
      -0.0002301112108398229,
      -0.006746841128915548,
      0.012820233590900898,
      -0.0018278320785611868,
      -0.0015849244082346559,
      -0.010742556303739548,
      0.008974912576377392,
      0.0027329802978783846,
      0.007382831536233425,
      0.003710833378136158,
      -0.0018959071021527052,
      0.007452801335602999,
      -0.0037293483037501574,
      -0.017642879858613014,
      -0.0033106175251305103,
      -0.005912079010158777,
      0.004418267402797937,
      0.003927747253328562,
      -0.004398929886519909,
      0.002716943621635437,
      0.00029765849467366934,
      0.013337929733097553,
      0.004984812345355749,
      0.005598283372819424,
      0.006907419301569462,
      0.0021751918829977512,
      0.006212865933775902,
      0.001437132596038282,
      -0.009212702512741089,
      -0.0923071950674057,
      0.16107532382011414,
      0.02768670953810215,
      -0.09953321516513824,
      0.0462421253323555,
      0.1543625295162201,
      -0.004127533175051212,
      0.11012221872806549,
      -0.04220530763268471,
      0.011976432055234909,
      -0.02814735844731331,
      -0.1316441148519516,
      0.1813586950302124,
      0.23215210437774658,
      0.03473752364516258,
      -0.20104511082172394,
      -0.10307426005601883,
      -0.23727206885814667,
      -0.008612447418272495,
      0.0488910935819149,
      0.14565213024616241,
      -0.10351503640413284,
      -0.05941276624798775,
      -0.29524898529052734,
      -0.14332334697246552,
      0.0879395455121994,
      -0.09560400247573853,
      0.08868634700775146,
      0.13825902342796326,
      0.10620392858982086,
      0.10365749150514603,
      -0.009454461745917797,
      -0.10638595372438431,
      -0.07267753034830093,
      -0.05105138570070267,
      0.1208827868103981,
      -0.0976664125919342,
      0.540142834186554,
      0.05128207802772522,
      -0.017650678753852844,
      -0.04507044330239296,
      0.0911417230963707,
      0.012606259435415268,
      0.13256938755512238,
      0.11156947165727615,
      -0.13824628293514252,
      0.17332972586154938,
      0.023806437849998474,
      -0.16003231704235077,
      -0.19167719781398773,
      0.03085591271519661,
      0.0887753814458847,
      -0.06705152243375778,
      0.030420463532209396,
      -0.015155646950006485,
      0.01342499628663063,
      -0.007365322206169367,
      0.07801252603530884,
      -0.080050989985466,
      0.11351613700389862,
      -0.1557455062866211,
      -0.1809944212436676,
      -0.07073930650949478,
      0.005657040514051914,
      -0.06068103015422821,
      0.0014152718940749764,
      0.02050035446882248,
      -0.012267221696674824,
      -0.014268145896494389,
      0.03278934583067894,
      0.03072664886713028,
      0.009580379351973534,
      0.00016285432502627373,
      0.020219122990965843,
      0.016119465231895447,
      -0.006567045580595732,
      0.0006619011983275414,
      -0.0010203418787568808,
      -0.051623325794935226,
      0.04738947004079819,
      -0.0021112808026373386,
      -0.007977296598255634,
      -0.02443854510784149,
      0.009953811764717102,
      -0.0004573129990603775,
      -0.0069449953734874725,
      -0.02472974732518196,
      0.012191573157906532,
      -0.008214487694203854,
      -0.017971687018871307,
      -0.010047419928014278,
      0.003080641617998481,
      -0.011166474781930447,
      0.023892566561698914,
      0.02693532407283783,
      -0.013012401759624481,
      -0.023637069389224052,
      -0.026310529559850693,
      -0.008632447570562363,
      0.0016854355344548821,
      -0.008038160391151905,
      0.03995095565915108,
      0.004088149406015873,
      0.032036662101745605,
      -0.005953517742455006,
      0.005140253808349371,
      0.006905815564095974,
      0.004846988711506128,
      0.02560156211256981,
      -0.0010917462641373277,
      0.019206352531909943,
      -0.020373253151774406,
      -0.03455284610390663,
      -0.01524884533137083,
      -0.029357627034187317,
      -0.0016582200769335032,
      -0.007643613498657942,
      0.01086532324552536,
      0.00233578123152256,
      -0.003092570696026087,
      0.01914076879620552,
      0.028055187314748764,
      -0.006618558429181576,
      0.006159309763461351,
      0.002746925223618746,
      0.00837642140686512,
      -0.0012862378498539329,
      -0.005783866625279188,
      -0.052217911928892136,
      0.014515828341245651,
      0.005649511702358723,
      0.04612722247838974,
      -0.010460758581757545,
      0.006004646886140108,
      -0.0005653815460391343,
      0.015843234956264496,
      -0.01411355473101139,
      0.012294343672692776,
      -0.0041129798628389835,
      -0.010987694375216961,
      -0.01193943526595831,
      0.058219458907842636,
      -0.05345878750085831,
      0.0665234625339508,
      -0.006633489392697811,
      0.012519353069365025,
      -0.032621271908283234,
      -0.033724214881658554,
      0.004619058221578598,
      -0.019452746957540512,
      0.022041719406843185,
      0.06535143405199051,
      0.01747889444231987,
      -0.03407370671629906,
      -5.9625621361192316e-05,
      0.011798393912613392,
      0.03495421260595322,
      0.005999147891998291,
      0.006136808544397354,
      -0.0011094360379502177,
      0.0014900516252964735,
      -0.017961835488677025,
      -0.028070513159036636,
      -0.005154406651854515,
      -0.01250360906124115,
      0.05668718367815018,
      0.008306208066642284,
      0.03674794360995293,
      0.024675540626049042,
      -0.03446250408887863,
      -0.002020815620198846,
      -0.026572857052087784,
      -0.007060355041176081,
      -0.0028289509937167168,
      0.01460154540836811,
      -0.0007910970016382635,
      0.016279187053442,
      -0.026204021647572517,
      -0.002452719956636429,
      -0.024663900956511497,
      -0.012414033524692059,
      0.00728938914835453,
      0.002208324149250984,
      -0.012407351285219193,
      -0.017750108614563942,
      0.0015315619530156255,
      -0.02373400144279003,
      -0.025437096133828163,
      -0.001590777188539505,
      -0.026732416823506355,
      -0.01077483780682087,
      0.031225698068737984,
      -0.02013586461544037,
      0.028619278222322464,
      -0.003853496629744768,
      -0.037547651678323746,
      0.0010923532536253333,
      0.015688380226492882,
      0.01680072583258152,
      0.005981357302516699,
      0.008097246289253235,
      0.009478154592216015,
      -0.011084434576332569,
      0.00839373841881752,
      0.021297408267855644,
      0.025104524567723274,
      -0.009576419368386269,
      -0.009288066998124123,
      0.00574346212670207,
      -0.025256458669900894,
      -0.003891292028129101,
      0.011401976458728313,
      0.02120950259268284,
      0.006887552794069052,
      -0.021792180836200714,
      -0.06815911084413528,
      -0.028736066073179245,
      0.014856421388685703,
      -0.00745738297700882,
      -0.01599201373755932,
      0.006987264845520258,
      0.004099151119589806,
      0.01032522227615118,
      0.0036155430134385824,
      -0.0029419821221381426,
      -0.00029357083258219063,
      0.0038358059246093035,
      0.011204998008906841,
      0.007403151132166386,
      0.02666357532143593,
      0.009597621858119965,
      -0.0038541476242244244,
      -0.022117815911769867,
      -0.0027897858526557684,
      0.0010842503979802132,
      0.007988976314663887,
      -0.007518292870372534,
      0.006065031047910452,
      -0.00439614849165082,
      0.003934111911803484,
      -0.03585309535264969,
      0.006031039170920849,
      0.025850696489214897,
      0.003305679652839899,
      -0.0008383389213122427,
      0.000614039832726121,
      0.00018725964764598757,
      0.0039138454012572765,
      -0.004556688480079174,
      0.018328413367271423,
      0.0074279350228607655,
      0.0015263311797752976,
      -0.0067107705399394035,
      0.003875461872667074,
      0.0004918666672892869,
      -0.02040106989443302,
      -0.04229827970266342,
      0.005528623703867197,
      0.022986629977822304,
      0.030342817306518555,
      -0.017807576805353165,
      0.0126555310562253,
      -0.02349120005965233,
      -0.0074458555318415165,
      -0.007798262406140566,
      -0.0007888124673627317,
      0.0219917930662632,
      0.007256244774907827,
      -0.0031235937494784594,
      0.0015123088378459215,
      -0.02536897175014019,
      0.013277467340230942,
      0.02008136361837387,
      -0.018524210900068283,
      -0.005382986273616552,
      -0.010543935932219028,
      -0.013525087386369705,
      -0.011900512501597404,
      0.029769234359264374,
      0.03947663679718971,
      0.01756768301129341,
      -0.020178841426968575,
      0.014604094438254833,
      -0.014348028227686882,
      0.007418927736580372,
      0.027015341445803642,
      0.033042073249816895,
      -0.00013839849270880222,
      -0.010824400931596756,
      -0.031555913388729095,
      -0.020639333873987198,
      0.006595305632799864,
      -0.024796433746814728,
      -0.014257527887821198,
      -0.016479667276144028,
      0.01950046978890896,
      -0.010162136517465115,
      -0.011326815001666546,
      0.00706519978120923,
      0.0022377101704478264,
      0.003777216887101531,
      0.008052771911025047,
      0.04629422724246979,
      -0.022237766534090042,
      -0.03712989762425423,
      -0.007412788458168507,
      -0.02681947499513626,
      0.0052688769064843655,
      -0.0040388889610767365,
      -0.013369821943342686,
      0.00201771454885602,
      -0.005891879554837942,
      0.030379733070731163,
      0.014823651872575283,
      -0.0019932189024984837,
      -0.0016676409868523479,
      0.021546080708503723,
      -0.013679858297109604,
      -0.002334883203729987,
      0.027186421677470207,
      -0.07898181676864624,
      0.0049455733969807625,
      0.009057547897100449,
      0.06049857661128044,
      -0.019480351358652115,
      -0.013902861624956131,
      -0.03226351737976074,
      -0.006506450939923525,
      -0.006715355906635523,
      0.0028180438093841076,
      0.0009720833622850478,
      0.014573834836483002,
      -0.014654298312962055,
      0.01093890331685543,
      -0.03811534494161606,
      0.030786799266934395,
      0.021358951926231384,
      -0.005697932559996843,
      -0.023396385833621025,
      -0.022323956713080406,
      0.00232868455350399,
      -0.000760186871048063,
      0.04521341621875763,
      0.02392982877790928,
      0.042719874531030655,
      -0.024396564811468124,
      0.004135963506996632,
      -0.008533444255590439,
      0.012894299812614918,
      0.016582811251282692,
      0.026431357488036156,
      0.0058661350049078465,
      -0.004076629877090454,
      -0.026629388332366943,
      -0.016983335837721825,
      0.0008273458224721253,
      -0.01441926322877407,
      -0.013585559092462063,
      -0.0033542069140821695,
      0.022920943796634674,
      0.019728779792785645,
      -0.017985261976718903,
      0.0017844218527898192,
      -0.007965145632624626,
      -0.010500737465918064,
      0.010088734328746796,
      0.026375915855169296,
      -0.005472327582538128,
      0.0012484522303566337,
      -0.013422402553260326,
      -0.02909628301858902,
      -0.007461518980562687,
      -0.005601831711828709,
      -0.0009048409992828965,
      0.003096834057942033,
      -0.004945418797433376,
      0.02004241570830345,
      0.004638115409761667,
      0.00338549492880702,
      -0.012332987040281296,
      0.008337032049894333,
      -0.0018765117274597287,
      -0.005766619462519884,
      0.039592549204826355,
      -0.023916086181998253,
      0.013354111462831497,
      -0.00474857073277235,
      -0.034569062292575836,
      0.0007072947919368744,
      0.02209039218723774,
      0.018224455416202545,
      0.009547161869704723,
      0.008831480517983437,
      0.008954992517828941,
      -0.010750660672783852,
      0.009871194139122963,
      0.01393603254109621,
      0.011003212071955204,
      -0.0025145066902041435,
      -0.003579602111130953,
      0.00823957473039627,
      -0.02445550262928009,
      -0.008077935315668583,
      0.01560390368103981,
      0.010153669863939285,
      0.015071852132678032,
      -0.023433485999703407,
      -0.06264691054821014,
      -0.022051909938454628,
      0.011226760223507881,
      -0.008118394762277603,
      -0.02440101094543934,
      0.001892893691547215,
      0.004588390700519085,
      0.0056513836607337,
      0.006831524893641472,
      -0.0020040953531861305,
      0.001929891761392355,
      0.00719614140689373,
      0.0077157942578196526,
      0.005993444472551346,
      0.02091192454099655,
      0.012087767012417316,
      -0.001988208619877696,
      -0.021680131554603577,
      0.003795505268499255,
      0.0015054859686642885,
      0.009496265091001987,
      -0.0041717891581356525,
      0.006535732187330723,
      -0.010136102326214314,
      0.005440272390842438,
      -0.037881698459386826,
      0.008980768732726574,
      0.012694795615971088,
      0.003869245294481516,
      0.003739724401384592,
      0.0038341055624186993,
      -0.0009007269982248545,
      0.003840392455458641,
      -0.0073137725703418255,
      0.0203179270029068,
      0.014367570169270039,
      0.004227837081998587,
      -0.004140528384596109,
      0.008284691721200943,
      0.0011910563334822655,
      -0.02028188481926918,
      -0.0555589497089386,
      -0.00289392052218318,
      0.03956659510731697,
      0.008374832570552826,
      -0.0021424738224595785,
      0.010492266155779362,
      0.02078835479915142,
      0.013780994340777397,
      0.0028183027170598507,
      -0.009999776259064674,
      0.023732291534543037,
      -0.017991533502936363,
      0.009987270459532738,
      -0.0038999917451292276,
      -0.01921646110713482,
      0.029266351833939552,
      0.0010733659146353602,
      -0.004000387154519558,
      -0.008993969298899174,
      0.004871210549026728,
      0.0034890063107013702,
      -0.01307640690356493,
      -0.026866141706705093,
      0.026431847363710403,
      0.00879995059221983,
      -0.012684205546975136,
      -0.008912420831620693,
      0.0037084633950144053,
      -0.006569037679582834,
      0.024431975558400154,
      0.017089590430259705,
      -0.014954759739339352,
      -0.012048562988638878,
      -0.01597086526453495,
      -0.01500342320650816,
      -0.006217660382390022,
      -0.01928563602268696,
      0.005539079196751118,
      -0.008117660880088806,
      0.020976651459932327,
      0.006503606680780649,
      0.02346036769449711,
      0.00902924407273531,
      0.005408773198723793,
      0.025983264669775963,
      -0.009548806585371494,
      0.02468102052807808,
      -0.01477346383035183,
      -0.015562023967504501,
      -0.025223007425665855,
      -0.049095939844846725,
      0.00021958842989988625,
      0.005109027028083801,
      -0.016863564029335976,
      0.0037894577253609896,
      -0.002770171733573079,
      0.022676711902022362,
      0.008582464419305325,
      0.001968175172805786,
      0.011195532977581024,
      0.005477236118167639,
      0.0054753366857767105,
      -0.0025066675152629614,
      -0.014041018672287464,
      -0.04294032230973244,
      -0.009457984939217567,
      0.013011792674660683,
      -0.033699095249176025,
      -0.004790361039340496,
      0.025671355426311493,
      0.0012903803726658225,
      0.002288026502355933,
      0.006650356110185385,
      0.029137270525097847,
      0.007785302586853504,
      -0.007397886365652084,
      0.0014880376402288675,
      0.08401839435100555,
      -0.01339001301676035,
      -0.03298739716410637,
      0.011902271769940853,
      -0.04319797083735466,
      -0.02640547975897789,
      -0.029696917161345482,
      0.002258514752611518,
      0.0033981981687247753,
      -0.012857918627560139,
      -0.05193417891860008,
      0.020464729517698288,
      0.011106330901384354,
      -0.021562485024333,
      -0.01906520314514637,
      0.06440775841474533,
      0.04211589694023132,
      0.03436871990561485,
      -0.014986811205744743,
      -0.0181096401065588,
      -0.003896026173606515,
      0.0033760718069970608,
      -0.011816704645752907,
      0.010827498510479927,
      0.1318480670452118,
      -0.00956045649945736,
      0.004379946738481522,
      -0.01640348508954048,
      0.015982557088136673,
      0.001881644711829722,
      0.007881874218583107,
      0.0006848091725260019,
      -0.0004980132216587663,
      0.011772165074944496,
      -0.01843859627842903,
      -0.022317426279187202,
      -0.009976346045732498,
      -0.033501897007226944,
      0.011342487297952175,
      -0.018218019977211952,
      -0.01210433803498745,
      0.0033471069764345884,
      -0.0005935414810664952,
      -0.029961612075567245,
      0.011213183403015137,
      0.019601529464125633,
      0.007551979273557663,
      -0.010352776385843754,
      -0.011654011905193329,
      -0.005135600455105305,
      -0.006146599072962999,
      0.12751147150993347,
      -0.06498237699270248,
      -0.0010142970131710172,
      0.04894990473985672,
      0.0013842235784977674,
      -0.029954053461551666,
      -0.015321572311222553,
      -0.06937667727470398,
      -0.039923045784235,
      -0.05043395236134529,
      0.009953172877430916,
      0.03443188965320587,
      -0.06369319558143616,
      -0.28093263506889343,
      0.02571682259440422,
      -0.004736655857414007,
      -0.0020015777554363012,
      -0.06237668916583061,
      0.06251635402441025,
      0.027436386793851852,
      -0.005117181688547134,
      -0.03183896467089653,
      0.013439703732728958,
      0.020960096269845963,
      0.08352439850568771,
      0.04177837818861008,
      0.11371386051177979,
      0.15911424160003662,
      -0.17081518471240997,
      -0.10670149326324463,
      -0.10291270166635513,
      -0.09538346529006958,
      0.05592471361160278,
      0.05006737634539604,
      0.006905621383339167,
      0.02342996373772621,
      0.01623886078596115,
      -0.23985111713409424,
      0.02952568419277668,
      -0.03222552314400673,
      0.03460950031876564,
      0.020229317247867584,
      0.04459576681256294,
      -0.03691850230097771,
      0.03740115091204643,
      0.0441971980035305,
      -0.018972579389810562,
      0.03399158641695976,
      0.0630698874592781,
      0.08027536422014236,
      -0.014951464720070362,
      -0.021431149914860725,
      0.039648860692977905,
      0.0004969181027263403,
      0.033981554210186005,
      0.03758648410439491,
      0.11710269749164581,
      -0.04228143021464348,
      -0.005926439072936773,
      -0.0564517006278038,
      0.11185352504253387,
      0.02509920299053192,
      0.041800953447818756,
      -0.05201137065887451,
      -0.04804310202598572,
      0.01745721511542797,
      0.0035924119874835014,
      0.029701391234993935,
      0.007175473030656576,
      -0.01694326475262642,
      0.008477000519633293,
      0.00399944419041276,
      -0.0033567198552191257,
      -0.0060143424198031425,
      0.0023444402031600475,
      -0.006298409309238195,
      0.008176260627806187,
      -0.003019200172275305,
      0.002981056459248066,
      0.02700655162334442,
      -0.005333940964192152,
      0.012792740017175674,
      0.0014345399104058743,
      0.0008289685938507318,
      0.014835037291049957,
      -0.0010060624917969108,
      -0.002791455015540123,
      0.015296775847673416,
      -0.011592603288590908,
      0.002480890369042754,
      -0.004325904417783022,
      -0.002787752076983452,
      -0.004029433708637953,
      -0.005981202237308025,
      0.002916198456659913,
      -0.0010944040259346366,
      0.0060669067315757275,
      0.0024525995831936598,
      -0.010568507947027683,
      0.000981922959908843,
      -0.014009040780365467,
      -0.07039141654968262,
      0.0013002443592995405,
      0.007054766174405813,
      0.026174215599894524,
      0.0037688803859055042,
      0.0031723433639854193,
      0.0027528146747499704,
      0.004423823207616806,
      -0.0036507246550172567,
      0.0004254866507835686,
      0.018749646842479706,
      0.028597956523299217,
      -0.011224014684557915,
      -0.015243221074342728,
      0.002266442636027932,
      -0.01234525628387928,
      -0.008451741188764572,
      -0.0013304000021889806,
      -0.002298599574714899,
      0.0038595821242779493,
      -0.003009383101016283,
      -0.015491951256990433,
      0.0071279858238995075,
      -0.004309088457375765,
      0.0017425788100808859,
      -0.0014472673647105694,
      0.013964233919978142,
      -0.10443688184022903,
      -0.02142014540731907,
      0.0033055911771953106,
      -0.0089552728459239,
      -0.005307389888912439,
      0.03644614294171333,
      -0.026482967659831047,
      0.012661037966609001,
      -0.008569938130676746,
      0.01896904595196247,
      0.01548218447715044,
      0.0033551615197211504,
      -0.003447935450822115,
      0.011207569390535355,
      0.018408779054880142,
      0.03362617641687393,
      0.011534737423062325,
      0.009534834884107113,
      -0.03392690420150757,
      0.0024873146321624517,
      -0.0028533427976071835,
      -0.0135803846642375,
      0.00689700385555625,
      0.021827200427651405,
      -0.007453542668372393,
      -0.010621965862810612,
      -0.020155368372797966,
      0.023990508168935776,
      0.005364685785025358,
      0.009277552366256714,
      0.010705281049013138,
      0.021110281348228455,
      -0.002364782150834799,
      -0.006353823933750391,
      -0.006845426745712757,
      -0.004786103498190641,
      0.02135046198964119,
      -0.0406891368329525,
      0.007324283942580223,
      0.022954370826482773,
      0.002153581939637661,
      0.012062415480613708,
      -0.014798680320382118,
      0.02039702981710434,
      -0.00420169485732913,
      0.004260261543095112,
      0.011900817044079304,
      0.012041912414133549,
      -0.01794378273189068,
      -0.03919320926070213,
      -0.04296060651540756,
      0.008771381340920925,
      0.007353630382567644,
      0.022606827318668365,
      -0.003051366424188018,
      -0.0020359766203910112,
      0.002142778830602765,
      0.00983227975666523,
      0.0028238799422979355,
      0.020040806382894516,
      0.004319484811276197,
      -0.007910669781267643,
      -0.0052880276925861835,
      -0.0028705731965601444,
      -0.0577702559530735,
      0.024527570232748985,
      0.020056985318660736,
      0.02621520683169365,
      -0.006715341005474329,
      -0.004052496049553156,
      0.008156509138643742,
      -0.003724397625774145,
      0.002859205938875675,
      0.0013676348607987165,
      0.002975217066705227,
      -0.006584379356354475,
      0.0054512061178684235,
      0.006193668581545353,
      -0.014411094598472118,
      -0.009801543317735195,
      0.006006636191159487,
      0.008995301090180874,
      -0.0008159332792274654,
      -0.010672326199710369,
      0.012351831421256065,
      -0.0013284592423588037,
      -0.00955485925078392,
      -0.0028184193652123213,
      -0.010289295576512814,
      -0.004259838256984949,
      -0.0059320260770618916,
      -0.002039010403677821,
      0.005956307519227266,
      0.014627586118876934,
      0.023355679586529732,
      -0.010325702838599682,
      -0.002733921632170677,
      -0.00856738444417715,
      -0.009299170225858688,
      0.0006018839194439352,
      -0.012591492384672165,
      -0.04212864860892296,
      -0.005433935206383467,
      -0.0021962339524179697,
      0.026215925812721252,
      0.014070305973291397,
      0.004406117368489504,
      0.0030224197544157505,
      0.010969474911689758,
      -0.0006389019545167685,
      0.017237812280654907,
      0.002877776511013508,
      0.016209347173571587,
      -0.016034143045544624,
      -0.018349673599004745,
      0.0034633008763194084,
      -0.005887992214411497,
      -0.008794007822871208,
      0.006407757289707661,
      -0.0029345436487346888,
      0.0057786027900874615,
      -0.001332331681624055,
      -0.002422348363325,
      0.006003662012517452,
      -0.0025953161530196667,
      0.0028785548638552427,
      0.0005149584612809122,
      0.013280358165502548,
      -0.03529813140630722,
      -0.0034514805302023888,
      0.019989676773548126,
      0.003631322644650936,
      -0.0023088576272130013,
      -0.0037256977520883083,
      0.007166746072471142,
      -0.00037828402128070593,
      0.005317134317010641,
      -0.0027703805826604366,
      0.0027769270818680525,
      -0.006566267926245928,
      -0.0026307248044759035,
      -0.016731828451156616,
      -0.0007182116969488561,
      -0.025073116645216942,
      0.012183668091893196,
      -0.0017877275822684169,
      -0.002623127307742834,
      -0.006746725179255009,
      -0.002607730682939291,
      0.002606362337246537,
      -0.007094143889844418,
      0.003088692668825388,
      -0.009744384326040745,
      -0.008843759074807167,
      -9.339437383459881e-05,
      -0.0068415985442698,
      -0.00957032386213541,
      0.014074286445975304,
      0.02003553882241249,
      -0.0044185402803123,
      -0.0034541271161288023,
      -0.009083596058189869,
      0.0005377221968956292,
      -0.012216692790389061,
      -0.008114556781947613,
      -0.019274834543466568,
      0.0012571653351187706,
      -0.009009490720927715,
      0.015073809772729874,
      0.016997141763567924,
      0.0004038533952552825,
      0.014790449291467667,
      0.002252553589642048,
      -0.006917515303939581,
      0.025196397677063942,
      -0.001349552534520626,
      -0.004893912468105555,
      -0.009004533290863037,
      -0.009066697210073471,
      0.01022651232779026,
      0.013081878423690796,
      -0.0018181963823735714,
      0.009970568120479584,
      -0.0015503059839829803,
      0.009988649748265743,
      0.005487540271133184,
      0.012037888169288635,
      0.01464895810931921,
      -0.002434083493426442,
      0.0038372355047613382,
      0.0013409071834757924,
      0.010211687535047531,
      -0.011903793551027775,
      0.0005175553960725665,
      0.0022187791764736176,
      -0.0100419782102108,
      0.0034022931940853596,
      0.00852871872484684,
      0.00598538713529706,
      0.007893932983279228,
      0.0017545243026688695,
      0.0025560224894434214,
      0.0030150485690683126,
      -0.0014209472574293613,
      0.004321042913943529,
      -0.002626321278512478,
      0.003100966801866889,
      0.00564204715192318,
      -0.0015788560267537832,
      -0.005057143978774548,
      -0.004769646562635899,
      0.011462521739304066,
      0.003526510903611779,
      0.0030517359264194965,
      -0.01113486010581255,
      -0.009645188227295876,
      -0.009694998152554035,
      -0.0005687565426342189,
      -0.004234291147440672,
      -0.006078352686017752,
      -0.005773803219199181,
      0.0005797619232907891,
      -0.0012070160591974854,
      4.2879699321929365e-05,
      0.0006308330339379609,
      0.002081038197502494,
      0.0012156134471297264,
      0.0024689114652574062,
      -0.002518195891752839,
      0.012208054773509502,
      0.003653845051303506,
      0.0030375344213098288,
      -0.006550514604896307,
      0.0013647511368617415,
      0.001031695050187409,
      0.005417570937424898,
      0.0033508166670799255,
      -0.0003381899150554091,
      -0.004983003716915846,
      0.0010696016252040863,
      -0.013676951639354229,
      -0.0032364502549171448,
      -0.0013354315888136625,
      0.0012975902063772082,
      0.0011448976583778858,
      -0.0028433525003492832,
      -0.0015193750150501728,
      0.0009990710532292724,
      0.006808554753661156,
      0.008277093060314655,
      -0.0011486064177006483,
      0.007139657158404589,
      -0.0001307674392592162,
      0.0022156029008328915,
      0.0012766366126015782,
      -0.010274084284901619,
      0.0018728574505075812,
      0.14202237129211426,
      0.012472819536924362,
      -0.0984729453921318,
      -0.06504037976264954,
      -0.15012924373149872,
      0.08442720025777817,
      -0.05378428474068642,
      0.015118694864213467,
      -0.06292684376239777,
      -0.11374931037425995,
      0.09240518510341644,
      -0.09462308883666992,
      0.27651113271713257,
      -0.09803996980190277,
      -0.30908438563346863,
      0.08051694184541702,
      -0.03791401907801628,
      -0.07258712500333786,
      0.1259106993675232,
      0.11678935587406158,
      0.07973042875528336,
      -0.08661656081676483,
      -0.12914523482322693,
      -0.01697898469865322,
      -0.026121648028492928,
      -0.03650001436471939,
      0.10249228030443192,
      0.16729409992694855,
      0.035295505076646805,
      0.14186808466911316,
      -0.10502546280622482,
      0.02916734665632248,
      -0.034411728382110596,
      -0.10494605451822281,
      -0.11281676590442657,
      -0.024273816496133804,
      0.16804033517837524,
      0.055037107318639755,
      -0.02980165369808674,
      -0.15653951466083527,
      -0.06154598295688629,
      -0.00863430742174387,
      0.014877380803227425,
      -0.0712871104478836,
      -0.14386072754859924,
      -0.043976783752441406,
      -0.13940417766571045,
      -0.17665722966194153,
      0.05404742807149887,
      -0.016817517578601837,
      -0.022050509229302406,
      -0.07406076043844223,
      -0.07803741097450256,
      0.03406519070267677,
      0.05900213494896889,
      0.09868085384368896,
      0.11514100432395935,
      -0.03469906747341156,
      0.04476324841380119,
      -0.14234498143196106,
      -0.07161194831132889,
      0.04199230298399925,
      -0.08760206401348114,
      -0.030658435076475143,
      0.020232055336236954,
      -0.01651618629693985,
      0.04883455112576485,
      0.007330682128667831,
      -0.0029985897708684206,
      0.017459595575928688,
      0.016481712460517883,
      0.00985125545412302,
      -0.0076116775162518024,
      -0.019397618249058723,
      -0.009314400143921375,
      0.0013453782303258777,
      0.009120302274823189,
      -0.00403487216681242,
      0.026418233290314674,
      -0.011011676862835884,
      0.030616354197263718,
      -0.02378986030817032,
      -0.05979396775364876,
      0.0019369589863345027,
      0.010115356184542179,
      0.016979936510324478,
      0.03975319489836693,
      -0.029335612431168556,
      -0.0018145085778087378,
      -0.026533711701631546,
      -0.018086688593029976,
      0.011387164704501629,
      0.006567179225385189,
      0.007696843706071377,
      0.01847129315137863,
      -0.001470551360398531,
      0.004502699710428715,
      0.012951850891113281,
      -0.02818557433784008,
      -0.010892345570027828,
      0.0323207825422287,
      -0.0034625057596713305,
      0.012824326753616333,
      0.02624036930501461,
      -0.013184476643800735,
      -0.015153034590184689,
      0.00485392939299345,
      -0.018008368089795113,
      -0.012517076916992664,
      -0.009220351465046406,
      0.020960113033652306,
      0.0404881127178669,
      -0.01797543838620186,
      0.037130773067474365,
      0.0024858415126800537,
      -0.012210790999233723,
      0.01873127743601799,
      -0.002483535325154662,
      -0.012279421091079712,
      -0.06146129593253136,
      -0.019831832498311996,
      -0.0031174072064459324,
      0.005716772750020027,
      -0.0268075093626976,
      -0.017930692061781883,
      -0.009090139530599117,
      0.03636239096522331,
      0.0667746439576149,
      0.06110432744026184,
      -0.06491632759571075,
      0.04197712615132332,
      0.03867970407009125,
      -0.020515553653240204,
      0.02040514163672924,
      4.816892396775074e-05,
      -0.011543049477040768,
      0.012269390746951103,
      -0.035265713930130005,
