{
  "fc1": {
    "kernel": [
      0.07213515788316727,
      -0.017863571643829346,
      0.030057311058044434,
      0.003000678261741996,
      0.08496437221765518,
      -0.04636914283037186,
      -0.07806224375963211,
      0.04562339559197426,
      0.01197576429694891,
      0.061772990971803665,
      0.01432386226952076,
      0.01812896691262722,
      0.1455775946378708,
      0.07056403160095215,
      -0.01393815502524376,
      0.042304541915655136,
      -0.11099334806203842,
      -0.005545392166823149,
      -0.024017998948693275,
      -0.06723164767026901,
      -0.022647326812148094,
      -0.023141253739595413,
      -0.06415868550539017,
      -0.029046596959233284,
      0.03261652961373329,
      -0.07368526607751846,
      -0.035831596702337265,
      -0.04477410018444061,
      0.029205230996012688,
      0.09665167331695557,
      -0.06649795919656754,
      -0.03509943187236786,
      0.028824303299188614,
      0.04367513582110405,
      -0.07926281541585922,
      0.08056429773569107,
      0.0469701774418354,
      -0.03897883743047714,
      -0.05404176935553551,
      -0.053539179265499115,
      0.04978528991341591,
      0.10626574605703354,
      0.025424068793654442,
      0.013291957788169384,
      -0.13305065035820007,
      0.0442701019346714,
      0.009631703607738018,
      -0.10280356556177139,
      -0.149815171957016,
      0.015015524812042713,
      0.11293719708919525,
      -0.03428124263882637,
      0.009946426376700401,
      0.1149996742606163,
      0.14047445356845856,
      -0.07981275767087936,
      0.039985671639442444,
      -0.05169231817126274,
      0.013645129278302193,
      0.041840773075819016,
      0.004090237896889448,
      0.0613677091896534,
      -0.13518328964710236,
      -0.09054316580295563,
      0.2529244124889374,
      -0.3503797650337219,
      0.5527204871177673,
      -0.163686603307724,
      0.24788175523281097,
      -0.48651108145713806,
      0.16282398998737335,
      0.12020011991262436,
      -0.08127416670322418,
      0.18770615756511688,
      -0.12558667361736298,
      -0.004221683368086815,
      0.10899422317743301,
      0.18178367614746094,
      -0.24951069056987762,
      0.1599770039319992,
      -0.4159887731075287,
      0.12928254902362823,
      -0.2549629807472229,
      0.08636361360549927,
      -0.3492143452167511,
      -0.2469671070575714,
      -0.24561524391174316,
      -0.13929565250873566,
      0.06610525399446487,
      0.0750165656208992,
      -0.4099576771259308,
      0.16031360626220703,
      0.22748954594135284,
      0.22487935423851013,
      -0.4178102910518646,
      -0.15752747654914856,
      0.11905898153781891,
      -0.15544481575489044,
      0.4026744067668915,
      0.19646330177783966,
      0.12891033291816711,
      -0.42988529801368713,
      0.0705176293849945,
      -0.09453905373811722,
      -0.04184851795434952,
      0.16100502014160156,
      -0.054934196174144745,
      0.013987945392727852,
      -0.12513349950313568,
      0.13612200319766998,
      -0.1191808208823204,
      -0.11089513450860977,
      -0.2099420428276062,
      0.1153641790151596,
      0.07352112978696823,
      0.05409662798047066,
      -0.16582447290420532,
      0.06802176684141159,
      0.10500120371580124,
      -0.10596359521150589,
      0.09817104041576385,
      0.05905681848526001,
      -0.2081541121006012,
      0.051099520176649094,
      0.11597514897584915,
      0.19179858267307281,
      -0.21639038622379303,
      -0.12270481884479523,
      0.033219944685697556,
      0.07468831539154053,
      0.1382972151041031,
      -0.07945714145898819,
      0.03897145390510559,
      0.11033280193805695,
      0.04314412549138069,
      -0.2159063220024109,
      0.007710613775998354,
      -0.013582456856966019,
      0.027214201167225838,
      -0.030599117279052734,
      -0.1214919164776802,
      0.041696950793266296,
      0.07096005231142044,
      -0.0749681144952774,
      -0.007609620224684477,
      -0.06525677442550659,
      -0.09112418442964554,
      0.0470147542655468,
      0.1047995537519455,
      -0.09304042905569077,
      -0.09985322505235672,
      0.01494100783020258,
      0.006855151616036892,
      0.04049021005630493,
      0.11217173933982849,
      -0.017701178789138794,
      -0.06634078919887543,
      0.022564059123396873,
      0.023254308849573135,
      0.018605707213282585
    ],
    "kernelShape": [
      5,
      32
    ],
    "bias": [
      -0.06932788342237473,
      -0.14983519911766052,
      -0.27993297576904297,
      0.1458081156015396,
      -0.08035711199045181,
      -0.22180309891700745,
      -0.08774390816688538,
      0.4351770281791687,
      -0.014821126125752926,
      0.03448976203799248,
      -0.054218586534261703,
      0.05797038599848747,
      0.22545969486236572,
      -0.08399813622236252,
      -0.1426807940006256,
      0.14857439696788788,
      0.027337759733200073,
      0.13990503549575806,
      0.18210449814796448,
      -0.09528762847185135,
      -0.21130357682704926,
      0.18585100769996643,
      0.20844332873821259,
      -0.0292185228317976,
      -0.013015500269830227,
      -0.08192449808120728,
      -0.22605180740356445,
      0.03853640332818031,
      0.1432425081729889,
      -0.04783089458942413,
      -0.04685289040207863,
      -0.03670874238014221
    ],
    "biasShape": [
      32
    ]
  },
  "hidden": {
    "kernel": [
      -0.08781682699918747,
      -0.024041861295700073,
      0.037886690348386765,
      -0.07314614951610565,
      0.012255093082785606,
      0.011592132039368153,
      0.04558130353689194,
      0.03379073739051819,
      0.02691054157912731,
      0.010575925000011921,
      0.0263571348041296,
      -0.05246690288186073,
      0.022032568231225014,
      0.04567856341600418,
      -0.023557821288704872,
      0.03464547544717789,
      0.016795741394162178,
      -0.002522534690797329,
      -0.00593950180336833,
      -0.008164850994944572,
      0.024959588423371315,
      0.027036918327212334,
      -0.08685389161109924,
      0.04138798639178276,
      0.027292637154459953,
      -0.07524771243333817,
      0.024777958169579506,
      0.020935991778969765,
      0.019734090194106102,
      -0.0037868167273700237,
      -0.0554942861199379,
      -0.01118847168982029,
      -0.10722803324460983,
      0.010838125832378864,
      0.02700868435204029,
      -0.0719052106142044,
      0.04374584183096886,
      -0.020094387233257294,
      0.03328971564769745,
      0.04134925827383995,
      0.0364241823554039,
      0.051411695778369904,
      0.05085502192378044,
      -0.05006161332130432,
      0.0076668234542012215,
      0.02360663376748562,
      -0.05564276874065399,
      0.06598732620477676,
      0.04636220633983612,
      -0.002015463076531887,
      -0.013505566865205765,
      0.062493059784173965,
      0.03234369680285454,
      0.01809372380375862,
      -0.11200003325939178,
      0.06002688407897949,
      -0.0033907564356923103,
      -0.12764373421669006,
      0.04704170674085617,
      0.0012176352320238948,
      0.011579901911318302,
      0.041986338794231415,
      -0.1213533878326416,
      -0.02848767675459385,
      -0.2518170177936554,
      -0.020862529054284096,
      0.06861668825149536,
      -0.05081615969538689,
      0.026173841208219528,
      0.14370280504226685,
      0.10739614814519882,
      0.19678933918476105,
      0.00876173097640276,
      -0.1096433475613594,
      0.028800534084439278,
      -0.0886574387550354,
      0.02841549552977085,
      0.22176823019981384,
      -0.053817540407180786,
      0.10778017342090607,
      -0.04004887118935585,
      -0.09772536903619766,
      -0.1516675502061844,
      -0.10435137152671814,
      0.012706752866506577,
      0.13000017404556274,
      -0.10412760078907013,
      0.0630146786570549,
      0.2230580896139145,
      -0.36266016960144043,
      0.02873848006129265,
      0.02604745700955391,
      0.02180054411292076,
      -0.11816710233688354,
      -0.09593374282121658,
      -0.1795787364244461,
      0.04131903871893883,
      0.02674412727355957,
      -0.034449536353349686,
      0.027219530194997787,
      -0.020980212837457657,
      -0.004101979546248913,
      -0.03657091408967972,
      -0.008569953963160515,
      -0.07075029611587524,
      -0.07111857831478119,
      -0.05805342644453049,
      0.08640937507152557,
      -0.011966505087912083,
      -0.0021165532525628805,
      0.05001433566212654,
      -0.07749529927968979,
      -0.03484800085425377,
      0.07816285640001297,
      0.045079171657562256,
      0.04283084347844124,
      -0.06053519994020462,
      0.0006979881436564028,
      0.08728022128343582,
      -0.009596046060323715,
      -0.018318329006433487,
      0.10240469127893448,
      -0.056176457554101944,
      -0.006273247767239809,
      -0.035643234848976135,
      -0.035222966223955154,
      0.010429950430989265,
      0.07174323499202728,
      -0.08992975205183029,
      -0.026774978265166283,
      0.04047909751534462,
      -0.08239966630935669,
      0.01671462506055832,
      0.00921493861824274,
      0.05071958899497986,
      0.0362214669585228,
      0.02871447429060936,
      0.012033925391733646,
      0.030131040140986443,
      -0.06318284571170807,
      0.02276357263326645,
      0.0525088831782341,
      -0.03284063935279846,
      0.04045833274722099,
      0.01945907063782215,
      -0.004278656095266342,
      -0.008424525149166584,
      -0.005461784545332193,
      0.026685267686843872,
      0.03060477413237095,
      -0.10120971500873566,
      0.047465622425079346,
      0.03332129493355751,
      -0.07523983716964722,
      0.028356235474348068,
      0.02500113844871521,
      0.019594786688685417,
      -0.0019221303518861532,
      -0.06424164772033691,
      -0.014538904651999474,
      -0.02970404550433159,
      0.10694704204797745,
      0.00043160803033970296,
      -0.2859728932380676,
      0.1966457962989807,
      -0.15884262323379517,
      0.07051481306552887,
      0.10953143984079361,
      -0.017553290352225304,
      0.11299655586481094,
      0.13916164636611938,
      0.005011874716728926,
      -0.08285699039697647,
      0.1016361191868782,
      -0.2262546718120575,
      0.19825273752212524,
      0.15969660878181458,
      -0.11674423515796661,
      -0.11842457205057144,
      0.026969389989972115,
      -0.02913065440952778,
      0.06397273391485214,
      -0.3457123339176178,
      0.1062064841389656,
      0.13150277733802795,
      0.03994658589363098,
      0.11638685315847397,
      0.11706238240003586,
      -0.12791647017002106,
      -0.012917728163301945,
      -0.04214836657047272,
      -0.16128796339035034,
      -0.07821568101644516,
      -0.017911070957779884,
      0.02527710050344467,
      -0.04079900681972504,
      0.02003520168364048,
      0.007419005036354065,
      0.042728666216135025,
      0.055701401084661484,
      0.00893035251647234,
      -0.014077390544116497,
      0.020326970145106316,
      -0.016480013728141785,
      0.011857142671942711,
      0.06440851837396622,
      -0.05553930997848511,
      0.034254882484674454,
      0.008439569734036922,
      -0.00673662219196558,
      -0.031063491478562355,
      -0.015998339280486107,
      0.008736600168049335,
      0.030630579218268394,
      -0.030830981209874153,
      0.03949383646249771,
      0.045908864587545395,
      -0.03106415644288063,
      0.01881222054362297,
      0.009974942542612553,
      0.006441046483814716,
      -0.022498171776533127,
      -0.05954131484031677,
      -0.038626719266176224,
      -0.04504973441362381,
      0.07802978157997131,
      -0.07018402963876724,
      0.10448173433542252,
      -0.09181295335292816,
      0.033157575875520706,
      -0.09621800482273102,
      -0.06065039709210396,
      -0.026084596291184425,
      -0.009249703027307987,
      -0.07471766322851181,
      0.18796944618225098,
      -0.0001789307571016252,
      -0.16749846935272217,
      0.03853997960686684,
      -0.13211296498775482,
      -0.057186417281627655,
      0.10104125738143921,
      0.13051597774028778,
      0.087120421230793,
      -0.024194592610001564,
      -0.09907403588294983,
      0.12054836004972458,
      -0.06608948111534119,
      -0.14717897772789001,
      0.10554399341344833,
      -0.06869388371706009,
      -0.03118896670639515,
      0.023534929379820824,
      0.07165563106536865,
      0.017645152285695076,
      0.16757509112358093,
      -0.03240204229950905,
      -0.0051694586873054504,
      0.010955250822007656,
      -0.007877876982092857,
      0.01129615306854248,
      -0.008469846099615097,
      0.01653776876628399,
      0.013307950459420681,
      0.010056426748633385,
      0.012843229807913303,
      0.015601389110088348,
      -0.03216041252017021,
      0.00021790961909573525,
      0.015542300418019295,
      -0.015024970285594463,
      0.023001166060566902,
      0.012676537036895752,
      -0.005414547398686409,
      -0.010166088119149208,
      0.014729904010891914,
      0.008521334268152714,
      0.009729132987558842,
      -0.027861693874001503,
      0.021747615188360214,
      0.006679100450128317,
      -0.034654583781957626,
      0.01436277013272047,
      0.01002510916441679,
      -0.00035646939068101346,
      0.007671551313251257,
      -0.04080533981323242,
      -0.015141261741518974,
      -0.09443835914134979,
      -0.01700892299413681,
      0.035901255905628204,
      0.016948813572525978,
      0.0032935102935880423,
      0.07715769857168198,
      0.03932257741689682,
      0.045446138828992844,
      0.02415534108877182,
      -0.0020171923097223043,
      0.01505296304821968,
      -0.026189029216766357,
      0.028426600620150566,
      0.04403237998485565,
      -0.06887219101190567,
      0.0204655509442091,
      0.003456189762800932,
      0.010629686526954174,
      0.004234601277858019,
      -0.04358966276049614,
      0.024285558611154556,
      0.026231611147522926,
      -0.12082960456609726,
      0.03497821092605591,
      0.026806216686964035,
      -0.09822700917720795,
      0.015273400582373142,
      0.022506611421704292,
      0.030688198283314705,
      -0.018421484157443047,
      -0.0653279572725296,
      0.005624961573630571,
      -0.05402060225605965,
      -0.00453144172206521,
      0.012057444080710411,
      -0.02340991236269474,
      0.018229719251394272,
      -0.013921186327934265,
      0.018651727586984634,
      0.01804214157164097,
      0.013104039244353771,
      0.019453490152955055,
      0.02258502133190632,
      -0.026024045422673225,
      0.00044493822497315705,
      0.01652819849550724,
      -0.024071427062153816,
      0.03117021545767784,
      0.019575173035264015,
      -0.0025007363874465227,
      -0.01119781844317913,
      0.022910509258508682,
      0.01113378256559372,
      0.010647544637322426,
      -0.04338598996400833,
      0.027952030301094055,
      0.007223035674542189,
      -0.031899455934762955,
      0.020580025389790535,
      0.007966050878167152,
      -0.00026780928601510823,
      0.012966076843440533,
      -0.0579620860517025,
      -0.018029334023594856,
      -0.03422815352678299,
      0.009006626904010773,
      0.0034273765049874783,
      0.016600776463747025,
      -0.000507278076838702,
      0.025677738711237907,
      0.00649799732491374,
      0.017607122659683228,
      0.0005518235848285258,
      -0.004325582180172205,
      0.0009921042947098613,
      0.02493804134428501,
      0.005444493144750595,
      0.008282196708023548,
      -0.028863253071904182,
      0.0011090238112956285,
      -0.0017424107063561678,
      0.015829255804419518,
      0.003464173525571823,
      -0.0063898004591465,
      0.001181592233479023,
      0.004058176185935736,
      -0.03061193972826004,
      0.005289641674607992,
      0.004933077841997147,
      -0.025603776797652245,
      0.0006459313444793224,
      0.0013127876445651054,
      0.00706460140645504,
      -0.0020959400571882725,
      -0.034998197108507156,
      0.005450872238725424,
      -0.028282631188631058,
      0.0700397789478302,
      -0.04591802880167961,
      0.1265334039926529,
      -0.0030948047060519457,
      -0.006469917017966509,
      -0.050940047949552536,
      -0.009883584454655647,
      -0.028308268636465073,
      0.021697646006941795,
      -0.009249413385987282,
      0.11376594752073288,
      -0.032704539597034454,
      -0.09358210116624832,
      0.04363279417157173,
      -0.03549394756555557,
      0.0149901257827878,
      0.04398507997393608,
      0.03333837538957596,
      0.019144956022500992,
      -0.02928997576236725,
      -0.05474724993109703,
      -0.0004385863430798054,
      -0.006691186688840389,
      -0.08216682076454163,
      -0.014809694141149521,
      -0.012922260910272598,
      -0.02655719220638275,
      -0.030117657035589218,
      0.02781420759856701,
      0.044810809195041656,
      0.041909556835889816,
      -0.09305790811777115,
      -0.013545998372137547,
      0.03881159424781799,
      -0.06149857118725777,
      0.014212538488209248,
      0.02472503110766411,
      0.04656996950507164,
      0.044465985149145126,
      0.024201903492212296,
      -0.0014206868363544345,
      0.022874435409903526,
      -0.03774452582001686,
      0.02466753125190735,
      0.0576806478202343,
      -0.079121895134449,
      0.03394756838679314,
      0.011855007149279118,
      -0.0032264504116028547,
      -0.00997370108962059,
      -0.000645565683953464,
      0.023463310673832893,
      0.03500242531299591,
      -0.10665352642536163,
      0.03725451976060867,
      0.042528264224529266,
      -0.057128433138132095,
      0.02274448238313198,
      0.026396559551358223,
      0.020893987268209457,
      -0.004604230169206858,
      -0.06863857805728912,
      -0.015033876523375511,
      -0.11264745146036148,
      -0.007451423443853855,
      0.02305193617939949,
      -0.037636879831552505,
      0.03859740123152733,
      -0.010005149990320206,
      0.030690912157297134,
      0.03555293753743172,
      0.029837103560566902,
      0.044929154217243195,
      0.04547388106584549,
      -0.06367985904216766,
      0.00598937040194869,
      0.020671645179390907,
      -0.044495873153209686,
      0.05755070224404335,
      0.04244041070342064,
      -0.0038666806649416685,
      -0.009720834903419018,
      0.03671693429350853,
      0.026180723682045937,
      0.014628133736550808,
      -0.077333003282547,
      0.056968361139297485,
      0.0020620229188352823,
      -0.10428576916456223,
      0.04165731370449066,
      0.006821787916123867,
      0.008249081671237946,
      0.02973690629005432,
      -0.10541052371263504,
      -0.021272510290145874,
      -0.05262339860200882,
      0.02491050213575363,
      -0.016093062236905098,
      0.03369693085551262,
      0.0010434234282001853,
      0.010369405150413513,
      -0.01656937226653099,
      0.009885380044579506,
      -0.008207091130316257,
      0.02208593115210533,
      0.003375294851139188,
      0.05153166502714157,
      -0.013600851409137249,
      -0.04773157835006714,
      0.010212005116045475,
      -0.012652095407247543,
      0.018129246309399605,
      0.03775506094098091,
      0.022585876286029816,
      0.02038099244236946,
      -0.009501428343355656,
      -0.029278244823217392,
      -0.011916585266590118,
      0.015208152122795582,
      -0.05791466310620308,
      -0.034071311354637146,
      0.0003927192010451108,
      -0.010440750978887081,
      -0.010875443927943707,
      0.022142961621284485,
      0.0015477967681363225,
      0.026221390813589096,
      -0.026407847180962563,
      0.04565081745386124,
      0.026806345209479332,
      -0.1124962568283081,
      0.04723426327109337,
      -0.015054689720273018,
      0.032539039850234985,
      0.06909294426441193,
      0.03720513731241226,
      0.04755830019712448,
      0.05691167712211609,
      -0.067464679479599,
      0.008869179524481297,
      0.02445281110703945,
      -0.06426608562469482,
      0.06773842126131058,
      0.05476654693484306,
      0.014642948284745216,
      -0.022080473601818085,
      0.026454806327819824,
      0.0330134741961956,
      0.015316675417125225,
      -0.1397123485803604,
      0.07698343694210052,
      0.0045548900961875916,
      -0.21871651709079742,
      0.05331754684448242,
      -0.0146131357178092,
      0.01575281098484993,
      0.027208218351006508,
      -0.06838266551494598,
      -0.036882251501083374,
      -0.09447229653596878,
      -0.0065148090943694115,
      0.02110130339860916,
      -0.023547500371932983,
      -0.008673141710460186,
      0.06508103758096695,
      0.020320020616054535,
      0.0369826965034008,
      0.015963289886713028,
      0.001923570060171187,
      0.0066528404131531715,
      0.027822937816381454,
      0.027652528136968613,
      0.013123759999871254,
      -0.06145578995347023,
      -0.000948393193539232,
      0.00039144555921666324,
      0.036326464265584946,
      0.0318940170109272,
      -0.0002237049920950085,
      0.017196398228406906,
      0.008466891013085842,
      -0.09884437173604965,
      0.015981491655111313,
      -0.0019084492232650518,
      -0.08999615162611008,
      0.0071899364702403545,
      0.011277850717306137,
      0.033902790397405624,
      0.006753593683242798,
      -0.05856691300868988,
      0.03914673253893852,
      -0.01939309388399124,
      0.05140651389956474,
      -0.002841167850419879,
      0.029960529878735542,
      -0.03690211847424507,
      0.05434069037437439,
      -0.016766518354415894,
      0.006379003170877695,
      0.009161267429590225,
      -0.023402297869324684,
      -0.02304145321249962,
      0.06300336122512817,
      0.025495309382677078,
      -0.0236804336309433,
      -0.07430105656385422,
      -0.03298375383019447,
      -0.036039531230926514,
      0.036601919680833817,
      0.036935776472091675,
      0.06577277183532715,
      0.010926194489002228,
      -0.009080028161406517,
      -0.06083408370614052,
      -0.024609046056866646,
      -0.01935384050011635,
      -0.02425110712647438,
      -0.01780025288462639,
      -0.019731933251023293,
      0.03778958320617676,
      0.037486348301172256,
      -0.04991978034377098,
      0.049669213593006134,
      -0.06553596258163452,
      -0.012750167399644852,
      0.026161786168813705,
      -0.038676247000694275,
      0.013180031441152096,
      0.013219212181866169,
      0.034950513392686844,
      0.035715505480766296,
      0.014954641461372375,
      -0.0018552261171862483,
      0.01825004629790783,
      -0.022585391998291016,
      0.015264052897691727,
      0.043987032026052475,
      -0.06512975692749023,
      0.02685220167040825,
      0.010079342871904373,
      0.001092498074285686,
      -0.010918881744146347,
      -0.005568920634686947,
      0.014529869891703129,
      0.024356087669730186,
      -0.07618129998445511,
      0.03148210421204567,
      0.030970927327871323,
      -0.0269375778734684,
      0.017743272706866264,
      0.016034351661801338,
      0.012278827838599682,
      -0.006043878849595785,
      -0.05414358526468277,
      -0.014776816591620445,
      -0.17488519847393036,
      -0.0060234032571315765,
      0.030990252271294594,
      -0.04647260531783104,
      0.052954740822315216,
      -0.007397538982331753,
      0.038874607533216476,
      0.04731731861829758,
      0.041224975138902664,
      0.06398479640483856,
      0.06145739555358887,
      -0.08211033791303635,
      0.009278410114347935,
      0.023939257487654686,
      -0.052523981779813766,
      0.07561327517032623,
      0.05916589871048927,
      -0.0009716988424770534,
      -0.007796750869601965,
      0.04857637733221054,
      0.03669162467122078,
      0.01853804476559162,
      -0.085781030356884,
      0.07634028792381287,
      -0.004473757464438677,
      -0.16330449283123016,
      0.056454259902238846,
      0.0054664830677211285,
      0.013228552415966988,
      0.04364128038287163,
      -0.14966557919979095,
      -0.022331757470965385,
      -0.03440672159194946,
      0.053885240107774734,
      -0.004120645113289356,
      0.03388262540102005,
      -0.034486133605241776,
      0.053898733109235764,
      -0.017379380762577057,
      0.005381295457482338,
      0.009630420245230198,
      -0.018845295533537865,
      -0.02131020836532116,
      0.06634571403265,
      0.024448683485388756,
      -0.026680195704102516,
      -0.07472831755876541,
      -0.03204016387462616,
      -0.03251493722200394,
      0.038620997220277786,
      0.03896124288439751,
      0.0631563812494278,
      0.01110986340790987,
      -0.010471411980688572,
      -0.054798394441604614,
      -0.024197833612561226,
      -0.02169124037027359,
      -0.030428996309638023,
      -0.01653338596224785,
      -0.019311001524329185,
      0.03696313500404358,
      0.03885838761925697,
      -0.05286794900894165,
      0.051668930798769,
      -0.009017327800393105,
      0.03446801379323006,
      -0.004878460895270109,
      0.010833008214831352,
      -0.07440538704395294,
      0.07764434069395065,
      -0.028663961216807365,
      -0.005507389083504677,
      0.012814782559871674,
      -0.041184503585100174,
      -0.048030827194452286,
      0.0733809545636177,
      0.03936527669429779,
      -0.04113678261637688,
      -0.05572586879134178,
      -0.06656596064567566,
      -0.06987690925598145,
      0.04801907390356064,
      0.0594826340675354,
      0.08545052260160446,
      0.0160982683300972,
      -0.022628413513302803,
      0.01867830567061901,
      -0.044916845858097076,
      -0.046038590371608734,
      0.0007232193020172417,
      -0.03781788796186447,
      -0.02141820825636387,
      0.059816233813762665,
      0.04721932113170624,
      -0.04550251364707947,
      0.07932125777006149,
      -0.0612216554582119,
      0.012359704822301865,
      0.010221149772405624,
      -0.03596734628081322,
      0.02210441417992115,
      0.0021532371174544096,
      0.012463887222111225,
      0.026684153825044632,
      0.016681687906384468,
      0.0275354515761137,
      0.026620185002684593,
      -0.030596395954489708,
      0.004377922974526882,
      0.0044831810519099236,
      -0.019819987937808037,
      0.030075840651988983,
      0.028311986476182938,
      0.01061822846531868,
      0.0006954266573302448,
      0.012113697826862335,
      0.014929627999663353,
      0.005310483276844025,
      -0.05960915982723236,
      0.034596748650074005,
      -0.002002487424761057,
      -0.09693630784749985,
      0.024612916633486748,
      0.001032704603858292,
      0.007062212098389864,
      0.01645534671843052,
      -0.04186898097395897,
      -0.0034748692996799946,
      -0.03767266497015953,
      -0.012884814292192459,
      0.022016670554876328,
      -0.021630259230732918,
      0.00546355452388525,
      0.028996095061302185,
      0.02689388208091259,
      0.02724054642021656,
      0.014425770379602909,
      -0.0009337341180071235,
      0.012073086574673653,
      -0.021882809698581696,
      0.014857225120067596,
      0.03229713812470436,
      -0.04788147658109665,
      0.01874757558107376,
      0.0039825825951993465,
      0.003029485931620002,
      -0.0048603820614516735,
      -0.017362652346491814,
      0.014161295257508755,
      0.018662210553884506,
      -0.07966034859418869,
      0.02425970882177353,
      0.021365223452448845,
      -0.03030852973461151,
      0.012105371803045273,
      0.012686668895184994,
      0.01526846643537283,
      -0.008016234263777733,
      -0.03888827562332153,
      -0.006548294797539711,
      -0.049197107553482056,
      -0.017192808911204338,
      0.025164978578686714,
      -0.04971177130937576,
      0.013594060204923153,
      0.02017480507493019,
      0.03215683624148369,
      0.0377068817615509,
      0.016429699957370758,
      0.0021296213380992413,
      0.01990831084549427,
      -0.033547356724739075,
      0.01644379086792469,
      0.03724662587046623,
      -0.0630708634853363,
      0.027072343975305557,
      0.012789805419743061,
      0.0008651670650579035,
      -0.0057433368638157845,
      -0.0032434556633234024,
      0.016056960448622704,
      0.0215491633862257,
      -0.09884237498044968,
      0.03540653735399246,
      0.023760192096233368,
      -0.022050846368074417,
      0.019377488642930984,
      0.01266224030405283,
      0.014660756103694439,
      -0.001454234472475946,
      -0.052521001547575,
      -0.00858320202678442,
      -0.17106103897094727,
      0.0036269596312195063,
      0.03559597581624985,
      -0.07436554878950119,
      0.058940451592206955,
      -0.011590399779379368,
      0.04301270470023155,
      0.05478402227163315,
      0.047564320266246796,
      0.06999025493860245,
      0.06811526417732239,
      -0.08404196798801422,
      0.012089972384274006,
      0.028113463893532753,
      -0.07038871943950653,
      0.08516611158847809,
      0.06396830826997757,
      0.0010402320185676217,
      -0.010341857559978962,
      0.06413566321134567,
      0.042623452842235565,
      0.021778007969260216,
      -0.12234225124120712,
      0.08282241225242615,
      -0.005521953105926514,
      -0.1860910952091217,
      0.06287343055009842,
      0.002579638734459877,
      0.017452556639909744,
      0.05178814008831978,
      -0.15469826757907867,
      -0.02762441523373127,
      -0.0756366178393364,
      -0.01923803798854351,
      0.016559630632400513,
      -0.03996701538562775,
      0.004746139980852604,
      0.04591362550854683,
      0.029706258326768875,
      0.05287525802850723,
      0.008699281141161919,
      -0.01285841315984726,
      0.010142380371689796,
      0.011259262450039387,
      0.019319802522659302,
      0.04118120297789574,
      -0.05364571139216423,
      0.014250469394028187,
      -0.0012066942872479558,
      0.016700681298971176,
      -0.0026109451428055763,
      -0.02288389578461647,
      0.009630604647099972,
      0.017494142055511475,
      -0.031270865350961685,
      0.029622722417116165,
      0.022552328184247017,
      -0.045611266046762466,
      0.009707997553050518,
      0.0009591994457878172,
      0.021038129925727844,
      -0.01682005450129509,
      -0.05785560607910156,
      -0.002753081964328885,
      -0.10454592108726501,
      -0.010965151712298393,
      0.028106650337576866,
      -0.020146572962403297,
      -0.006886825431138277,
      0.06353781372308731,
      0.03151271492242813,
      0.03744722902774811,
      0.01990681327879429,
      0.005006683059036732,
      0.013264121487736702,
      0.0239408016204834,
      0.02620657905936241,
      0.02336626872420311,
      -0.04597930237650871,
      0.009602799080312252,
      0.0034743945579975843,
      0.041664376854896545,
      0.023914773017168045,
      -0.020463909953832626,
      0.01990245096385479,
      0.011401454918086529,
      -0.1087174266576767,
      0.023837100714445114,
      0.0013954187743365765,
      -0.09518689662218094,
      0.012497693300247192,
      0.013427148573100567,
      0.032768819481134415,
      -0.0013746039476245642,
      -0.08227267116308212,
      0.03035692684352398,
      -0.10314049571752548,
      -0.01345093920826912,
      0.04260466247797012,
      -0.023877548053860664,
      0.010418306104838848,
      0.0484260693192482,
      0.048014331609010696,
      0.04975004494190216,
      0.027939366176724434,
      -0.0015943865291774273,
      0.022005155682563782,
      -0.0325285904109478,
      0.03016406111419201,
      0.057519879192113876,
      -0.0788407251238823,
      0.03178674355149269,
      0.008514631539583206,
      0.0018953717080876231,
      -0.006306284572929144,
      -0.01941172406077385,
      0.027479523792862892,
      0.035326145589351654,
      -0.1493508517742157,
      0.03727637976408005,
      0.04208521172404289,
      -0.0816500335931778,
      0.02201288938522339,
      0.028075745329260826,
      0.029181718826293945,
      -0.011633471585810184,
      -0.06815651059150696,
      -0.010531610809266567,
      -0.02988998219370842,
      0.041525088250637054,
      0.02646181918680668,
      -0.10179585963487625,
      0.04843279346823692,
      -0.009497343562543392,
      0.032691895961761475,
      0.0664457157254219,
      0.036614421755075455,
      0.048277609050273895,
      0.05637611821293831,
      -0.06243741884827614,
      0.007562609389424324,
      0.025621136650443077,
      -0.06194545328617096,
      0.06853722780942917,
      0.0540015734732151,
      0.014180487021803856,
      -0.02248644083738327,
      0.020783869549632072,
      0.032468173652887344,
      0.015773635357618332,
      -0.13520953059196472,
      0.07368685305118561,
      0.0035192128270864487,
      -0.2154579758644104,
      0.05272991210222244,
      -0.012726059183478355,
      0.014201508834958076,
      0.02519083209335804,
      -0.07639776915311813,
      -0.03720880672335625,
      -0.06788570433855057,
      0.01496483851224184,
      0.01144977193325758,
      -0.03680354729294777,
      0.02535073272883892,
      0.002959233010187745,
      0.013779685832560062,
      0.02957271598279476,
      0.019187353551387787,
      0.032491277903318405,
      0.030435649678111076,
      -0.03497316688299179,
      0.0048288507387042046,
      0.0033275787718594074,
      -0.02129068784415722,
      0.03387093171477318,
      0.033126652240753174,
      0.012981262058019638,
      0.0018329822923988104,
      0.013390147127211094,
      0.017100738361477852,
      0.004882460460066795,
      -0.06960593163967133,
      0.03974848985671997,
      -0.004064316861331463,
      -0.11276134103536606,
      0.02809711918234825,
      0.0006350218900479376,
      0.008145350962877274,
      0.019579079002141953,
      -0.05160563066601753,
      -0.0027521986048668623
    ],
    "kernelShape": [
      32,
      32
    ],
    "bias": [
      -0.1227559745311737,
      0.007400939241051674,
      0.03449375927448273,
      -0.07308898866176605,
      0.00991782732307911,
      0.030628805980086327,
      0.04358560964465141,
      0.06581243127584457,
      0.0456659309566021,
      0.03018958494067192,
      0.03935084864497185,
      -0.038376979529857635,
      0.028158823028206825,
      0.021539051085710526,
      -0.09471266716718674,
      0.045671068131923676,
      0.021459663286805153,
      0.02762061357498169,
      0.00788749661296606,
      0.048367660492658615,
      0.04115508124232292,
      0.009059975855052471,
      -0.12718705832958221,
      0.06803660094738007,
      -0.012308334931731224,
      -0.1416199505329132,
      0.0375819094479084,
      -0.006929581519216299,
      0.040038157254457474,
      0.04122999683022499,
      -0.130817249417305,
      0.0029415294993668795
    ],
    "biasShape": [
      32
    ]
  },
  "output": {
    "kernel": [
      1.2883942127227783,
      0.8313813209533691,
      0.29457762837409973,
      0.2430581897497177,
      -0.005781612358987331,
      -0.07407723367214203,
      0.3839813768863678,
      0.7257952690124512,
      -0.04635484144091606,
      0.053729426115751266,
      -0.09898534417152405,
      0.23585347831249237,
      -0.022111985832452774,
      -0.0830194354057312,
      -0.0575774610042572,
      0.08197285979986191,
      0.000928739900700748,
      -0.029040023684501648,
      0.01308783981949091,
      0.021866213530302048,
      -0.04043830558657646,
      0.00910170003771782,
      0.5745754837989807,
      0.45478057861328125,
      -0.020717769861221313,
      -0.009881204925477505,
      -0.01873576082289219,
      -0.11024917662143707,
      0.7872976064682007,
      1.1368829011917114,
      -0.022711869329214096,
      -0.017882512882351875,
      -0.04428474232554436,
      0.038751378655433655,
      0.16956304013729095,
      0.1952589601278305,
      -0.012385718524456024,
      0.0030541277956217527,
      0.19625726342201233,
      -0.1576947420835495,
      -0.0022026202641427517,
      -0.023369284346699715,
      0.028231032192707062,
      -0.0673283115029335,
      0.8390941023826599,
      1.3710376024246216,
      -0.10146427154541016,
      -0.01098875142633915,
      0.07121285796165466,
      -0.06083812192082405,
      0.8142421841621399,
      0.41982704401016235,
      -0.036530520766973495,
      0.00416222820058465,
      0.10629044473171234,
      -0.09923812747001648,
      -0.023140493780374527,
      0.01874585635960102,
      0.10309713333845139,
      -0.02580011822283268,
      1.36428701877594,
      1.1482802629470825,
      -0.016437310725450516,
      0.027997208759188652
    ],
    "kernelShape": [
      32,
      2
    ],
    "bias": [
      0.5691381692886353,
      0.5591272711753845
    ],
    "biasShape": [
      2
    ]
  }
}