{
  "fc1": {
    "kernel": [
      -0.038056060671806335,
      0.05585040524601936,
      -0.02720632590353489,
      -0.043904393911361694,
      -0.02540656179189682,
      -0.058087196201086044,
      0.005072366446256638,
      0.015965301543474197,
      0.027987362816929817,
      -0.012303638271987438,
      0.050539277493953705,
      -0.007605584803968668,
      -0.01317705400288105,
      0.01723337173461914,
      0.03280474245548248,
      0.040027111768722534,
      0.05605350062251091,
      0.803634524345398,
      0.059141166508197784,
      0.018586881458759308,
      -0.04474145919084549,
      -0.02172594517469406,
      0.05663611739873886,
      0.0062444270588457584,
      -0.024766555055975914,
      -0.023029867559671402,
      -0.01288730651140213,
      -0.048876743763685226,
      0.09876798093318939,
      0.01177054550498724,
      -0.013571592979133129,
      -0.011947529390454292,
      -0.027627822011709213,
      -0.1232617124915123,
      -0.08939157426357269,
      0.02218671515583992,
      0.10705268383026123,
      0.01815434917807579,
      0.052255306392908096,
      0.06300405412912369,
      0.04012097045779228,
      0.032971516251564026,
      -0.004173612222075462,
      0.049966007471084595,
      0.022031590342521667,
      0.01275273971259594,
      0.01294976007193327,
      0.02286412939429283,
      0.022234560921788216,
      -0.019643409177660942,
      0.04667366296052933,
      -0.040854502469301224,
      -0.017024436965584755,
      -0.022524667903780937,
      -0.014565598219633102,
      0.005059721879661083,
      -0.11687344312667847,
      0.043179430067539215,
      -0.019846582785248756,
      -0.05958927050232887,
      -0.0066788154654204845,
      -0.0369439572095871,
      -0.8958668112754822,
      -0.0075671058148145676,
      -0.08557198196649551,
      0.008634890429675579,
      -0.020976919680833817,
      -0.11879529803991318,
      -0.04209756851196289,
      -0.008682705461978912,
      0.027668941766023636,
      0.03227755427360535,
      0.10244525223970413,
      0.07671966403722763,
      0.000215620530070737,
      -0.006388282403349876,
      0.09583300352096558,
      -0.0026082843542099,
      0.013654944486916065,
      0.03535854071378708,
      -0.04320048540830612,
      0.25389474630355835,
      -0.059615276753902435,
      0.027285123243927956,
      0.007192615885287523,
      -0.04904327541589737,
      0.04437164217233658,
      -0.05052163079380989,
      -0.06318065524101257,
      -0.015761759132146835,
      0.03562221676111221,
      -0.02353287674486637,
      -0.05273818224668503,
      0.036428455263376236,
      -0.0005696870503015816,
      -0.029816219583153725,
      0.043857887387275696,
      0.090474434196949,
      -0.09579877555370331,
      0.08958359062671661,
      0.059460341930389404,
      0.02959660440683365,
      -0.0827440544962883,
      -0.019714850932359695,
      0.01712537556886673,
      0.13567332923412323,
      -0.06779617071151733,
      0.03447507321834564,
      0.07435475289821625,
      0.04748930782079697,
      -0.0049446322955191135,
      0.0029273286927491426,
      0.02315722405910492,
      -0.028730330988764763,
      -0.03361093997955322,
      0.0882745012640953,
      -0.04102169722318649,
      -0.046956565231084824,
      -0.05967377871274948,
      -0.020188605412840843,
      -0.04033631458878517,
      -0.01719636283814907,
      0.0234974417835474,
      -0.029831362888216972,
      0.0007983899558894336,
      0.013208168558776379,
      -0.32357728481292725,
      0.013515092432498932,
      -0.0009690260048955679,
      -0.01094867940992117,
      0.21630942821502686,
      0.020078755915164948,
      -0.019495010375976562,
      0.01572258397936821,
      -0.03862640634179115,
      -0.09188269078731537,
      -0.020183337852358818,
      0.012962044216692448,
      -0.07234016060829163,
      -0.05224071443080902,
      -0.010032069869339466,
      0.005275062285363674,
      -0.03222131356596947,
      0.5178239941596985,
      0.015056924894452095,
      -0.006176234222948551,
      -0.017506161704659462,
      0.04077334702014923,
      -0.05299242213368416,
      -0.45675745606422424,
      0.007272792514413595,
      -0.0009411623468622565,
      -0.07554507255554199,
      -0.18633431196212769,
      0.023288801312446594,
      -0.0523223839700222,
      0.020949430763721466,
      0.1680009812116623,
      0.012633740901947021,
      -0.024044105783104897,
      -0.04035830497741699,
      -0.05026109889149666,
      -0.0024547979701310396,
      -0.05207635462284088,
      -0.010403049178421497,
      0.35750681161880493,
      0.03213778883218765,
      0.05169544741511345,
      -0.036459438502788544,
      0.01903715915977955,
      -0.004722827114164829,
      0.018673142418265343,
      0.15161126852035522,
      0.015511962585151196,
      0.034516531974077225,
      -0.05845387652516365,
      -0.02258850820362568,
      -0.005783047992736101,
      0.07163495570421219,
      -0.0716949924826622,
      -0.4461001455783844,
      0.014616417698562145,
      0.003426695242524147,
      0.013443647883832455,
      -0.02538079395890236,
      -0.030773017555475235,
      -0.025540433824062347,
      -0.007213613949716091,
      0.1184808760881424,
      0.004133879207074642,
      0.020534120500087738,
      0.10866311192512512,
      -0.14470629394054413,
      0.17676377296447754,
      0.2199019342660904,
      0.19795605540275574,
      0.22247523069381714,
      0.22312021255493164,
      0.15791986882686615,
      -0.1787959784269333,
      -0.12023726105690002,
      0.1121738851070404,
      -0.12001699209213257,
      -0.04559332877397537,
      -0.09682818502187729,
      0.2278219312429428,
      -0.14278064668178558,
      0.2932901382446289,
      -0.040516164153814316,
      0.0028287232853472233,
      0.1224493533372879,
      -0.1965021789073944,
      -0.1348254531621933,
      -0.24114711582660675,
      -0.10234657675027847,
      0.23388727009296417,
      -0.08141230046749115,
      -0.17547914385795593,
      -0.13585390150547028,
      -0.10518596321344376,
      0.11692357808351517,
      -0.1422894150018692,
      0.16167357563972473,
      0.1582888811826706,
      -0.13268382847309113,
      -0.06565136462450027,
      0.21366411447525024,
      -0.11029979586601257,
      -0.05439424514770508,
      0.1861855834722519,
      0.1650390923023224,
      0.13762356340885162,
      -0.09305606037378311,
      0.2087518870830536,
      -0.10881824046373367,
      -0.10122530162334442,
      -0.14590509235858917,
      0.14265306293964386,
      0.17260894179344177,
      -0.002602269174531102,
      -0.10936418175697327,
      0.19868984818458557,
      0.11521041393280029,
      -0.07875547558069229,
      -0.2194952368736267,
      0.19706963002681732,
      0.14707118272781372,
      0.14316417276859283,
      -0.1123405173420906,
      0.22457996010780334,
      -0.09237264841794968,
      0.20763616263866425,
      -0.09712476283311844,
      -0.1332513391971588,
      0.009867774322628975,
      0.04192526638507843,
      -0.08751381933689117,
      -0.12449034303426743,
      0.18387441337108612,
      -0.17924639582633972,
      -0.08601754903793335,
      0.09744445234537125,
      -0.13848797976970673,
      -0.08415322750806808,
      -0.008017023093998432,
      -0.06718000024557114,
      0.04122450202703476,
      -0.250637412071228,
      0.2139100283384323,
      -0.16566333174705505,
      0.029035601764917374,
      -0.005062640644609928,
      0.0024559672456234694,
      0.010223956778645515,
      0.004235802683979273,
      -0.14876292645931244,
      0.04592515155673027,
      -0.06758350878953934,
      -0.010879188776016235,
      0.14192193746566772,
      -0.1418081820011139,
      0.551224410533905,
      -0.028383756056427956,
      0.06127965450286865,
      0.13190238177776337,
      -0.14081159234046936,
      0.10739459842443466,
      -0.009804279543459415,
      0.023031078279018402,
      0.008457930758595467,
      0.04521309211850166,
      0.021919524297118187,
      -0.0022607618011534214,
      -0.3369918763637543,
      -0.11751712113618851,
      0.14438273012638092,
      -0.029180306941270828,
      0.13197317719459534,
      0.012296108528971672,
      -0.0029629170894622803,
      0.363718181848526,
      0.26851406693458557,
      -0.13703763484954834,
      -0.011381356045603752,
      -0.008471975103020668,
      -0.1294260174036026,
      0.16094759106636047,
      -0.17205828428268433,
      -0.21385397017002106,
      -0.0520213283598423,
      -0.07603588700294495,
      0.14442577958106995,
      -0.00179070804733783,
      -0.1511499285697937,
      -0.03806010261178017,
      0.06476035714149475,
      0.3471001386642456,
      0.04136316105723381,
      -0.061830177903175354,
      -0.11364136636257172
    ],
    "kernelShape": [
      5,
      64
    ],
    "bias": [
      -0.11227633059024811,
      -0.17852191627025604,
      0.14602388441562653,
      0.0013092762092128396,
      0.07174243032932281,
      -0.1907285451889038,
      -0.0064302291721105576,
      0.25381240248680115,
      -0.006503954529762268,
      0.12942181527614594,
      -0.19623830914497375,
      0.2434840351343155,
      0.09501086920499802,
      0.20990796387195587,
      -0.13481473922729492,
      0.1562725156545639,
      0.016924072057008743,
      -1.8099048137664795,
      0.020545855164527893,
      0.14892184734344482,
      -0.06734443455934525,
      0.21882782876491547,
      -0.053676094859838486,
      0.089582160115242,
      0.26621919870376587,
      0.2743337154388428,
      0.15018688142299652,
      -0.041210297495126724,
      0.019015612080693245,
      0.31690141558647156,
      -0.19957959651947021,
      -0.05775967240333557,
      -0.016085626557469368,
      0.016062401235103607,
      0.03970794007182121,
      -0.09013351798057556,
      0.00735314330086112,
      -0.16143876314163208,
      0.1965264081954956,
      -0.07377246022224426,
      0.002635924844071269,
      0.1265994906425476,
      -0.005895826034247875,
      -0.09618433564901352,
      0.06374617666006088,
      0.14967095851898193,
      0.2735735774040222,
      0.06369496136903763,
      -0.01899634301662445,
      0.14375974237918854,
      0.022721126675605774,
      0.17477016150951385,
      0.0358552560210228,
      0.11959701031446457,
      -0.05274300277233124,
      0.03175418823957443,
      -0.014961411245167255,
      0.09551308304071426,
      0.018275782465934753,
      0.04838813841342926,
      0.09392654150724411,
      0.19601978361606598,
      -1.3412131071090698,
      0.17775766551494598
    ],
    "biasShape": [
      64
    ]
  },
  "hidden": {
    "kernel": [
      -0.026884641498327255,
      -0.076653853058815,
      0.10253053158521652,
      0.0818924829363823,
      -0.09653268754482269,
      0.055793363600969315,
      -0.02411341667175293,
      -0.004740772768855095,
      0.07571599632501602,
      -0.05155264213681221,
      -0.03563437610864639,
      0.035771921277046204,
      0.031555935740470886,
      -0.015638580545783043,
      -0.0048029315657913685,
      -0.012750962749123573,
      -0.0695703774690628,
      -0.041146114468574524,
      -0.055178094655275345,
      0.08043421059846878,
      -0.019259978085756302,
      0.08233997225761414,
      0.027642279863357544,
      -0.13226188719272614,
      -0.021708594635128975,
      -0.06526930630207062,
      0.05580033361911774,
      -0.15027271211147308,
      0.008692603558301926,
      -0.026504304260015488,
      -0.08975689858198166,
      -0.025307154282927513,
      -0.01209308672696352,
      0.05684611573815346,
      0.08050334453582764,
      -0.03813965991139412,
      0.019651692360639572,
      -0.007534090895205736,
      -0.10461927950382233,
      -0.051081765443086624,
      -0.040592070668935776,
      0.016205118969082832,
      0.10856617987155914,
      0.09921803325414658,
      -0.09696384519338608,
      -0.023089375346899033,
      0.07103278487920761,
      0.08264456689357758,
      -0.15354298055171967,
      0.014161601662635803,
      0.12526963651180267,
      0.13499815762043,
      0.054221101105213165,
      0.01609460636973381,
      -0.08240566402673721,
      -0.09784511476755142,
      -0.0282148290425539,
      -0.16377848386764526,
      0.04675698280334473,
      0.08055432140827179,
      -0.12115828692913055,
      -0.06124897301197052,
      -0.04178319498896599,
      -0.08474937081336975,
      0.07769669592380524,
      0.016046788543462753,
      0.0006613339064642787,
      0.010495116002857685,
      -0.01812378130853176,
      -0.019182374700903893,
      0.007437845692038536,
      0.02090797759592533,
      -0.10885187238454819,
      0.0005314885638654232,
      -0.03715578466653824,
      -0.003488917602226138,
      -0.0253139678388834,
      0.003282909980043769,
      -0.0018434766680002213,
      -0.020394273102283478,
      -0.0756421759724617,
      -0.046054888516664505,
      -0.026744825765490532,
      -0.0290699303150177,
      0.07848415523767471,
      0.06702976673841476,
      0.11763478815555573,
      0.0051602390594780445,
      0.03181663900613785,
      -0.00757645582780242,
      -0.01673097535967827,
      -0.0009332809131592512,
      0.007799952756613493,
      0.001452446449548006,
      -0.023081187158823013,
      -0.008008569478988647,
      0.00797932967543602,
      0.02867193892598152,
      -0.05005265399813652,
      0.04370259493589401,
      -0.05770878493785858,
      -0.0007994951447471976,
      0.016352584585547447,
      -0.004936796613037586,
      0.08169194310903549,
      0.014894735999405384,
      -0.01894530840218067,
      0.036031242460012436,
      0.003740391694009304,
      -0.020741168409585953,
      -0.0033629771787673235,
      0.00656804908066988,
      0.03086446225643158,
      -0.02734689600765705,
      -0.014237252995371819,
      1.5684203390264884e-05,
      0.03574097156524658,
      -0.026695260778069496,
      -0.016401559114456177,
      -0.007056293543428183,
      -0.017154961824417114,
      -0.01355234906077385,
      -0.04068027436733246,
      -0.015263820998370647,
      -0.005771336145699024,
      0.04483998194336891,
      0.00824512355029583,
      0.003455138998106122,
      -0.03512880951166153,
      -0.010332057252526283,
      -0.017018336802721024,
      0.027593007311224937,
      0.01071941014379263,
      0.026942091062664986,
      0.05134318023920059,
      0.0012537692673504353,
      0.020599057897925377,
      0.06376512348651886,
      0.0017435940681025386,
      0.0349508561193943,
      0.03508614003658295,
      -0.006600785534828901,
      -0.016597634181380272,
      0.004411568399518728,
      0.021853050217032433,
      0.053464315831661224,
      0.0030850605107843876,
      0.011007671244442463,
      -0.13249540328979492,
      -0.042545005679130554,
      -0.1644708514213562,
      -0.00483675068244338,
      0.038286902010440826,
      0.011675658635795116,
      0.024799808859825134,
      0.04207167774438858,
      -0.003828478744253516,
      -0.031139841303229332,
      0.004133999813348055,
      -0.011611602269113064,
      0.06699704378843307,
      -0.01846645586192608,
      -0.015527733601629734,
      -0.0176682211458683,
      0.013106078840792179,
      0.029178932309150696,
      -0.05129264295101166,
      0.05802576616406441,
      -0.06830593198537827,
      -0.05388128384947777,
      0.01124289445579052,
      -0.022757934406399727,
      0.026360783725976944,
      0.018103744834661484,
      -0.016323521733283997,
      0.01605887897312641,
      0.07151580601930618,
      -0.022899340838193893,
      0.012155388481914997,
      0.0017950681503862143,
      -0.0687151551246643,
      0.017634648829698563,
      0.013936031609773636,
      -0.022532319650053978,
      -0.00934379082173109,
      -0.014455479569733143,
      0.020346976816654205,
      0.018327532336115837,
      0.006238609552383423,
      0.022801795974373817,
      -0.03842459246516228,
      0.004632830154150724,
      -0.013920173980295658,
      -0.04588724300265312,
      0.022989394143223763,
      -0.012795350514352322,
      -0.016609860584139824,
      -0.0032564911525696516,
      -0.0001638091925997287,
      0.00255994638428092,
      -0.002910873619839549,
      -0.01961602456867695,
      0.010702868923544884,
      0.014883767813444138,
      -0.018308721482753754,
      0.006288366857916117,
      -0.04487494006752968,
      0.00024520637816749513,
      -0.01360634807497263,
      0.04600325599312782,
      0.017365245148539543,
      0.03572055324912071,
      -0.003861776553094387,
      -0.004232022911310196,
      0.041037674993276596,
      -0.005581867415457964,
      -0.03884068876504898,
      0.004921345040202141,
      -0.010361582972109318,
      -0.053797878324985504,
      0.020590104162693024,
      0.0285917017608881,
      0.013626744039356709,
      0.014736839570105076,
      0.010778049938380718,
      -0.004555771127343178,
      -0.01950380578637123,
      0.027479263022542,
      0.03258604556322098,
      -0.1347733587026596,
      -0.0290699303150177,
      -0.012312156148254871,
      0.026175612583756447,
      0.019685132429003716,
      0.0495130680501461,
      0.0030962787568569183,
      -0.0011232992401346564,
      0.010663677006959915,
      0.008411168120801449,
      0.0223066583275795,
      -0.036102309823036194,
      0.04357283189892769,
      0.01580253802239895,
      0.012840259820222855,
      -0.0006086697103455663,
      -0.014417700469493866,
      -0.002252091420814395,
      0.023060761392116547,
      -0.01733039692044258,
      0.02133876085281372,
      -0.012704851105809212,
      -0.0008807859849184752,
      0.008003543131053448,
      -0.003143073059618473,
      0.009327063336968422,
      -0.027507442981004715,
      0.026635169982910156,
      -0.0011489051394164562,
      0.004878269974142313,
      0.0076178982853889465,
      -0.017922574654221535,
      0.010380091145634651,
      -0.0026693225372582674,
      0.027347685769200325,
      -0.052970271557569504,
      -0.01613100990653038,
      -0.024955255910754204,
      0.017087046056985855,
      -0.017795991152524948,
      0.003567610401660204,
      -0.019366346299648285,
      0.010914328508079052,
      -0.0012461330043151975,
      0.020669929683208466,
      0.00017395740724168718,
      0.004508012905716896,
      -0.00294167036190629,
      -0.00457092234864831,
      0.026441622525453568,
      -0.0012310530291870236,
      0.03239455446600914,
      0.002503220224753022,
      -0.013080351985991001,
      -0.011287217028439045,
      -0.006304590031504631,
      0.004672748502343893,
      -0.0019032636191695929,
      0.007549861911684275,
      0.0020417056512087584,
      -0.012134240008890629,
      0.010512675158679485,
      0.0008759242482483387,
      0.013373377732932568,
      -0.018909407779574394,
      -0.01517147570848465,
      0.016979169100522995,
      0.025813493877649307,
      -0.00062033801805228,
      0.0038330501411110163,
      0.039405468851327896,
      0.006662234663963318,
      -0.015579375438392162,
      0.005481772590428591,
      0.01007157750427723,
      -0.024366311728954315,
      -0.0004877300816588104,
      0.019437609240412712,
      -0.0008812997257336974,
      -0.0004714031529147178,
      -0.00534012820571661,
      -0.0074860453605651855,
      0.004480231087654829,
      -0.007519636303186417,
      0.003207853063941002,
      -0.009586513973772526,
      -0.022673852741718292,
      -0.0004935918259434402,
      -0.03239422291517258,
      0.011189495213329792,
      -0.011100655421614647,
      0.05485716089606285,
      -0.005239997059106827,
      0.011503225192427635,
      0.038832735270261765,
      0.011091028340160847,
      -0.033006735146045685,
      0.04351020231842995,
      0.016258563846349716,
      -0.10292414575815201,
      0.04818357899785042,
      -0.022134587168693542,
      -0.023729117587208748,
      0.00835075881332159,
      -0.009797509759664536,
      -0.00416838563978672,
      -0.019157418981194496,
      -0.06906647980213165,
      -0.05754966288805008,
      -0.03878939524292946,
      -0.001427962677553296,
      -0.000255976221524179,
      0.03781717270612717,
      0.021599095314741135,
      -0.003870961721986532,
      0.03239979222416878,
      -0.01325140055269003,
      -0.017673030495643616,
      0.0543847419321537,
      0.02588566578924656,
      -0.019878368824720383,
      -0.033293716609478,
      -0.029915079474449158,
      0.033351022750139236,
      0.023540301248431206,
      -0.04010267183184624,
      0.04666195809841156,
      -0.07444224506616592,
      0.09884181618690491,
      0.0018479627324268222,
      -0.015708331018686295,
      -0.002578210784122348,
      0.009281725622713566,
      0.0019843813497573137,
      -0.017545092850923538,
      0.005800952669233084,
      -0.017994143068790436,
      -0.0128477206453681,
      -0.014381729997694492,
      0.14388127624988556,
      0.0008839828078635037,
      -0.018208077177405357,
      -0.001798919402062893,
      0.01595393568277359,
      0.02449183724820614,
      -0.029561594128608704,
      -0.015817197039723396,
      -0.014529339037835598,
      -0.038284774869680405,
      -0.0014361318899318576,
      -0.014045711606740952,
      -0.026157444342970848,
      0.05493469536304474,
      -0.02137705869972706,
      0.015753580257296562,
      0.04324783757328987,
      -0.005693614948540926,
      0.01279853843152523,
      0.017671719193458557,
      -0.0036969282664358616,
      -0.016319865360856056,
      0.02348041534423828,
      0.011782639659941196,
      -0.028742438182234764,
      -0.0236342865973711,
      -0.031440041959285736,
      -0.024189012125134468,
      -0.025499790906906128,
      0.0013811638345941901,
      -0.01692918688058853,
      -0.0006797894602641463,
      -0.0035494717303663492,
      0.00626027537509799,
      -0.020062757655978203,
      0.005518128164112568,
      0.035948049277067184,
      0.019277578219771385,
      0.06485813111066818,
      -1.0243195902148727e-05,
      -0.008002258837223053,
      -0.006219427566975355,
      -0.01823309063911438,
      -0.019016092643141747,
      -0.0046851979568600655,
      0.007840381935238838,
      -0.014464812353253365,
      -0.008003877475857735,
      0.005710091441869736,
      0.004068597219884396,
      -0.02029501274228096,
      0.019441092386841774,
      -0.004642026033252478,
      -0.03012673929333687,
      0.010667077265679836,
      0.0025362996384501457,
      0.04567230865359306,
      0.011356784962117672,
      0.02557593584060669,
      0.018973326310515404,
      0.015575950033962727,
      -0.024480726569890976,
      0.004281721077859402,
      -0.009054530411958694,
      -0.048858642578125,
      0.02648150362074375,
      -0.012115228921175003,
      0.0017871854361146688,
      0.016153329983353615,
      -0.006501422263681889,
      -0.01202384289354086,
      0.014111112803220749,
      -0.01071673259139061,
      0.0008996786782518029,
      -0.0018879150738939643,
      -0.02481197565793991,
      -0.01005119550973177,
      -0.003960221074521542,
      0.02949914149940014,
      -0.004253500606864691,
      0.0636427253484726,
      -0.018956119194626808,
      0.011630967259407043,
      -0.006542694289237261,
      0.03162480890750885,
      0.02562197856605053,
      -0.05800619348883629,
      0.056967899203300476,
      -0.12541833519935608,
      0.008903075009584427,
      -0.07486580312252045,
      0.019595835357904434,
      -0.0028337284456938505,
      0.0473678819835186,
      -0.049338262528181076,
      0.05004071071743965,
      0.03932001441717148,
      -0.042017173022031784,
      -0.030373385176062584,
      0.03385059908032417,
      -0.06401772052049637,
      -0.023013154044747353,
      0.010344251990318298,
      0.008511952124536037,
      0.013878688216209412,
      0.0332455188035965,
      0.015606945380568504,
      0.07155115157365799,
      -0.024758074432611465,
      0.00853693950921297,
      0.029701100662350655,
      -0.01186890248209238,
      -0.014348316006362438,
      -0.038071904331445694,
      -0.0313175693154335,
      -0.0003827566106338054,
      0.03890864923596382,
      0.11494241654872894,
      -0.03321508318185806,
      -0.004122675862163305,
      -0.08111578226089478,
      0.0228313896805048,
      -0.04278190806508064,
      0.0587468147277832,
      -0.002581736072897911,
      -0.01859649457037449,
      0.0009371835622005165,
      -0.0036456328816711903,
      0.0545564666390419,
      -0.045445896685123444,
      0.022560933604836464,
      -0.01935194618999958,
      0.01474539190530777,
      -0.10546553879976273,
      -0.015793802216649055,
      0.03128708526492119,
      0.06856226176023483,
      0.011373366229236126,
      0.03241652250289917,
      -0.0778268352150917,
      -0.005303941201418638,
      -0.0625104308128357,
      0.011063962243497372,
      0.07105863839387894,
      0.002462964504957199,
      0.008862226270139217,
      0.013508160598576069,
      0.0009543521446175873,
      -0.010766727849841118,
      -0.017420070245862007,
      0.012810220941901207,
      -0.007215527817606926,
      -0.056826699525117874,
      0.016697358340024948,
      -0.019581839442253113,
      0.015386635437607765,
      -0.008749095723032951,
      -0.007323515135794878,
      0.014513369649648666,
      -0.022070348262786865,
      -0.021644631400704384,
      0.0083598168566823,
      -0.009605629369616508,
      -0.014857255853712559,
      0.013972118496894836,
      0.0048871650360524654,
      0.02112598717212677,
      -0.0018909192876890302,
      -0.04691056162118912,
      -0.011122070252895355,
      -0.014455864205956459,
      0.0020128318574279547,
      0.0015413331566378474,
      -0.0006896078702993691,
      0.003573073772713542,
      -0.005879689007997513,
      0.022646451368927956,
      0.02090499736368656,
      0.04050027206540108,
      0.020752985030412674,
      0.014860551804304123,
      -0.00874285027384758,
      -0.006651695817708969,
      0.035537805408239365,
      0.013668779283761978,
      -0.0026657944545149803,
      -0.01207363698631525,
      0.04881221428513527,
      -0.0011229922529309988,
      -0.0063203745521605015,
      -0.0060965861193835735,
      0.011617227457463741,
      -0.04641401767730713,
      0.01931934803724289,
      0.03696777671575546,
      -0.014549202285706997,
      -0.022221654653549194,
      0.042498353868722916,
      0.030976107344031334,
      -0.004498486407101154,
      -0.004992504138499498,
      0.017960013821721077,
      -0.0188424251973629,
      -0.038382675498723984,
      -0.008483435958623886,
      -0.018663983792066574,
      -0.03299183025956154,
      0.013075451366603374,
      0.04732050001621246,
      -0.03789577633142471,
      0.019733039662241936,
      -0.022910775616765022,
      0.016375834122300148,
      -0.01403734926134348,
      -0.004088202025741339,
      0.0275184977799654,
      -0.03322535753250122,
      -0.019614188000559807,
      -0.0005133736995048821,
      -0.003208851907402277,
      -0.012390856631100178,
      0.01507502794265747,
      -0.02312270738184452,
      0.005507610272616148,
      -0.008213264867663383,
      0.007997685112059116,
      0.013260855339467525,
      -0.0005425750277936459,
      0.008677059784531593,
      -0.004722190089523792,
      0.004738036077469587,
      0.022290987893939018,
      -0.02618587203323841,
      0.008357946760952473,
      0.00688244728371501,
      -0.03487422317266464,
      0.003827521111816168,
      -0.014493966475129128,
      -0.0038635407108813524,
      0.02063095010817051,
      0.001535613788291812,
      0.007575273048132658,
      0.004667353350669146,
      0.0034492332488298416,
      -0.0323355570435524,
      -0.03405310586094856,
      0.00508207967504859,
      0.021205084398388863,
      -0.004428478889167309,
      0.011271505616605282,
      -0.0015584944048896432,
      0.042846474796533585,
      -0.0045055062510073185,
      0.018156051635742188,
      -0.021657530218362808,
      0.006566903088241816,
      -0.003345286240801215,
      0.01252398919314146,
      -0.013849257491528988,
      0.029995419085025787,
      -0.006208618171513081,
      -0.02212442457675934,
      -0.009847843088209629,
      -0.024032598361372948,
      0.012060057371854782,
      -0.012548098340630531,
      0.007793039083480835,
      -0.016395434737205505,
      0.009183311834931374,
      0.026097344234585762,
      0.02748413011431694,
      -0.004899220075458288,
      0.0038465256802737713,
      0.009096240624785423,
      -0.011566524393856525,
      0.0682399719953537,
      -0.027283266186714172,
      0.0026695490814745426,
      0.06332514435052872,
      -0.021511178463697433,
      -0.017778636887669563,
      0.019257718697190285,
      -0.032768141478300095,
      -0.0045624119229614735,
      -0.04808074235916138,
      -0.02584889903664589,
      0.018770018592476845,
      -0.028425227850675583,
      -0.02927495166659355,
      0.07866574823856354,
      -0.02226157672703266,
      -0.03420541062951088,
      0.03249593824148178,
      0.03169655054807663,
      0.04947001859545708,
      -0.010791881009936333,
      -0.04085024073719978,
      -0.03223381191492081,
      -0.042579684406518936,
      -0.024608051404356956,
      -0.020517095923423767,
      -0.02746608853340149,
      -0.014517120085656643,
      -0.014410363510251045,
      0.04549860581755638,
      0.0017619786085560918,
      0.0607324056327343,
      0.016296882182359695,
      0.014261026866734028,
      -0.035234302282333374,
      0.0027431983035057783,
      0.03573464974761009,
      0.08789580315351486,
      -0.002182962140068412,
      0.02890784852206707,
      0.023556508123874664,
      0.010194090195000172,
      -0.028077729046344757,
      0.012485585175454617,
      -0.0005491399206221104,
      -0.034038953483104706,
      0.031248783692717552,
      0.02520991489291191,
      -0.022656789049506187,
      -0.04162745550274849,
      0.12025277316570282,
      0.022280091419816017,
      -0.014161553233861923,
      -0.04438609629869461,
      -0.0037477505393326283,
      -0.025652389973402023,
      -0.05052316561341286,
      -0.020113881677389145,
      -0.014580516144633293,
      -0.032835960388183594,
      -0.014515826478600502,
      0.06505217403173447,
      8.248889935202897e-05,
      0.032157961279153824,
      -0.10529173165559769,
      0.03999071195721626,
      -0.031407032161951065,
      -0.09508974105119705,
      0.028989940881729126,
      -0.04386461153626442,
      -0.0254667978733778,
      -0.019813816994428635,
      0.025187771767377853,
      0.010076465085148811,
      0.02116210386157036,
      -0.007209379225969315,
      0.020092178136110306,
      0.037325669080019,
      -0.09172669798135757,
      0.006372989155352116,
      0.045995958149433136,
      -0.037822481244802475,
      -0.026491820812225342,
      0.031708233058452606,
      0.028096243739128113,
      -0.0176579337567091,
      0.03004833310842514,
      0.010597401298582554,
      0.04645385593175888,
      -0.01015426404774189,
      0.013342414051294327,
      0.021588081493973732,
      0.014164628461003304,
      -0.094785675406456,
      -0.017977600917220116,
      0.0022513617295771837,
      -0.014918471686542034,
      0.021091146394610405,
      0.08121440559625626,
      -0.023081256076693535,
      0.004284859634935856,
      -0.061237528920173645,
      0.03126640245318413,
      -0.022385668009519577,
      0.04815635085105896,
      -0.006396165583282709,
      -0.0063589769415557384,
      -0.008233264088630676,
      0.0008420070516876876,
      0.01821937784552574,
      -0.006679863203316927,
      0.02299497276544571,
      0.0015760926762595773,
      -0.016047874465584755,
      -0.07943785935640335,
      0.010092653334140778,
      0.02166314423084259,
      0.02001214772462845,
      0.01921514794230461,
      0.025610629469156265,
      -0.024139178916811943,
      -0.0011155257234349847,
      -0.011764723807573318,
      0.010605556890368462,
      0.03894268348813057,
      0.02621319144964218,
      -0.0360846221446991,
      0.020366612821817398,
      0.08014325797557831,
      -0.008438062854111195,
      0.038418810814619064,
      0.059174612164497375,
      0.019673123955726624,
      -0.0838792473077774,
      0.042745526880025864,
      -0.00860750675201416,
      0.004097296856343746,
      -0.00808429904282093,
      -0.0025507458485662937,
      -0.03550618141889572,
      -0.02408979833126068,
      -0.029383795335888863,
      0.09219104796648026,
      -0.006148296408355236,
      0.02367290109395981,
      -0.03311825543642044,
      -0.023556403815746307,
      -0.038686253130435944,
      -0.0027197652962058783,
      0.003590407082810998,
      -0.008627192117273808,
      -0.00287653598934412,
      -0.040792316198349,
      -0.00038277474232017994,
      -0.010598501190543175,
      0.009773384779691696,
      -0.0032315871212631464,
      0.09099331498146057,
      0.012906058691442013,
      0.030578738078475,
      0.02998526394367218,
      -0.009180974215269089,
      -0.06698523461818695,
      -0.006291124504059553,
      0.013399056158959866,
      -0.028200021013617516,
      -0.03607521951198578,
      0.0030338072683662176,
      0.004581080283969641,
      -0.010087658651173115,
      0.015862753614783287,
      -0.0019222334958612919,
      3.8742546166758984e-05,
      0.0005969898193143308,
      -0.031326282769441605,
      -0.018630076199769974,
      -0.004048319533467293,
      -0.002541993046179414,
      0.07066892832517624,
      0.00016358448192477226,
      -0.032594285905361176,
      0.022280309349298477,
      -0.008785397745668888,
      0.00999670010060072,
      -0.04865405336022377,
      -0.008034221827983856,
      -0.004233472049236298,
      -0.013643616810441017,
      0.01324417069554329,
      0.011738022789359093,
      -0.03242138400673866,
      0.0037280444521456957,
      -0.03732816502451897,
      -0.011510505340993404,
      0.01732633449137211,
      -0.015488714911043644,
      0.02588384971022606,
      -0.019414933398365974,
      -0.03326597437262535,
      0.014228704385459423,
      0.026188109070062637,
      -0.06491830199956894,
      0.014739306643605232,
      -0.03352295234799385,
      0.010273256339132786,
      0.020805325359106064,
      0.08786602318286896,
      0.05108613893389702,
      0.025766925886273384,
      -0.0007291237125173211,
      -0.035690613090991974,
      -0.011065905913710594,
      0.03066963143646717,
      0.03964944928884506,
      0.002107985084876418,
      -0.010840922594070435,
      -0.07221537083387375,
      -0.021719669923186302,
      -0.008400124497711658,
      0.03435809537768364,
      0.05072227492928505,
      -0.030618373304605484,
      -0.028974903747439384,
      0.05881446972489357,
      -0.017128601670265198,
      0.016956036910414696,
      -0.09869198501110077,
      -0.0019161795498803258,
      0.042865898460149765,
      0.030067242681980133,
      -0.022925036028027534,
      0.03149205818772316,
      0.04526476934552193,
      -0.013541994616389275,
      0.0015305019915103912,
      -0.005800329148769379,
      0.01197026763111353,
      -0.07141375541687012,
      0.005373936612159014,
      -0.008319149725139141,
      0.014514327980577946,
      0.018175728619098663,
      0.013754494488239288,
      -9.768721065483987e-05,
      -0.012062416411936283,
      0.006574554834514856,
      0.013500289060175419,
      0.0008351514115929604,
      -0.03227381408214569,
      0.01592252217233181,
      -0.014865171164274216,
      0.015969157218933105,
      -0.0435609295964241,
      0.031093137338757515,
      0.016583960503339767,
      -0.0003032384265679866,
      0.059083182364702225,
      -0.020135145634412766,
      0.010355175472795963,
      0.041794225573539734,
      -0.01594211719930172,
      -0.04538072645664215,
      0.019877133890986443,
      -0.05255090817809105,
      0.003154743928462267,
      -0.03491184860467911,
      -0.024662287905812263,
      0.014816231094300747,
      -0.026808442547917366,
      -0.01230562012642622,
      0.050945404917001724,
      -0.035083871334791183,
      -0.02023214101791382,
      0.0077133458107709885,
      0.017330201342701912,
      0.03715965151786804,
      -0.015008723363280296,
      -0.019829783588647842,
      -0.025385277345776558,
      -0.03185797110199928,
      -0.0075035132467746735,
      -0.015291839838027954,
      -0.007185363210737705,
      -0.00016500597121194005,
      -0.02319754846394062,
      0.04254083335399628,
      0.011158672161400318,
      0.04511541500687599,
      0.012220436707139015,
      0.019844258204102516,
      -0.020687399432063103,
      -0.010313804261386395,
      0.033052366226911545,
      0.05152186378836632,
      -0.005981313530355692,
      0.016155196353793144,
      0.031913530081510544,
      0.011442850343883038,
      -0.023884182795882225,
      0.022161882370710373,
      0.002492735628038645,
      -0.02623620629310608,
      0.03126044571399689,
      0.0390486940741539,
      -0.0272676944732666,
      -0.025440039113163948,
      0.06263317912817001,
      0.03216994181275368,
      -0.010801204480230808,
      -0.03986218571662903,
      0.01788892224431038,
      -0.02307325229048729,
      -0.05746778845787048,
      -0.033712781965732574,
      -0.04108620807528496,
      -0.026492217555642128,
      0.01349253673106432,
      0.12936106324195862,
      0.044940605759620667,
      0.04016463831067085,
      -0.16939663887023926,
      0.21904437243938446,
      -0.11084496229887009,
      -0.0738576352596283,
      0.028538256883621216,
      0.1241980791091919,
      -0.043719932436943054,
      0.17836609482765198,
      0.0616825707256794,
      0.20906998217105865,
      0.02688370831310749,
      0.13497602939605713,
      0.06446269154548645,
      -0.010353277437388897,
      -0.09902838617563248,
      0.10167767852544785,
      0.0051019941456615925,
      0.14989541471004486,
      0.06493432074785233,
      0.09621542692184448,
      0.13923422992229462,
      -0.004785644821822643,
      0.08246976882219315,
      0.08587208390235901,
      0.023680562153458595,
      0.12209876626729965,
      -0.21562419831752777,
      -0.181297168135643,
      0.0752955749630928,
      0.003186600748449564,
      -0.03613285720348358,
      -0.12260439991950989,
      -0.09815340489149094,
      -0.19914919137954712,
      0.017169805243611336,
      0.11752113699913025,
      -0.09047164022922516,
      0.16373606026172638,
      0.08309518545866013,
      -0.09253409504890442,
      -0.0145897651091218,
      -0.061286669224500656,
      0.11857527494430542,
      -0.208634153008461,
      0.054357077926397324,
      0.11098578572273254,
      -0.05557581037282944,
      -0.1554713398218155,
      0.14253300428390503,
      -0.13969799876213074,
      -0.043206166476011276,
      0.09298161417245865,
      -0.2131715714931488,
      -0.03859614208340645,
      -0.038096703588962555,
      0.15169964730739594,
      0.1483379751443863,
      0.11274705827236176,
      0.18065324425697327,
      0.12301978468894958,
      0.02100341022014618,
      0.012071405537426472,
      -0.009833378717303276,
      0.0001627239107619971,
      -0.0035796065349131823,
      -0.012520545162260532,
      0.0034524674993008375,
      0.011738806962966919,
      0.026553550735116005,
      -0.024866588413715363,
      0.00783711951225996,
      0.011956537142395973,
      0.015888791531324387,
      -0.011862819083034992,
      0.0038178914692252874,
      -0.012255428358912468,
      -0.0009294826304540038,
      -0.027268489822745323,
      -0.0070885904133319855,
      0.009574425406754017,
      -0.0012433615047484636,
      0.007344569079577923,
      -0.002123943530023098,
      0.022588059306144714,
      -0.003880570875480771,
      -0.028294174000620842,
      -0.007164976559579372,
      -0.00627476628869772,
      -0.015757402405142784,
      -0.0016105520771816373,
      0.0006941694300621748,
      -0.016004569828510284,
      0.00941769964993,
      -0.014845028519630432,
      -0.0018111736280843616,
      0.014898555353283882,
      0.0076635959558188915,
      0.017583616077899933,
      -0.027412869036197662,
      0.004888906609266996,
      -0.010705678723752499,
      0.03428427875041962,
      -0.009884270839393139,
      0.012356284074485302,
      0.0009147702367044985,
      -6.978345481911674e-05,
      -0.011069339700043201,
      0.016284164041280746,
      0.013355680741369724,
      -0.018696051090955734,
      0.007618600036948919,
      0.032618630677461624,
      -7.890284337008779e-07,
      -0.04289358854293823,
      0.041382983326911926,
      -0.0009847517358139157,
      0.0036604804918169975,
      -0.005237877368927002,
      -0.014123578555881977,
      -0.0066846818663179874,
      0.0008193196845240891,
      -0.011020255275070667,
      0.02697320468723774,
      -0.003692516591399908,
      -0.006722494959831238,
      0.017933925613760948,
      0.16375339031219482,
      0.10908734053373337,
      -0.17654238641262054,
      -0.1140616312623024,
      -0.11546729505062103,
      0.25270816683769226,
      -0.013258649036288261,
      0.3943447470664978,
      -0.042273566126823425,
      0.15061616897583008,
      0.16816279292106628,
      -0.06971760094165802,
      -0.033282570540905,
      0.21385715901851654,
      -0.11542636901140213,
      -0.16917449235916138,
      0.04027799516916275,
      0.1519421637058258,
      -0.17132852971553802,
      -0.30157965421676636,
      -0.3259273171424866,
      -0.5154247879981995,
      0.045760102570056915,
      0.08247646689414978,
      -0.08681396394968033,
      -0.12044043838977814,
      -0.16079482436180115,
      0.06776756048202515,
      -0.09289079159498215,
      -0.16031856834888458,
      0.0861075147986412,
      -0.1317797154188156,
      0.17361502349376678,
      -0.23999853432178497,
      0.02346046455204487,
      0.02490183711051941,
      -0.0775872990489006,
      -0.02713164873421192,
      0.17470329999923706,
      -0.4855376183986664,
      -0.113165482878685,
      0.18792349100112915,
      0.007283581420779228,
      0.11488857120275497,
      -0.09882093220949173,
      -0.17418858408927917,
      0.1935795247554779,
      -0.14776284992694855,
      0.45954254269599915,
      -0.16925176978111267,
      0.09390505403280258,
      0.10630965977907181,
      0.6535900235176086,
      0.10868079960346222,
      0.00018400840053800493,
      0.023373454809188843,
      -0.1206725463271141,
      -0.07935482263565063,
      0.19121059775352478,
      0.01054286491125822,
      0.05937761813402176,
      -0.24962951242923737,
      -0.17616792023181915,
      0.04664688557386398,
      -0.0035103908739984035,
      0.01292180735617876,
      -0.02101822942495346,
      0.006371136289089918,
      -0.021663086488842964,
      0.004854919388890266,
      0.006380693055689335,
      -0.025589890778064728,
      0.007836931385099888,
      -0.009143575094640255,
      0.010458719916641712,
      0.0037527268286794424,
      -0.0018680802313610911,
      -0.011191138066351414,
      0.011869904585182667,
      -0.03312446549534798,
      -0.042655833065509796,
      -0.005186393857002258,
      0.0029288639780133963,
      -0.002121148630976677,
      0.012545979581773281,
      0.012312033213675022,
      0.003807257628068328,
      -0.014268801547586918,
      0.0015554423443973064,
      -0.008718660101294518,
      0.005030980333685875,
      0.009825457818806171,
      -0.006344036664813757,
      -0.004480873234570026,
      0.007769513875246048,
      -0.007036296185106039,
      -0.005649046506732702,
      -0.007733296137303114,
      0.017094777897000313,
      -0.007542637176811695,
      0.02711413986980915,
      -0.0016650223406031728,
      -0.01991453394293785,
      0.012051880359649658,
      0.002885260386392474,
      0.00390455755405128,
      0.009642315097153187,
      -0.008213873952627182,
      -0.01252052839845419,
      -0.020016968250274658,
      0.0050269123166799545,
      0.011721918359398842,
      0.004753935616463423,
      0.013906404376029968,
      0.011755013838410378,
      -0.006511826068162918,
      0.05028243362903595,
      -0.010755113326013088,
      -0.0014563148142769933,
      -0.011393432505428791,
      -0.006503520533442497,
      0.009158743545413017,
      0.0013094088062644005,
      -0.00403926195576787,
      0.002657500561326742,
      0.007225145120173693,
      -0.015559745952486992,
      0.036243271082639694,
      -0.009014328010380268,
      0.03870201110839844,
      -0.09311055392026901,
      0.010859980247914791,
      -0.016833433881402016,
      -0.04188931733369827,
      0.04170149192214012,
      -0.0605984702706337,
      -0.018193114548921585,
      0.007150483317673206,
      0.01639636419713497,
      0.0019275854574516416,
      0.03004731424152851,
      -0.009889080189168453,
      0.013549542054533958,
      -0.06498666107654572,
      -0.0832015722990036,
      0.013340855948626995,
      0.031006166711449623,
      0.00437080767005682,
      0.011897286400198936,
      0.055188506841659546,
      0.020286159589886665,
      0.03835567086935043,
      0.006428908556699753,
      -0.002810856094583869,
      0.005064066033810377,
      0.002921639010310173,
      -0.016153426840901375,
      0.002460545627400279,
      0.012552441097795963,
      -0.05796166881918907,
      0.0099734952673316,
      -0.013583577238023281,
      0.02251371368765831,
      -0.030972113832831383,
      0.0018000721465796232,
      0.004386895801872015,
      -0.009170937351882458,
      0.002869583899155259,
      0.017198923975229263,
      -0.005408471450209618,
      -0.005248171743005514,
      0.005783070344477892,
      -0.0004208237514831126,
      -0.007879067212343216,
      0.015733666718006134,
      0.03197156637907028,
      -0.014153686352074146,
      0.023444706574082375,
      0.007888519205152988,
      0.009567060507833958,
      -0.07645314186811447,
      -0.021674809977412224,
      -0.0257252249866724,
      0.02481851726770401,
      0.004343175794929266,
      0.0019077432807534933,
      0.0025914127472788095,
      0.01395069994032383,
      0.03328608348965645,
      0.03450128808617592,
      0.01632368378341198,
      0.011101560667157173,
      0.0043774801306426525,
      0.001322665368206799,
      0.028600351884961128,
      -0.029784779995679855,
      -0.0037760999985039234,
      0.03678208589553833,
      -0.017690522596240044,
      -0.003177765291184187,
      0.006943859625607729,
      -0.007542956154793501,
      -0.003989436663687229,
      -0.024340761825442314,
      -0.020481770858168602,
      0.009443402290344238,
      -0.029405418783426285,
      -0.014224667102098465,
      0.0486297681927681,
      -0.00968635268509388,
      -0.017410757020115852,
      0.014183281920850277,
      0.02099071629345417,
      0.006339493207633495,
      -0.0061025782488286495,
      -0.021005896851420403,
      -0.02542228251695633,
      -0.026514437049627304,
      -0.005632054526358843,
      -0.01015564240515232,
      -0.007157052401453257,
      -0.00557450857013464,
      -0.010685751214623451,
      0.025096114724874496,
      0.0025403161998838186,
      0.028229614719748497,
      0.014522152952849865,
      0.016680119559168816,
      -0.029641158878803253,
      -0.004490197170525789,
      0.027342619374394417,
      0.05337686464190483,
      -0.008383965119719505,
      0.03676506131887436,
      0.022122329100966454,
      0.016194285824894905,
      -0.016458697617053986,
      0.0162194836884737,
      0.0014960038242861629,
      -0.04622267559170723,
      0.03696301206946373,
      0.016482099890708923,
      -0.015982603654265404,
      -0.024861054494976997,
      0.07761909812688828,
      0.007466605398803949,
      -0.003567534266039729,
      -0.03469337522983551,
      0.004249026533216238,
      -0.021402176469564438,
      -0.02583368867635727,
      -0.010964891873300076,
      -0.009108122438192368,
      -0.03376077488064766,
      -0.006977357901632786,
      -0.20526346564292908,
      0.009610009379684925,
      0.050752174109220505,
      0.03651811555027962,
      -0.051128681749105453,
      0.10470698028802872,
      -0.06659971177577972,
      -0.14041489362716675,
      0.18817073106765747,
      -0.16697342693805695,
      -0.09374791383743286,
      -0.04810963571071625,
      0.05138067528605461,
      -0.06534072756767273,
      0.08044236898422241,
      -0.07030103355646133,
      0.0478232316672802,
      0.07225732505321503,
      -0.015242891386151314,
      0.08188308775424957,
      0.08839813619852066,
      0.06895755231380463,
      -0.09799491614103317,
      0.0007692900253459811,
      0.0713343694806099,
      0.06188977509737015,
      0.0400807224214077,
      -0.014271196909248829,
      -0.11556243896484375,
      0.0933065339922905,
      0.20840568840503693,
      0.019007917493581772,
      -0.00976778008043766,
      0.03132389858365059,
      0.23295384645462036,
      -0.03034563548862934,
      0.0699823796749115,
      -0.08496569842100143,
      -0.04423601180315018,
      -0.04371211677789688,
      -0.09261761605739594,
      -0.02184574492275715,
      0.005203981883823872,
      0.04056023061275482,
      0.01165712159126997,
      -0.02870757319033146,
      0.047649361193180084,
      -0.08694162219762802,
      -0.13944260776042938,
      0.04884035140275955,
      0.13696891069412231,
      -0.07294245064258575,
      0.086341992020607,
      -0.07020529359579086,
      0.1506245732307434,
      0.08893847465515137,
      0.0935245081782341,
      0.23699593544006348,
      -0.038416169583797455,
      0.003180903848260641,
      -0.03903999552130699,
      -0.2380356788635254,
      -0.02823948860168457,
      -0.023930782452225685,
      -0.009818937629461288,
      0.010977979749441147,
      0.005636574234813452,
      0.03276194632053375,
      -0.025244439020752907,
      0.02114262245595455,
      0.025367679074406624,
      -0.009524590335786343,
      -0.06497705727815628,
      0.004288085270673037,
      -0.03221447765827179,
      0.004498980473726988,
      -0.022442910820245743,
      -0.011887120082974434,
      0.022304462268948555,
      -0.01954631507396698,
      -0.005778233986347914,
      0.0401001013815403,
      -0.015035701915621758,
      -0.012141690589487553,
      0.024189388379454613,
      0.013292621821165085,
      0.041455816477537155,
      -0.005352342966943979,
      -0.035532183945178986,
      -0.017097415402531624,
      -0.019563959911465645,
      -0.009196745231747627,
      -0.01339042093604803,
      0.005094251129776239,
      -0.0016205139691010118,
      -0.00892868172377348,
      0.024417275562882423,
      0.010185261256992817,
      0.04760458692908287,
      0.009399596601724625,
      0.022596314549446106,
      -0.03699236363172531,
      -0.0020362967625260353,
      0.03462575003504753,
      0.04161727800965309,
      4.193604036117904e-05,
      0.005756908096373081,
      0.025880176573991776,
      0.016876276582479477,
      -0.017170725390315056,
      0.024990471079945564,
      0.004267088603228331,
      -0.031287793070077896,
      0.007990570738911629,
      0.0446305088698864,
      -0.01699347048997879,
      -0.03694429621100426,
      0.00792689062654972,
      0.027753839269280434,
      0.011214726604521275,
      -0.01911379210650921,
      0.005252556875348091,
      -0.0205965805798769,
      -0.04020014405250549,
      -0.011127556674182415,
      -0.03136495128273964,
      -0.023615026846528053,
      0.0026087642181664705,
      0.017234424129128456,
      -0.01655586063861847,
      0.017651209607720375,
      0.023190859705209732,
      0.008273709565401077,
      -0.00030973987304605544,
      0.02302173525094986,
      0.025485923513770103,
      -0.13859616219997406,
      0.027688676491379738,
      0.01350441575050354,
      0.001565411570481956,
      0.02912568300962448,
      -0.0024890373460948467,
      -0.011014923453330994,
      0.013736417517066002,
      -0.056681860238313675,
      -0.030036501586437225,
      0.01126703992486,
      -0.0030104350298643112,
      -0.022210897877812386,
      -0.004877328407019377,
      -0.011492903344333172,
      0.012489399872720242,
      0.025585493072867393,
      -0.005427945405244827,
      0.00035984726855531335,
      0.030858363956212997,
      0.01642165333032608,
      -0.02767484448850155,
      -0.00782672967761755,
      0.01354809571057558,
      0.02533097192645073,
      -0.008002657443284988,
      -0.009920412674546242,
      0.020183447748422623,
      -0.05246976390480995,
      0.04153712838888168,
      0.00795808993279934,
      -0.0007275583338923752,
      -0.0036387171130627394,
      -0.002290644682943821,
      -0.012918210588395596,
      0.001408345066010952,
      -0.004811808466911316,
      0.0209895558655262,
      0.006028147414326668,
      -0.003319085342809558,
      0.10451996326446533,
      -0.011792249046266079,
      0.0021168887615203857,
      0.016754942014813423,
      0.0012238844064995646,
      -0.020676445215940475,
      -0.015699081122875214,
      -0.043199650943279266,
      -0.014088261872529984,
      -0.032550521194934845,
      0.014774901792407036,
      -0.0006178395706228912,
      -0.009621278382837772,
      0.02864786423742771,
      -0.027870018035173416,
      0.00990691315382719,
      0.04929962381720543,
      -0.01891273818910122,
      0.04314097762107849,
      -0.1148359552025795,
      0.014455901458859444,
      -0.00610099732875824,
      -0.06383076310157776,
      0.06695839017629623,
      -0.05416671559214592,
      -0.029081840068101883,
      -0.008768737316131592,
      0.01904791034758091,
      -0.012965930625796318,
      0.03581169247627258,
      -0.020688775926828384,
      0.024941271170973778,
      -0.0686337798833847,
      -0.0797201618552208,
      0.012084860354661942,
      0.041959766298532486,
      -0.00711411377415061,
      0.005628551822155714,
      0.0566658116877079,
      0.02334231324493885,
      0.03529994189739227,
      0.01688167080283165,
      -0.0030622733756899834,
      0.011065660044550896,
      -0.003201359184458852,
      -0.012499898672103882,
      0.022118477150797844,
      0.01793801039457321,
      -0.07927931100130081,
      -0.007038299925625324,
      -0.0032757383305579424,
      0.011465655639767647,
      -0.004480206407606602,
      0.02267344668507576,
      -0.012272295542061329,
      -0.02377333864569664,
      -0.008933361619710922,
      0.02571769431233406,
      -0.0028793620876967907,
      0.0016859431052580476,
      0.00598503090441227,
      -0.022531989961862564,
      -0.005183512810617685,
      0.014064213261008263,
      0.05367240682244301,
      -0.012836354784667492,
      0.01974753476679325,
      0.009113676846027374,
      0.017788385972380638,
      -0.056865256279706955,
      -0.026867134496569633,
      -0.016834450885653496,
      0.0198314618319273,
      0.014775272458791733,
      0.01250995323061943,
      -0.012405169196426868,
      0.020895740017294884,
      0.025093749165534973,
      0.02450164593756199,
      0.002859083004295826,
      -0.011642631143331528,
      -0.05909297242760658,
      -0.02389327622950077,
      0.2028481364250183,
      -0.05652613192796707,
      0.19803351163864136,
      0.12424036860466003,
      0.07108013331890106,
      -0.08758388459682465,
      0.04542064294219017,
      -0.10405698418617249,
      0.008363611996173859,
      -0.03528966009616852,
      0.03145981207489967,
      -0.13096851110458374,
      0.021834930405020714,
      -0.03450341522693634,
      0.24766211211681366,
      -0.05572180449962616,
      -0.017574621364474297,
      -0.15599068999290466,
      -0.0350799597799778,
      -0.1172875389456749,
      -0.04423108696937561,
      0.040813934057950974,
      0.015119297429919243,
      0.03089669533073902,
      -0.012234430760145187,
      -0.07058120518922806,
      -0.022932102903723717,
      0.09580115973949432,
      -0.0449521467089653,
      0.22601720690727234,
      -0.051061734557151794,
      0.014959702268242836,
      0.054449886083602905,
      0.037835050374269485,
      -0.0713408961892128,
      -0.07478661090135574,
      -0.006301162298768759,
      -0.08132283389568329,
      -0.053515445441007614,
      -0.00204202882014215,
      0.012267015874385834,
      0.04452971741557121,
      -0.004947068635374308,
      -0.011473138816654682,
      0.024764757603406906,
      0.08264055103063583,
      -0.06467916816473007,
      0.030506204813718796,
      -0.024720225483179092,
      0.01486562192440033,
      0.024704182520508766,
      -0.08667578548192978,
      0.01883874274790287,
      0.11002599447965622,
      -0.0012146963272243738,
      -0.0039431010372936726,
      -0.07839477807283401,
      0.01791636273264885,
      -0.08337672054767609,
      -0.010974440723657608,
      -0.017089514061808586,
      0.021189264953136444,
      -0.014654728583991528,
      0.027347732335329056,
      -0.02750576287508011,
      0.0006400821730494499,
      0.01691071316599846,
      -0.007571858819574118,
      0.03199832886457443,
      -0.08029159158468246,
      0.009096581488847733,
      0.002324526896700263,
      0.011114399880170822,
      0.005402126349508762,
      0.011080639436841011,
      -0.008899043314158916,
      -0.00542804878205061,
      -0.05077887699007988,
      -0.02987782098352909,
      0.0031948855612426996,
      0.03009362332522869,
      0.004475241526961327,
      0.0016100875800475478,
      0.02046486921608448,
      0.01337896566838026,
      0.03664395585656166,
      0.000946044921875,
      -0.0032395427115261555,
      0.003546755760908127,
      -0.005097799468785524,
      -0.012149235233664513,
      -0.0037599406205117702,
      0.004289720673114061,
      -0.008075682446360588,
      0.006818564608693123,
      0.00827664602547884,
      0.024945814162492752,
      -0.03893414884805679,
      -0.009198348969221115,
      0.004792224615812302,
      0.004612781573086977,
      0.008711524307727814,
      -0.015189386904239655,
      -0.00472257612273097,
      -0.0015116934664547443,
      -0.0009739117813296616,
      0.01841745711863041,
      -0.003220913466066122,
      0.003080180147662759,
      0.03726775199174881,
      -0.029216410592198372,
      0.0007678588153794408,
      -0.0006878582062199712,
      -0.0012822265271097422,
      -0.03476213663816452,
      -0.010091017931699753,
      -0.025567015632987022,
      0.025546051561832428,
      -0.0028885165229439735,
      0.0008672868716530502,
      -0.0217402596026659,
      0.003617058042436838,
      0.033219341188669205,
      0.003001077799126506,
      0.017632927745580673,
      -0.01961331069469452,
      0.008611800149083138,
      0.00016060136840678751,
      0.033634964376688004,
      -0.026332439854741096,
      0.024855872616171837,
      0.03513495996594429,
      -0.01654863730072975,
      -0.007079028524458408,
      0.003561105113476515,
      -0.009411022998392582,
      -0.0034389484208077192,
      -0.023407677188515663,
      -0.017835237085819244,
      0.014708101749420166,
      -0.02778582088649273,
      -0.015334711410105228,
      0.06455479562282562,
      -0.006756829563528299,
      -0.01220405101776123,
      0.011107120662927628,
      0.018693286925554276,
      0.011246106587350368,
      -0.0037032836116850376,
      -0.0422365702688694,
      -0.02391849271953106,
      -0.0187142975628376,
      -0.009990404359996319,
      -0.015387868508696556,
      -0.0073920018039643764,
      -0.005672043189406395,
      -0.00847156997770071,
      0.02876514568924904,
      -0.0012945326743647456,
      0.03568948805332184,
      0.01518173422664404,
      0.0201011560857296,
      -0.035789135843515396,
      0.0031518228352069855,
      0.029947156086564064,
      0.04796012490987778,
      -0.006709202192723751,
      0.030445612967014313,
      0.014813846908509731,
      0.01964440569281578,
      -0.008694571442902088,
      0.025568947196006775,
      -0.001676853746175766,
      -0.04131438955664635,
      0.0239716786891222,
      0.02091226354241371,
      -0.016481997445225716,
      -0.03826484456658363,
      0.057140741497278214,
      0.012156547978520393,
      -0.0005422461545094848,
      -0.03535681217908859,
      -0.002669723005965352,
      -0.01911105029284954,
      -0.025769589468836784,
      -0.007899327203631401,
      -0.0019248874159529805,
      -0.040751390159130096,
      -0.006208005826920271,
      0.027522610500454903,
      0.010071706026792526,
      -0.004867000970989466,
      0.008465825580060482,
      0.006356404162943363,
      -0.010829082690179348,
      0.015134114772081375,
      0.003851019311696291,
      -0.05688478797674179,
      0.02416764572262764,
      -0.011353764683008194,
      0.0016927106771618128,
      0.016406750306487083,
      -0.008058825507760048,
      -0.007958366535604,
      0.009703276678919792,
      -0.025247847661376,
      -0.038655173033475876,
      -0.011808103881776333,
      -0.014108601026237011,
      -0.030078794807195663,
      0.004950717557221651,
      -0.0006405824096873403,
      0.005319836083799601,
      0.012885739095509052,
      -0.006979897152632475,
      -0.004795816261321306,
      0.04366075247526169,
      0.006089348811656237,
      0.008778722956776619,
      -0.00965422485023737,
      -0.004864898044615984,
      0.0013431593542918563,
      -0.007772183045744896,
      -0.027272827923297882,
      0.020233014598488808,
      -0.00518285296857357,
      0.0728529691696167,
      0.0011902397964149714,
      -0.008470539003610611,
      -0.009053620509803295,
      -0.004041722044348717,
      -0.00589215662330389,
      -0.0015865658642724156,
      0.003464316949248314,
      -0.02500523254275322,
      -0.007267029955983162,
      -0.006738603580743074,
      0.05684070289134979,
      -0.02558881789445877,
      -0.010556256398558617,
      0.0029266811907291412,
      -0.028191111981868744,
      0.07137607783079147,
      -0.017366450279951096,
      0.030200716108083725,
      -0.017128584906458855,
      -0.028942907229065895,
      0.007053048349916935,
      -0.004620886407792568,
      -0.004192622844129801,
      0.01809014193713665,
      -0.006134381052106619,
      0.0072014289908111095,
      0.052614133805036545,
      -0.025928830727934837,
      0.052688609808683395,
      -0.15719358623027802,
      0.009726102463901043,
      -0.00871545635163784,
      -0.06230635195970535,
      0.0856432318687439,
      -0.05253427475690842,
      -0.03315639868378639,
      0.03151001036167145,
      0.039491161704063416,
      0.00997778307646513,
      0.056666139513254166,
      -0.015496354550123215,
      0.036595962941646576,
      -0.11088371276855469,
      -0.10860525816679001,
      0.04006567969918251,
      0.03708736225962639,
      0.002358590019866824,
      0.028009070083498955,
      0.058141205459833145,
      0.028171885758638382,
      0.04079890623688698,
      0.01999320648610592,
      0.011304203420877457,
      -0.02947726845741272,
      0.002408798551186919,
      -0.0442076176404953,
      -0.007363438606262207,
      0.03230947256088257,
      -0.05787908285856247,
      0.0025164212565869093,
      -0.0009130721446126699,
      0.01999528333544731,
      -0.04746371880173683,
      -0.057317543774843216,
      0.004266972187906504,
      -0.005364955402910709,
      0.01860249601304531,
      0.010561507195234299,
      -0.010103890672326088,
      -0.015695106238126755,
      0.011028848588466644,
      0.025241229683160782,
      -0.029340945184230804,
      0.034103818237781525,
      0.045580580830574036,
      -0.04207531362771988,
      0.03937819227576256,
      0.026791729032993317,
      -0.009064043872058392,
      -0.09005264937877655,
      -0.05536579713225365,
      -0.0607692115008831,
      0.023692792281508446,
      -0.002187541453167796,
      0.001396712614223361,
      0.01662442833185196,
      0.04960194230079651,
      0.07002309709787369,
      0.06464910507202148,
      -0.00016237345698755234,
      0.03987620770931244,
      -0.002611197531223297,
      -0.0020699745509773493,
      0.03496643900871277,
      0.00532596604898572,
      -0.013135755434632301,
      0.04657898098230362,
      0.0018752987962216139,
      -0.07179935276508331,
      0.05307242274284363,
      -0.02308577112853527,
      -0.01829157955944538,
      0.0125570734962821,
      -0.01218009926378727,
      -0.012444261461496353,
      -0.01650140807032585,
      -0.057034462690353394,
      -0.048928242176771164,
      -0.03071344457566738,
      -0.009452850557863712,
      -0.009769085794687271,
      0.03564503788948059,
      0.004365664441138506,
      -0.0053494032472372055,
      -0.0023902698885649443,
      -0.013648180291056633,
      -0.01096276380121708,
      0.055625490844249725,
      0.022406069561839104,
      -0.024337859824299812,
      -0.027537688612937927,
      -0.021200696006417274,
      0.03144518658518791,
      0.014608129858970642,
      -0.03840227052569389,
      0.04577644169330597,
      -0.04545937478542328,
      0.09007809311151505,
      -0.008531581610441208,
      -0.018041342496871948,
      -0.015859346836805344,
      -0.003214873606339097,
      -0.00184886553324759,
      -0.011658462695777416,
      -0.002501297276467085,
      -0.010066823102533817,
      -0.016320623457431793,
      -0.01386913564056158,
      0.14559224247932434,
      0.003525966079905629,
      -0.010865870863199234,
      0.0020680392626672983,
      0.005522765219211578,
      0.056369051337242126,
      -0.02458811178803444,
      -0.010102486237883568,
      -0.017428401857614517,
      -0.03128372132778168,
      -0.0072792605496943,
      -0.003797428449615836,
      -0.026239093393087387,
      0.04003459960222244,
      -0.013494055718183517,
      0.0169031023979187,
      0.048155561089515686,
      -0.0006934065604582429,
      0.018109485507011414,
      -0.004330452531576157,
      0.01411512866616249,
      -0.040799740701913834,
      0.020019520074129105,
      0.00168125971686095,
      -0.03463539481163025,
      0.014279005117714405,
      -0.004142238758504391,
      0.0038438313640654087,
      0.006333818193525076,
      -0.0018588444218039513,
      -0.007153757382184267,
      0.006338811479508877,
      -0.039558712393045425,
      -0.0491526834666729,
      -0.012272319756448269,
      0.015935014933347702,
      0.009811580181121826,
      0.03463741019368172,
      0.04301014170050621,
      -0.0012454624520614743,
      0.0007140709203667939,
      2.5410343369003385e-05,
      -0.010894638486206532,
      0.005056439898908138,
      0.011228665709495544,
      -0.022233901545405388,
      -0.012746973894536495,
      -0.0015379677060991526,
      0.0025918378960341215,
      0.0072991917841136456,
      -0.001618524780496955,
      0.01920251175761223,
      -0.029970018193125725,
      0.01450992189347744,
      0.0030304233077913523,
      -0.01501905545592308,
      0.01643897220492363,
      0.006836086045950651,
      0.0023335858713835478,
      -0.0014917596708983183,
      -0.010835513472557068,
      -0.007189979776740074,
      -0.023173484951257706,
      -0.002167298225685954,
      0.019507911056280136,
      0.005843552760779858,
      0.009460404515266418,
      0.006991783622652292,
      -0.009032189846038818,
      0.027628861367702484,
      -0.009441415779292583,
      -0.028542790561914444,
      -0.01608620584011078,
      -0.015219351276755333,
      0.015740180388092995,
      0.008570280857384205,
      -0.018628763034939766,
      0.009688311256468296,
      0.008124222978949547,
      -0.005379837937653065,
      -0.0012518669245764613,
      -0.002531524980440736,
      0.013280858285725117,
      0.007573671173304319,
      -0.019246267154812813,
      -0.012862857431173325,
      0.028048034757375717,
      -0.00962988380342722,
      -0.022839566692709923,
      -0.0007332956301979721,
      0.0030014582443982363,
      -0.0048738992772996426,
      -0.019116083160042763,
      -0.008762786164879799,
      0.009702417999505997,
      -0.018934624269604683,
      -0.019024774432182312,
      0.036689333617687225,
      -0.0010354010155424476,
      -0.002582383342087269,
      0.021402724087238312,
      0.024300644174218178,
      0.016384514048695564,
      -0.0015502972528338432,
      -0.01486817467957735,
      -0.01777995191514492,
      -0.025784427300095558,
      -0.009232536889612675,
      -0.0064862859435379505,
      -0.009721565060317516,
      0.0009759092936292291,
      -0.008064253255724907,
      0.019806277006864548,
      0.005982493981719017,
      0.03747766464948654,
      0.01489019300788641,
      0.004675325471907854,
      -0.050291094928979874,
      -0.005186840426176786,
      0.030049078166484833,
      0.0609029196202755,
      0.0008225044584833086,
      0.027312977239489555,
      0.012393414974212646,
      0.017589202150702477,
      -0.02274591289460659,
      0.013081719167530537,
      -0.0018700442742556334,
      -0.04471445083618164,
      0.03453529253602028,
      0.024674812331795692,
      -0.012011329643428326,
      -0.023495865985751152,
      0.04556471109390259,
      0.004498156253248453,
      -0.010826748795807362,
      -0.023394867777824402,
      1.7210652003996074e-05,
      -0.012270769104361534,
      -0.021308107301592827,
      -0.00694612879306078,
      -0.013279472477734089,
      -0.01784159429371357,
      -0.01249630842357874,
      0.015749197453260422,
      -0.015330684371292591,
      0.010809497907757759,
      -0.0051283868961036205,
      -0.024807685986161232,
      -0.019764035940170288,
      0.014117962680757046,
      -0.0014353669248521328,
      -0.003113894257694483,
      -0.004479759372770786,
      0.001217823475599289,
      -0.0006084492197260261,
      -0.02080751769244671,
      -0.010221544653177261,
      -0.018057191744446754,
      -0.01942194253206253,
      -0.0032374151051044464,
      0.03731497749686241,
      -0.005261651705950499,
      -0.00847542006522417,
      0.005652665160596371,
      0.01476325187832117,
      -0.016733473166823387,
      -0.0018233690643683076,
      -0.028975926339626312,
      -0.013006969355046749,
      -0.015225091017782688,
      0.0163787379860878,
      -0.017106112092733383,
      0.015555782243609428,
      0.002058587269857526,
      -0.0063818213529884815,
      0.020536495372653008,
      -0.0023250808008015156,
      0.010854463092982769,
      0.008391162380576134,
      0.027211971580982208,
      0.005612614564597607,
      -0.018224140629172325,
      0.02186306193470955,
      0.02453264407813549,
      -0.0019518851768225431,
      0.03432310372591019,
      0.022518333047628403,
      0.01751241274178028,
      -0.028058886528015137,
      0.001241623773239553,
      0.0025152950547635555,
      -0.031109843403100967,
      0.04410111531615257,
      -0.012702912092208862,
      -0.004960287362337112,
      -0.054221026599407196,
      0.08950351923704147,
      -0.014858878217637539,
      0.026349088177084923,
      -0.026453107595443726,
      0.001062731258571148,
      -0.017600735649466515,
      -0.016495004296302795,
      -0.005786701571196318,
      0.0176690723747015,
      -0.007852401584386826,
      -0.007391932886093855,
      -0.01421302743256092,
      -0.02661781944334507,
      0.037240300327539444,
      -0.0004598360392265022,
      0.009505749680101871,
      -0.016794860363006592,
      0.0014049747260287404,
      0.034732475876808167,
      -0.13254085183143616,
      0.016385160386562347,
      -0.008952260948717594,
      0.0069535947404801846,
      0.003019997850060463,
      0.004596862010657787,
      -0.013498474843800068,
      -0.0018076084088534117,
      -0.07549461722373962,
      -0.03865475207567215,
      -0.005335255526006222,
      0.014627229422330856,
      -0.0013184502022340894,
      0.011703569442033768,
      0.027622327208518982,
      -3.6361313959787367e-06,
      -0.021635087206959724,
      0.010479449294507504,
      -0.01022370345890522,
      0.02337007038295269,
      0.01948646456003189,
      0.011198284104466438,
      -0.0029151062481105328,
      0.003914172761142254,
      0.01603715308010578,
      0.01773298904299736,
      -0.007135121151804924,
      0.03540083393454552,
      -0.016884276643395424,
      0.03217891976237297,
      -0.01862972043454647,
      -0.010846282355487347,
      0.01976042054593563,
      0.01519063115119934,
      -0.007253411691635847,
      0.003947889897972345,
      0.005560979247093201,
      -0.01518659945577383,
      0.003647971199825406,
      0.011287081055343151,
      0.0798710361123085,
      0.008124525658786297,
      0.027736645191907883,
      0.017173029482364655,
      0.008542070165276527,
      -0.011465149000287056,
      -0.014528542757034302,
      -0.0015397575916722417,
      -0.0068113417364656925,
      -0.013232549652457237,
      -0.014462419785559177,
      -0.023932823911309242,
      -0.005536741577088833,
      0.025378232821822166,
      -0.028497379273176193,
      0.0026290561072528362,
      0.002445623744279146,
      0.007325245067477226,
      0.004283071495592594,
      0.02583475410938263,
      -0.0191348847001791,
      -0.020327825099229813,
      0.034828804433345795,
      -0.012126537039875984,
      -0.03911568596959114,
      0.018510734662413597,
      -0.01297506969422102,
      0.007674891967326403,
      -0.018180659040808678,
      -0.018062947317957878,
      0.01876823604106903,
      -0.03309239074587822,
      -0.02573048695921898,
      0.03661150857806206,
      -0.011325821280479431,
      -0.024703003466129303,
      0.02214796282351017,
      0.013957255519926548,
      0.014442653395235538,
      -0.0023032601457089186,
      -0.04611365124583244,
      -0.023006204515695572,
      -0.02495552971959114,
      -0.011530144140124321,
      -0.002599717816337943,
      -0.011000768281519413,
      -0.0049520921893417835,
      -0.00942160189151764,
      0.03361339122056961,
      0.0185640100389719,
      0.04098919406533241,
      0.016177475452423096,
      0.0036752077285200357,
      -0.030662354081869125,
      -0.0023667379282414913,
      0.03917717561125755,
      0.03621188923716545,
      -0.003256542142480612,
      0.008279962465167046,
      0.03731274604797363,
      0.007960532791912556,
      0.003633461194112897,
      -0.0012286182027310133,
      0.008000590838491917,
      -0.022862190380692482,
      0.026220129802823067,
      0.02844129502773285,
      -0.01898919977247715,
      -0.020738746970891953,
      0.07265893369913101,
      0.024936048313975334,
      -0.013464272953569889,
      -0.022955570369958878,
      0.012461842969059944,
      -0.02851833403110504,
      -0.03906051442027092,
      -0.01096003595739603,
      0.0004433422873262316,
      -0.03829270973801613,
      -0.0016436853911727667,
      -0.017353931441903114,
      -0.008103679865598679,
      0.00555230351164937,
      0.013157441280782223,
      -0.008832581341266632,
      0.015180178917944431,
      0.017363086342811584,
      -0.0013783554313704371,
      -0.07379671186208725,
      0.012236622162163258,
      -0.008948812261223793,
      0.0014343339717015624,
      -0.005994702223688364,
      -0.008334537036716938,
      0.005940327420830727,
      -0.022306689992547035,
      -0.015922904014587402,
      -8.924784197006375e-05,
      -0.0056783840991556644,
      0.008399300277233124,
      0.025092212483286858,
      0.01758652552962303,
      0.08822223544120789,
      -0.003965491428971291,
      -0.04451713338494301,
      -0.013360387645661831,
      -0.009661355055868626,
      -0.0066023715771734715,
      -0.002211988903582096,
      0.01565680466592312,
      -0.021780459210276604,
      -0.0026147114112973213,
      0.008823389187455177,
      0.018151042982935905,
      0.044212646782398224,
      0.02475418522953987,
      0.021784571930766106,
      -0.04144718870520592,
      0.002538183005526662,
      0.008925117552280426,
      0.055335890501737595,
      -0.008788712322711945,
      -0.01143660955131054,
      0.01508816797286272,
      -0.013374271802604198,
      -0.009888418018817902,
      0.014644895680248737,
      -0.0015865742461755872,
      -0.013523346744477749,
      -0.017134010791778564,
      0.013452945277094841,
      -0.006073109805583954,
      -0.044640444219112396,
      0.03063916228711605,
      0.025224046781659126,
      0.02361280657351017,
      -0.013321113772690296,
      -0.004868481773883104,
      -0.0021736635826528072,
      -0.03954049572348595,
      -0.021919794380664825,
      0.003949885256588459,
      -0.011344155296683311,
      0.005637165624648333,
      -0.12261345237493515,
      -0.024556288495659828,
      0.008361311629414558,
      0.015865616500377655,
      -0.1643901914358139,
      0.05029979348182678,
      -0.02862006425857544,
      -0.04084299877285957,
      0.1402103304862976,
      0.02234499715268612,
      -0.0374104268848896,
      -0.036232344806194305,
      -0.10909558087587357,
      0.05935641750693321,
      -0.07141537219285965,
      0.06039422005414963,
      0.14737361669540405,
      0.08524396270513535,
      0.004642197862267494,
      0.05108533427119255,
      0.16265039145946503,
      0.12218716740608215,
      0.10431009531021118,
      -0.0833074226975441,
      -0.2773998975753784,
      -0.0109359510242939,
      -0.067087322473526,
      0.001673663267865777,
      -0.08027244359254837,
      0.1577228605747223,
      0.06094597280025482,
      0.022386908531188965,
      -0.07526464015245438,
      -0.05583180487155914,
      -0.16165994107723236,
      -0.06454804539680481,
      0.13568387925624847,
      0.036492668092250824,
      -0.042863741517066956,
      0.004374834708869457,
      0.14468924701213837,
      -0.06880256533622742,
      0.07211706787347794,
      -0.05398064851760864,
      -0.03171948343515396,
      -0.03419338911771774,
      0.11208479851484299,
      -0.04503853619098663,
      -0.18626171350479126,
      0.07273939996957779,
      0.06312815099954605,
      -0.11564431339502335,
      0.004113448318094015,
      0.06440615653991699,
      -0.06364913284778595,
      0.06161168962717056,
      -0.06319969147443771,
      0.014892310835421085,
      -0.07833611220121384,
      -0.10395222902297974,
      -0.04196108877658844,
      -0.16808894276618958,
      0.06466706097126007,
      -0.09575847536325455,
      0.016707293689250946,
      -0.009384997189044952,
      0.0011125431628897786,
      -0.045789409428834915,
      0.006117730401456356,
      0.012432683259248734,
      -0.028425630182027817,
      0.02810632809996605,
      0.01124438177794218,
      -0.01936984620988369,
      0.03215326741337776,
      0.04137806221842766,
      -0.009726385585963726,
      0.013245661742985249,
      -0.03759749233722687,
      0.019498733803629875,
      0.017233077436685562,
      0.04125277325510979,
      0.04617505893111229,
      0.04045522212982178,
      -0.049876388162374496,
      -0.04032881185412407,
      -0.06433051079511642,
      0.020240388810634613,
      0.03901286795735359,
      0.019776752218604088,
      0.011465005576610565,
      -0.04873468726873398,
      -0.00691658491268754,
      0.0013129498111084104,
      0.020021792501211166,
      0.03484172746539116,
      -0.04349113628268242,
      -0.021096421405673027,
      -0.0025018262676894665,
      -0.020013747736811638,
      0.018633225932717323,
      -0.07757425308227539,
      -0.017111316323280334,
      0.008758697658777237,
      -0.01973101496696472,
      -0.022271106019616127,
      0.025995345786213875,
      0.0026169242337346077,
      -0.0011942156124860048,
      0.019310783594846725,
      -0.004195605870336294,
      0.014912947081029415,
      -0.030749216675758362,
      -0.016823867335915565,
      -0.007902378216385841,
      0.009318690747022629,
      -0.014849725179374218,
      0.01902015507221222,
      0.0019645497668534517,
      0.0031840582378208637,
      0.007096853572875261,
      0.029012002050876617,
      0.015215961262583733,
      0.011579395271837711,
      0.013211354613304138,
      0.01342728827148676,
      -0.001193161471746862,
      -0.0258567463606596,
      0.021887503564357758,
      0.00908544659614563,
      -0.0021784419659525156,
      0.014119600877165794,
      0.012647365219891071,
      -0.007995180785655975,
      0.024029871448874474,
      0.0028112237341701984,
      -0.07018014788627625,
      0.033676862716674805,
      -0.010182453319430351,
      -0.005320093594491482,
      0.021934792399406433,
      -0.009093166328966618,
      -0.0074682049453258514,
      0.0022676149383187294,
      -0.033918123692274094,
      -0.041360557079315186,
      -0.01719719171524048,
      -0.008506975136697292,
      -0.04339466243982315,
      0.010588321834802628,
      -0.010918959975242615,
      0.0018258917843922973,
      0.016398459672927856,
      -0.012861793860793114,
      -0.0012087386567145586,
      0.05026700720191002,
      0.015457197092473507,
      -0.006032316479831934,
      -0.011688330210745335,
      -0.013077246956527233,
      0.01694476418197155,
      -0.001958551350980997,
      -0.03026863932609558,
      0.03357720002532005,
      -0.019231369718909264,
      0.08023504912853241,
      -0.0027248908299952745,
      -0.006107103079557419,
      -0.019050275906920433,
      -0.004205186851322651,
      -0.010215999558568,
      -0.00928455963730812,
      0.0018611146369948983,
      -0.013999921269714832,
      -0.007160890847444534,
      -0.011177006177604198,
      0.08742029964923859,
      -0.02088194712996483,
      -0.0051040262915194035,
      0.0031528205145150423,
      -0.006716872099786997,
      0.04578663408756256,
      -0.01774454489350319,
      0.008629770949482918,
      -0.0202073622494936,
      -0.027602314949035645,
      0.009277358651161194,
      0.008265393786132336,
      -0.017965154722332954,
      0.027797501534223557,
      -0.014787367545068264,
      0.01904197968542576,
      0.000995379639789462,
      0.006702448707073927,
      0.00974744837731123,
      0.007771921809762716,
      -0.012599950656294823,
      -0.014641174115240574,
      0.02157810516655445,
      -0.013914537616074085,
      -0.036163851618766785,
      -0.0014308083336800337,
      -0.00638456828892231,
      -0.007094252854585648,
      -0.019373323768377304,
      -0.010136300697922707,
      0.020896656438708305,
      -0.017849696800112724,
      -0.012133815325796604,
      0.024441411718726158,
      -0.008999062702059746,
      -0.00022488452668767422,
      0.02496923692524433,
      0.01855010911822319,
      0.04261120781302452,
      -0.001303412951529026,
      -0.0168813057243824,
      -0.015889586880803108,
      -0.025498241186141968,
      -0.009986313991248608,
      -0.007044066675007343,
      -0.0035003344528377056,
      -0.0037392987869679928,
      -0.009562980383634567,
      0.008990772999823093,
      0.009815008379518986,
      0.05244563892483711,
      0.007188955321907997,
      0.007199686951935291,
      -0.04166740924119949,
      0.0032816987950354815,
      0.024597322568297386,
      0.0468398816883564,
      0.00665058009326458,
      0.01529982965439558,
      0.008558567613363266,
      0.01384133193641901,
      -0.023206086829304695,
      0.011481083929538727,
      -0.0064433966763317585,
      -0.04322080314159393,
      0.02412496693432331,
      0.03265846148133278,
      -0.015593001618981361,
      -0.01783912256360054,
      0.01690320484340191,
      0.01794622093439102,
      0.001210479880683124,
      -0.014880847185850143,
      0.006588192656636238,
      -0.008765492588281631,
      -0.020669780671596527,
      -0.01043706201016903,
      -0.011748054064810276,
      -0.012596563436090946,
      -0.012507378123700619,
      0.06205805763602257,
      0.02036951296031475,
      -0.007190708536654711,
      0.020813042297959328,
      0.013023743405938148,
      -0.026140280067920685,
      -0.005607027094811201,
      0.04939255863428116,
      -0.12564416229724884,
      0.032608382403850555,
      -0.0012534671695902944,
      0.005672222934663296,
      0.018607432022690773,
      0.014995538629591465,
      0.0021448859479278326,
      -0.014084442518651485,
      -0.05883823335170746,
      -0.0026934375055134296,
      0.007954642176628113,
      -0.021139198914170265,
      -0.024432478472590446,
      -0.028218287974596024,
      0.05127880722284317,
      0.02419416233897209,
      -0.014456234872341156,
      -0.011396468617022038,
      0.03452426567673683,
      0.017101218923926353,
      0.02853299491107464,
      0.014318638481199741,
      -0.034130554646253586,
      0.00470094894990325,
      0.057823050767183304,
      0.026305466890335083,
      -0.08858365565538406,
      0.043753620237112045,
      -0.02481144294142723,
      0.05140428990125656,
      0.011596479453146458,
      0.07039274275302887,
      -0.01808704249560833,
      -0.0027944131288677454,
      -0.06241129711270332,
      0.04455724358558655,
      -0.007878114469349384,
      0.005831848364323378,
      0.01949356123805046,
      -0.01563003472983837,
      0.04494019225239754,
      -0.08976469188928604,
      -0.025638142600655556,
      0.01703973300755024,
      -0.02926015481352806,
      -0.05621372163295746,
      -0.0005594253307208419,
      0.012746733613312244,
      -0.04530958831310272,
      -0.061916593462228775,
      -0.014679999090731144,
      0.0014508176827803254,
      -0.006585456430912018,
      0.0804390236735344,
      -0.029770387336611748,
      0.04502873122692108,
      0.0029793158173561096,
      -0.016108518466353416,
      0.008844306692481041,
      0.015067009255290031,
      -0.015537241473793983,
      0.007474422920495272,
      0.02198665589094162,
      0.015115653164684772,
      -0.04129927232861519,
      0.006582705304026604,
      -0.00349035975523293,
      0.009754021652042866,
      -0.03324522078037262,
      -0.0003084012714680284,
      -0.01209763903170824,
      -0.009345848113298416,
      -0.03893196955323219,
      0.037635013461112976,
      -0.004447015933692455,
      0.009443587623536587,
      0.02497929520905018,
      0.007585166487842798,
      0.06036556139588356,
      -0.015962157398462296,
      -0.04671100154519081,
      -0.014696607366204262,
      -0.0160483680665493,
      -0.03343794122338295,
      -0.003565195482224226,
      -0.0022341739386320114,
      -0.01543596014380455,
      -0.0006965691572986543,
      0.008767685852944851,
      -0.001742361462675035,
      0.0394459143280983,
      0.024440359324216843,
      0.030929582193493843,
      -0.04284496232867241,
      -0.007514296565204859,
      0.007418554276227951,
      0.06326129287481308,
      0.00017501295951660722,
      0.0296345055103302,
      0.006014577578753233,
      0.0009333815542049706,
      -0.02819080464541912,
      0.03105323761701584,
      0.006966034881770611,
      -0.0634542778134346,
      0.024254221469163895,
      0.05307282507419586,
      0.0006604941445402801,
      -0.036618366837501526,
      0.048896364867687225,
      0.002614844124764204,
      -0.0029021056834608316,
      -0.013837380334734917,
      -0.019416378811001778,
      -0.004484585486352444,
      -0.009338059462606907,
      -0.03481583297252655,
      0.005550845060497522,
      -0.012198412790894508,
      -0.010927613824605942,
      0.01034454070031643,
      -0.006848441902548075,
      0.0009479562868364155,
      0.05236457660794258,
      -0.026598643511533737,
      0.04305867850780487,
      0.03359266370534897,
      -0.002478501060977578,
      -0.08201978355646133,
      0.004250184632837772,
      -0.039814695715904236,
      -0.0048675923608243465,
      -0.030853301286697388,
      -0.012520807795226574,
      0.0022052337881177664,
      -0.016554106026887894,
      -0.004515001084655523,
      0.04811311513185501,
      -0.024627182632684708,
      -0.001551567343994975,
      0.027828652411699295,
      0.02101452834904194,
      0.0751132145524025,
      -0.01301982719451189,
      -0.012603250332176685,
      -0.022244678810238838,
      -0.023578934371471405,
      -0.01821110025048256,
      -0.012340826913714409,
      -0.0014184884494170547,
      -0.011610305868089199,
      -0.012391654774546623,
      0.0299222394824028,
      0.007618624251335859,
      0.03869981691241264,
      0.01703473925590515,
      0.015278317034244537,
      -0.042694177478551865,
      -0.0009596240124665201,
      0.01874000020325184,
      0.0854344367980957,
      -0.007619766518473625,
      0.011974520049989223,
      0.01359898317605257,
      0.004078678786754608,
      -0.017046812921762466,
      0.03768594190478325,
      -0.002072220202535391,
      -0.02251533418893814,
      0.00020543964637909085,
      0.030832882970571518,
      -0.012430688366293907,
      -0.032483115792274475,
      0.021856265142560005,
      0.015856632962822914,
      -0.003421351546421647,
      -0.018532630056142807,
      -0.0077397702261805534,
      -0.009548797272145748,
      -0.04714934900403023,
      -0.03446641564369202,
      -0.03361653909087181,
      0.0005311468848958611,
      0.004850461147725582,
      -0.05651260167360306,
      0.04270738735795021,
      0.0034394743852317333,
      0.07319105416536331,
      -0.03698340803384781,
      -0.010090617462992668,
      0.035950351506471634,
      -0.026665760204195976,
      0.12248113751411438,
      0.031097598373889923,
      0.037239037454128265,
      -0.0027242049109190702,
      0.06249116733670235,
      0.024792267009615898,
      0.04263165965676308,
      -0.00855447817593813,
      0.12061891704797745,
      0.09621274471282959,
      -0.0075300163589417934,
      -0.013901612721383572,
      -0.13149391114711761,
      -0.1331484466791153,
      -0.1909150779247284,
      -0.01514463871717453,
      0.06315793097019196,
      -0.021138902753591537,
      -0.007593759335577488,
      0.031696856021881104,
      0.0008707154192961752,
      0.0039489176124334335,
      -0.023829899728298187,
      -0.021774740889668465,
      0.07988536357879639,
      -0.02667170949280262,
      -0.0189418476074934,
      -0.06750541180372238,
      0.0027525764890015125,
      0.04053221642971039,
      -0.0020253139082342386,
      0.009028475731611252,
      -0.1228579729795456,
      -0.0782352015376091,
      0.01106686145067215,
      -0.05518072098493576,
      0.020801188424229622,
      0.009234758093953133,
      0.04144120216369629,
      -0.011944468133151531,
      -0.029802601784467697,
      0.0342949703335762,
      0.028651250526309013,
      -0.01554511021822691,
      0.015360329300165176,
      0.02854030765593052,
      0.00626898929476738,
      -0.012464706785976887,
      0.02008555829524994,
      0.009503798559308052,
      -0.03813784569501877,
      0.03840743377804756,
      0.008064416237175465,
      -0.014677383005619049,
      0.006442443002015352,
      -0.0008900996763259172,
      0.0008844538824632764,
      -0.010666098445653915,
      0.013094797730445862,
      0.021292349323630333,
      0.021982625126838684,
      -0.002363126492127776,
      0.02385612577199936,
      0.024499082937836647,
      -0.11170601844787598,
      0.04477066174149513,
      0.03222429007291794,
      -0.006365014705806971,
      0.04762463644146919,
      -0.006073831580579281,
      -0.006111843977123499,
      0.0013341158628463745,
      -0.059952568262815475,
      -0.05536555498838425,
      0.019665563479065895,
      0.009644177742302418,
      -0.03331957012414932,
      -0.004973764531314373,
      -0.028662165626883507,
      0.02719751186668873,
      0.04343067482113838,
      -0.0066301641054451466,
      0.018729252740740776,
      0.054577313363552094,
      0.02422427386045456,
      -0.030237946659326553,
      -0.014604778960347176,
      0.010405839420855045,
      0.029904136434197426,
      0.002071578521281481,
      -0.036833494901657104,
      0.007632536813616753,
      -0.081723652780056,
      0.09085532277822495,
      0.018765201792120934,
      0.015954187139868736,
      -0.008684986270964146,
      -0.017845844849944115,
      -0.013484800234436989,
      -0.027718650177121162,
      -0.004489601124078035,
      0.026897452771663666,
      0.01979069784283638,
      -0.021873317658901215,
      0.12351275980472565,
      -0.03998755291104317,
      -0.038253046572208405,
      0.01861158199608326,
      -0.02490258775651455,
      -0.022863619029521942,
      -0.008331123739480972,
      -0.05873825401067734,
      -0.03355772793292999,
      -0.05233149603009224,
      0.031267862766981125,
      0.014623538590967655,
      -0.016847018152475357,
      0.06109775975346565,
      -0.0437653549015522,
      0.028803089633584023,
      0.021130084991455078,
      -0.036312926560640335,
      -0.0012618816690519452,
      -0.04337914288043976,
      0.008014985360205173,
      0.006030663847923279,
      -0.027512436732649803,
      0.02593405544757843,
      -0.01924264244735241,
      -0.041367318481206894,
      -0.009952640160918236,
      0.015663940459489822,
      -0.06763847172260284,
      0.012214048765599728,
      -0.03663693368434906,
      0.002019191160798073,
      0.04723160341382027,
      0.08052396774291992,
      0.03444240614771843,
      0.019325003027915955,
      -0.002746673533692956,
      -0.049534253776073456,
      0.011664697900414467,
      0.033755894750356674,
      0.04651228338479996,
      0.005784280132502317,
      -0.009040418080985546,
      -0.054670289158821106,
      -0.02669161930680275,
      -0.0017000500811263919,
      0.0340312160551548,
      0.04834902659058571,
      -0.04931563884019852,
      -0.017672976478934288,
      0.07351099699735641,
      -0.03693581745028496,
      0.009672143496572971,
      -0.04474857449531555,
      -0.00265392754226923,
      0.0435699000954628,
      0.040210116654634476,
      -0.028280748054385185,
      0.009175947867333889,
      0.0629459023475647,
      -0.012572958134114742,
      -0.016482001170516014,
      -0.014053858816623688,
      -0.006021754816174507,
      -0.07487833499908447,
      0.002011121716350317,
      -0.006822902709245682,
      0.01004890538752079,
      0.03874906525015831,
      0.04268829524517059,
      -0.0003643603704404086,
      -0.0013765098992735147,
      0.014732060953974724,
      0.009888841770589352,
      -0.004067289177328348,
      -0.04559490457177162,
      0.012011943385004997,
      -0.013007676228880882,
      0.010813075117766857,
      -0.030102664604783058,
      0.018120910972356796,
      0.002233876148238778,
      0.0021198748145252466,
      0.006195837631821632,
      0.0007395560387521982,
      0.015849051997065544,
      -8.259294554591179e-05,
      0.0099408607929945,
      -0.025154385715723038,
      0.0036114491522312164,
      -0.014747642911970615,
      0.005079585127532482,
      -0.004194332752376795,
      -0.000733319902792573,
      0.002751877997070551,
      0.0004998944932594895,
      -0.0009896443225443363,
      -0.0023722935002297163,
      -0.00209230137988925,
      0.012860872782766819,
      0.006170496344566345,
      0.0060988618060946465,
      0.026450099423527718,
      0.001320825656875968,
      -0.00015348353190347552,
      0.0014748693211004138,
      0.00012896789121441543,
      -0.0018074698746204376,
      -0.005535447038710117,
      0.0005151452496647835,
      -0.004278785083442926,
      0.0015785442665219307,
      -0.008383309468626976,
      0.0007245516171678901,
      0.02292824164032936,
      0.0055321878753602505,
      0.0014102731365710497,
      -0.006471625529229641,
      -0.0053862822242081165,
      0.006255107466131449,
      0.013318591751158237,
      -0.00388513645157218,
      -0.013849088922142982,
      0.009665056131780148,
      -0.009596903808414936,
      -0.004920418839901686,
      0.00013893241703044623,
      -0.003755014855414629,
      -0.006917050573974848,
      -0.022318203002214432,
      -0.003796304576098919,
      -0.005371779203414917,
      -0.026554804295301437,
      0.012395520694553852,
      0.007385758217424154,
      0.0046719033271074295,
      0.005152279511094093,
      0.0013345053885132074,
      0.01036746148020029,
      -0.023238206282258034,
      -0.009406892582774162,
      -0.012955714948475361,
      0.003512948751449585,
      0.00041839166078716516,
      -0.005195524077862501,
      0.007318328600376844,
      0.004924653563648462,
      0.014161677099764347,
      -0.021082570776343346,
      -0.0012319403467699885,
      0.025441719219088554,
      -0.011874963529407978,
      -0.042201485484838486,
      0.001996695762500167,
      -0.009154641069471836,
      -0.0022987157572060823,
      -0.01920088566839695,
      -0.012279363349080086,
      0.02295653149485588,
      -0.021738847717642784,
      -0.013473356142640114,
      0.034899402409791946,
      -0.006703541148453951,
      -0.013066908344626427,
      0.023649169132113457,
      0.01464453898370266,
      0.03523026779294014,
      -0.0013746247859671712,
      -0.02034112997353077,
      -0.01851082034409046,
      -0.02559235505759716,
      -0.010588564909994602,
      -0.007607030216604471,
      -0.006754118949174881,
      -0.003206756431609392,
      -0.00655759871006012,
      0.019334595650434494,
      0.007287053391337395,
      0.04965970665216446,
      0.010898975655436516,
      0.010531296022236347,
      -0.041901376098394394,
      0.002509110141545534,
      0.029520351439714432,
      0.047397807240486145,
      0.0006959207821637392,
      0.009252430871129036,
      0.022869225591421127,
      0.012693825177848339,
      -0.015253393910825253,
      0.009528323076665401,
      0.0012442403240129352,
      -0.04016062244772911,
      0.021367929875850677,
      0.03624824061989784,
      -0.01492104772478342,
      -0.018117090687155724,
      0.022138429805636406,
      0.018655261024832726,
      -0.004292889963835478,
      -0.015100602991878986,
      0.010584327392280102,
      -0.019582441076636314,
      -0.026036953553557396,
      -0.004990293178707361,
      -0.015068321488797665,
      -0.019833695143461227,
      -0.012381906621158123,
      0.028358181938529015,
      -0.004451977089047432,
      -0.0004790945095010102,
      -0.0006233664462342858,
      -0.0012432467192411423,
      0.014283845201134682,
      -0.019554905593395233,
      0.025249972939491272,
      0.0037812271621078253,
      -0.024954138323664665,
      -0.049951374530792236,
      0.01067289337515831,
      -0.033847562968730927,
      0.014772136695683002,
      -0.028345145285129547,
      0.012676246464252472,
      0.04006626084446907,
      0.02929338999092579,
      -0.010402267798781395,
      0.010355797596275806,
      -0.0186588354408741,
      -0.009914514608681202,
      0.006341842003166676,
      0.007805720437318087,
      0.026683948934078217,
