{
  "fc1": {
    "kernel": [
      -0.009198400191962719,
      -0.006638695951551199,
      -0.002523165661841631,
      -0.028278110548853874,
      -0.006425776984542608,
      0.11321500688791275,
      0.024042978882789612,
      0.04698419198393822,
      0.013961203396320343,
      0.04011092707514763,
      0.011096448637545109,
      0.03566456213593483,
      0.001805637963116169,
      -0.13689900934696198,
      -0.026689302176237106,
      0.1113024577498436,
      0.03661983087658882,
      -0.0062295240350067616,
      0.01549141202121973,
      0.02361767739057541,
      0.009316818788647652,
      -0.1350751370191574,
      -0.011890518479049206,
      -0.006557187996804714,
      -0.004499509930610657,
      -0.06917829811573029,
      0.0026478413492441177,
      -0.1704130321741104,
      0.08528152108192444,
      0.0036773064639419317,
      -0.002094075083732605,
      0.0477493479847908,
      -0.042266253381967545,
      0.1238841563463211,
      -0.005361663643270731,
      0.14185258746147156,
      -0.1104506105184555,
      0.08011268079280853,
      -0.08732084184885025,
      -0.1669941395521164,
      0.16522975265979767,
      0.19164320826530457,
      -0.09659566730260849,
      -0.12109535187482834,
      0.008225368335843086,
      -0.1422313153743744,
      -0.19001813232898712,
      0.10305831581354141,
      0.09408136457204819,
      -0.01042884774506092,
      0.08489316701889038,
      0.2127740979194641,
      0.038671039044857025,
      -0.07062918692827225,
      0.11518369615077972,
      -0.03121689334511757,
      -0.02208569273352623,
      -0.08150593936443329,
      -0.11871558427810669,
      -0.07283943891525269,
      0.08415806293487549,
      -0.05264522507786751,
      -0.06186233088374138,
      0.040502145886421204,
      -0.1997346729040146,
      -0.025655439123511314,
      -0.11991818994283676,
      -0.14071422815322876,
      0.0071868631057441235,
      0.02044404298067093,
      0.032045964151620865,
      0.03018045425415039,
      -0.051276616752147675,
      -0.023646194487810135,
      0.020180173218250275,
      0.05656162276864052,
      0.054176244884729385,
      0.10933645069599152,
      0.1074606403708458,
      0.0057188477367162704,
      -0.027823317795991898,
      -0.193683922290802,
      -0.033476028591394424,
      0.0032478836365044117,
      0.4594227373600006,
      -0.10518993437290192,
      -0.0315345861017704,
      -0.23238016664981842,
      -0.35434213280677795,
      -0.11077657341957092,
      0.013769125565886497,
      -0.07873615622520447,
      0.18371456861495972,
      0.08690670877695084,
      0.10455532371997833,
      0.43396657705307007,
      -0.18950249254703522,
      0.12901222705841064,
      -0.10833939164876938,
      0.14638705551624298,
      -0.12140005081892014,
      0.08405418694019318,
      -0.11546864360570908,
      -0.10422785580158234,
      0.17598071694374084,
      0.2077481895685196,
      -0.11217635124921799,
      -0.12975916266441345,
      0.05277012288570404,
      -0.21668171882629395,
      -0.18339473009109497,
      0.091323122382164,
      0.09051312506198883,
      -0.1618187576532364,
      0.08993330597877502,
      0.19187605381011963,
      0.43838050961494446,
      -0.05554239824414253,
      0.1322363317012787,
      -0.20185938477516174,
      -0.22848789393901825,
      -0.1786922961473465,
      -0.14053384959697723,
      0.02629687264561653,
      0.17127662897109985,
      -0.08617345988750458,
      -0.08241745829582214,
      0.30738699436187744,
      0.18426227569580078,
      -0.10601438581943512,
      0.0936393141746521,
      -0.14361102879047394,
      -0.10514254868030548,
      -0.04213860258460045,
      -0.10833670198917389,
      -0.1897474229335785,
      -0.10845939815044403,
      -0.10569222271442413,
      -0.10579781979322433,
      -0.12415062636137009,
      -0.0035521588288247585,
      -0.056141141802072525,
      -0.11393363773822784,
      -0.04819932207465172,
      -0.0781698003411293,
      0.20883257687091827,
      -0.08229874819517136,
      -0.11070071905851364,
      0.3621456027030945,
      0.037486571818590164,
      -0.10884695500135422,
      0.21981081366539001,
      0.3309072256088257,
      0.0793880820274353,
      -0.11534314602613449,
      -0.05136778578162193,
      0.07047975808382034,
      -0.06368547677993774,
      -0.04966681823134422,
      0.43406105041503906
    ],
    "kernelShape": [
      5,
      32
    ],
    "bias": [
      -0.37217244505882263,
      0.21321286261081696,
      -0.18877504765987396,
      0.2845925986766815,
      0.2116927057504654,
      0.08825509250164032,
      0.21532697975635529,
      0.3777550756931305,
      0.217660054564476,
      0.21318984031677246,
      0.21204091608524323,
      0.2469915896654129,
      0.006727945059537888,
      0.11424370110034943,
      0.2281206250190735,
      0.09993996471166611,
      0.1590116322040558,
      -0.42020779848098755,
      0.16650070250034332,
      0.2221943885087967,
      -0.7320824265480042,
      -0.07043782621622086,
      0.21782368421554565,
      -0.4439012408256531,
      -0.6673183441162109,
      -0.1598673164844513,
      0.2314668893814087,
      0.11121713370084763,
      -0.14441876113414764,
      0.12769152224063873,
      0.09971553087234497,
      -0.8661883473396301
    ],
    "biasShape": [
      32
    ]
  },
  "hidden": {
    "kernel": [
      -0.04204170033335686,
      -0.16962973773479462,
      0.039707593619823456,
      0.041563984006643295,
      0.040142472833395004,
      -0.1106569841504097,
      0.05296089127659798,
      0.022684523835778236,
      0.0474989227950573,
      -0.15663480758666992,
      0.007332814857363701,
      0.0049525038339197636,
      0.03244689106941223,
      0.01460541132837534,
      -0.15245887637138367,
      0.026992319151759148,
      0.052437782287597656,
      0.09319032728672028,
      0.05893523618578911,
      0.05495980381965637,
      0.0482478141784668,
      0.04724714905023575,
      0.031310178339481354,
      0.02079898864030838,
      0.04349864646792412,
      0.023285791277885437,
      0.04420973360538483,
      0.014473970048129559,
      -0.14967705309391022,
      -0.18220067024230957,
      0.049493271857500076,
      0.05033077672123909,
      0.1241622045636177,
      0.04816294088959694,
      -0.051261793822050095,
      -0.05270720273256302,
      -0.022524844855070114,
      0.05102434754371643,
      -0.010378874838352203,
      -0.010249943472445011,
      -0.001754032215103507,
      0.010977917350828648,
      0.07034310698509216,
      0.013206115923821926,
      -0.004704862367361784,
      -0.013343309052288532,
      -0.019971409812569618,
      -0.008165131323039532,
      -0.026765869930386543,
      0.009444061666727066,
      -0.04225549101829529,
      -0.015302471816539764,
      -0.0066450005397200584,
      -0.017712166532874107,
      -0.0035371817648410797,
      -0.0053319684229791164,
      -0.011935410089790821,
      -0.008725148625671864,
      -0.003001607023179531,
      -0.005804706364870071,
      0.017439130693674088,
      0.021830270066857338,
      -0.006084656808525324,
      -0.018426375463604927,
      -0.02653939463198185,
      -0.12336640059947968,
      0.024325231090188026,
      0.03368804603815079,
      0.01854029856622219,
      -0.0914425477385521,
      0.028644967824220657,
      0.029150590300559998,
      0.023020604625344276,
      -0.09017010033130646,
      -0.01316570769995451,
      0.05656099691987038,
      0.026132404804229736,
      0.02316398359835148,
      -0.09559430181980133,
      0.026767665520310402,
      0.026032786816358566,
      0.049193933606147766,
      0.03302675858139992,
      0.030681852251291275,
      0.019740886986255646,
      0.021565407514572144,
      0.022980593144893646,
      0.027244292199611664,
      0.02548728697001934,
      0.027997547760605812,
      0.022994451224803925,
      0.005642368458211422,
      -0.10002759844064713,
      -0.11639633029699326,
      0.022648409008979797,
      0.03147532790899277,
      0.14062708616256714,
      0.02110018953680992,
      -0.06854698061943054,
      -0.06775284558534622,
      -0.04204781726002693,
      0.030701907351613045,
      -0.010544889606535435,
      -0.0018281071679666638,
      -0.006324207875877619,
      0.04743313416838646,
      0.06643179804086685,
      0.059011537581682205,
      -0.0060281334444880486,
      -0.004242573399096727,
      0.020338471978902817,
      0.002074694726616144,
      -0.02663252502679825,
      -0.034236740320920944,
      -0.06630431860685349,
      -0.01211479026824236,
      -0.006374632939696312,
      -0.020593471825122833,
      -0.005232148338109255,
      0.004887617193162441,
      -0.011104208417236805,
      0.00005235237767919898,
      -0.008828358724713326,
      -0.022614654153585434,
      0.011791087687015533,
      0.04439166560769081,
      -0.008353985846042633,
      -0.019135931506752968,
      0.14305053651332855,
      0.013508242554962635,
      -0.05093463137745857,
      -0.029257260262966156,
      -0.04226991534233093,
      0.018451178446412086,
      -0.008984633721411228,
      -0.0040755621157586575,
      -0.007943112403154373,
      0.04372987151145935,
      0.07204221189022064,
      -0.009535281918942928,
      -0.003399529494345188,
      -0.022999515756964684,
      0.0200231671333313,
      0.007044612430036068,
      -0.005856406409293413,
      -0.010694099590182304,
      -0.05921459197998047,
      -0.005459715612232685,
      -0.007875192910432816,
      -0.001212004921399057,
      -0.0033552234526723623,
      0.004326200112700462,
      -0.005824245046824217,
      -0.00033251356217078865,
      -0.005369927268475294,
      -0.024751564487814903,
      -0.008520097471773624,
      0.014535955153405666,
      -0.00975089892745018,
      -0.009099308401346207,
      0.08586585521697998,
      0.028401242569088936,
      -0.022468985989689827,
      -0.026099571958184242,
      -0.0066665462218225,
      0.04953140392899513,
      -0.0025584774557501078,
      -0.0018513074610382318,
      0.003828211221843958,
      -0.036137305200099945,
      0.07854630798101425,
      -0.05405950918793678,
      0.008246405981481075,
      -0.02975502423942089,
      -0.03254295885562897,
      -0.0006324127316474915,
      -0.006689919624477625,
      0.02922140061855316,
      -0.03504560887813568,
      -0.0069362688809633255,
      -0.0014242109609767795,
      -0.0014361651847139,
      0.007916620932519436,
      0.0003082643961533904,
      -0.000518397951964289,
      -0.0008253272389993072,
      0.00558739947155118,
      0.0077800690196454525,
      -0.009315161034464836,
      -0.03025747276842594,
      0.0003167978720739484,
      -0.00033104626345448196,
      0.1065487191081047,
      0.028214070945978165,
      -0.04630843922495842,
      -0.028236515820026398,
      -0.04076327756047249,
      0.027673732489347458,
      -0.009148421697318554,
      -0.005168398842215538,
      -0.006258914712816477,
      0.05230138078331947,
      0.06504350155591965,
      0.010755077004432678,
      -0.007340250536799431,
      -0.016358332708477974,
      0.018054453656077385,
      0.0029678060673177242,
      -0.01329047977924347,
      -0.028292469680309296,
      -0.05206938460469246,
      -0.008239708840847015,
      -0.008016913197934628,
      -0.007599922362715006,
      -0.004718868061900139,
      0.0052773356437683105,
      -0.008178424090147018,
      -0.0015769246965646744,
      -0.005474683362990618,
      -0.020767230540513992,
      -0.00007801498577464372,
      0.02560165524482727,
      -0.009703322313725948,
      -0.014848027378320694,
      0.15401940047740936,
      0.034174591302871704,
      -0.09632231295108795,
      -0.09651079028844833,
      -0.09269941598176956,
      0.06360810995101929,
      -0.011844078078866005,
      0.025613030418753624,
      0.0031360520515590906,
      0.08022809773683548,
      0.12960556149482727,
      0.025517823174595833,
      0.005820104852318764,
      -0.02273838222026825,
      0.02929737977683544,
      0.03324136510491371,
      -0.020407533273100853,
      -0.1201157346367836,
      -0.10969933867454529,
      -0.011272729374468327,
      -0.003879751078784466,
      -0.003227211767807603,
      0.010143364779651165,
      0.04533224552869797,
      -0.008374589495360851,
      0.030253956094384193,
      0.0016286971513181925,
      -0.06060989946126938,
      -0.03542979434132576,
      0.041851554065942764,
      -0.004679591860622168,
      -0.01565459929406643,
      0.11327990889549255,
      0.046758607029914856,
      -0.021153075620532036,
      -0.06835871934890747,
      -0.014512253925204277,
      0.07786699384450912,
      -0.005790661089122295,
      -0.015414854511618614,
      0.006031880620867014,
      0.019763344898819923,
      0.09120435267686844,
      0.002118685282766819,
      -0.00667126290500164,
      -0.0781342163681984,
      0.0037641481030732393,
      -0.011316865682601929,
      -0.020516760647296906,
      -0.036905404180288315,
      -0.05850639194250107,
      -0.012254266999661922,
      0.003589215688407421,
      -0.011400392279028893,
      -0.003907962702214718,
      -0.009977771900594234,
      -0.00982605293393135,
      -0.01322223898023367,
      0.0010241548297926784,
      0.007720937952399254,
      0.01445046253502369,
      0.021595215424895287,
      0.0031464174389839172,
      -0.014444749802350998,
      0.10900233685970306,
      0.060348644852638245,
      -0.020932048559188843,
      -0.07227686792612076,
      -0.012332015670835972,
      0.09870218485593796,
      -0.006897658109664917,
      -0.019844328984618187,
      0.010430536232888699,
      0.010898768901824951,
      0.11374035477638245,
      -0.015055587515234947,
      -0.006474356632679701,
      -0.09112970530986786,
      -0.004037973005324602,
      -0.01518251933157444,
      -0.021281924098730087,
      -0.026055706664919853,
      -0.06199590861797333,
      -0.015531988814473152,
      0.005262704100459814,
      -0.008875844068825245,
      -0.003413234604522586,
      -0.013607347384095192,
      -0.0120935570448637,
      -0.017227964475750923,
      0.0034837406128644943,
      0.011636178940534592,
      0.016854995861649513,
      0.013003840111196041,
      0.0060079703107476234,
      -0.015126247890293598,
      0.12593139708042145,
      0.018438979983329773,
      -0.04782829433679581,
      -0.029363207519054413,
      -0.04026433080434799,
      0.02164750173687935,
      -0.007875937968492508,
      -0.004905215464532375,
      -0.005067930556833744,
      0.046114783734083176,
      0.0682511255145073,
      0.0009906074265018106,
      -0.006105722393840551,
      -0.020502492785453796,
      0.02048010192811489,
      0.004726203624159098,
      -0.009446168318390846,
      -0.024828432127833366,
      -0.05245339497923851,
      -0.006039704196155071,
      -0.005475996527820826,
      -0.0035652020014822483,
      -0.003912059124559164,
      0.004923070780932903,
      -0.0063039883971214294,
      -0.0011353307636454701,
      -0.0039711035788059235,
      -0.02230428159236908,
      -0.008589413948357105,
      0.018736258149147034,
      -0.007721853442490101,
      -0.012578881345689297,
      0.11288575828075409,
      0.035579465329647064,
      -0.04651554673910141,
      -0.04077470675110817,
      -0.0490720197558403,
      0.04797787219285965,
      -0.008786285296082497,
      -0.007117623463273048,
      -0.0017285284120589495,
      0.05744185298681259,
      0.08672568947076797,
      0.005361313931643963,
      -0.009181205183267593,
      -0.0288357213139534,
      0.02087431587278843,
      0.002947952365502715,
      -0.012281552888453007,
      -0.044236842542886734,
      -0.0673312097787857,
      -0.009080853313207626,
      -0.003195201512426138,
      -0.0038104888517409563,
      -0.004972503054887056,
      0.005917776841670275,
      -0.009498005732893944,
      -0.002611888572573662,
      -0.0035125885624438524,
      -0.025938719511032104,
      -0.005955175496637821,
      0.03047638013958931,
      -0.004570364486426115,
      -0.017182225361466408,
      -0.04846486449241638,
      0.043351322412490845,
      -0.05517495423555374,
      0.13667482137680054,
      -0.03417794406414032,
      -0.11885853111743927,
      -0.06184260919690132,
      -0.10814641416072845,
      -0.010867591015994549,
      0.05347742885351181,
      0.028428440913558006,
      0.1426737755537033,
      -0.1710590124130249,
      -0.02761443704366684,
      0.09581364691257477,
      0.06591275334358215,
      -0.15715228021144867,
      0.17006805539131165,
      0.1438611000776291,
      0.059436507523059845,
      0.058307718485593796,
      0.1590774655342102,
      -0.11429952830076218,
      0.028593389317393303,
      -0.07891730219125748,
      -0.051684558391571045,
      0.0050854492001235485,
      0.0022146846167743206,
      0.03191032260656357,
      0.03810650110244751,
      -0.10540743172168732,
      -0.1576196253299713,
      0.11435551196336746,
      0.002786676399409771,
      0.0067718662321567535,
      -0.007801274303346872,
      -0.00025036875740624964,
      0.05330405756831169,
      -0.003196704899892211,
      -0.023505626246333122,
      0.0004626850422937423,
      0.015641329810023308,
      0.09387139230966568,
      -0.03357227146625519,
      -0.006906261667609215,
      -0.07513350993394852,
      -0.009410819970071316,
      -0.007887217216193676,
      0.012661430984735489,
      0.0013154541375115514,
      -0.05505400896072388,
      -0.00015596086450386792,
      -0.00200641225092113,
      0.013819261454045773,
      -0.008154998533427715,
      -0.01777743361890316,
      -0.004628286696970463,
      -0.01882651075720787,
      -0.0008625398622825742,
      0.009954969398677349,
      -0.006670134142041206,
      -0.0363202728331089,
      0.0026035811752080917,
      -0.00942582730203867,
      0.11014924198389053,
      0.029789390042424202,
      -0.021503571420907974,
      -0.052730366587638855,
      -0.04073294624686241,
      0.0738285556435585,
      -0.01249656267464161,
      -0.0009165139636024833,
      -0.0034335714299231768,
      0.05578606575727463,
      0.0941908061504364,
      -0.02360564097762108,
      -0.0016799935838207603,
      -0.05142006650567055,
      0.012366143986582756,
      0.009400241076946259,
      -0.005322118289768696,
      -0.027581222355365753,
      -0.09217604249715805,
      -0.011202816851437092,
      -0.009040851145982742,
      0.0025236033834517,
      -0.00042564503382891417,
      0.011177483946084976,
      -0.011389683932065964,
      0.0033306267578154802,
      -0.0038998809177428484,
      -0.01796923205256462,
      -0.014516625553369522,
      0.01619745045900345,
      -0.005101827904582024,
      -0.011593607254326344,
      0.10260039567947388,
      0.034172818064689636,
      -0.02715243212878704,
      -0.03223159909248352,
      -0.00798135157674551,
      0.05176955461502075,
      -0.004197466187179089,
      -0.003973383456468582,
      0.0006812029168941081,
      -0.03257262334227562,
      0.0830625370144844,
      -0.04273763671517372,
      0.007443584967404604,
      -0.037750616669654846,
      -0.029425160959362984,
      -0.0025623650290071964,
      -0.008517143316566944,
      0.027157267555594444,
      -0.04050212353467941,
      -0.008626755326986313,
      -0.004044942557811737,
      -0.004795869346708059,
      0.0063260444439947605,
      -0.002311043906956911,
      -0.001624660799279809,
      -0.0029806718230247498,
      0.0030598300509154797,
      0.0086831608787179,
      -0.003079253016039729,
      -0.02489316463470459,
      -0.002585546812042594,
      -0.0004108846187591553,
      0.1006447821855545,
      0.037010401487350464,
      -0.03004545532166958,
      -0.04070122539997101,
      -0.013891912065446377,
      0.0482763946056366,
      -0.005076416302472353,
      -0.007171617820858955,
      -0.00006187576218508184,
      -0.006427247542887926,
      0.06844698637723923,
      -0.011204282753169537,
      -0.00009698968642624095,
      -0.03368557244539261,
      -0.014598358422517776,
      -0.00509654963389039,
      -0.013931789435446262,
      -0.00005564360981225036,
      -0.04270566627383232,
      -0.009366068057715893,
      -0.0027340692467987537,
      -0.009322029538452625,
      0.0002119762502843514,
      -0.0040911780670285225,
      -0.005248569883406162,
      -0.0059088789857923985,
      -0.0001600529212737456,
      0.0035253509413450956,
      0.011908180080354214,
      0.001819813041947782,
      -0.0026629141066223383,
      -0.0075991894118487835,
      -0.14250494539737701,
      -0.04578385502099991,
      0.00685202656313777,
      -0.029181230813264847,
      0.011383870616555214,
      -0.011095965281128883,
      0.07532237470149994,
      -0.027233459055423737,
      0.08204474300146103,
      -0.04292261600494385,
      0.09210208058357239,
      -0.25552013516426086,
      0.008627745322883129,
      -0.2072073221206665,
      -0.031545042991638184,
      -0.008348073810338974,
      0.07785414904356003,
      0.011847113259136677,
      0.02771425060927868,
      0.07208251953125,
      0.09456945210695267,
      0.07731905579566956,
      0.017802627757191658,
      -0.02604401484131813,
      0.052531320601701736,
      -0.022101594135165215,
      0.06592954695224762,
      0.00922342762351036,
      -0.032040975987911224,
      -0.050435081124305725,
      0.09038522094488144,
      0.05837216600775719,
      0.10422025620937347,
      0.03445621579885483,
      -0.03272893279790878,
      -0.03978366404771805,
      -0.015489360317587852,
      0.038918789476156235,
      -0.006140400189906359,
      -0.006266568787395954,
      -0.0016174140619114041,
      0.0020866328850388527,
      0.056661587208509445,
      0.0004926315159536898,
      -0.0014929036842659116,
      -0.02177456207573414,
      -0.013016837649047375,
      -0.0044850134290754795,
      -0.017094705253839493,
      -0.002128163119778037,
      -0.037421248853206635,
      -0.009661223739385605,
      -0.004243484698235989,
      -0.012060160748660564,
      -0.0009418128756806254,
      -0.0030376508366316557,
      -0.006272445898503065,
      -0.005119205918163061,
      -0.001431322074495256,
      -0.00040508652455173433,
      0.010883914306759834,
      0.009604053571820259,
      -0.004362499341368675,
      -0.0103504229336977,
      0.10880696773529053,
      0.07535428553819656,
      -0.025024989619851112,
      -0.06852792948484421,
      -0.01602635532617569,
      0.11232814192771912,
      -0.012149747461080551,
      -0.020732853561639786,
      0.004663825035095215,
      0.014679686166346073,
      0.11085322499275208,
      -0.012897937558591366,
      -0.007374881766736507,
      -0.08397802710533142,
      -0.015457680448889732,
      -0.017899639904499054,
      -0.02855061925947666,
      0.011045881547033787,
      -0.07396812736988068,
      -0.02194448746740818,
      -0.0030809396412223577,
      -0.016944659873843193,
      -0.004710473585873842,
      -0.013982124626636505,
      -0.016957823187112808,
      -0.018396100029349327,
      -0.0013666655868291855,
      0.012821138836443424,
      0.031619686633348465,
      0.018403757363557816,
      -0.00036439840914681554,
      -0.020242363214492798,
      -0.5582765936851501,
      -0.05177325755357742,
      0.11419224739074707,
      0.15950998663902283,
      0.15912778675556183,
      -0.010792323388159275,
      0.08602684736251831,
      -0.13479739427566528,
      0.13143369555473328,
      -0.01576204225420952,
      0.06582114845514297,
      -0.5123526453971863,
      -0.07770536094903946,
      -0.33047154545783997,
      0.0025380849838256836,
      -0.11280187964439392,
      0.055173296481370926,
      0.10320337861776352,
      0.36813753843307495,
      0.05932771787047386,
      0.1478336900472641,
      0.07372277230024338,
      -0.027926739305257797,
      -0.11475794017314911,
      0.0246491190046072,
      -0.12227535992860794,
      0.08098657429218292,
      0.044019442051649094,
      0.009753716178238392,
      -0.00433809868991375,
      0.14039529860019684,
      -0.057663194835186005,
      0.008378015831112862,
      -0.09198904782533646,
      0.009384744800627232,
      0.024885566905140877,
      0.009816436097025871,
      -0.05411466956138611,
      0.017696702852845192,
      0.02319965325295925,
      0.014118279330432415,
      -0.0751161128282547,
      0.03238688036799431,
      -0.023258915171027184,
      0.02476339414715767,
      0.0038666839245706797,
      -0.0606379434466362,
      0.025431517511606216,
      0.02998531609773636,
      0.03896480053663254,
      0.00770785054191947,
      0.022045191377401352,
      0.013456927612423897,
      0.026068920269608498,
      0.018351102247834206,
      0.020483292639255524,
      0.019159415736794472,
      0.02294965088367462,
      0.0157860666513443,
      0.0031223532278090715,
      -0.061272550374269485,
      -0.10813228040933609,
      0.014777452684938908,
      0.027735941112041473,
      0.111005499958992,
      0.04533173888921738,
      -0.050679318606853485,
      -0.05319352447986603,
      -0.026502633467316628,
      0.04984379559755325,
      -0.010318253189325333,
      -0.006638944614678621,
      -0.00005462125045596622,
      0.01936442404985428,
      0.06451236456632614,
      0.021503053605556488,
      -0.004678967874497175,
      -0.014338762499392033,
      -0.0164316575974226,
      -0.005488599184900522,
      -0.0278614554554224,
      0.0017109123291447759,
      -0.04408620297908783,
      -0.015140151605010033,
      -0.0060011474415659904,
      -0.018169760704040527,
      -0.00269994861446321,
      -0.000930909242015332,
      -0.012316057458519936,
      -0.0052481759339571,
      -0.0027422704733908176,
      -0.009038392454385757,
      0.01450942363590002,
      0.029421469196677208,
      -0.0046669417060911655,
      -0.01997707039117813,
      -0.04984765872359276,
      -0.212911918759346,
      0.03910272940993309,
      0.044703803956508636,
      0.03444956988096237,
      -0.13846050202846527,
      0.061151985079050064,
      0.0451163724064827,
      0.054730504751205444,
      -0.18503379821777344,
      0.010882989503443241,
      0.012406888417899609,
      0.04767368361353874,
      0.017698094248771667,
      -0.18066446483135223,
      0.045149367302656174,
      0.060640137642621994,
      0.09794999659061432,
      0.053744424134492874,
      0.0634714886546135,
      0.053226567804813385,
      0.05470173805952072,
      0.04494210332632065,
      0.0431678332388401,
      0.053131651133298874,
      0.04452496021986008,
      0.05256501957774162,
      0.011056920513510704,
      -0.17807139456272125,
      -0.21988971531391144,
      0.05607343465089798,
      0.0626169741153717,
      -0.2347695231437683,
      -0.04886921867728233,
      0.019432613626122475,
      -0.06592366844415665,
      0.023285018280148506,
      0.009072872810065746,
      0.10567977279424667,
      -0.028779195621609688,
      0.1140255481004715,
      -0.07126151770353317,
      0.12811747193336487,
      -0.425612211227417,
      0.016958212479948997,
      -0.23702867329120636,
      -0.06120862066745758,
      -0.004782543051987886,
      0.10915671288967133,
      0.022751184180378914,
      0.04432573914527893,
      0.10131818056106567,
      0.13184854388237,
      0.1083860844373703,
      0.0292193740606308,
      -0.02750578708946705,
      0.07446214556694031,
      -0.022368108853697777,
      0.09319820255041122,
      0.014524536207318306,
      -0.05294469743967056,
      -0.07975485175848007,
      0.12572383880615234,
      0.08933199197053909,
      -0.015570628456771374,
      -0.1278836727142334,
      0.013155077584087849,
      0.05153258144855499,
      0.02391866222023964,
      -0.11049816757440567,
      0.024419544264674187,
      0.013273033313453197,
      0.01688762567937374,
      -0.09077083319425583,
      -0.022627584636211395,
      0.09872248023748398,
      0.014350871555507183,
      0.07498420774936676,
      -0.09888677299022675,
      0.014328724704682827,
      0.024347513914108276,
      0.0835944265127182,
      0.047920260578393936,
      0.027773024514317513,
      0.01617564633488655,
      0.019626760855317116,
      0.010824618861079216,
      0.010846614837646484,
      0.01926969178020954,
      0.012842287309467793,
      0.01639791578054428,
      0.0021131737157702446,
      -0.10124506056308746,
      -0.11186522990465164,
      0.017375729978084564,
      0.024668654426932335,
      0.15566977858543396,
      0.01648564822971821,
      -0.05488331615924835,
      -0.03566404804587364,
      -0.044210243970155716,
      0.020376769825816154,
      -0.00988878682255745,
      -0.005173568148165941,
      -0.009077578783035278,
      0.05075391009449959,
      0.07660869508981705,
      -0.0034937895834445953,
      -0.004948348738253117,
      -0.024599842727184296,
      0.026421036571264267,
      0.006633428856730461,
      -0.008000594563782215,
      -0.020221224054694176,
      -0.0613580122590065,
      -0.006444941274821758,
      -0.008762168698012829,
      -0.0033498634584248066,
      -0.004415285773575306,
      0.00438053160905838,
      -0.006646969821304083,
      -0.001063183299265802,
      -0.006403851788491011,
      -0.026565782725811005,
      -0.009099575690925121,
      0.01888643018901348,
      -0.011386903002858162,
      -0.010555053129792213,
      0.04327543079853058,
      0.02092156559228897,
      -0.06851740181446075,
      -0.045350417494773865,
      0.11843051016330719,
      -0.09423844516277313,
      -0.014659520238637924,
      0.0436638705432415,
      -0.10667882114648819,
      -0.1399991363286972,
      0.10113267600536346,
      -0.11527708172798157,
      0.12888754904270172,
      0.11701390147209167,
      -0.1748972237110138,
      0.08562691509723663,
      0.1321275383234024,
      -0.18281061947345734,
      -0.1000576987862587,
      0.03181342035531998,
      -0.05773089453577995,
      0.10874319076538086,
      -0.03695087507367134,
      -0.09248055517673492,
      0.025991788133978844,
      0.021917689591646194,
      -0.05400234833359718,
      -0.027886904776096344,
      -0.02669610269367695,
      0.058390941470861435,
      -0.04915768653154373,
      0.1264525204896927,
      -0.22728461027145386,
      -0.05979407578706741,
      0.04571975767612457,
      -0.020696086809039116,
      0.0255279541015625,
      0.003082516137510538,
      0.029952846467494965,
      0.05074054002761841,
      0.04310779273509979,
      -0.0031996455509215593,
      -0.02347114309668541,
      -0.09434104710817337,
      0.02828584983944893,
      -0.05740882083773613,
      -0.019455792382359505,
      0.03616269677877426,
      0.013193008489906788,
      -0.08554600924253464,
      0.08033959567546844,
      0.023862440139055252,
      0.034365009516477585,
      0.016497189179062843,
      0.03494981303811073,
      0.05410104617476463,
      0.024377070367336273,
      0.04809717461466789,
      0.03759056329727173,
      -0.020118312910199165,
      -0.06342784315347672,
      -0.016380874440073967,
      0.036995720118284225,
      0.024176308885216713,
      0.048314739018678665,
      0.03823940455913544,
      -0.02400762215256691,
      0.010993736796081066,
      -0.01844489760696888,
      0.030888773500919342,
      -0.008128684014081955,
      -0.01768268272280693,
      -0.0012917591957375407,
      0.018881071358919144,
      0.04618847370147705,
      -0.007268074434250593,
      -0.011081147007644176,
      -0.008791305124759674,
      -0.02006821148097515,
      -0.01192194502800703,
      -0.01232779398560524,
      0.04136483371257782,
      -0.02186286821961403,
      -0.010311932303011417,
      -0.006809575017541647,
      -0.005390168633311987,
      -0.008692329749464989,
      -0.010840575210750103,
      -0.011736998334527016,
      -0.014963436871767044,
      -0.0035068290308117867,
      -0.0015669612912461162,
      0.018314436078071594,
      0.007956457324326038,
      -0.004414702765643597,
      -0.02003045566380024,
      0.017795410007238388,
      0.03177787736058235,
      -0.021575260907411575,
      0.015816114842891693,
      -0.013743353076279163,
      0.025809744372963905,
      -0.006727994419634342,
      -0.01830652542412281,
      0.0031628613360226154,
      0.01738653890788555,
      0.04452452436089516,
      -0.0156428050249815,
      -0.010978100821375847,
      -0.0054136887192726135,
      -0.02241777442395687,
      -0.012683086097240448,
      -0.010506519116461277,
      0.053763605654239655,
      -0.013326073065400124,
      -0.009359214454889297,
      -0.0031485348008573055,
      -0.0013900655321776867,
      -0.008139151148498058,
      -0.01156371459364891,
      -0.011815429665148258,
      -0.015638399869203568,
      -0.0005103990552015603,
      0.00019719751435332,
      0.016024908050894737,
      0.004383075051009655,
      -0.0003805546148214489,
      -0.0173755194991827,
      -0.03161937743425369,
      -0.2862530052661896,
      0.029507745057344437,
      0.08021366596221924,
      0.12547127902507782,
      -0.10760761052370071,
      0.12206706404685974,
      -0.034062325954437256,
      0.13948684930801392,
      -0.294253408908844,
      0.1602814644575119,
      -0.24497734010219574,
      0.02680761180818081,
      -0.3825124502182007,
      -0.21328102052211761,
      -0.016367660835385323,
      0.1212899461388588,
      0.27407562732696533,
      0.2868606150150299,
      0.1013951301574707,
      0.16117151081562042,
      0.11821763962507248,
      0.048770830035209656,
      -0.031737975776195526,
      0.0873037800192833,
      -0.02677549235522747,
      0.10894687473773956,
      0.02902921847999096,
      -0.23061887919902802,
      -0.3169650137424469,
      0.15771715342998505,
      0.03840748220682144
    ],
    "kernelShape": [
      32,
      32
    ],
    "bias": [
      -0.030195850878953934,
      -0.04917774349451065,
      -0.038853008300065994,
      -0.021163832396268845,
      -0.0010076356120407581,
      -0.0013556485064327717,
      0.035362906754016876,
      0.006901542190462351,
      0.042852733284235,
      -0.02736562490463257,
      0.09808804839849472,
      -0.10943537950515747,
      0.015546513721346855,
      -0.0551731139421463,
      -0.11226414144039154,
      0.015324615873396397,
      0.01921308971941471,
      0.08436588197946548,
      0.02980881556868553,
      0.030911089852452278,
      0.03796771913766861,
      0.022251591086387634,
      0.021065613254904747,
      0.017499981448054314,
      0.022124160081148148,
      0.011135107837617397,
      0.0355413481593132,
      -0.022900264710187912,
      -0.07059717178344727,
      -0.05828031525015831,
      0.0415932796895504,
      0.010219777002930641
    ],
    "biasShape": [
      32
    ]
  },
  "output": {
    "kernel": [
      0.5813372135162354,
      -0.17475388944149017,
      0.09664895385503769,
      0.9107420444488525,
      0.15037377178668976,
      0.26030197739601135,
      0.2709527015686035,
      0.16117478907108307,
      0.16368819773197174,
      -0.004432107321918011,
      -0.03272060677409172,
      0.46794232726097107,
      -0.14815391600131989,
      -0.011293862946331501,
      -0.005359292961657047,
      -0.006273307371884584,
      -0.1638628989458084,
      -0.015364456921815872,
      0.42985570430755615,
      1.0264554023742676,
      -0.23204375803470612,
      -0.09664353728294373,
      1.9589561223983765,
      0.8522224426269531,
      -0.025758380070328712,
      -0.0019682596903294325,
      2.388948678970337,
      2.4426724910736084,
      0.5402086973190308,
      1.028768539428711,
      -0.005075452383607626,
      -0.018027223646640778,
      -0.14809486269950867,
      -0.02016630582511425,
      0.22301121056079865,
      -0.3263952434062958,
      0.07503890246152878,
      -0.2710284888744354,
      -0.13790374994277954,
      0.00229892460629344,
      -0.17445190250873566,
      -0.04948505386710167,
      -0.13827909529209137,
      -0.0161548163741827,
      -0.04874521493911743,
      0.020072881132364273,
      0.00171302305534482,
      -0.004016608465462923,
      -0.10503826290369034,
      0.011049971915781498,
      -0.004547562450170517,
      -0.006640490610152483,
      -0.13126902282238007,
      0.0024399948306381702,
      0.21385136246681213,
      0.2451300024986267,
      0.18561726808547974,
      0.8615821599960327,
      0.36013317108154297,
      1.1034401655197144,
      -0.17372854053974152,
      -0.03965242579579353,
      -0.1488008052110672,
      -0.029881279915571213
    ],
    "kernelShape": [
      32,
      2
    ],
    "bias": [
      0.785304844379425,
      0.7995575666427612
    ],
    "biasShape": [
      2
    ]
  }
}