{"actor.0.weight": [[0.19534319639205933, -0.18905198574066162, 0.09790255129337311, 0.03326446935534477, 0.14216835796833038, 0.12605972588062286, 0.08315598219633102, -0.1772703230381012, 0.172501340508461, 0.2367013394832611, -0.1908714324235916, 0.02171955443918705, 0.023171791806817055, -0.03876996040344238, -0.15138639509677887, 0.03407019376754761, -0.01691468246281147, 0.20619069039821625], [-0.05685768276453018, 0.09460654854774475, 0.15848003327846527, -0.019271714612841606, 0.034913863986730576, -0.05455751717090607, -0.00019771128427237272, -0.23605914413928986, -0.032232824712991714, -0.08152642846107483, 0.25023800134658813, 0.2197067141532898, -0.07790430635213852, 0.22686977684497833, -0.008023743517696857, -0.08200732618570328, 0.07664178311824799, -0.14810018241405487], [-0.1496022790670395, -0.21299885213375092, -0.22232374548912048, 0.08823895454406738, 0.21048647165298462, 0.0505555234849453, 0.14741379022598267, 0.1669454276561737, -0.1143297553062439, 0.1645146608352661, -0.1923948973417282, -0.0990203469991684, 0.10865198820829391, -0.1297324299812317, 0.003686439711600542, -0.05280362814664841, 0.04435538873076439, -0.13381198048591614], [0.1510661095380783, 0.2331329733133316, -0.13106730580329895, -0.007002883590757847, 0.2281293421983719, 0.1851523220539093, -0.1673629730939865, 0.05436812713742256, 0.0955248773097992, -0.1069939061999321, -0.0047886609099805355, 0.0943022221326828, -0.10591564327478409, -0.14760373532772064, 0.12633216381072998, 0.08532685041427612, -0.14731596410274506, 0.14926354587078094], [-0.02661317214369774, -0.08009912818670273, -0.164744570851326, -0.00994744710624218, -0.15615703165531158, 0.2260664403438568, 0.012590167112648487, -0.003372620092704892, -0.05717408284544945, -0.13608433306217194, 0.2555108964443207, 0.21467852592468262, 0.058371223509311676, 0.06653600186109543, 0.1419999748468399, 0.013083592057228088, -0.20531447231769562, -0.06876157969236374], [0.1414724588394165, -0.20435938239097595, 0.051156457513570786, -0.06761973351240158, 0.23466481268405914, 0.10343870520591736, -0.16095249354839325, 0.21883754432201385, 0.15399965643882751, -0.08910206705331802, 0.18994127213954926, -0.1075713187456131, -0.12062462419271469, 0.22108158469200134, -0.19367250800132751, 0.016948869451880455, 0.06252286583185196, 0.2406652718782425], [-0.1599511057138443, -0.0032885675318539143, -0.022836480289697647, -0.22362451255321503, -0.20120660960674286, 0.24597308039665222, -0.0683862492442131, -0.044334761798381805, 0.17978347837924957, -0.04809626564383507, -0.15816093981266022, -0.12871086597442627, 0.10703323781490326, 0.1680198758840561, -0.08420494198799133, -0.02434149943292141, -0.25290894508361816, -0.04803444817662239], [-0.036179255694150925, -0.21070250868797302, -0.1326218545436859, -0.01869966648519039, -0.09310302883386612, -0.2084038406610489, 0.08728859573602676, -0.046836480498313904, -0.07815179973840714, 0.21381685137748718, 0.18822826445102692, 0.2236623764038086, -0.1016889363527298, -0.19741013646125793, -0.1828809231519699, 0.020055022090673447, 0.1522694230079651, -0.13388140499591827], [0.04722494259476662, 0.15257585048675537, -0.006648401729762554, -0.1343970149755478, 0.1529828906059265, 0.03614683821797371, 0.23782843351364136, -0.15734891593456268, 0.21363435685634613, -0.1958198994398117, -0.18341021239757538, -0.10027564316987991, -0.141026571393013, -0.07580944150686264, 0.09581675380468369, -0.09757205843925476, -0.015247466042637825, -0.10909093171358109], [-0.12359120696783066, -0.05077528581023216, 0.1306321918964386, 0.20483650267124176, -0.11433536559343338, 0.08404561132192612, -0.08886778354644775, -0.19523216784000397, 0.1787777543067932, 0.006414930801838636, 0.0073936702683568, 0.1772676706314087, 0.08616742491722107, 0.24154110252857208, 0.12349043786525726, 0.04876744747161865, 0.09218430519104004, 0.02139236591756344], [-0.10727833956480026, 0.07850253582000732, 0.21380895376205444, 0.1270320862531662, 0.13599134981632233, -0.021148014813661575, 0.03614451363682747, 0.06806012988090515, -0.049403876066207886, 0.20648348331451416, 0.010244746692478657, -0.16264869272708893, 0.23125621676445007, 0.0830562636256218, -0.14728178083896637, -0.06623251736164093, -0.12349963188171387, 0.10506490617990494], [-0.16622240841388702, -0.07040869444608688, 0.0007511220755986869, -0.04614691436290741, -0.04107561334967613, 0.15311212837696075, -0.23833996057510376, -0.009670664556324482, -0.1754131317138672, 0.19307301938533783, -0.0856122076511383, 0.17878340184688568, -0.22850464284420013, -0.09999596327543259, 0.1722666174173355, -0.16410785913467407, 0.11859401315450668, 0.1718437224626541], [-0.11666397005319595, 0.18951497972011566, 0.1011292040348053, -0.19855567812919617, -0.18242844939231873, -0.206936776638031, 0.21178562939167023, 0.19550666213035583, 0.03545365855097771, 0.16775967180728912, -0.1399342566728592, 0.195217102766037, -0.1793738156557083, -0.20482474565505981, 0.09010636061429977, -0.16937564313411713, -0.029994549229741096, 0.041119951754808426], [0.17447564005851746, -0.05030955374240875, -0.1896977573633194, -0.1432056427001953, 0.06838426738977432, -0.23169934749603271, -0.12017125636339188, 0.08598972856998444, -0.0794968530535698, 0.162432461977005, -0.12669865787029266, -0.0006344630382955074, 0.1953275054693222, 0.07722766697406769, -0.007833247072994709, 0.10390571504831314, 0.20402196049690247, 0.019756367430090904], [0.10237299650907516, -0.005624834448099136, -0.08842168003320694, 0.1016312912106514, 0.07278157770633698, 0.2060999572277069, 0.022062795236706734, 0.16372546553611755, -0.029481519013643265, 0.15015821158885956, 0.05777575448155403, 0.020722771063447, 0.22468675673007965, 0.12574006617069244, -0.13545255362987518, -0.06082794815301895, 0.22745682299137115, 0.07975143194198608], [-0.053931500762701035, -0.14602293074131012, 0.17253068089485168, 0.14557044208049774, -0.0577717050909996, -0.23164361715316772, 0.20631937682628632, -0.21204479038715363, -0.03207089751958847, 1.8798244127538055e-05, -0.01047626044601202, 0.16025443375110626, 0.19665154814720154, -0.0800534337759018, 0.10711818188428879, 0.13485415279865265, 0.05160609632730484, 0.1083483099937439], [0.16215431690216064, 0.1844615489244461, 0.1555018126964569, -0.1348963975906372, -0.2597426176071167, -0.07706195116043091, 0.13790176808834076, -0.020051605999469757, -0.22916792333126068, 0.11717166751623154, -0.21548309922218323, -0.02553456462919712, -0.0317455492913723, -0.19115671515464783, 0.07554061710834503, 0.1682334989309311, -0.17338789999485016, 0.1227029338479042], [0.1020084023475647, 0.06497812271118164, 0.01847006194293499, -0.07216431200504303, -0.05986124277114868, 0.09524073451757431, -0.13317815959453583, -0.1278063952922821, 0.2244899719953537, 0.2320021390914917, 0.037814632058143616, -0.21812176704406738, -0.05281209573149681, -0.003554125316441059, -0.22251605987548828, 0.1163557767868042, 0.1475393921136856, 0.0007773888064548373], [0.14454959332942963, 0.1947842240333557, 0.051636241376399994, 0.01360960491001606, -0.1855224221944809, -0.19634830951690674, 0.048469457775354385, -0.1433444768190384, -0.02355343848466873, 0.1761220544576645, -0.03147680312395096, -0.16666603088378906, -0.20099914073944092, -0.15086978673934937, 0.21229013800621033, -0.14599649608135223, 0.2012423723936081, -0.2068331241607666], [0.20244769752025604, 0.17749083042144775, -0.0698087140917778, 0.04209271818399429, -0.09480325877666473, 0.17792145907878876, -0.14018107950687408, 0.025822345167398453, -0.1451161801815033, 0.07973912358283997, 0.04986143484711647, 0.1716599315404892, 0.17157520353794098, -0.10396481305360794, -0.2030099481344223, -0.1316835880279541, -0.08041901886463165, 0.2545759975910187], [-0.21697086095809937, -0.09477150440216064, 0.006201500538736582, -0.07433241605758667, -0.12325175851583481, -0.22767512500286102, 0.07653241604566574, 0.03328754007816315, -0.030205613002181053, -0.1280423104763031, 0.20489616692066193, 0.21478652954101562, 0.12012134492397308, -0.12401719391345978, -0.08331984281539917, 0.11466135829687119, -0.028742339462041855, 0.2093295156955719], [-0.1534399688243866, -0.13048942387104034, 0.08443349599838257, -0.10483960062265396, 0.21170592308044434, 0.11185946315526962, 0.21928317844867706, -0.030416635796427727, 0.22399917244911194, -0.12901215255260468, -0.20895984768867493, 0.13051758706569672, -0.022204769775271416, 0.18706773221492767, 0.199977308511734, 0.09667661786079407, -0.0012297978391870856, -0.047863926738500595], [-0.1680266559123993, -0.17100688815116882, -0.25121259689331055, -0.047527216374874115, -0.17695467174053192, -0.07143747061491013, 0.004017694853246212, 0.20633484423160553, 0.0006008279742673039, -0.20634503662586212, -0.21751874685287476, 0.2276194989681244, -0.17654035985469818, 0.085487961769104, -4.94509149575606e-05, -0.164829820394516, -0.19055254757404327, 0.13946934044361115], [-0.04599616304039955, 0.21669834852218628, -0.048339273780584335, 0.12286907434463501, 0.040407609194517136, 0.017320947721600533, -0.21481581032276154, -0.19752237200737, -0.1461629420518875, 0.059291254729032516, -0.13702701032161713, -0.22036044299602509, -0.1545732617378235, 0.1891874372959137, -0.05280996859073639, -0.09312376379966736, 0.21267633140087128, -0.08814765512943268], [-0.22717906534671783, 0.03302634879946709, -0.22954918444156647, 0.09617352485656738, -0.055145565420389175, 0.21837876737117767, 0.21210768818855286, 0.14443369209766388, -0.019162429496645927, -0.20461510121822357, 0.08587729185819626, 0.23370863497257233, 0.06393608450889587, -0.1576390564441681, -0.11122868955135345, -0.18152830004692078, -0.23376770317554474, 0.09491869062185287], [-0.1241125613451004, 0.15398554503917694, 0.24646678566932678, -0.10252543538808823, -0.013370434753596783, -0.18002822995185852, 0.10710228234529495, -0.08339082449674606, -0.045979563146829605, 0.08012548089027405, 0.10079823434352875, -0.20603296160697937, 0.008463081903755665, -0.0884384736418724, 0.18355995416641235, 0.15069074928760529, 0.22325412929058075, 0.09087581187486649], [0.11908149719238281, 0.17089952528476715, -0.14498715102672577, -0.05893923342227936, 0.05414627492427826, -0.2551700472831726, 0.18854929506778717, -0.1273500621318817, 0.19015762209892273, 0.11677095293998718, 0.19143807888031006, -0.22856931388378143, -0.18275898694992065, 0.07229606807231903, 0.13336418569087982, 0.060742054134607315, 0.015746062621474266, -0.11460064351558685], [0.18075501918792725, 0.05120163783431053, -0.12051232159137726, -0.17774710059165955, 0.11624503880739212, -0.0783558338880539, 0.13785263895988464, -0.07655202597379684, -0.09051177650690079, 0.23537595570087433, -0.021388879045844078, -0.008453612215816975, -0.1628722846508026, -0.1680525541305542, -0.09351499378681183, -0.10700289160013199, -0.20062540471553802, -0.1767733097076416], [0.17450258135795593, 0.1971660554409027, -0.06025245785713196, 0.12385240197181702, 0.22273960709571838, -0.1202293187379837, 0.03250480443239212, -0.11102583259344101, -0.08015310019254684, 0.12515272200107574, 0.0037911441177129745, -0.1967553198337555, 0.04854901134967804, -0.21578790247440338, 0.21781231462955475, 0.14592920243740082, -0.04177802801132202, 0.07215682417154312], [-0.07676968723535538, -0.24566158652305603, -0.20174036920070648, 0.19230937957763672, 0.18274225294589996, 0.012891574762761593, -0.18774856626987457, 0.22185885906219482, -0.15057751536369324, 0.14023691415786743, 0.09501463919878006, 0.1903085559606552, -0.16821074485778809, -0.1604761928319931, -0.07459469139575958, -0.09434528648853302, 0.06077706068754196, -0.1303110420703888], [-0.16444233059883118, 0.18178996443748474, -0.16012726724147797, -0.06866827607154846, -0.04739301651716232, 0.12564772367477417, 0.05935262143611908, 0.21337653696537018, -0.26280248165130615, -0.01882261410355568, 0.011754185892641544, 0.24641956388950348, -0.0922873392701149, -0.11870953440666199, -0.017222436144948006, -0.21093617379665375, -0.04298441857099533, -0.026269616559147835], [0.10692712664604187, -0.04038486257195473, 0.16857458651065826, 0.06572750210762024, -0.1710023581981659, 0.014194311574101448, 0.13048005104064941, -0.02842768095433712, 0.23807863891124725, 0.09113288670778275, -0.01843658648431301, 0.1816461682319641, 0.18093429505825043, 0.1952429562807083, 0.07746966928243637, 0.03143768757581711, -0.10589681565761566, 0.18715542554855347], [-0.024381278082728386, 0.1358848512172699, -0.2293223738670349, 0.1926909238100052, 0.07734554260969162, -0.21774916350841522, -0.07660473138093948, 0.00818687491118908, 0.18516692519187927, -0.04556940868496895, 0.13257978856563568, 0.11928319185972214, -0.20479150116443634, 0.019882069900631905, -0.15042975544929504, 0.13816499710083008, -0.18542438745498657, 0.05273684114217758], [-0.1377347856760025, -0.0852343738079071, -0.16811108589172363, 0.15087631344795227, -0.13614705204963684, -0.10540097951889038, 0.2073914259672165, 0.08875910192728043, -0.18690580129623413, 0.20467649400234222, -0.23771536350250244, -0.09583456814289093, -0.14665183424949646, 0.05327198654413223, 0.006100189872086048, -0.13948172330856323, -0.02681340090930462, -0.10834594070911407], [0.12857720255851746, -0.10280600935220718, -0.24231229722499847, 0.07401178032159805, -0.040244750678539276, -0.10297209769487381, 0.09745839983224869, 0.13670626282691956, -0.00760451378300786, -0.10565008223056793, -0.19109287858009338, 0.09579002857208252, 0.060277726501226425, 0.02663671411573887, -0.1894477754831314, -0.22728370130062103, 0.0338662713766098, 0.06784241646528244], [0.01636611670255661, -0.20476217567920685, 0.019318439066410065, 0.18466401100158691, -0.03409422188997269, -0.07322992384433746, -0.08556357026100159, -0.10714725404977798, 0.023418933153152466, -0.07170217484235764, 0.1367502063512802, -0.21474282443523407, 0.05856936797499657, 0.23274828493595123, 0.22008708119392395, 0.1464572697877884, 0.10574540495872498, -0.13456840813159943], [-0.16375678777694702, -0.006399116013199091, 0.01494402065873146, 0.13463187217712402, -0.0594952255487442, 0.18246741592884064, 0.027786560356616974, 0.025722738355398178, 0.1547175496816635, 0.027487369254231453, -0.1691233366727829, -0.20711320638656616, 0.059592798352241516, 0.22811560332775116, -0.20091453194618225, -0.12830127775669098, -0.1887858659029007, 0.12146729975938797], [0.2122078239917755, 0.23943863809108734, 0.07917420566082001, 0.1668093204498291, 0.0915885716676712, 0.1033952534198761, 0.15222586691379547, -0.11541331559419632, 0.16148947179317474, -0.04358362406492233, -0.13041771948337555, 0.16975165903568268, 0.08869974315166473, 0.09572914987802505, -0.17789481580257416, -0.030115710571408272, 0.06637094914913177, -0.11542695760726929], [0.17840330302715302, -0.17630109190940857, -0.08760087937116623, 0.1315702199935913, -0.17925816774368286, -0.05032261088490486, -0.07034895569086075, 0.057835035026073456, 0.08340849727392197, -0.1951681673526764, -0.03081631287932396, 0.11052092164754868, 0.015616588294506073, 0.09138323366641998, -0.17635512351989746, 0.14470483362674713, 0.1246177926659584, 0.06426489353179932], [-0.1673174798488617, 0.013307483866810799, -0.05998639389872551, -0.04520004987716675, -0.24686987698078156, 0.011137331835925579, 0.020463742315769196, 0.04701636731624603, -0.05229966714978218, -0.08984073251485825, -0.03886585682630539, -0.2148658186197281, 0.1641661524772644, 0.1592295616865158, 0.015610125847160816, -0.10714346915483475, -0.16318610310554504, -0.032602500170469284], [-0.2370249629020691, 0.21395733952522278, 0.21644994616508484, 0.06709904968738556, 0.09847280383110046, -0.10655657202005386, -0.13882911205291748, -0.2421945333480835, 0.19405166804790497, -0.18391357362270355, 0.036592625081539154, -0.22631388902664185, -0.027028700336813927, 0.124819815158844, 0.09046666324138641, -0.1365005075931549, -0.17141097784042358, 0.22648769617080688], [-0.08353964239358902, 0.19749073684215546, -0.1906191110610962, -0.07817918807268143, -0.02693510428071022, 0.021667949855327606, 0.22476708889007568, -0.020393988117575645, -0.1454225480556488, 0.18612979352474213, 0.22540690004825592, -0.030545957386493683, -0.04159730300307274, -0.020980268716812134, 0.26055213809013367, -0.0013950144639238715, 0.23456190526485443, -0.048843368887901306], [0.006959846243262291, -0.059137336909770966, -0.23412509262561798, -0.18985137343406677, 0.08653151988983154, -0.06680087745189667, 0.008169511333107948, -0.13788621127605438, -0.21755775809288025, -0.044848326593637466, 0.002450397005304694, 0.005269093904644251, -0.25361260771751404, -0.16189399361610413, 0.168618306517601, -0.17630212008953094, -0.04041220620274544, -0.012362122535705566], [-0.13594436645507812, 0.20598222315311432, 0.23862583935260773, -0.20867744088172913, 0.18619216978549957, 0.07997939735651016, 0.06868527829647064, 0.0015338725643232465, -0.11428795009851456, -0.03190268203616142, -0.17704227566719055, -0.13429997861385345, 0.05331837385892868, 0.11171720921993256, 0.22545935213565826, 0.07516589760780334, 0.23207628726959229, -0.01764461025595665], [0.08478767424821854, 0.05623742565512657, -0.10495229065418243, 0.2289898842573166, -0.13622131943702698, 0.0013171304017305374, 0.1383742094039917, 0.02836228534579277, -0.17814041674137115, -0.0796666070818901, -0.19122163951396942, 0.04883895069360733, 0.10798688977956772, -0.15244212746620178, 0.11640545725822449, 0.17221780121326447, 0.1225133091211319, -0.1593610644340515], [0.1439828872680664, 0.10318208485841751, 0.23479117453098297, 0.07676106691360474, 0.17557549476623535, -0.12738484144210815, 0.03903018310666084, 0.12933076918125153, -0.026135245338082314, -0.10333139449357986, 0.18171200156211853, 0.0009500615415163338, 0.023241551592946053, -0.060024674981832504, -0.076462022960186, 0.1531461775302887, -0.00970152486115694, 0.1636826992034912], [-0.0912962332367897, 0.06575882434844971, -0.09470918774604797, -0.14776499569416046, 0.04615184664726257, -0.07750443369150162, 0.10657975822687149, 0.07215812802314758, -0.1883067637681961, 0.1747487187385559, -0.0027584307827055454, -0.1879562884569168, -0.12645037472248077, -0.22973744571208954, -0.012740734964609146, -0.011337082833051682, 0.056357722729444504, 0.043940696865320206], [-0.08043721318244934, -0.24976001679897308, 0.1456228345632553, -0.20905713737010956, 0.16062575578689575, -0.11342490464448929, -0.032042697072029114, -0.1918451488018036, -0.05957353860139847, -0.014187377877533436, 0.1686902791261673, -0.14372089505195618, -0.08819843083620071, -0.25728651881217957, -0.1200203150510788, 0.03159455955028534, 0.06853371858596802, -0.11945880204439163], [-0.1962561160326004, -0.0013815663987770677, -0.16604283452033997, -0.08300594240427017, -0.19267167150974274, -0.006035143043845892, -0.1138020008802414, -0.12056276202201843, -0.18180416524410248, 0.1345355361700058, 0.06941624730825424, -0.050808344036340714, -0.2518230080604553, 0.09750519692897797, -0.18443620204925537, -0.12031903862953186, -0.22144083678722382, -0.03202803432941437], [0.047940075397491455, 0.12286597490310669, -0.04273289069533348, -0.21817824244499207, 0.10389804095029831, -0.15667088329792023, 0.24846313893795013, -0.06278039515018463, -0.032524459064006805, 0.18394944071769714, -0.011486409232020378, 0.09716107696294785, -0.10153760015964508, 0.24512958526611328, 0.20849689841270447, 0.21732266247272491, 0.22936543822288513, 0.1622956246137619], [0.11669281870126724, 0.21291951835155487, -0.15589064359664917, 0.17763125896453857, -0.132097989320755, 0.09467247128486633, -0.1255103498697281, -0.15222598612308502, -0.10728025436401367, -0.10683485120534897, 0.13306587934494019, -0.204973965883255, -0.12063013762235641, 0.15645769238471985, 0.03864017874002457, 0.15259239077568054, -0.1659729778766632, -0.0017695057904347777], [0.16563920676708221, -0.2009563446044922, 0.20112979412078857, -0.04045126214623451, -0.03534276410937309, -0.049750812351703644, -0.15713313221931458, -0.22165097296237946, -0.048850297927856445, -0.05485736206173897, -0.025493621826171875, -0.13321739435195923, -0.19119694828987122, -0.13763010501861572, -0.148222416639328, 0.09919095784425735, -0.1674022674560547, 0.059959329664707184], [0.01832028292119503, 0.036750394850969315, 0.024705514311790466, 0.018759913742542267, 0.1993374228477478, 0.04960954934358597, 0.13955412805080414, 0.22228936851024628, -0.21317417919635773, 0.21453051269054413, 0.06716661155223846, -0.048377763479948044, -0.1144728809595108, 0.09054610878229141, -0.11310941725969315, 0.12362142652273178, 0.051917336881160736, 0.24067261815071106], [-0.20873357355594635, 0.07775145024061203, -0.02338373102247715, -0.12747137248516083, 0.08332698047161102, 0.06020233407616615, -0.02183959074318409, 0.20853698253631592, 0.039205603301525116, -0.20334815979003906, -0.05230855941772461, -0.06067749485373497, 0.19373616576194763, 0.05794673413038254, -0.1708616018295288, -0.22902445495128632, -0.22914648056030273, -0.18680733442306519], [-0.19825658202171326, -0.10330841690301895, -0.03710576891899109, 0.15022404491901398, 0.1008966788649559, 0.177517369389534, -0.1308377981185913, 0.19529709219932556, -0.055812131613492966, -0.10061009973287582, 0.01480166707187891, 0.12937989830970764, 0.1835789531469345, -0.19809624552726746, -0.023629387840628624, -0.06523800641298294, -0.10275709629058838, 0.21647781133651733], [-0.2141989767551422, -0.06321816891431808, -0.165370911359787, 0.03222208842635155, -0.10455064475536346, 0.15608546137809753, 0.1117388978600502, 0.1094687357544899, 0.04630172625184059, -0.04601557180285454, -0.11191354691982269, -0.09211465716362, 0.13502104580402374, -0.11724431812763214, 0.11299048364162445, -0.20813925564289093, 0.11030619591474533, 0.19872112572193146], [-0.19615590572357178, -0.2445550113916397, -0.22509907186031342, 0.17588397860527039, -0.16969145834445953, 0.2076130509376526, 0.1873599886894226, -0.1579907238483429, -0.1508946418762207, -0.14000080525875092, -0.09856689721345901, 0.13263437151908875, 0.026693006977438927, 0.16237102448940277, -0.020267266780138016, 0.16375967860221863, -0.09335607290267944, 0.22036245465278625], [-0.02341478317975998, 0.15688443183898926, 0.19385573267936707, -0.17794662714004517, -0.08409318327903748, -0.03510184586048126, 0.06677921116352081, -0.051880843937397, -0.007368773687630892, -0.14666254818439484, 0.2065497189760208, -0.1888614147901535, 0.04260248318314552, 0.13053461909294128, 0.08369725942611694, 0.17835119366645813, 0.039465852081775665, 0.2281360924243927], [-0.1268487125635147, -0.06609256565570831, -0.05255202576518059, 0.13585883378982544, -0.02895483188331127, -0.03621869534254074, -0.08362815529108047, -0.0741608738899231, 0.16339287161827087, -0.033113352954387665, -0.17323645949363708, -0.1805812418460846, 0.03490108624100685, -0.14524422585964203, -0.2445356845855713, 0.05306476354598999, -0.17999449372291565, 0.07729039341211319], [-0.19427470862865448, -0.21171294152736664, 0.0788290947675705, 0.20065687596797943, -0.04931389540433884, -0.05388794094324112, 0.07088048756122589, -0.09723399579524994, 0.09629066288471222, 0.06500846147537231, -0.15496353805065155, 0.020946139469742775, 0.1961297243833542, 0.11732026189565659, 0.07545458525419235, -0.10541988164186478, 0.077889084815979, -0.06127333641052246], [0.025471925735473633, -0.0503384992480278, -0.05530387535691261, -0.018935205414891243, 0.11739934980869293, 0.1372070014476776, 0.2636086940765381, 0.17142589390277863, 0.26465898752212524, -0.06507685035467148, 0.03199603408575058, -0.08064112067222595, -0.1978241354227066, 0.12079504132270813, 0.024426672607660294, 0.23475214838981628, 0.1670333594083786, -0.1589336395263672], [0.10312629491090775, -0.1726454645395279, -0.10467537492513657, 0.006349152885377407, 0.17529091238975525, 0.08890348672866821, 0.05788551643490791, -0.21928128600120544, 0.24432925879955292, 0.17276941239833832, 0.20380693674087524, 0.0037399008870124817, -0.17456549406051636, -0.17637543380260468, -0.08465410768985748, -0.2174387127161026, -0.016437867656350136, 0.11901752650737762], [-0.07873424142599106, -0.02223125658929348, -0.13476386666297913, 0.0634506419301033, -0.019163673743605614, 0.07625193893909454, -0.17316192388534546, -0.14336545765399933, 0.1522081047296524, -0.03252880275249481, -0.10314160585403442, 0.015496503561735153, 0.07477239519357681, 0.079551562666893, -0.050248973071575165, -0.09931139647960663, -0.10302387923002243, 0.10512035340070724], [-0.039226628839969635, -0.001309877261519432, 0.03230806440114975, -0.061926133930683136, 0.16603277623653412, -0.1552799642086029, -0.2227441370487213, 0.024832040071487427, 0.09144067764282227, -0.09562073647975922, -0.1495208591222763, -0.16187350451946259, -0.14148421585559845, -0.1720217764377594, 0.12806349992752075, -0.16256842017173767, -0.08204282820224762, -0.06450427323579788]], "actor.0.bias": [0.0299522802233696, 0.145799458026886, -0.05201617255806923, 0.17725427448749542, 0.22101138532161713, -0.11653713881969452, 0.04773563891649246, 0.02646857686340809, 0.17997859418392181, -0.20484325289726257, -0.12320730090141296, -0.18612025678157806, -0.23643635213375092, 0.24856862425804138, 0.07088719308376312, -0.10131470859050751, 0.14376768469810486, -0.0369613878428936, 0.09095019102096558, 0.23442567884922028, 0.2151317298412323, -0.15786093473434448, 0.2203131765127182, 0.1569778323173523, -0.05913355574011803, 0.15771575272083282, 0.201561838388443, 0.030004484578967094, 0.0016998060746118426, 0.1717417687177658, -0.16382522881031036, -0.06579868495464325, -0.13525459170341492, -0.06334026157855988, 0.15028177201747894, -0.06702474504709244, 0.164838507771492, 0.15324603021144867, 0.05446925759315491, -0.001675200997851789, 0.08718777447938919, 0.19138075411319733, 0.1235324889421463, 0.18928976356983185, 0.21072855591773987, 0.03820684179663658, -0.12001440674066544, 0.13390009105205536, -0.020410455763339996, 0.05823303014039993, -0.19604113698005676, 0.013444089330732822, 0.12192603945732117, 0.03204779699444771, 0.22033561766147614, -0.20733845233917236, -0.20131036639213562, 0.04495123028755188, 0.19217243790626526, 0.15350618958473206, 0.12550167739391327, -0.013952255249023438, 0.11885539442300797, 0.18237683176994324], "actor.2.weight": [[-0.03484320268034935, 0.064418725669384, -0.08862520009279251, -0.07538905739784241, -0.06019251421093941, 0.12282011657953262, -0.07066291570663452, -0.04642157629132271, -0.09316372871398926, -0.11943715065717697, -0.07991568744182587, 0.07863502204418182, 0.1305907964706421, -0.011030648835003376, -0.004050654359161854, -0.03705400228500366, -0.01842675916850567, 0.09297135472297668, -0.08351733535528183, -0.053774673491716385, 0.0014583023730665445, -0.04855138063430786, 0.10865030437707901, 0.06298749148845673, -0.06777416914701462, 0.023958133533596992, 0.0461638867855072, -0.0209156833589077, -0.04991377145051956, -0.02155117690563202, 0.14155668020248413, -0.029352379962801933, 0.07568596303462982, 0.0796712264418602, 0.107154481112957, -0.1324947625398636, 0.11063719540834427, -0.12748932838439941, 0.05958174169063568, 0.07945345342159271, -0.02578737773001194, -0.10191655158996582, -0.05784058943390846, -0.07085928320884705, -0.12738510966300964, -0.0801592543721199, 0.13084393739700317, 0.0038049868308007717, -0.09242065995931625, -0.12259569019079208, 0.11347552388906479, -0.05899927392601967, 0.0664706602692604, -0.07184188067913055, 0.009176219813525677, 0.048040006309747696, 0.06127861142158508, 0.03926704823970795, 0.07916026562452316, -0.06714943796396255, -0.07488635927438736, -0.0676628053188324, -0.06048263609409332, 0.09412406384944916], [-0.05077569559216499, -0.04989784210920334, 0.06574979424476624, -0.06956521421670914, 0.08945484459400177, 0.03541214391589165, 0.09668450802564621, -0.01419400330632925, 0.118118517100811, -0.04061371460556984, 0.053093571215867996, -0.12880177795886993, 0.0007503295782953501, -0.013087043538689613, 0.129952535033226, -0.04515288397669792, -0.10083415359258652, 0.00016020875773392618, -0.10008548200130463, -0.13373854756355286, 0.1496805101633072, 0.06743017584085464, -0.05952570214867592, -0.018455808982253075, -0.010854614898562431, -0.05009080469608307, -0.006778809241950512, 0.001147617818787694, 0.144733265042305, -0.0025864276103675365, -0.0010488057741895318, -0.05419033393263817, 0.0531153567135334, -0.14952507615089417, -0.09626295417547226, 0.048876434564590454, 0.1043640747666359, -0.016673613339662552, -0.1112479642033577, 0.0857740268111229, 0.0299312025308609, 0.031931646168231964, -0.00753145944327116, -0.09170691668987274, 0.1292698085308075, -0.06895645707845688, -0.13905367255210876, -0.08305124938488007, -0.027904195711016655, 0.156023770570755, 0.07012642920017242, 0.05624978244304657, -0.07396822422742844, -0.12610210478305817, -0.026182176545262337, -0.033561673015356064, -0.005450995173305273, 0.03297683224081993, -0.0004745625192299485, -0.043791331350803375, 0.061317045241594315, 0.07312436401844025, 0.07924576848745346, -0.12462729215621948], [0.017560122534632683, 0.04025346413254738, 0.0786333754658699, 0.009171349927783012, 0.05954104661941528, -0.09098916500806808, 0.008784242905676365, 0.024421021342277527, 0.04963737726211548, 0.012758346274495125, 0.062257446348667145, -0.11844419687986374, -0.07694362103939056, 0.04640642926096916, 0.060545798391103745, 0.1093038022518158, 0.11996539682149887, 0.02507724240422249, 0.10780016332864761, 0.07689870893955231, -0.018623102456331253, 0.02832845225930214, 0.0581531785428524, -0.05344173312187195, 0.03986178711056709, 0.0787607878446579, -0.008631761185824871, -0.13693936169147491, 0.021009238436818123, 0.007807491347193718, 0.04038054123520851, -0.027684161439538002, -0.03754803165793419, 0.011202769353985786, -0.06279133260250092, 0.004904543049633503, -0.0099745849147439, 0.10227195918560028, 0.019898133352398872, 0.08610955625772476, -0.026137301698327065, -0.07348988950252533, 0.022061903029680252, -0.01996045932173729, -0.09968545287847519, 0.015926752239465714, -0.0858607366681099, -0.07467744499444962, -0.1171695739030838, -0.07186517119407654, 0.07239914685487747, -0.09647813439369202, 0.07531940191984177, -0.06680336594581604, 0.09328760951757431, 0.014792123809456825, 0.0017146416939795017, 0.14216332137584686, 0.040478114038705826, -0.07766928523778915, 0.13232915103435516, 0.0040735527873039246, -0.07371348887681961, 0.025293437764048576], [-0.05577371269464493, -0.0009026089101098478, 0.11324453353881836, -0.01688246987760067, 0.01964491792023182, -0.08820373564958572, 0.10308512300252914, 0.05581730231642723, 0.09262599050998688, 0.035212624818086624, 0.11499505490064621, 0.026560001075267792, -0.016407975926995277, -0.10491668432950974, 0.11748118698596954, 0.033992256969213486, 0.11884638667106628, 0.012547262012958527, 0.09670592099428177, 0.04676542803645134, -0.07463241368532181, 0.04852944239974022, -0.09092512726783752, -0.046343352645635605, -0.014690256677567959, 0.00451212702319026, -0.08540913462638855, 0.0716928169131279, 0.05208143964409828, 0.07557474076747894, -0.08621799200773239, 0.11349678784608841, 0.07085434347391129, -0.09371352195739746, -0.0924212634563446, -0.044503893703222275, 0.08551957458257675, 0.015277881175279617, -0.08656784147024155, -0.009687034413218498, 0.12058702856302261, 0.1148965060710907, -0.09183820337057114, 0.06005464121699333, -0.05369850993156433, -0.04723210260272026, -0.042872875928878784, -0.0934644341468811, -0.023852281272411346, -0.049439508467912674, -0.03803179785609245, 0.046861276030540466, 0.08508423715829849, -0.027683014050126076, 0.07697529345750809, 0.06193371117115021, 0.07374057173728943, 0.04399898648262024, 0.05534980446100235, 0.02547859027981758, 0.09653042256832123, -0.05758083611726761, -0.00041357518057338893, -0.0121678551658988], [-0.00036037707468494773, 0.11809877306222916, 0.00651673786342144, -0.10987819731235504, 0.09356844425201416, 0.12221401184797287, 0.01821676269173622, 0.04548531025648117, -0.06264126300811768, 0.10283172875642776, 0.06576459854841232, -0.0680522695183754, 0.09873591363430023, -0.06461864709854126, 0.04245791584253311, 0.11318191885948181, 0.04711778834462166, 0.0010092013981193304, -0.11914750188589096, -0.08161197602748871, -0.08908198028802872, -0.05121726170182228, -0.022662615403532982, 0.10395000129938126, 0.04744089022278786, 0.12265931814908981, 0.03867541626095772, 0.053388722240924835, -0.04496243596076965, 0.08084996044635773, 0.010251856409013271, 0.008082776330411434, -0.06615470349788666, -0.04205916449427605, -0.03298967704176903, -0.10827206075191498, 0.02914412133395672, 0.13356922566890717, 0.06850013881921768, 0.006526901852339506, -0.0034096864983439445, 0.06321889907121658, -0.10994274914264679, -0.09445106983184814, -0.0014643511967733502, -0.05276596546173096, -0.11599580943584442, 0.03475230187177658, -0.08081136643886566, -0.07768506556749344, 0.07404880225658417, -0.05806303024291992, 0.05295711010694504, -0.00042554171523079276, 0.07154949754476547, -0.11270493268966675, -0.06263270229101181, 0.003890668973326683, 0.08641651272773743, 0.03531178459525108, 0.0035492859315127134, 0.02731219120323658, 0.06773838400840759, 0.010450403206050396], [0.130750373005867, 0.07320510596036911, -0.03865518793463707, -0.04767661169171333, 0.10940540581941605, -0.04002954065799713, 0.021101342514157295, -0.05478794872760773, -0.033574506640434265, 0.04126239940524101, -0.0852183923125267, 0.09356613457202911, -0.09852581471204758, 0.04182376712560654, -0.03895244747400284, -0.0073282611556351185, -0.07779213041067123, -0.002455097856000066, -0.08228404819965363, 0.029629584401845932, -0.08587824553251266, 0.09667336195707321, -0.039384759962558746, -0.015940239652991295, 0.07853018492460251, 0.025228150188922882, 0.06238396465778351, -0.03161804378032684, 0.010838561691343784, -0.04579868167638779, -0.15114152431488037, 0.12081042677164078, 0.06571851670742035, 0.09058767557144165, -0.08323973417282104, -0.08176600188016891, 0.004812595434486866, -0.051179904490709305, 0.000862722285091877, -0.1337873786687851, 0.01816716603934765, -0.09725657850503922, 0.01673859916627407, -0.07122626155614853, -0.1163993552327156, -0.0023374829906970263, 0.1026429757475853, 0.061987679451704025, 0.02007286623120308, -0.03594893589615822, -0.06495668739080429, 0.08301997929811478, 0.056114375591278076, 0.04678976163268089, -0.11895323544740677, 0.019848624244332314, -0.11921188235282898, 0.09191790223121643, 0.09965772926807404, -0.003407527459785342, 0.12948763370513916, -0.11040749400854111, 0.06490276753902435, -0.05698445439338684], [-0.09068585932254791, -0.1403600126504898, 0.08901462703943253, -0.1271636188030243, 0.07218445837497711, -0.020027359947562218, -0.012663240544497967, -0.02402501367032528, -0.08364448696374893, 0.050393566489219666, 0.07531194388866425, 0.09067776799201965, 0.05896090716123581, -0.11186950653791428, -0.12023487687110901, -0.05492974445223808, 0.07669376581907272, 0.11811541020870209, -0.0014450218295678496, -0.09737933427095413, 0.009604920633137226, -0.14242590963840485, 0.08988070487976074, -0.011259621940553188, 0.0964212641119957, -0.047758638858795166, -0.13941507041454315, 0.024199020117521286, 0.07843095809221268, 0.10253790020942688, 0.03465252369642258, -0.15050354599952698, 0.07368949055671692, -0.03420267999172211, 0.11736219376325607, 0.0675111636519432, 0.013495233841240406, -0.013815253973007202, -0.07847671955823898, 0.11312958598136902, 0.03320254385471344, -0.0008193303365260363, 0.10478044301271439, -0.03406452760100365, 0.020664049312472343, -0.09929405897855759, 0.01688425801694393, 0.00873888935893774, -0.04523539915680885, -0.061268150806427, 0.05273962393403053, 0.05738062411546707, -0.07446680963039398, -0.041356589645147324, -0.08941851556301117, 0.06797943264245987, -0.10914111882448196, 0.06698230654001236, 0.03339341655373573, -0.07261867076158524, 0.06908262521028519, -0.10525823384523392, -0.07676064968109131, 0.11958557367324829], [0.07584606111049652, -0.10901964455842972, 0.07855530083179474, 0.1012171283364296, -0.11526591330766678, 0.027560904622077942, 0.07324495911598206, -0.133684903383255, 0.025705723091959953, 0.07709299027919769, 0.012870140373706818, -0.002627928741276264, -0.08914567530155182, -0.08427611738443375, 0.06021420657634735, 0.1342870444059372, 0.12654948234558105, -0.08741781860589981, -0.10568839311599731, -0.06368906050920486, 0.08758073300123215, 0.06279438734054565, -0.11251723766326904, -0.0890013575553894, 0.08686035126447678, 0.09246063977479935, 0.03168979287147522, 0.06382369995117188, 0.1021135076880455, 0.08933533728122711, -0.133569598197937, -0.017083996906876564, 0.052772510796785355, -0.010104076936841011, -0.06532824784517288, -0.09917154908180237, -0.004424140322953463, 0.12381421029567719, -0.02026074379682541, 0.05830265209078789, 0.07766895741224289, -0.010464560240507126, 0.04583099111914635, -0.004359068814665079, 0.12500861287117004, 0.12883467972278595, 0.0836038589477539, 0.021845415234565735, -0.09350527077913284, 0.005789215676486492, 0.0877123549580574, -0.017706988379359245, 0.10428457707166672, 0.06828285753726959, 0.06748273968696594, -0.09187531471252441, -0.04692602530121803, 0.04440775886178017, 0.06111173704266548, -0.015094880945980549, 0.11705775558948517, 0.011222125962376595, 0.1206013560295105, -0.06163974106311798], [-0.005597394425421953, -0.008158513344824314, -0.05853131785988808, 0.10224636644124985, -0.004462614189833403, 0.027954060584306717, -0.013648002408444881, -0.048860255628824234, 0.07175382971763611, -0.11838242411613464, 0.1072714626789093, 0.024685118347406387, 0.02637142688035965, 0.07836300134658813, 0.002744099125266075, 0.12375148385763168, 0.07008479535579681, 0.1046815812587738, -0.1061004251241684, -0.0965438038110733, 0.03724692016839981, -0.06782078742980957, 0.057575423270463943, -0.0036034230142831802, -0.005559081677347422, 0.09082996100187302, -0.00456529576331377, -0.12506414949893951, 0.06641068309545517, -0.09338173270225525, -0.05832536891102791, -0.10217396914958954, -0.004109946079552174, -0.11173421144485474, -0.052179861813783646, 0.04773293808102608, 0.09218133985996246, 0.00874253734946251, -0.0673287957906723, -0.026213373988866806, -0.07901648432016373, -0.023166924715042114, -0.03578302264213562, -0.052140139043331146, 0.0077086337842047215, 0.04892873018980026, -0.0496676005423069, -0.08555363863706589, -0.0850071832537651, -0.048316728323698044, -0.0645916759967804, -0.08627109229564667, 0.10570744425058365, 0.05286472290754318, 0.06313266605138779, 0.087015800178051, -0.11531373113393784, 0.056325897574424744, -0.11212969571352005, -0.050113752484321594, 0.08928627520799637, -0.05244996026158333, -0.08373139053583145, -0.10784930735826492], [-0.12510545551776886, 0.12326229363679886, 0.10182860493659973, -0.09670823067426682, 0.0765383169054985, -0.07124247401952744, 0.017902188003063202, -0.0250408835709095, 0.03756505995988846, -0.024769848212599754, 0.010657734237611294, -0.029273008927702904, -0.07397277653217316, 0.09353478997945786, -0.10536225885152817, 0.09343857318162918, -0.07513096183538437, 0.11926214396953583, 0.11729361116886139, 0.037764810025691986, 0.1239900141954422, 0.06240656599402428, -0.03342064470052719, 0.03969332575798035, -0.10998033732175827, -0.049457866698503494, 0.07482200115919113, 0.03232591226696968, -0.12415656447410583, -0.08406869322061539, 0.06638582795858383, 0.02785969153046608, 0.07163237780332565, 0.12113603949546814, 0.11314182728528976, 0.0029435453470796347, -0.12395292520523071, -0.03733435645699501, 0.04296250268816948, -0.027434615418314934, 0.0918908566236496, 0.0501990020275116, -0.1174725741147995, 0.05862593278288841, 0.05928322300314903, -0.038998786360025406, -0.1211962178349495, 0.057129181921482086, 0.013400089927017689, -0.04665270075201988, 0.020994164049625397, 0.10636387020349503, 0.07582426071166992, -0.0381949357688427, 0.0651928260922432, 0.11939723044633865, 0.049700651317834854, 0.017175432294607162, -0.07329846918582916, 0.1173764020204544, 0.013732485473155975, 0.05566331744194031, 0.07429426908493042, -0.11337931454181671], [-0.1248379796743393, 0.09254845976829529, -0.09449738264083862, -0.05326828360557556, -0.011185416020452976, 0.09936873614788055, 0.13662613928318024, 0.1378846913576126, -0.09967060387134552, -0.13017962872982025, -0.11871553957462311, -0.03728599101305008, -0.0856609046459198, -0.12840314209461212, 0.08467703312635422, -0.10427116602659225, 0.009479234926402569, -0.0630359798669815, 0.0466272197663784, -0.10245376080274582, -0.014949891716241837, 0.03857327625155449, 0.012511852197349072, -0.04046119377017021, -0.05987277626991272, -0.13715341687202454, -0.0012062087189406157, -0.044197309762239456, 0.0690421536564827, 0.14433155953884125, -0.029106808826327324, 0.09128843992948532, 0.06116432696580887, 0.07666561752557755, 0.05230165645480156, -0.12204313278198242, 0.025852028280496597, 0.04372764751315117, -0.04122641682624817, -0.03225668519735336, -0.12286461144685745, 0.009892813861370087, 0.15010502934455872, -0.10652423650026321, 0.083965003490448, -0.1488044410943985, 0.11816372722387314, 0.050891999155282974, 0.05748211592435837, 0.030337780714035034, -0.021104654297232628, -0.07313220202922821, -0.11489569395780563, -0.08685357123613358, 0.06856077909469604, 0.002758869668468833, 0.09013749659061432, -0.00018520417506806552, 0.12376008927822113, 0.011495385318994522, -0.10757032781839371, -0.07327104359865189, -0.030763380229473114, 0.05314898118376732], [-0.07805410027503967, -0.06860537081956863, -0.10140404850244522, 0.02332133986055851, -0.05703046917915344, -0.08869925886392593, 0.011113472282886505, 0.02164575830101967, -0.09992347657680511, -0.026025237515568733, -0.07891999930143356, 0.12346459925174713, 0.08688630163669586, 0.04419322311878204, -0.07036872953176498, -0.11179577559232712, -0.0711236521601677, 0.08880344033241272, 0.036613546311855316, 0.099042147397995, 0.060022372752428055, 0.003352948697283864, -0.05692882090806961, 0.03024039790034294, 0.014225115068256855, -0.007718940731137991, -0.019863592460751534, -0.020831314846873283, -0.061482399702072144, 0.14531506597995758, 0.15056784451007843, -0.09775029122829437, 0.04560922458767891, 0.13928338885307312, 0.02711973711848259, 0.0387662835419178, -0.07698774337768555, 0.01706710457801819, -0.07747461646795273, 0.06882912665605545, 0.03185519948601723, -0.061609189957380295, 0.09755297005176544, 0.09372305870056152, -0.011575520038604736, -0.054586559534072876, -0.02914048172533512, 0.05191821977496147, -0.033546414226293564, -0.08625270426273346, 0.06642843037843704, 0.019121572375297546, -0.10516984015703201, 0.07913040369749069, 0.09116025269031525, -0.03881356865167618, 0.0022880772594362497, -0.13468794524669647, 0.04010741412639618, 0.051060404628515244, 0.04191824793815613, -0.0060339681804180145, 0.012539141811430454, 0.06928685307502747], [-0.04072896018624306, 0.03688770532608032, 0.03697140887379646, 0.023620232939720154, 0.11946070939302444, -0.024114085361361504, 0.01065068505704403, 0.10434314608573914, -0.08965447545051575, 0.050355613231658936, 0.09054769575595856, -0.06093685328960419, -0.10106350481510162, -0.032028816640377045, 0.03809835761785507, -0.01699572615325451, -0.08789898455142975, 0.12461795657873154, -0.013399207964539528, -0.11339067667722702, -0.07221350818872452, -0.022285571321845055, -0.05556352809071541, -0.039424698799848557, 0.08227638155221939, -0.023188576102256775, -0.09606289863586426, -0.11018052697181702, 0.009483146481215954, -0.10766860842704773, 0.07503735274076462, 0.08387372642755508, -0.030420241877436638, 0.05606766417622566, -0.021160883828997612, 0.0861998200416565, -0.07985793054103851, 0.018991269171237946, -0.051484547555446625, 0.011336317285895348, -0.01806085743010044, 0.07634203135967255, -0.12674109637737274, 0.11850996315479279, 0.07712830603122711, 0.08205152302980423, -0.10702619701623917, 0.08768043667078018, -0.12217585742473602, 0.12645874917507172, -0.04293157905340195, 0.04118280112743378, -0.004812454804778099, -0.1316411942243576, 0.024030350148677826, -0.03984144702553749, -0.048188868910074234, 0.13832634687423706, -0.04664788022637367, 0.13432404398918152, 0.011056133545935154, 0.09290268272161484, -0.0848812386393547, 0.020861821249127388], [-0.08341068774461746, -0.03544027730822563, 0.056330934166908264, 0.11917095631361008, 0.08319071680307388, 0.03236863762140274, -0.026255318894982338, 0.030927279964089394, -0.11688999831676483, 0.1240813210606575, 0.07649900019168854, -0.013847408816218376, -0.07049551606178284, 0.10662338137626648, 0.10303450375795364, 0.06251481920480728, 0.07408136129379272, 0.10351213812828064, -0.09475041180849075, -0.10531333088874817, 0.07305928319692612, -0.009235246106982231, 0.09881114959716797, -0.05254093557596207, -0.006576483603566885, -0.026974864304065704, 0.10441257059574127, 0.020697779953479767, 0.05795970931649208, -0.09847903251647949, 0.024390829727053642, -0.03165626525878906, -0.04901520535349846, 0.11310963332653046, -0.06614089012145996, 0.10467088967561722, -0.12531186640262604, 0.07229222357273102, 0.0947304293513298, 0.08854508399963379, -0.10686656087636948, 0.042531002312898636, -0.12281913310289383, -0.04344732314348221, 0.027001094073057175, -0.0654110312461853, -0.04195237532258034, -0.1111779436469078, -0.0773141160607338, -0.0016665245639160275, -0.12148923426866531, -0.019365219399333, -0.03565284237265587, -0.0736226961016655, 0.11157096177339554, 0.11133205890655518, 0.09045443683862686, -0.03802919760346413, 0.01837652549147606, 0.052460987120866776, 0.08603669703006744, -0.030303478240966797, -0.12062991410493851, 0.1132989153265953], [-0.018033435568213463, -0.13249322772026062, 0.12907575070858002, 0.11357907950878143, -0.018539486452937126, -0.08353326469659805, -0.06358058005571365, -0.022782178595662117, -0.08215383440256119, -0.10558468848466873, -0.06898871064186096, 0.07570198178291321, -0.002765127457678318, -0.09743805974721909, -0.08808821439743042, 0.03351879119873047, -0.10469365864992142, -0.07432615011930466, -0.024482088163495064, -0.018576709553599358, -0.14355365931987762, -0.01701836846768856, 0.025092439725995064, 0.08656955510377884, 0.11700484901666641, -0.11954605579376221, 0.0762731283903122, 0.054237015545368195, -0.05382010340690613, 0.13579905033111572, 0.025824176147580147, 0.022380299866199493, 0.008322346024215221, -0.04079950600862503, 0.10014323890209198, -0.11267577856779099, 0.09403827041387558, 0.003172745695337653, 0.04045186936855316, -0.013438377529382706, -0.04854244738817215, 0.0803118646144867, 0.07454879581928253, 0.03625637665390968, -0.12631452083587646, -0.07618499547243118, 0.007477979641407728, 0.007853207178413868, -0.050806302577257156, 0.05738227069377899, 0.04309855401515961, 0.051449574530124664, 0.03794224187731743, 0.04118656367063522, -0.0977165475487709, 0.11474542319774628, 0.01552199199795723, -0.12577210366725922, -0.030687272548675537, 0.004137181211262941, 0.031173331663012505, 0.000871678872499615, 0.11606738716363907, -0.08603168278932571], [-0.049375083297491074, 0.020644087344408035, 0.004607085138559341, 0.0896194651722908, -0.08525295555591583, -0.053056202828884125, 0.04398691654205322, -0.011415981687605381, 0.10883114486932755, -0.07874488085508347, 0.06065324693918228, -0.03310626745223999, 0.013772324658930302, 0.10168653726577759, -0.09080079942941666, 0.042376283556222916, 0.10035480558872223, 0.051585450768470764, -0.053695570677518845, 0.06792189180850983, 0.01603016071021557, 0.0966910645365715, 0.028452161699533463, -0.06825915724039078, -0.12824031710624695, -0.08662978559732437, 0.09758886694908142, -0.10957467555999756, 0.07563585788011551, 0.016272597014904022, -0.10639693588018417, 0.03351491689682007, 0.09464950859546661, 0.10273417830467224, -0.08471563458442688, -0.04875512793660164, -0.060132645070552826, -0.054992977529764175, 0.06498218327760696, 0.00562505004927516, -0.001927182893268764, 0.10517612099647522, -0.021779388189315796, 0.006054881494492292, -0.12054222077131271, 0.06399891525506973, -0.015534668229520321, 0.06533677875995636, 0.039426229894161224, -0.027111899107694626, 0.06492830812931061, 0.10358420759439468, 0.030920779332518578, -0.0788591057062149, 0.06495250761508942, -0.09027250856161118, -0.05851256102323532, 0.09549164772033691, -0.07333385199308395, -0.06382069736719131, 0.0881786122918129, 0.11132055521011353, 0.11707042157649994, -0.11228684335947037], [-0.08745799213647842, 0.12271247804164886, -0.10240588337182999, -0.025613129138946533, -0.10572413355112076, 0.009504001587629318, -0.07451522350311279, -0.03650928661227226, -0.03467973321676254, 0.05322670564055443, -0.029408486559987068, -0.13681690394878387, 0.09506683051586151, -0.02087692730128765, -0.006360732950270176, 0.03555141016840935, 0.12365561723709106, -0.10182595998048782, 0.022071678191423416, 0.014891977421939373, -0.08216982334852219, 0.06794978678226471, -0.09656967222690582, 0.10240403562784195, -0.0345032662153244, 0.02303212508559227, 0.10613667219877243, -0.031779468059539795, -0.07148168236017227, -0.07769874483346939, -0.14317740499973297, 0.11854284256696701, -0.09453804045915604, 0.004445182625204325, -0.009566731750965118, 0.015626881271600723, -0.02517540007829666, -0.035457998514175415, -0.040042247623205185, -0.0991731807589531, 0.005610966589301825, 0.06572012603282928, -0.03322786092758179, 0.002008711686357856, -0.06389575451612473, 0.02043440379202366, -0.11724723875522614, 0.054728344082832336, -0.06649716943502426, 0.1534859985113144, 0.09416914731264114, -0.0674172043800354, -0.08938684314489365, -0.040364447981119156, -0.026205996051430702, -0.05425439402461052, 0.10547371208667755, -0.0844106525182724, -0.0885874330997467, 0.11442308127880096, 0.10277649015188217, -0.08528061956167221, 0.0265406034886837, 0.024199962615966797], [-0.09171807020902634, 0.013403811492025852, 0.10430990159511566, 0.10111948102712631, -0.08009713143110275, 0.06774494051933289, -0.11297716945409775, 0.06889912486076355, -0.01594613306224346, 0.01686915010213852, 0.13737770915031433, -0.011758594773709774, -0.02224581688642502, 0.13336880505084991, -0.07917984575033188, -0.01766292005777359, 0.012423884123563766, 0.10658822953701019, 0.08351796120405197, 0.0857166275382042, 0.055509015917778015, 0.05772631615400314, 0.08306735008955002, -0.0572064146399498, 0.07810797542333603, -0.02456384338438511, -0.013702505268156528, 0.06951601803302765, 0.1312389373779297, 0.02429172769188881, -0.12216654419898987, 0.050631336867809296, -0.06605474650859833, -0.07497061043977737, 0.015574317425489426, -0.11101384460926056, 0.0009035624098032713, 0.09326279163360596, -0.022809214890003204, 0.05459284782409668, 0.035828813910484314, 0.08344052731990814, -0.057690855115652084, -0.07749425619840622, 0.016750918701291084, 0.11235639452934265, 0.06675692647695541, -0.009955947287380695, -0.14456771314144135, 0.143859401345253, 0.07813438773155212, -0.12861353158950806, -0.0012637918116524816, -0.1108899638056755, 0.03134820982813835, 0.07847611606121063, -0.0074759176932275295, 0.09113431721925735, 0.028611045330762863, 0.12436456978321075, 0.048285964876413345, 0.08062611520290375, 0.03545732423663139, -0.11494900286197662], [-0.10731105506420135, -0.04902302101254463, -0.11904740333557129, 0.09237738698720932, -0.058625105768442154, 0.07767505943775177, 0.04092591255903244, 0.030993029475212097, -0.10605540126562119, -0.0902487114071846, -0.07585989683866501, -0.07051786780357361, -0.0980026051402092, 0.0056875115260481834, -0.02035827562212944, -0.028141483664512634, -0.0533522330224514, 0.018247701227664948, 0.08725958317518234, 0.09384278208017349, 0.03822096437215805, 0.04539031535387039, 0.08511049300432205, -0.03641505911946297, -0.07946325093507767, -0.044405121356248856, 0.02710661105811596, 0.10664647072553635, -0.06862374395132065, -0.08001087605953217, -0.08407795429229736, -0.09040939062833786, 0.016139598563313484, -0.033487968146800995, 0.0900363102555275, -0.007014838512986898, 0.0915360227227211, 0.01620837114751339, -0.021168755367398262, -0.01505527924746275, -0.02403251826763153, 0.1258353292942047, -0.018270481377840042, 0.0829804390668869, -0.02007974311709404, 0.002204305026680231, -0.04066263139247894, 0.05339646711945534, -0.13790062069892883, -0.031576257199048996, -0.1111762747168541, -0.007842142134904861, 0.005269642453640699, -0.04187888652086258, 0.07480311393737793, -0.1171070784330368, 0.1031915694475174, 0.04959551990032196, 0.09851323068141937, -0.058544326573610306, 0.09169089794158936, -0.09263531118631363, 0.012465545907616615, 0.08347120136022568], [-0.04010458290576935, -0.12671096622943878, 0.10819018632173538, 0.07041344046592712, 0.1178508847951889, -0.028603926301002502, 0.11999349296092987, 0.07473498582839966, 0.037992361932992935, 0.07675611972808838, -0.12255502492189407, 0.11441916972398758, 0.1233193501830101, -0.04295165836811066, -0.09765446931123734, -0.026226677000522614, -0.07222085446119308, 0.06338367611169815, -0.06910323351621628, 0.1309848427772522, -0.13044534623622894, -0.02538212016224861, -0.017895594239234924, -0.017402973026037216, 0.06777197867631912, 0.019085746258497238, -0.05034596100449562, 0.04254541173577309, 0.04696405306458473, 0.0442962720990181, 0.13944123685359955, -0.020203519612550735, 0.11963894218206406, 0.10827013850212097, 0.0416458323597908, 0.08819231390953064, 0.08712036907672882, 0.06613561511039734, -0.10863389819860458, 0.08209013193845749, -0.003629903541877866, 0.07773629575967789, -0.023280590772628784, -0.11685114353895187, -0.09777235984802246, -0.044471606612205505, -0.02804669737815857, 0.11832980811595917, 0.08831823617219925, -0.09019843488931656, -0.10727536678314209, -0.029063502326607704, -0.08887926489114761, -0.08189039677381516, -0.04929721727967262, -0.09661588817834854, -0.07252176851034164, -0.03677701577544212, 0.005416553001850843, -0.024843383580446243, -0.10380411893129349, -0.11824647337198257, -0.00672822305932641, 0.006975075230002403], [-0.09073346108198166, 0.028711285442113876, 0.13908205926418304, -0.10446478426456451, -0.08452825993299484, -0.019782157614827156, -0.06120024621486664, 0.12113170325756073, -0.024748073890805244, 0.08054815977811813, -0.020073840394616127, 0.002457414986565709, 0.100827157497406, -0.004651167429983616, -0.12222109735012054, 0.10118084400892258, -0.017129413783550262, -0.06727675348520279, 0.11069640517234802, -0.09222842752933502, -0.07629495859146118, -0.032403670251369476, 0.14655950665473938, 0.10994358360767365, -0.05124947428703308, 0.08565569669008255, -0.04163852706551552, 0.11642871797084808, 0.03075760044157505, 0.0770796462893486, 0.10362893342971802, -0.03851545602083206, 0.10382639616727829, 0.0891893282532692, -0.017853334546089172, 0.11265571415424347, -0.07146305590867996, 0.002330929506570101, 0.06335867196321487, 0.12581154704093933, -0.07757852971553802, -0.13561758399009705, 0.10172714293003082, -0.14189887046813965, 0.008908100426197052, 0.039567552506923676, 0.13953575491905212, -0.06042496860027313, 0.09493398666381836, -0.038062985986471176, 0.048908185213804245, 0.06198754534125328, -0.0941476970911026, 0.1268949806690216, -0.10770586133003235, -0.09891008585691452, 0.048144008964300156, 0.07593216001987457, 0.1026010736823082, 0.09222310036420822, 0.030165037140250206, -0.10741901397705078, 0.1138835921883583, 0.12185297906398773], [-0.020322078838944435, -0.041653938591480255, 0.053055912256240845, -0.021476084366440773, 0.08917995542287827, -0.021367628127336502, 0.10623344033956528, 0.012440192513167858, 0.06086159497499466, -0.0111438212916255, 0.1078387126326561, -0.06466419994831085, -0.010910127311944962, 0.05785778909921646, -0.03902841731905937, -0.08642908185720444, -0.031185846775770187, -0.039339762181043625, -0.05772513896226883, -0.03927609324455261, 0.024953119456768036, -0.00024411393678747118, 0.01975657045841217, 0.06258020550012589, -0.09271498024463654, -0.14917224645614624, -0.0734335258603096, 0.04875555634498596, 0.07139942049980164, 0.14070911705493927, -0.05781230702996254, 0.012145256623625755, 0.03426006808876991, -0.0027123168110847473, 0.12250176817178726, 0.10287292301654816, 0.12362256646156311, -0.12036372721195221, -0.013361618854105473, 0.10967724025249481, -0.08824914693832397, -0.12435299158096313, 0.03988887369632721, 0.03500650078058243, -0.017465531826019287, -0.05456860363483429, 0.022061889991164207, -0.06645966321229935, 0.05657782405614853, -0.12937122583389282, 0.10042662173509598, -0.043884262442588806, -0.02140774205327034, 0.07889507710933685, 0.01028423197567463, 0.06318842619657516, 0.09178449958562851, 0.007509808987379074, -0.00024017886607907712, -0.10515360534191132, -0.04544053226709366, 0.010571430437266827, -0.059202659875154495, 0.1272147297859192], [0.06356249004602432, -0.03272976726293564, 0.016924012452363968, -0.07845540344715118, 0.07460639625787735, -0.10194991528987885, 0.07599794119596481, -0.060830406844615936, -0.11285532265901566, 0.06470738351345062, -0.06270667910575867, -0.055414773523807526, 0.0053262305445969105, -0.05459974333643913, 0.10628367215394974, -0.09203833341598511, 0.0790964886546135, -0.12850399315357208, -0.02266816794872284, 0.08171062171459198, 0.09839577227830887, -0.1107008084654808, 0.13648192584514618, 0.12948626279830933, -0.06563373655080795, -0.09353964030742645, 0.031154481694102287, 0.03317555785179138, 0.06719807535409927, -0.05640144646167755, -0.07193028926849365, 0.03135041892528534, -0.060802001506090164, -0.020984364673495293, -0.0006700996309518814, -0.08103886246681213, -0.04949234426021576, 0.05840466544032097, -0.0076372078619897366, 0.06258098781108856, -0.03776927664875984, 0.0033190043177455664, 0.042739637196063995, -0.09378773719072342, -0.056144241243600845, -0.03855740651488304, -0.06454600393772125, -0.01658865064382553, 0.024102769792079926, -0.1354956179857254, 0.006595366634428501, 0.017403561621904373, -0.03233761712908745, 0.06679787486791611, 0.011234079487621784, -0.10604670643806458, 0.08300319314002991, -0.07297710329294205, 0.10865888744592667, -0.08303894847631454, 0.09588439017534256, 0.11380651593208313, -0.0067027416080236435, -0.006424543913453817], [0.00915441196411848, 0.013384479098021984, -0.02867850847542286, -0.11269216239452362, -0.06818491220474243, -0.0007196324877440929, -0.05586014688014984, 0.028699930757284164, 0.04085962101817131, -0.07840999215841293, -0.03027782402932644, 0.09394384175539017, 0.07535741478204727, 0.08051127940416336, -0.011523328721523285, 0.0838044136762619, 0.04215112328529358, -0.044020142406225204, 0.0235713142901659, -0.07054583728313446, -0.035008080303668976, -0.04912547022104263, 0.14165666699409485, 0.08234825730323792, 0.13587157428264618, -0.10273241251707077, 0.0831497460603714, 0.08114594221115112, 0.06518013030290604, 0.12981931865215302, 0.04658893123269081, -0.09400195628404617, 0.11637333035469055, 0.12619426846504211, -0.07519421726465225, -0.11892299354076385, -0.04487592726945877, -0.03457212820649147, -0.0775734931230545, 0.04094090312719345, -0.041289668530225754, 0.056029509752988815, 0.08774213492870331, 0.06657815724611282, 0.019390273839235306, -0.05976804718375206, 0.08509548753499985, 0.029155099764466286, 0.13777686655521393, -0.11214271187782288, 0.07777875661849976, 0.07408864051103592, -0.06183671951293945, -0.065945565700531, 0.09543073922395706, -0.009516528807580471, -0.05500466376543045, -0.14831028878688812, -0.03614077717065811, 0.0431978702545166, -0.050461675971746445, -0.07829639315605164, 0.07396335154771805, -0.07276992499828339], [-0.09122344851493835, 0.04172498732805252, -0.11389917880296707, 0.09405878186225891, -0.11498945206403732, 0.1132747009396553, -0.10262133181095123, -0.0966595932841301, -0.058764196932315826, 0.11425837129354477, 0.11929817497730255, -0.1115715503692627, 0.015171172097325325, 0.12080632895231247, 0.0929436981678009, 0.03294200450181961, -0.0131537402048707, -0.001959904097020626, 0.10196922719478607, 0.03038887120783329, -0.06589671224355698, -0.03550126776099205, -0.11544527858495712, -0.07180841267108917, -0.029342586174607277, -0.05044881999492645, 0.041649796068668365, 0.06745230406522751, -0.08571688085794449, -0.050325386226177216, 0.023525314405560493, 0.02695574052631855, 0.07626998424530029, -0.06735836714506149, -0.011912320740520954, 0.004293475765734911, 0.002010710071772337, 0.03579990938305855, -0.09110397845506668, -0.02780919149518013, 0.009585118852555752, -0.061241038143634796, 0.04760134965181351, -0.07247084379196167, 0.025584040209650993, 0.07995129376649857, 0.0865836814045906, -0.09400421380996704, -0.14172396063804626, -0.010212801396846771, 0.08785387128591537, 0.0092007452622056, 0.061882223933935165, 0.10394581407308578, -0.12588410079479218, 0.1073257178068161, -0.08999212831258774, 0.10292644798755646, 0.016039786860346794, -0.00962535385042429, 0.03786250576376915, -0.12022685259580612, 0.03409397602081299, -0.022313887253403664], [0.12586574256420135, -0.03250633552670479, -0.01801934838294983, -0.12150025367736816, -0.010000641457736492, 0.07951896637678146, 0.10539465397596359, -0.01578359305858612, 0.09807296842336655, 0.11511528491973877, -0.02827153541147709, 0.024427613243460655, -0.06402630358934402, -0.09794078022241592, 0.11226877570152283, 0.016175583004951477, 0.08601047843694687, 0.046061448752880096, 0.09066744893789291, -0.008550439029932022, -0.08987455815076828, -0.023518584668636322, 0.02576793171465397, -0.05934177711606026, 0.08039160072803497, 0.037176650017499924, 0.0864865779876709, 0.08374256640672684, -0.01655338890850544, -0.0875907689332962, -0.04468196630477905, -0.017954690381884575, 0.07830556482076645, -0.0915587767958641, -0.00901242345571518, 0.01757066138088703, 0.07434936612844467, 0.003551280591636896, -0.0948806032538414, -0.11646637320518494, -0.08683790266513824, -0.1050182357430458, -0.04266241937875748, 0.0014704451896250248, 0.11325003951787949, 0.09490063786506653, -0.007838888093829155, -0.04736017808318138, -0.08670271933078766, -0.0002991625224240124, -0.10905906558036804, -0.017808908596634865, 0.0618557408452034, -0.1059119775891304, -0.0724891647696495, -0.01675421930849552, -0.0963040292263031, -0.07449189573526382, -0.03953859210014343, 0.11673721671104431, 0.1012021079659462, -0.06234695017337799, -0.033999502658843994, 0.11759596318006516], [0.114957794547081, -0.09994148463010788, 0.07583969831466675, -0.008744573220610619, 0.05111605301499367, 0.04625418782234192, -0.0985330119729042, -0.028287513181567192, 0.043228428810834885, 0.013772979378700256, -0.1265956610441208, 0.13547325134277344, 0.051415443420410156, -0.12052448838949203, 0.10164056718349457, 0.009075584821403027, 0.047691915184259415, 0.06758744269609451, -0.0417703315615654, -0.10929430276155472, -0.13134680688381195, -0.12918472290039062, -0.0980474203824997, -0.08316487818956375, -0.10868736356496811, -0.09106352180242538, -0.020796608179807663, -0.025546908378601074, -0.08604317158460617, -0.052108366042375565, 0.0634620413184166, 0.03988393396139145, -0.05260887369513512, 0.11069346219301224, -0.003267464926466346, 0.08869878947734833, 0.00741628697142005, -0.1416531205177307, -0.07541782408952713, 0.02995232678949833, 0.06352672725915909, -0.06746005266904831, -0.04235028848052025, -0.13162994384765625, -0.009969821199774742, -0.12209832668304443, -0.04987460374832153, -0.08711709827184677, 0.012432851828634739, -0.09916502237319946, -0.06273536384105682, 0.04100485146045685, -0.03888316452503204, -0.019712205976247787, 0.06551601737737656, -0.07058190554380417, -0.038716211915016174, -0.010427369736135006, -0.05628317594528198, 0.02262810431420803, 0.05651559680700302, 0.03715471178293228, 0.09647869318723679, 0.08821029961109161], [-0.04135829210281372, 0.043446458876132965, -0.012414486147463322, 0.04371075704693794, 0.08152361959218979, -0.08761230111122131, -0.09408771991729736, 0.08958643674850464, 0.07098262757062912, 0.11185124516487122, 0.008884456008672714, -0.06137499585747719, -0.05701855942606926, 0.0638594925403595, -0.08156166970729828, -0.11393292248249054, 0.058106787502765656, -0.1067645400762558, -0.07587594538927078, 0.08837823569774628, -0.032552674412727356, 0.08479801565408707, 0.10440411418676376, -0.11575405299663544, -0.024985531345009804, 0.05577955022454262, -0.09585421532392502, -0.0731092318892479, -0.09432323276996613, -0.05600295588374138, -0.0032927135471254587, -0.03602556511759758, 0.10064363479614258, 0.05522674694657326, -0.06886325031518936, -0.12287821620702744, -0.05506781488656998, 0.003172338707372546, -0.055793408304452896, 0.007466264069080353, 0.06991209089756012, -0.0405266210436821, 0.01518415566533804, -0.03988083824515343, 0.001768620335496962, 0.0868382453918457, -0.046396516263484955, 0.044588446617126465, 0.046009331941604614, -0.0947011187672615, 0.0804448127746582, 0.09890881180763245, 0.11740661412477493, -0.03767518699169159, 0.0021372970659285784, 0.12195949256420135, -0.060108739882707596, 0.06997029483318329, 0.11628846824169159, 0.05631771311163902, 0.05475037172436714, -0.07679228484630585, -0.003862660611048341, 0.04688121750950813], [0.06607577949762344, 0.09977259486913681, -0.08910699933767319, -0.04012104496359825, 0.020778626203536987, -0.012413796037435532, 0.08028657734394073, -0.1337096244096756, 0.06655602157115936, 0.00742275919765234, 0.08201142400503159, -0.08057516813278198, -0.03865180164575577, 0.027674566954374313, 0.09643814712762833, -0.08194418996572495, 0.11872826516628265, 0.08906731009483337, -0.07334548234939575, -0.01536573376506567, -0.043714772909879684, -0.06739039719104767, -0.02184572070837021, 0.09027805179357529, -0.03817181661725044, -0.08167459815740585, 0.021402059122920036, 0.0954648107290268, 0.11033719033002853, -0.023040959611535072, -0.12478730827569962, 0.08522409200668335, 0.10551783442497253, -0.10525603592395782, 0.0911647379398346, 0.056764014065265656, 0.008660838939249516, -0.0880810022354126, 0.011488981544971466, -0.06589992344379425, 0.0493200458586216, -0.07209707796573639, -0.12708154320716858, 0.11778241395950317, 0.08105528354644775, -0.07760608196258545, 0.10319779068231583, 0.0032616821117699146, 0.08002250641584396, 0.025444360449910164, -0.10991749167442322, -0.0005010773311369121, -0.07490047812461853, -0.105106882750988, -0.11146311461925507, 0.07794160395860672, 0.0839395523071289, 0.031129442155361176, -0.01861102133989334, -0.0320027656853199, 0.04077477753162384, 0.10961659252643585, -0.003056838409975171, 0.06054459512233734], [0.0030292291194200516, -0.04059778153896332, -0.005218253470957279, -0.09009870886802673, 0.1167617067694664, 0.06737516075372696, 0.08089738339185715, -0.011881206184625626, 0.08623559772968292, 0.029718156903982162, 0.07321722060441971, 0.007437706924974918, 0.061262134462594986, 0.03916434943675995, 0.10574232786893845, -0.041093651205301285, -0.07912708818912506, -0.05128411948680878, -0.08818398416042328, 0.0668114647269249, -0.026688504964113235, -0.08085799217224121, -0.12947386503219604, -0.009700731374323368, 0.029361143708229065, 0.04187539592385292, -0.07877380400896072, 0.07267358899116516, -0.09779693931341171, -0.06422533094882965, -0.1512257307767868, 0.10047183185815811, -0.04706959053874016, -0.01429817359894514, 0.025520525872707367, 0.08244990557432175, 0.12255804240703583, -0.086519755423069, 0.047845348715782166, -0.050825152546167374, -0.01590231992304325, 0.048427700996398926, -0.03479208052158356, -0.006511531304568052, -0.11532258242368698, -0.04811587929725647, 0.029020991176366806, 0.0694744661450386, 0.04669581726193428, 0.01666276529431343, 0.09746039658784866, -0.014889786951243877, 0.029405338689684868, 0.10629971325397491, 0.025188572704792023, 0.0052560437470674515, 0.04198814928531647, 0.1330067664384842, -0.10925117135047913, 0.1047215387225151, 0.12217655777931213, 0.02958696521818638, 0.02308046445250511, -0.09114772826433182], [0.1216500923037529, 0.12155865877866745, 0.07851100713014603, 0.05075128749012947, -0.06839703768491745, -0.07613229006528854, 0.007694329600781202, -0.0856013298034668, 0.04038809984922409, -0.028724603354930878, -0.028617147356271744, -0.050405289977788925, -0.11969949305057526, 0.12138687074184418, -0.05683945491909981, -0.0978383794426918, -0.08475770801305771, -0.06917694211006165, 0.015355625189840794, 0.0744340643286705, -0.10432140529155731, -0.09020999073982239, -0.11819863319396973, 0.022306449711322784, 0.039781611412763596, 0.03908083215355873, 0.0661761462688446, 0.08799231052398682, -0.08380363881587982, 0.038818225264549255, 0.05092082545161247, -0.06639675050973892, -0.06520380079746246, -0.05105086416006088, 0.012613522820174694, 0.0016885028453543782, -0.0832509770989418, 0.12727563083171844, -0.003146214410662651, 0.05638483911752701, -0.08590008318424225, -0.05164409056305885, 0.10137756913900375, -0.056302759796381, -0.06855989992618561, -0.04534585773944855, 0.05987519025802612, 0.07487980276346207, 0.016080044209957123, 0.11039373278617859, -0.12494718283414841, -0.10279092937707901, 0.08925051242113113, 0.003420427441596985, -0.11378224194049835, -0.1006978377699852, 0.0018227226100862026, -0.06541061401367188, -0.12686870992183685, 0.07341015338897705, -0.031141456216573715, 0.06789272278547287, 0.12419067323207855, -0.0875224620103836], [-0.07305096834897995, -0.038234833627939224, -0.11246663331985474, -0.028760388493537903, 0.009358054958283901, 0.12060201913118362, -0.10163579136133194, -0.10437577962875366, -0.059803009033203125, -0.012492666020989418, 0.06086396798491478, -0.13132305443286896, -0.0396571010351181, -0.0856628268957138, 0.042202241718769073, 0.07279873639345169, 0.03504709526896477, -0.0290690828114748, 0.013264315202832222, 0.045949798077344894, -0.02605012059211731, 0.06217396259307861, 0.00993280578404665, -0.037161387503147125, 0.009606479667127132, 0.061873238533735275, 0.0602278932929039, -0.12983274459838867, 0.033952176570892334, 0.029259733855724335, -0.13108110427856445, -0.09899737685918808, 0.1159718930721283, -0.07098688185214996, -0.09197435528039932, -0.07026074081659317, -0.07917480915784836, 0.03390388563275337, -0.03641948103904724, 0.08750425279140472, -0.04195874556899071, -0.10715726763010025, 0.07270896434783936, 0.08563869446516037, 0.01862494833767414, 0.11250067502260208, 0.03702409937977791, 0.0911591500043869, -0.004834392573684454, -0.027406029403209686, 0.016617631539702415, 0.02548939920961857, -0.08028820157051086, -0.031618788838386536, -0.04970455914735794, 0.06120976433157921, -0.12968532741069794, 0.1083718091249466, -0.03442954644560814, -0.10055678337812424, 0.14025063812732697, -0.036462608724832535, -0.06541309505701065, 0.0730946809053421], [-0.004002569243311882, -0.14294429123401642, 0.04362843185663223, -0.05905561521649361, 0.05080670490860939, 0.1038828119635582, -0.06777516007423401, 0.004897467792034149, 0.030865339562296867, -0.013594791293144226, -0.006978852674365044, 0.10056599229574203, 0.08469104766845703, -0.09141168743371964, -0.13327720761299133, 0.028764884918928146, 0.02652745135128498, 0.006647605448961258, -0.10159658640623093, 0.12444361299276352, -0.029886877164244652, 0.08552572876214981, -0.05820158123970032, -0.004423527978360653, 0.07790134847164154, -0.04435776174068451, -0.05729193985462189, 0.13531194627285004, 0.0486791729927063, -0.07550106942653656, -0.005293131805956364, -0.07000409811735153, -0.021184660494327545, 0.0009733925107866526, 0.12624390423297882, -0.017655111849308014, -0.01177697628736496, -0.14220407605171204, 0.11761146783828735, 0.13031703233718872, 0.01827356219291687, 0.047044213861227036, -0.030320122838020325, -0.07987721264362335, 0.07335423678159714, 0.03227565810084343, 0.06467195600271225, 0.08608260750770569, 0.0027413167990744114, -0.03758186846971512, -0.06376344710588455, 0.040523797273635864, 0.10411887615919113, 0.0935606062412262, 0.07512766122817993, 0.015828654170036316, 0.05223881080746651, -0.1215406060218811, 0.05459822341799736, 0.003932120744138956, 0.02202100306749344, 0.041762303560972214, 0.07227177917957306, -0.001536928815767169], [-0.03434072062373161, 0.08633605390787125, -0.024161430075764656, -0.020579418167471886, -0.020936544984579086, 0.07663077861070633, -0.0937090516090393, -0.05593370646238327, -0.1164192408323288, -0.057361435145139694, -0.04426145553588867, -0.034385595470666885, 0.1022711843252182, 0.05096310377120972, 0.031041711568832397, 0.06736505776643753, 0.0979318916797638, 0.07907028496265411, -0.09448002278804779, -0.036910124123096466, 0.06979836523532867, -0.04277455061674118, -0.04832255095243454, -0.04507913067936897, 0.10649365186691284, -0.06099468097090721, 0.02804725617170334, -0.039130520075559616, 0.08866281807422638, 0.14275969564914703, 0.11028117686510086, 0.09455886483192444, -0.05694977194070816, -0.007178862113505602, 0.05551331862807274, 0.06275799125432968, -0.05872541293501854, -0.028116879984736443, -0.07104376703500748, -0.014981335029006004, 0.03513577580451965, 0.04088617116212845, 0.06971883028745651, -0.12210557609796524, 0.1134192943572998, -0.0741623267531395, -0.04127482324838638, 0.02779075689613819, 0.07665486633777618, -0.06679922342300415, -0.07334073632955551, 0.06324987858533859, -0.10613683611154556, 0.0817078948020935, 0.03855803608894348, 0.11433584243059158, -0.011032266542315483, -0.11477496474981308, -0.07682868838310242, -0.09491939842700958, 0.045940596610307693, -0.09169058501720428, 0.026010073721408844, 0.07230207324028015], [0.050503622740507126, -0.11545112729072571, 0.07363184541463852, -0.05691409111022949, -0.061297327280044556, -0.007667520549148321, -0.06033732742071152, -0.00890730693936348, 0.05293015018105507, -0.0050407517701387405, -0.09946517646312714, 0.08641690015792847, -0.061102427542209625, 0.041057270020246506, -0.0001840459881350398, 0.13028886914253235, 0.101681649684906, 0.07615245878696442, 0.023708930239081383, -0.05988619104027748, -0.01930609531700611, -0.05581451952457428, 0.057919327169656754, -0.08345355093479156, 0.02990456111729145, -0.010345215909183025, 0.04510829225182533, -0.07616206258535385, 0.010600179433822632, -0.06001191958785057, 0.009377540089190006, 0.08323104679584503, -0.006399648729711771, 0.08195134252309799, 0.09165483713150024, 0.06391119211912155, 0.06755263358354568, -0.009533540345728397, 0.030066117644309998, -0.060530245304107666, 0.07316064834594727, -0.01324009895324707, 0.0073147607035934925, 0.007436229381710291, -0.10665736347436905, -0.008017576299607754, -0.08895525336265564, -0.07634880393743515, -0.10606100410223007, 0.11621978878974915, -0.0561019591987133, 0.008892619051039219, 0.043215371668338776, 0.029538987204432487, -0.07738955318927765, -0.043394122272729874, -0.04018921032547951, 0.1041257381439209, 0.11434543877840042, 0.008535425178706646, -0.0007694843807257712, -0.06558103114366531, -0.06907866895198822, -0.08101366460323334], [-0.07868438959121704, 0.037982575595378876, -0.08588774502277374, 0.05107612535357475, 0.03334590047597885, -0.03402012586593628, 0.06266895681619644, -0.06942465156316757, -0.06170408055186272, 0.08443908393383026, -0.12207575142383575, 0.13544104993343353, 0.12844106554985046, -0.10020889341831207, -0.05451995134353638, 0.09794473648071289, -0.01953050121665001, -0.019194578751921654, -0.017200369387865067, 0.07341970503330231, 0.09282010048627853, 0.07003448158502579, 0.06494735181331635, 0.057201579213142395, -0.10490620881319046, -0.020952781662344933, -0.02834363281726837, -0.09823596477508545, -0.049722667783498764, -0.03356461599469185, -0.06177239492535591, 0.08485618233680725, -0.05827784538269043, -0.06581227481365204, 0.042611368000507355, -0.009535085409879684, 0.06332845985889435, -0.10460254549980164, -0.0660705640912056, -0.054061613976955414, -0.11847125738859177, 0.0005679919268004596, 0.11050891876220703, -0.10213857889175415, 0.03788290172815323, -0.13470350205898285, 0.09541982412338257, -0.05007676035165787, -0.0359635129570961, -0.04560208320617676, 0.0735258013010025, 0.11116284132003784, 0.07590164989233017, -0.07243768125772476, -0.0017335980664938688, 0.10853207111358643, -0.10745487362146378, -0.05079255253076553, 0.09849707037210464, -0.023466480895876884, 0.006881604436784983, 0.04148189723491669, -0.014881354756653309, 0.04525170847773552], [0.09560447186231613, 0.1154615581035614, -0.0557493157684803, -0.04609774425625801, 0.09332103282213211, 0.07851816713809967, -0.05585341155529022, -0.009313750080764294, 0.11618255823850632, -0.10650203377008438, 0.1326553225517273, -0.032714955508708954, -0.0008190302760340273, -0.07413394749164581, -0.10169288516044617, -0.008200367912650108, 0.039485931396484375, -0.05577091872692108, -0.023048115894198418, 0.010903527960181236, -0.07790958881378174, 0.059283774346113205, -0.11401328444480896, -0.11810745298862457, -0.123262420296669, -0.013022419065237045, 0.0060140471905469894, 0.04207209125161171, -0.038177259266376495, 0.10456909984350204, -0.023513948544859886, -0.0902070626616478, -0.10318715125322342, -0.14348649978637695, -0.11046316474676132, 0.1251181811094284, 0.05725337564945221, -0.047029685229063034, 0.10153156518936157, 0.03600097447633743, 0.14636430144309998, 0.08963828533887863, -0.06610116362571716, -0.03297333046793938, -0.08735471218824387, -0.056595128029584885, 0.02643417939543724, -0.10499150305986404, -0.05235550180077553, -0.06399793922901154, -0.012596036307513714, 0.0840965062379837, -0.10691661387681961, 0.06674185395240784, 0.10530981421470642, 0.050323981791734695, -0.03930465504527092, 0.06408427655696869, -0.09814513474702835, 0.1022878959774971, -0.06571057438850403, 0.07520703226327896, 0.04204218089580536, 0.03287295997142792], [0.07806924730539322, 0.0023387304972857237, 0.14173157513141632, -0.09778229892253876, 0.062111660838127136, -0.08326242119073868, 0.11423716694116592, -0.0773169994354248, 0.04508648440241814, -0.0996854305267334, -0.07438735663890839, 0.1331264227628708, 0.025219889357686043, -0.05800829455256462, -0.111126609146595, -0.07973863184452057, -0.0743546113371849, 0.0830848217010498, 0.12889550626277924, 0.03183034434914589, 0.025387706235051155, -0.039895255118608475, -0.01638016290962696, -0.08579321205615997, -0.012924970127642155, 0.0549619197845459, -0.03417351841926575, 0.0787259116768837, 0.05567314848303795, -0.046973586082458496, 0.04801781848073006, -0.14780275523662567, -0.10349806398153305, -0.09735061228275299, 0.0036332602612674236, -0.05160821974277496, 0.11955782771110535, 0.09125009179115295, 0.019475433975458145, 0.019959963858127594, -0.06834647804498672, -0.1377795785665512, 0.1501416712999344, 0.003281759563833475, -0.07084480673074722, -0.06537499278783798, -0.022053077816963196, 0.07161325961351395, 0.13507655262947083, -0.04351217299699783, -0.023122623562812805, 0.13479305803775787, 0.10582339763641357, 0.08072193711996078, -0.01998037099838257, 0.04039349779486656, -0.018938057124614716, -0.007279559504240751, 0.017774347215890884, -0.05253208056092262, 0.05131193995475769, 0.12931936979293823, 0.08712968975305557, -0.01884349063038826], [0.10758288949728012, -0.11001282930374146, -0.04791172221302986, 0.058116525411605835, -0.013609129004180431, -0.07505279779434204, -0.08255380392074585, 0.0035530133172869682, -0.12797510623931885, -0.06548280268907547, -0.08378962427377701, 0.06300996989011765, 0.013797605410218239, 0.004314069636166096, 0.07797755300998688, -0.10753577947616577, -0.0017814552411437035, -0.06189386546611786, 0.10887398570775986, 0.034755416214466095, -0.06400371342897415, -0.05958697572350502, -0.012421119958162308, -0.044248491525650024, 0.08089065551757812, -0.002437810180708766, -0.09274085611104965, -0.07863044738769531, -0.1162012368440628, 0.04193522781133652, 0.11878364533185959, -0.011925925500690937, -0.04481185972690582, 0.1375531703233719, -0.0540148951113224, -0.003455519676208496, 0.007286778651177883, -0.047330185770988464, 0.004110828973352909, 0.07837986201047897, -0.0658075287938118, -0.06248338520526886, -0.06474022567272186, -0.1423110067844391, 0.0785457119345665, 0.0090428302064538, 0.12695817649364471, 0.07270900905132294, 0.010747145861387253, 0.030669741332530975, -0.009416520595550537, 0.014177436009049416, 0.026271456852555275, -0.02270740084350109, 0.03783439099788666, -0.06914127618074417, -0.06819742918014526, 0.059670839458703995, -0.065339095890522, -0.1383824497461319, -0.11892785876989365, 0.12094452977180481, 0.007896583527326584, 0.05743986740708351], [0.010434946045279503, -0.0040599387139081955, 0.06360885500907898, -0.044495537877082825, -0.048589613288640976, 0.029183562844991684, 0.11714386940002441, -0.026834627613425255, 0.08796240389347076, 0.11061106622219086, 0.06594740599393845, 0.046372704207897186, -0.0541662760078907, 0.06190849840641022, 0.06187732145190239, -0.12644915282726288, -0.04441453889012337, 0.08406900614500046, -0.10396241396665573, 0.02047283947467804, 0.05748915672302246, -0.12665453553199768, -0.04928680881857872, 0.12510041892528534, 0.00825379230082035, -0.13535425066947937, -0.01878080889582634, 0.008525331504642963, 0.004665011074393988, -0.053016941994428635, 0.06215789169073105, 0.01800547167658806, -0.07100056856870651, -0.09033320844173431, 0.008874986320734024, -0.101556196808815, -0.048153847455978394, -0.12558725476264954, 0.0012826963793486357, 0.017282336950302124, 0.04583372920751572, 0.025975124910473824, 0.11184147000312805, -0.026775868609547615, -0.07129308581352234, -0.046995293349027634, 0.12369373440742493, -0.10168174654245377, 0.14181992411613464, -0.040613941848278046, -0.025578981265425682, -0.09735546261072159, 0.012129271402955055, 0.12131458520889282, 0.10928861796855927, 0.12125097960233688, -0.07687955349683762, -0.07797864824533463, 0.01545790396630764, -0.05354077368974686, 0.0779590755701065, 0.024668456986546516, 0.11042922735214233, -0.00896042212843895], [0.06992729753255844, -0.11181264370679855, 0.08737138658761978, -0.12767818570137024, 0.014127002097666264, -0.027517085894942284, -0.004406539257615805, -0.052420128136873245, 0.08228123188018799, 0.037496428936719894, -0.04948059841990471, -0.04776497930288315, 0.0743459165096283, -0.13231776654720306, -0.07002028822898865, 0.042457226663827896, 0.023420177400112152, -0.07395657151937485, 0.045450955629348755, 0.029062045738101006, 0.06521212309598923, -0.08648800104856491, 0.0059366375207901, -0.09392891079187393, 0.1070050299167633, 0.007929411716759205, 0.03822532296180725, -0.04230797663331032, -0.06193085014820099, 0.14947721362113953, 0.07059924304485321, 0.04253444820642471, -0.05541941523551941, -0.005520665552467108, -0.07519084960222244, -0.08602699637413025, -0.0026680303271859884, -0.05740651488304138, 0.0674462839961052, 0.11719702929258347, 0.033754345029592514, -0.14729486405849457, 0.00048477837117388844, -0.10163811594247818, -0.07680771499872208, -0.1084720566868782, 0.11473169177770615, 0.02341802977025509, -0.08538039773702621, -0.06415031850337982, -0.07554156333208084, -0.04163363575935364, -0.10159292072057724, 0.017376374453306198, -0.08106923848390579, -0.044258829206228256, 0.08728338032960892, -0.1609717458486557, 0.07849690318107605, -0.05394758656620979, -0.036338482052087784, 0.06006273627281189, 0.014694510027766228, -0.07825170457363129], [-0.06577321887016296, -0.02414870634675026, 0.08303637057542801, -0.004219666123390198, -0.10808399319648743, -0.045554839074611664, 0.11281329393386841, 0.042852792888879776, -0.12308007478713989, -0.021967841312289238, 0.03857431188225746, -0.04922303557395935, 0.014201893471181393, -0.11089092493057251, -0.019916176795959473, 0.05257664620876312, -0.09844855219125748, 0.021137647330760956, -0.08937345445156097, -0.03383641317486763, 0.0894443467259407, 0.10874505341053009, -0.08267544209957123, 0.12864109873771667, 0.08248687535524368, -0.03407417982816696, -0.10802357643842697, -0.06502353399991989, 0.10094747692346573, -0.08740577846765518, -0.09259596467018127, 0.00844009593129158, -0.02929249219596386, -0.10486682504415512, 0.09254226833581924, 0.06693421304225922, -0.016133083030581474, -0.1044107973575592, -0.03974892199039459, 0.09961920231580734, -0.10839655995368958, 0.03922777250409126, 0.1204577386379242, -0.08788792788982391, 0.02517937496304512, -0.0366186797618866, -0.09869705140590668, 0.12030068039894104, 0.04742594063282013, -0.02288755215704441, 0.12956871092319489, 0.13179543614387512, -0.06112799048423767, 0.06823964416980743, 0.06285105645656586, 0.06548597663640976, 0.03048343025147915, -0.07269671559333801, 0.05112756788730621, 0.10804411768913269, 0.049622174352407455, -0.022828971967101097, 0.0031112555880099535, 0.12822984158992767], [-0.04766599461436272, 0.058604925870895386, 0.028702663257718086, -0.08031643182039261, 0.058076560497283936, -0.10390332341194153, -0.09501063823699951, -0.0859074667096138, -0.07946217060089111, 0.0630761906504631, 0.10577844083309174, 0.04664097726345062, 0.029576249420642853, 0.11144617199897766, -0.06556431949138641, 0.040347009897232056, 0.09003965556621552, 0.12451235949993134, 0.10707270354032516, 0.05445601046085358, 0.006525455508381128, 0.10212787240743637, -0.11603890359401703, 0.0585060678422451, 0.011810485273599625, 0.1496664136648178, -0.03960757702589035, -0.08971704542636871, 0.12415217608213425, -0.10549574345350266, -0.13273181021213531, 0.09064459800720215, -0.010942473076283932, -0.12327218800783157, -0.026028349995613098, 0.12000502645969391, 0.04495196044445038, -0.08481593430042267, 0.06567233055830002, 0.03954406827688217, 0.02590855024755001, 0.14003242552280426, 0.09150396287441254, -0.022251158952713013, 0.025321243330836296, -0.03087981790304184, -0.1363181322813034, 0.025579655542969704, -0.11236127465963364, 0.042394161224365234, 0.05887196958065033, 0.04109051078557968, -0.0828838124871254, -0.06939452886581421, 0.07917354255914688, 0.08041729778051376, -0.12512540817260742, 0.10520598292350769, 0.022416654974222183, -0.10562603175640106, -0.10097552090883255, -0.0694812461733818, -0.05280759185552597, 0.008501780219376087], [-0.10907386988401413, -0.12263483554124832, 0.03601251542568207, 0.04191609472036362, -0.01338270679116249, -0.06954513490200043, 0.09821020811796188, -0.0049341171979904175, 0.013211467303335667, -0.04986737295985222, -0.006426818203181028, 0.09095427393913269, 0.03104429878294468, -0.02128889597952366, -0.00726573308929801, -0.10986685752868652, -0.025477487593889236, -0.11447127163410187, 0.12829434871673584, -0.09692259877920151, -0.14120085537433624, 0.01606050133705139, 0.09635250270366669, -0.1094588115811348, 0.11657693982124329, -0.13855485618114471, -0.0662955492734909, 0.12902189791202545, -0.017590774223208427, 0.01892143115401268, -0.06836152076721191, -0.03245588764548302, -0.03353197127580643, -0.04717706888914108, 0.014836294576525688, -0.018121926113963127, -0.023748058825731277, -0.11780674010515213, 0.12016814947128296, -0.07202961295843124, -0.036736126989126205, 0.09588512033224106, 0.07860610634088516, -0.05783693864941597, -0.07244157046079636, -0.09265456348657608, 0.01812225580215454, 0.08950558304786682, -0.065679170191288, 0.06482638418674469, 0.1358383297920227, -0.0017831663135439157, -0.11499357223510742, 0.09300579130649567, -0.020984100177884102, 0.10962288081645966, 0.043735943734645844, 0.08208535611629486, -0.0745210349559784, 0.05901782587170601, -0.04925049468874931, 0.013924593105912209, -0.016873672604560852, -0.017851555719971657], [-0.0842885822057724, -0.026626979932188988, 0.07853218913078308, 0.09863791614770889, 0.1033615693449974, -0.12090525776147842, 0.11453268676996231, -0.06495901197195053, 0.055948998779058456, 0.09717942029237747, -0.07122818380594254, -0.058193620294332504, -0.1098298728466034, 0.1073366180062294, 0.047364741563797, -0.028398172929883003, 0.09912574291229248, -0.07581793516874313, -0.009057247079908848, -0.029820043593645096, -0.13210967183113098, 0.01751476153731346, 0.06341642141342163, -0.016294624656438828, -0.035109687596559525, 0.0041721113957464695, 0.010630021803081036, -0.03669809177517891, 0.06860435009002686, 0.12093167752027512, -0.051124636083841324, 0.10588164627552032, 0.12027884274721146, 0.014238379895687103, 0.11004316061735153, -0.029194435104727745, 0.09384860098361969, 0.06725602596998215, 0.07881221175193787, 0.08755515515804291, 0.052970897406339645, -0.12318965047597885, -0.004039686173200607, 0.03632403165102005, 0.09278804808855057, -0.07579503208398819, 0.018991228193044662, 0.021988602355122566, 0.023144995793700218, -0.05783144012093544, -0.014881177805364132, 0.02472665347158909, -0.08764765411615372, -0.1062052920460701, 0.10688610374927521, 0.07406862080097198, 0.08224964141845703, 0.07513827085494995, -0.1215825006365776, -0.005882393568754196, 0.024937253445386887, 0.025844283401966095, 0.06222613900899887, 0.018116045743227005], [-0.03570326417684555, -0.02992917411029339, -0.08170276135206223, 0.0450015552341938, 0.0731540396809578, -0.04084143787622452, -0.11549816280603409, -0.006845006253570318, -0.03305624797940254, 0.07533906400203705, -0.027552250772714615, -0.05156942829489708, -0.033184148371219635, 0.03827163949608803, 0.07922391593456268, 0.0023074073251336813, -0.11082445830106735, 0.001593952183611691, 0.10659773647785187, -0.09808142483234406, 0.14301937818527222, -0.04570745304226875, 0.06977009028196335, 0.02171243168413639, 0.022512350231409073, 0.14299125969409943, 0.04016571119427681, 0.07097013294696808, 0.13586871325969696, 0.04219764098525047, 0.061646148562431335, -0.010325990617275238, -0.11819019913673401, -0.14499308168888092, 0.09430867433547974, 0.002794056199491024, 0.11760445684194565, 0.05254366621375084, 0.030148949474096298, -0.005000091157853603, 0.023854335770010948, 0.1189369186758995, -0.11601391434669495, 0.010925326496362686, 0.121574766933918, -0.024847887456417084, 0.08812518417835236, -0.05620937421917915, -0.14329183101654053, 0.09659449756145477, 0.027146292850375175, -0.029482906684279442, -0.02136373706161976, -0.0005603801691904664, -0.016176683828234673, -0.0073860581032931805, 0.08711530268192291, 0.14193950593471527, -0.05954473465681076, 0.07382307946681976, 0.14275473356246948, -0.12787391245365143, -0.0010564232943579555, 0.042742207646369934], [-0.0828733965754509, 0.13684213161468506, -0.018459225073456764, -0.11230126023292542, 0.09330146014690399, -0.09457094967365265, -0.07315690070390701, -0.09490910917520523, 0.01708027347922325, 0.05749811232089996, 0.08408788591623306, 0.06115909665822983, 0.06746577471494675, -0.11410059034824371, -0.08633290976285934, 0.052717648446559906, 0.04305243492126465, 0.01377425529062748, -0.02287265472114086, 0.065853051841259, 0.011392860673367977, -0.03837132826447487, -0.018315941095352173, -0.09960366040468216, -0.07612399756908417, -0.039436809718608856, 0.12470383197069168, -0.14033496379852295, 0.07191606611013412, -0.10845956206321716, 0.052014775574207306, -0.08871021121740341, -0.05068281665444374, -0.14288952946662903, -0.12230318784713745, -0.09250930696725845, -0.018914243206381798, 0.12493745982646942, -0.01667008548974991, -0.004572584759443998, -0.0019760504364967346, -0.053862184286117554, -0.09943391382694244, 0.09658721089363098, 0.04658706113696098, -0.07710028439760208, -0.10294488072395325, -0.08873771131038666, -0.12701691687107086, 0.018268384039402008, -0.10604351758956909, 0.006884581409394741, 0.11695525795221329, 0.051463574171066284, 0.05828865244984627, -0.04311862587928772, -0.048739656805992126, 0.08359568566083908, 0.11749739944934845, 0.03027324751019478, 0.11608488112688065, -0.04146891459822655, -0.10290109366178513, 0.09387882053852081], [0.13450320065021515, 0.12383668124675751, -0.021232008934020996, -0.09380096942186356, 0.01061567384749651, -0.025912854820489883, -0.04922756925225258, 0.09323932975530624, -0.0013835042482241988, 0.09485146403312683, -0.09462421387434006, -0.1511048823595047, -0.024120427668094635, -0.07862208038568497, 0.027288256213068962, 0.03178822994232178, 0.05280238762497902, -0.017579907551407814, -0.1193995326757431, -0.03129810467362404, 0.04882543906569481, -0.015958715230226517, 0.02149631455540657, -0.1125713363289833, 0.04307219758629799, 0.11555344611406326, -0.043970976024866104, 0.05197881907224655, -0.03660773113369942, -0.11437219381332397, -0.12999531626701355, -0.0007564725237898529, 0.057613976299762726, 0.09301618486642838, 0.024774279445409775, 0.11631590873003006, -0.052789852023124695, -0.07283192127943039, 0.0008945317240431905, 0.026855453848838806, 0.06800355017185211, -0.010146131739020348, -0.14776378870010376, 0.04842439666390419, 0.0006674762116745114, -0.00460199685767293, -0.06006818264722824, 0.0701553225517273, -0.01895149238407612, -0.015078961849212646, 0.006130554713308811, -0.025653189048171043, -0.02208275906741619, -0.039263371378183365, -0.008556298911571503, 0.039281658828258514, 0.07843456417322159, 0.12239886820316315, -0.0926271304488182, 0.07146422564983368, 0.05028487369418144, 0.04070654883980751, 0.10152903199195862, 0.04707758128643036], [-0.00405076565220952, 0.07237005978822708, 0.04468389227986336, -0.03031408227980137, 0.10037343949079514, -0.05868374556303024, 0.026373563334345818, 0.09092744439840317, -0.11345245689153671, 0.119316965341568, 0.012557417154312134, -0.05044048652052879, -0.06711015105247498, 0.03647076338529587, 0.1097206100821495, -0.035418372601270676, -0.11020368337631226, 0.0068784551694989204, 0.09084948897361755, -0.004643225576728582, 0.10549935698509216, -0.02227042429149151, 0.014192696660757065, 0.05301857367157936, 0.05771205201745033, 0.12568387389183044, 0.018421027809381485, -0.0502956286072731, 0.009211951866745949, -0.09294743835926056, 0.08109737187623978, 0.08477790653705597, -0.013601109385490417, -0.07241157442331314, -0.1320447325706482, 0.06991671770811081, 0.014689093455672264, -0.06283700466156006, 0.0990084558725357, -0.09717567265033722, 0.1180531308054924, 0.0730595514178276, -0.13780173659324646, -0.03633489832282066, -0.024758992716670036, 0.09399788081645966, 0.023223837837576866, -0.05242256447672844, -0.013067384250462055, 0.005553735885769129, -0.02717025950551033, -0.029744155704975128, -0.10778243094682693, 0.07213965058326721, 0.0766606479883194, -0.11378558725118637, 0.11641432344913483, -0.022743504494428635, 0.001331225037574768, -0.027165081351995468, 0.1175757348537445, 0.11931115388870239, 0.001453255768865347, -0.021354176104068756], [0.010320007801055908, 0.09073629975318909, 0.14021122455596924, 0.062004320323467255, -0.04634937271475792, -0.025990445166826248, 0.05066244676709175, -0.09574153274297714, 0.03605210781097412, -0.09021416306495667, 0.08713720738887787, 0.047011516988277435, -0.030165603384375572, -0.057213786989450455, 0.04214070364832878, -0.012684552930295467, 0.046958621591329575, -0.08688589185476303, -0.06630915403366089, 0.055397432297468185, 0.07585717737674713, 0.09687488526105881, 0.07220473885536194, -0.10391271859407425, -0.05137019604444504, -0.13220222294330597, -0.14494889974594116, 0.03427521511912346, 0.08221501111984253, 0.03848765417933464, -0.03528396785259247, 0.011264460161328316, -0.09544087201356888, 0.11321381479501724, 0.060426440089941025, -0.026008477434515953, -0.022575434297323227, -0.0023133638314902782, 0.10255934298038483, 0.07784479111433029, -0.010271274484694004, -0.10027918964624405, 0.027108293026685715, -0.02591053955256939, -0.09474119544029236, -0.041457850486040115, -0.09444843977689743, -0.0024691300932317972, 0.14440900087356567, 0.029686197638511658, 0.023335635662078857, 0.06142161786556244, -0.07193217426538467, 0.08278994262218475, -0.03316392004489899, 0.008323951624333858, 0.08020918071269989, -0.07047484070062637, -0.05617566034197807, 0.08955006301403046, -0.007606887724250555, 0.08535413444042206, 0.04184484854340553, 0.03903646394610405], [-0.08314264565706253, 0.08099891990423203, 0.039334457367658615, -0.10438070446252823, 0.022858362644910812, -0.12185242027044296, -0.01974957250058651, 0.09477918595075607, 0.10635638236999512, -0.04790700227022171, 0.050945695489645004, 0.046660710126161575, -0.10815168172121048, 0.03737745061516762, 0.04726828634738922, -0.06617660075426102, 0.03727418929338455, 0.11210829019546509, -0.015141603536903858, 0.03297220543026924, -0.07780729234218597, -0.06389441341161728, 0.06860265135765076, -0.04311339184641838, 0.09640132635831833, 0.0658455416560173, 0.011727355420589447, 0.0734114795923233, -0.07601258903741837, -0.09820063412189484, 0.10327980667352676, 0.04736606776714325, -0.014497407712042332, 0.10674916952848434, 0.08313025534152985, 0.013724137097597122, 0.02541206404566765, -0.09686838835477829, 0.035037536174058914, 0.07444500178098679, 0.10001184791326523, -0.06379591673612595, -0.11874289065599442, 0.08777723461389542, -0.099401094019413, 0.00958622433245182, 0.07422149926424026, -0.07858385145664215, 0.004370730370283127, -0.04675852134823799, 0.032862380146980286, -0.07204905152320862, 0.05848170071840286, -0.0027858701068907976, 0.08206094801425934, 0.008209462277591228, 0.04936801642179489, -0.09730172157287598, -0.11250524967908859, 0.06067053601145744, 0.03188889101147652, 0.05117829144001007, -0.12029565125703812, 0.10226186364889145], [-0.10491547733545303, 0.07108314335346222, -0.09581992030143738, 0.08117397129535675, 0.10171463340520859, 0.05078262835741043, -0.06937513500452042, -0.041739240288734436, 0.07526085525751114, -0.09482061117887497, -0.0664931908249855, 0.14619044959545135, 0.0892254039645195, 0.04380463808774948, 0.10192927718162537, 0.08026326447725296, -0.03753214329481125, -0.11616043746471405, 0.12229237705469131, -0.0867118313908577, -0.11930415779352188, -0.006726653315126896, 0.01691843569278717, -0.009363490156829357, 0.05057866871356964, 0.07816310226917267, -0.1278741955757141, -0.0016417063307017088, 0.006506406236439943, 0.08149245381355286, 0.16058024764060974, -0.058394018560647964, 0.1062634140253067, 0.09531798958778381, -0.09696143120527267, -0.04395147040486336, -0.05615875497460365, 0.03795534744858742, -0.06874749809503555, 0.015688598155975342, -0.16322289407253265, -0.07402240484952927, 5.306845559971407e-05, -0.0684768334031105, 0.0736837312579155, -0.12524504959583282, -0.04751762002706528, -0.11895667761564255, 0.1005098968744278, 0.06661062687635422, -0.08626757562160492, -0.09132786095142365, 0.10827488452196121, -0.04684235155582428, -0.05518394336104393, -0.03677824139595032, 0.12292663753032684, -0.15978369116783142, 0.028734281659126282, -0.017227521166205406, -0.005658998619765043, -0.010821384377777576, 0.0009036821429617703, 0.08404386788606644], [0.1239735335111618, 0.06881464272737503, 0.015120248310267925, -0.03323536366224289, -0.003846515202894807, 0.10733260959386826, -0.028035257011651993, 0.03574814274907112, -0.03413423150777817, -0.10890695452690125, -0.09405973553657532, 0.07063840329647064, 0.02457931451499462, -0.03867439925670624, 0.08752109110355377, 0.14704394340515137, -0.11079404503107071, 0.00993847195059061, 0.013674306683242321, -0.034867703914642334, -0.04321649298071861, -0.02303052693605423, 0.010910609737038612, -0.019181104376912117, 0.031239792704582214, 0.09173669666051865, -0.008092580363154411, 0.05125676840543747, 0.12362654507160187, -0.0723191425204277, -0.12806324660778046, 0.03410430997610092, 0.11967640370130539, 0.0739075243473053, -0.0320323146879673, -0.08288796246051788, 0.040783729404211044, 0.034616440534591675, -0.08484815061092377, -0.12922587990760803, 0.12091226130723953, 0.0963185504078865, -0.02267872355878353, -0.002214865293353796, -0.07655854523181915, 0.12909545004367828, 0.04695373773574829, 0.07589142769575119, -0.11784156411886215, -0.07068571448326111, 0.06343676149845123, 0.018537957221269608, -0.024287106469273567, -0.13672882318496704, 0.08349265158176422, 0.014498034492135048, 0.08839680254459381, -0.013655020855367184, 0.1119854524731636, 0.0017788324039429426, 0.0973646342754364, -0.009618119336664677, -0.060159675776958466, -0.033163104206323624], [0.11273114383220673, 0.08140762150287628, -0.031214643269777298, 