{"actor.0.weight": [[-0.03910869359970093, 0.01224362663924694, 0.09480784088373184, -0.11910200119018555, -0.04835745319724083, 0.049608733505010605, -0.07649624347686768, 0.048143837600946426, 0.10153786838054657, 0.05762367323040962, -0.15861862897872925, 0.06418675929307938, -0.15367276966571808, -0.13068971037864685, -0.011304299347102642, -0.03893914818763733, 0.12465221434831619, 0.12487977743148804, 0.021869316697120667, -0.02911832556128502, 0.19630666077136993, 0.06451775133609772, 0.055410247296094894, -0.18115420639514923, 0.08020477741956711, -0.196444571018219, 0.15023303031921387, -0.10438669472932816, -0.003281329059973359, -0.08788304030895233, -0.05977116897702217, 0.1551353931427002], [0.006729965563863516, 0.04947424679994583, -0.056992508471012115, -0.14534495770931244, -0.12198596447706223, -0.13223785161972046, -0.037702929228544235, 0.03400545194745064, -0.16297045350074768, 0.07016114890575409, -0.08795784413814545, 0.06370712071657181, 0.11392296850681305, 0.0022099444177001715, -0.06555157899856567, 0.0006459718570113182, -0.1309318095445633, 0.11346971243619919, -0.12418442219495773, -0.0028935568407177925, 0.08395615220069885, 0.13046297430992126, 0.05634007230401039, -0.15764394402503967, 0.019951937720179558, -0.013182825408875942, 0.18009325861930847, 0.12323916703462601, 0.16123610734939575, 0.139205664396286, 0.17308814823627472, 0.06138564646244049], [-0.05176005885004997, 0.00925963744521141, 0.10139698535203934, 0.16931970417499542, -0.030312253162264824, -0.03411656245589256, 0.07019639760255814, -0.09422934800386429, -0.005588711239397526, -0.10933926701545715, 0.009940202347934246, -0.07425431162118912, -0.05175407603383064, 0.08577068150043488, 0.10946108400821686, -0.16989491879940033, 0.06993166357278824, -0.05745527148246765, -0.13808436691761017, -0.15194953978061676, 0.010758373886346817, 0.009759931825101376, 0.025343282148241997, 0.08759754151105881, 0.05371015891432762, -0.1251184195280075, -0.13080951571464539, -0.10179723054170609, 0.12724867463111877, -0.1282377541065216, -0.1021454706788063, -0.004250712227076292], [0.08809147775173187, 0.0955633893609047, -0.014981732703745365, -0.0019716268870979548, 0.129358172416687, 0.05191652104258537, 0.09830500930547714, 0.04023215174674988, 0.11993563920259476, 0.09563637524843216, 0.1675432324409485, -0.148797869682312, -0.10276134312152863, 0.07732795178890228, 0.09664902091026306, 0.1369934380054474, -0.039292722940444946, -0.0014837278285995126, -0.11262239515781403, -0.18268094956874847, -0.05398869514465332, -0.02400660514831543, -0.07201685011386871, 0.08695926517248154, 0.03573436662554741, 0.12321574985980988, -0.10558103770017624, 0.09692423790693283, 0.1219133660197258, -0.015232915990054607, 0.011177399195730686, -0.05331280454993248], [-0.13305909931659698, -0.03243305906653404, 0.04498716816306114, -0.1823805421590805, 0.10388846695423126, -0.00275682145729661, -0.040979381650686264, 0.005155264865607023, -0.14703716337680817, -0.002739720279350877, 0.11519886553287506, -0.010512223467230797, -0.16957150399684906, 0.05178937688469887, -0.04952137917280197, -0.1855456680059433, -0.14940521121025085, 0.07888742536306381, 0.06322554498910904, -0.05601665377616882, -0.05749719217419624, -0.07438378036022186, 0.04658683389425278, -0.010645264759659767, 0.04736970365047455, -0.20041796565055847, 0.14892780780792236, -0.07317746430635452, -0.05888974666595459, 0.02650946006178856, -0.08829011023044586, -0.19049374759197235], [0.05256233364343643, -0.001456801313906908, 0.006785663776099682, -0.06672809273004532, 0.0984891802072525, 0.05572789907455444, -0.02143140323460102, 0.1486545205116272, -0.05883534997701645, 0.0575767382979393, 0.1482391208410263, 0.049154989421367645, -0.02408570609986782, -0.0179706122726202, -0.1561148464679718, 0.15205731987953186, -0.05485532432794571, 0.023913370445370674, -0.011938279494643211, 0.06687244772911072, 0.0770660787820816, 0.08116157352924347, 0.1325720250606537, -0.05546215921640396, -0.12117180228233337, -0.08463939279317856, 0.004026517737656832, 0.021437497809529305, 0.11384693533182144, -0.0666985958814621, -0.03203824907541275, -0.04373248666524887], [-0.13156022131443024, 0.061259374022483826, 0.13641713559627533, -0.1338994950056076, -0.0013025059597566724, -0.06804436445236206, 0.003391722682863474, 0.0661587193608284, -0.09760478138923645, 0.14842161536216736, 0.17278921604156494, -0.11303252726793289, -0.06558048725128174, 0.10734961181879044, 0.1365138441324234, -0.10080812871456146, -0.004835604224354029, -0.012862553820014, -0.13911068439483643, 0.15086629986763, 0.12181113660335541, -0.0028770624194294214, 0.04264978691935539, 0.045797090977430344, -0.12354438751935959, 0.028890471905469894, 0.08922858536243439, 0.08622939139604568, -0.12003500014543533, 0.09573110193014145, -0.14685800671577454, 0.08108580112457275], [0.14794212579727173, 0.05998044088482857, 0.17910321056842804, -0.20966622233390808, 0.07657162100076675, -0.001536702155135572, -0.009250049479305744, 0.050601035356521606, -0.03167685121297836, 0.040805917233228683, 0.00992377009242773, 0.024825802072882652, 0.19552703201770782, 0.12614470720291138, -0.04029492288827896, 0.029159413650631905, -0.03783239424228668, -0.043593671172857285, 0.11692768335342407, -0.1459655910730362, -0.03861001506447792, 0.1200173869729042, 0.09250917285680771, -0.0799374133348465, -0.036374617367982864, -0.16823704540729523, 0.1262807548046112, -0.01436955388635397, 0.18477389216423035, -0.03192433714866638, -0.036265358328819275, -0.09087421000003815], [-0.059001922607421875, 0.10245843976736069, 0.2500542998313904, 0.11620786041021347, 0.13931891322135925, -0.15233778953552246, 0.10222896188497543, 0.08283042907714844, -0.009728431701660156, -0.09352927654981613, -0.16160422563552856, -0.07160959392786026, -0.04371359571814537, -0.0488460548222065, 0.026318727061152458, -0.03905602917075157, 0.13006450235843658, 0.05608147010207176, 0.11646031588315964, 0.1657024621963501, -0.015680402517318726, 0.04869900643825531, -0.011913109570741653, 0.10828101634979248, 0.19231146574020386, 0.161097913980484, 0.16736041009426117, -0.10202372819185257, 0.2071976214647293, 0.18080754578113556, 0.06073915585875511, 0.03208691254258156], [-0.07830844819545746, 0.11511537432670593, 0.16170108318328857, 0.22837069630622864, -0.04894183203577995, 0.01578119583427906, 0.11522073298692703, 0.0011895970674231648, 0.14157770574092865, 0.026369065046310425, 0.1015092208981514, -0.031985580921173096, -0.09737125784158707, 0.18047674000263214, -0.1386926770210266, -0.03560616821050644, 0.11937595903873444, -0.05043943226337433, -0.0072435373440384865, 0.06937634944915771, 0.06174328178167343, -0.11124012619256973, 0.0819040983915329, 0.14552302658557892, 0.12378715723752975, 0.18990787863731384, 0.18438251316547394, 0.17175209522247314, 0.053315576165914536, -0.012296142987906933, 0.09633129090070724, 0.09431851655244827], [-0.06580992788076401, 0.004633405711501837, 0.04642818868160248, 0.20814929902553558, -0.024175552651286125, -0.011160879395902157, -0.08732973784208298, 0.1453719437122345, -0.06741637736558914, -0.08185489475727081, 0.03969192877411842, -0.09906920790672302, 0.005830198060721159, 0.12491803616285324, -0.03480162099003792, -0.10138797760009766, -0.024965304881334305, -0.11570267379283905, -0.1041259691119194, -0.04881228506565094, 0.12321311980485916, 0.15170152485370636, -0.14181673526763916, 0.026318557560443878, 0.0986810028553009, -0.062448594719171524, -0.037478256970644, 0.15478819608688354, 0.04198973998427391, 0.16190403699874878, -0.02727142721414566, 0.05084264650940895], [-0.04854976385831833, -0.058519694954156876, 0.05560341477394104, -0.09330782294273376, -0.1653156727552414, -0.033419229090213776, 0.16439181566238403, -0.01870473101735115, -0.08032763004302979, -0.10390416532754898, -0.028015727177262306, -0.11916893720626831, 0.02664385735988617, 0.07702484726905823, 0.017378607764840126, 0.06775649636983871, 0.1728476583957672, 0.13725337386131287, -0.043348781764507294, 0.050451941788196564, -0.09711500257253647, 0.18040154874324799, 0.17438781261444092, 0.012328404933214188, -0.11181874573230743, -0.12288304418325424, 0.09600445628166199, -0.11248642206192017, 0.10188128054141998, 0.06838764995336533, 0.16792511940002441, -0.02264675870537758], [-0.12872520089149475, -0.10536796599626541, 0.2342921644449234, 0.1836732029914856, 0.06543859839439392, 0.11674943566322327, 0.08689217269420624, -0.011745685711503029, 0.16501110792160034, -0.09914662688970566, -0.149782195687294, 0.18650935590267181, 0.16958163678646088, 0.11855219304561615, -0.1437549591064453, -0.05179867520928383, -0.02301318757236004, 0.14418233931064606, -0.03646661341190338, 0.10657567530870438, 0.04849840700626373, 0.13894051313400269, 0.10237517207860947, -0.03390511870384216, 0.006618688814342022, 0.16094207763671875, 0.02752506360411644, 0.01709943823516369, 0.05235284939408302, -0.08285549283027649, -0.02471078559756279, 0.10882245004177094], [0.09662911295890808, -0.13558566570281982, 0.14655442535877228, 0.11199870705604553, -0.003555658971890807, 0.006502537988126278, -0.040011461824178696, 0.10685475170612335, -0.04582281410694122, 0.11040260642766953, -0.13292130827903748, 0.023553719744086266, 0.09912659972906113, 0.048534687608480453, -0.08673766255378723, -0.09408595412969589, -0.08227840811014175, -0.06581638753414154, -0.03097265586256981, -0.10115005820989609, 0.1330064833164215, -0.1437825858592987, 0.00041759450687095523, -0.10711643844842911, -0.058781109750270844, 0.11386625468730927, -0.04952117055654526, -0.025895001366734505, 0.02857181988656521, 0.18818725645542145, 0.08121971786022186, -0.058543577790260315], [-0.13048480451107025, -0.09556429088115692, -0.1683921217918396, -0.09072758257389069, 0.12565523386001587, 0.03335067629814148, 0.03504632040858269, 0.011927035637199879, -0.11245167255401611, 0.1752355545759201, -0.13611716032028198, -0.049076370894908905, 0.09508947283029556, -0.014692486263811588, -0.17635206878185272, -0.1367364376783371, -0.1815224140882492, -0.0400443896651268, -0.08804059028625488, 0.16942408680915833, 0.07640113681554794, 0.05670861899852753, 0.14178231358528137, -0.07971902936697006, -0.038038697093725204, -0.04874604940414429, 0.01841309480369091, -0.02911710925400257, -0.004274665843695402, -0.14994853734970093, 0.06496169418096542, 0.1428486555814743], [-0.14738939702510834, -0.1320459544658661, 0.1298350691795349, 0.14024284482002258, 0.07347431033849716, -0.17453773319721222, 0.10769917070865631, -0.046500857919454575, 0.08784335106611252, -0.07944497466087341, -0.004529094323515892, 0.14153605699539185, -0.12758581340312958, -0.044264767318964005, 0.007376926019787788, -0.08115649968385696, -0.06372668594121933, 0.18047674000263214, 0.133879616856575, -0.0625448077917099, -0.035700950771570206, -0.011314262636005878, 0.01899963803589344, 0.09445682913064957, 0.04345148056745529, 0.027679895982146263, 0.02461053989827633, 0.015334311872720718, 0.14104971289634705, -0.07489459216594696, -0.0007270236383192241, -0.04179268702864647], [-0.15268754959106445, -0.07145866006612778, 0.1215759664773941, 0.09552990645170212, -0.16357626020908356, 0.1850433498620987, -0.1861494779586792, 0.07860741764307022, 0.09448306262493134, 0.18795587122440338, -0.04624887555837631, 0.13765056431293488, 0.09324826300144196, -0.10166753083467484, 0.0645584762096405, -0.024129586294293404, 0.09651391208171844, 0.01907627284526825, 0.10862857103347778, -0.1057802066206932, -0.14701411128044128, 0.1995001584291458, 0.011612847447395325, -0.00017053121700882912, -0.11232852935791016, 0.03002280369400978, -0.013112926855683327, 0.18255558609962463, -0.029876094311475754, -0.0183796975761652, 0.049654096364974976, -0.10278747230768204], [0.08723528683185577, -0.19641515612602234, -0.24791690707206726, 0.0815245732665062, -0.021277401596307755, -0.1159059926867485, -0.056539956480264664, 0.00980487558990717, 0.1326466202735901, -0.14433729648590088, -0.04890977591276169, 0.030388200655579567, -0.08035670220851898, -0.13530094921588898, -0.08734452724456787, -0.05641986429691315, -0.1258889138698578, -0.11824697256088257, -0.11235418170690536, -0.05158856511116028, -0.1387985646724701, -0.024805372580885887, 0.0360293872654438, 0.007758371531963348, -0.011198317632079124, -0.09923253208398819, 0.1320614218711853, -0.10091705620288849, 0.039989691227674484, -0.09527657926082611, 0.10480019450187683, -0.1036456823348999], [-0.0775565505027771, 0.0426689051091671, -0.11902817338705063, 0.09061605483293533, 0.14304129779338837, -0.1340327262878418, -0.09596134722232819, 0.12991653382778168, 0.09016486257314682, -0.15125329792499542, 0.08165786415338516, 0.16173796355724335, -0.00809203926473856, -0.015844393521547318, -0.14769254624843597, 0.17018087208271027, -0.11501598358154297, 0.09704583138227463, 0.030749524012207985, -0.15598216652870178, -0.10205337405204773, 0.1559181958436966, -0.0781823992729187, 0.02226523496210575, -0.06831073015928268, -0.08189240097999573, 0.08960794657468796, -0.05712865665555, 0.07152986526489258, 0.02070043981075287, 0.016655921936035156, -0.013482602313160896], [0.17945444583892822, -0.03709346428513527, -0.009727206081151962, 0.023055288940668106, -0.041322991251945496, -0.07035483419895172, -0.14116984605789185, -0.1606801301240921, -0.12141719460487366, 0.06319095939397812, -0.12255784869194031, -0.038585443049669266, -0.11161090433597565, 0.17725519835948944, 0.10893435776233673, 0.06545411050319672, 0.03690992295742035, 0.16991835832595825, -0.1341085135936737, -0.06056923046708107, -0.036083586513996124, 0.05194862186908722, 0.15323452651500702, 0.15628689527511597, 0.13686002790927887, 0.07531096041202545, -0.12556999921798706, 0.03749006614089012, -0.028557997196912766, 0.19053100049495697, 0.07684097439050674, 0.016861211508512497], [0.13106167316436768, -0.17969763278961182, 0.23586280643939972, -0.26010608673095703, 0.16562187671661377, 0.15715523064136505, -0.14285531640052795, -0.1308947652578354, 0.017674284055829048, 0.05575397238135338, 0.11188863962888718, -0.05232539027929306, 0.06314296275377274, 0.03770093247294426, 0.09757504612207413, 0.11600573360919952, -0.0694742426276207, 0.10222040861845016, 0.18280266225337982, -0.09872447699308395, 0.0027953600510954857, 0.15046517550945282, 0.05876113101840019, -0.16994233429431915, -0.04047028347849846, 0.01210972759872675, 0.1964724212884903, 0.006784905679523945, 0.10908236354589462, -0.038398534059524536, -0.10164950042963028, 0.14483273029327393], [0.10798831284046173, -0.14040371775627136, -0.2542719542980194, 0.1467410773038864, -0.04196663573384285, 0.1433311402797699, 0.1545872986316681, -0.11354943364858627, 0.05285804346203804, 0.05317685753107071, 0.028094371780753136, 0.08522943407297134, -0.14274689555168152, 0.0057828305289149284, -0.08283840119838715, -0.0997985377907753, -0.15883907675743103, -0.04448610916733742, -0.17718519270420074, -0.08163601905107498, -0.1229856088757515, -0.16414520144462585, -0.07655005902051926, 0.1477726250886917, -0.12656845152378082, 0.025738146156072617, -0.1284812092781067, -0.1540166437625885, 0.03320661187171936, 0.015474777668714523, -0.020972872152924538, -0.015412288717925549], [-0.08680041879415512, -0.11400208622217178, -0.15170596539974213, -0.19288237392902374, -0.003072586376219988, 0.11721064895391464, 0.13033758103847504, 0.04397769644856453, 0.06005026772618294, -0.06565938889980316, -0.07221338897943497, 0.09810445457696915, 0.17958754301071167, 0.11200930178165436, -0.06077559292316437, 0.011063072830438614, -0.1000671461224556, -0.08078759163618088, 0.010195385664701462, -0.12755712866783142, -0.13918402791023254, -0.12605825066566467, 0.14247216284275055, -0.16709324717521667, -0.14136236906051636, -0.13462574779987335, -0.06173131987452507, 0.030242187902331352, -0.022857284173369408, 0.04634471982717514, 0.05528945475816727, 0.005110438447445631], [-0.14887094497680664, -0.11079664528369904, -0.033132292330265045, -0.0830502063035965, 0.001625529956072569, 0.016054192557930946, 0.05091775208711624, 0.09645546227693558, 0.15529847145080566, -0.1337112933397293, 0.1545836478471756, -0.09892065823078156, 0.03647804260253906, -0.09894003719091415, -0.04284074157476425, 0.09739372134208679, -0.12071463465690613, 0.0061280569061636925, -0.14923880994319916, 0.11791308969259262, 0.14983868598937988, 0.0030455184169113636, -0.03459811583161354, 0.00014503316197078675, -0.07086356729269028, 0.12304839491844177, -0.11982938647270203, 0.18771563470363617, -0.07674260437488556, 0.20054543018341064, -0.10853154212236404, 0.09414616227149963], [0.030066488310694695, 0.12269628793001175, 0.17286665737628937, -0.07276608049869537, 0.038687486201524734, 0.06061236560344696, 0.1217261478304863, -0.021951932460069656, 0.1596011519432068, 0.089102603495121, -0.06877139210700989, 0.16957888007164001, 0.16091479361057281, -0.07064011693000793, -0.10766761004924774, 0.19193939864635468, 0.06614276021718979, 0.09456933289766312, -0.03208009898662567, 0.03801748901605606, 0.11530302464962006, -0.008464265614748001, -0.08005892485380173, 0.12632784247398376, 0.18703067302703857, -0.05911324545741081, 0.08357654511928558, 0.04969961941242218, 0.21032287180423737, -0.11844699829816818, 0.11085368692874908, -0.07735259085893631], [0.13424241542816162, 0.18754570186138153, 0.06109770014882088, 0.010947261936962605, 0.0755491703748703, 0.09061816334724426, 0.11282353103160858, -0.1560371220111847, -0.026992585510015488, -0.1084754690527916, 0.09347093850374222, -0.03038860112428665, 0.04890570789575577, 0.005182337015867233, -0.1425558477640152, 0.10224282741546631, -0.0872466042637825, 0.04034670814871788, -0.11857061088085175, 0.15667186677455902, -0.044080451130867004, 0.1675281524658203, 0.017664369195699692, 0.13621409237384796, 0.08727329969406128, -0.040183939039707184, 0.04600243270397186, 0.195206880569458, 0.10496266931295395, -0.02574297972023487, 0.12113513052463531, -0.13117527961730957], [0.13383425772190094, 0.12580309808254242, -0.22785137593746185, -0.1325303167104721, -0.15449745953083038, -0.07504548132419586, 0.010830624029040337, -0.09875821322202682, 0.027072947472333908, -0.02351461537182331, 0.05087433010339737, -0.15811960399150848, 0.08391997218132019, -0.008190415799617767, -0.18331517279148102, 0.1280931681394577, -0.04572855308651924, -0.12140700221061707, -0.14038455486297607, 0.0969834253191948, 0.0635216236114502, -0.10036104917526245, 0.07778199017047882, 0.05800722911953926, 0.0173826664686203, 0.05046067386865616, 0.13302844762802124, 0.0666244626045227, -0.029819706454873085, -0.06146824359893799, -0.18234309554100037, 0.10910806804895401], [0.19267964363098145, 0.07088330388069153, 0.1420493721961975, 0.040644776076078415, 0.06600412726402283, -0.08839774876832962, 0.01305631548166275, -0.01566007360816002, 0.0818648412823677, 0.04781413450837135, 0.11464479565620422, -0.06798424571752548, -0.03666874021291733, 0.08961363136768341, 0.12989024817943573, -0.09656368941068649, 0.21191605925559998, 0.05804111063480377, -0.06060206890106201, -0.11596903204917908, 0.019925711676478386, -0.010579721070826054, -0.12325753271579742, -0.07157231122255325, -0.11946980655193329, -0.055910997092723846, -0.020605433732271194, 0.16349384188652039, 0.02906781993806362, 0.030127525329589844, 0.026982922106981277, -0.10959158092737198], [0.01604972966015339, 0.13471227884292603, -0.04261982813477516, -0.0661817118525505, 0.1441919207572937, 0.16990584135055542, -0.11611425876617432, -0.06042446568608284, 0.023154055699706078, 0.037491995841264725, 0.09571253508329391, -0.17323416471481323, 0.09817149490118027, -0.058902811259031296, -0.1274607628583908, -0.12021826207637787, 0.09866011887788773, 0.035897981375455856, -0.17873574793338776, 0.05566326901316643, -0.08711493760347366, -0.017937127500772476, -0.021352332085371017, -0.12544521689414978, 0.13249589502811432, -0.15301720798015594, -0.17584428191184998, 0.0990825667977333, -0.01733134128153324, 0.04446012154221535, -0.0751384049654007, 0.1112716794013977], [0.04887190833687782, 0.09928609430789948, -0.1389455646276474, 0.25474813580513, 0.0994938388466835, -0.1423441618680954, 0.09904412925243378, 0.08660067617893219, -0.14172114431858063, 0.10718328505754471, -0.12314058095216751, 0.10220889002084732, 0.025082802399992943, 0.0664539486169815, -0.015690509229898453, 0.026889540255069733, 0.001722722314298153, 0.16360226273536682, 0.022142941132187843, 0.0929529145359993, 0.08124370872974396, -0.11527717858552933, -0.09220633655786514, 0.08702061325311661, -0.15246032178401947, 0.12692181766033173, 0.06047699972987175, 0.1032608151435852, -0.18197116255760193, 0.16901199519634247, -0.00346425105817616, 0.07965893298387527], [0.003981642425060272, 0.11929264664649963, -0.12800316512584686, -0.12913112342357635, -0.0007971986196935177, -0.1735927015542984, -0.02552109584212303, 0.028291814029216766, 0.0025011596735566854, -0.020355816930532455, -0.05523228272795677, -0.1466754823923111, -0.06031351536512375, -0.08198335021734238, -0.11946065723896027, 0.10005911439657211, -0.16416847705841064, 0.11642253398895264, 0.042003083974123, -0.09027834981679916, -0.15101923048496246, -0.07343688607215881, 0.08467698097229004, -0.12390606105327606, -0.05807768553495407, -0.13091063499450684, 0.0017097220988944173, 0.13174091279506683, -0.036557797342538834, 0.026516715064644814, -0.05982052534818649, 0.0382409431040287], [-0.09983275830745697, 0.10717552155256271, 0.20934513211250305, 0.07214828580617905, 0.04819631204009056, -0.03703362122178078, -0.1021861657500267, -0.0655246302485466, -0.15312832593917847, -0.026627620682120323, -0.11147376149892807, 0.043499987572431564, -0.036371346563100815, 0.1475573480129242, -0.12446940690279007, 0.11357174068689346, 0.0619422048330307, -0.10230974107980728, -0.17377881705760956, 0.07762089371681213, 0.08478888124227524, -0.07663194090127945, 0.1728614717721939, 0.15240679681301117, 0.017334189265966415, -0.016791244968771935, -0.07750324159860611, -0.12013857066631317, 0.15028740465641022, -0.0671461671590805, -0.0855436846613884, -0.043695997446775436], [-0.13212259113788605, 0.0945378839969635, -0.00418495386838913, 0.26252835988998413, 0.028598271310329437, -0.15231075882911682, 0.03951394557952881, 0.0632954090833664, 0.020308058708906174, 0.18905043601989746, -0.06495721638202667, 0.05786024406552315, 0.09618578106164932, 0.18397264182567596, 0.024342287331819534, -0.13721299171447754, -0.12771518528461456, 0.18074820935726166, -0.0694471001625061, 0.04052998498082161, -0.14928694069385529, -0.03706109896302223, -0.08745761215686798, 0.14475494623184204, -0.12223105877637863, 0.14316505193710327, 0.1378503441810608, 0.20572839677333832, -0.11516276746988297, -0.10452250391244888, 0.00649467296898365, 0.08681377023458481], [-0.15982508659362793, 0.11863503605127335, 0.002015703823417425, 0.20768731832504272, 0.10695747286081314, -0.12525124847888947, -0.038358308374881744, 0.11127085983753204, 0.13789907097816467, 0.01911424845457077, 0.051073405891656876, -0.015389103442430496, 0.011803746223449707, 0.03989764675498009, 0.02483978122472763, 0.14110873639583588, 0.10485434532165527, 0.15053331851959229, -0.14453279972076416, -0.08810916543006897, -0.0543624572455883, 0.1801072359085083, -0.08742700517177582, -0.0766284391283989, 0.02962634526193142, -0.05537567660212517, -0.1672142893075943, 0.13607071340084076, -0.004094262607395649, 0.18676581978797913, -0.20549283921718597, -0.0644930824637413], [0.038744550198316574, 0.04984661564230919, -0.06195995584130287, 0.23056001961231232, 0.03854646161198616, 0.04871949180960655, -0.04686977341771126, 0.09547784179449081, -0.1252320557832718, -0.004482519347220659, 0.16799136996269226, -0.10976847261190414, 0.04872128739953041, 0.16346563398838043, -0.09968318045139313, -0.05903714522719383, -0.025053851306438446, 0.16177025437355042, -0.083770252764225, 0.19027133285999298, 0.01806381717324257, 0.2009129375219345, -0.07852517813444138, 0.09269708395004272, 0.10612978041172028, 0.18963074684143066, -0.03748316690325737, 0.03171253576874733, -0.130894735455513, 0.16609840095043182, 0.09546022862195969, -0.11333343386650085], [0.1332394927740097, 0.14750348031520844, -0.06794411689043045, -0.026001976802945137, -0.09639883041381836, -0.08903440088033676, -0.17497827112674713, -0.18476146459579468, -0.023207079619169235, 0.1039021909236908, -0.09719809889793396, 0.07053975015878677, 0.054322902113199234, 0.06017479673027992, -0.13498899340629578, 0.051656365394592285, 0.12607289850711823, -0.16230466961860657, -0.042085789144039154, -0.020378228276968002, -0.03507261350750923, 0.13499772548675537, 0.017568694427609444, -0.03491445258259773, -0.07394665479660034, 0.02741653472185135, 0.004257002845406532, -0.060056716203689575, -0.050037138164043427, 0.04439876601099968, -0.10235865414142609, 0.12999366223812103], [-0.10671832412481308, -0.011484450660645962, -0.22402644157409668, 0.09157489985227585, -0.07654227316379547, 0.09893227368593216, 0.1579822450876236, -0.11000972986221313, 0.0044232746586203575, 0.00099558278452605, -0.12183551490306854, -0.014052577316761017, -0.14511573314666748, -0.042964350432157516, -0.0503179132938385, -0.1638864278793335, -0.1560376137495041, -0.0389624759554863, 0.11669238656759262, 0.038868498057127, -0.09413910657167435, 0.09909571707248688, 0.07112137973308563, -0.08654298633337021, 0.10721047222614288, 0.13940133154392242, 0.007639195770025253, -0.04656028375029564, 0.012307491153478622, -0.17560292780399323, -0.11595384776592255, 0.0024511911906301975], [0.09680178016424179, 0.18180124461650848, -0.21071143448352814, 0.2887789011001587, -0.10677307844161987, -0.0061420719139277935, 0.09311481565237045, 0.11934062838554382, -0.11763608455657959, 0.01812145859003067, -0.10687799751758575, 0.1210070550441742, -0.08946995437145233, 0.1802215874195099, -0.0922941267490387, -0.04548843950033188, 0.05624832585453987, 0.17353440821170807, -0.07855450361967087, -0.09620670229196548, -0.17213961482048035, -0.1492830216884613, -0.14421343803405762, -0.03813513368368149, -0.1073799729347229, 0.05075062811374664, -0.07713239639997482, -0.06431903690099716, -0.01573813334107399, 0.041565537452697754, -0.16256773471832275, -0.13685548305511475], [0.13734233379364014, 0.015024565160274506, -0.07852791994810104, 0.12393151968717575, -0.13712230324745178, -0.08326374739408493, -0.12856800854206085, 0.027864905074238777, -0.1504586935043335, 0.10811077803373337, -0.07553834468126297, 0.12362875044345856, 0.07711094617843628, -0.14417269825935364, -0.044814642518758774, 0.16904929280281067, -0.16492660343647003, 0.014681958593428135, -0.05698432773351669, 0.07877784222364426, 0.1289111077785492, 0.04713423177599907, 0.08048087358474731, 0.1089511290192604, -0.12848813831806183, -0.036777302622795105, 0.1257878839969635, -0.0166737362742424, 0.03771379217505455, -0.04815876483917236, -0.06957750022411346, 0.19314715266227722], [0.14719504117965698, 0.17886145412921906, 0.08240040391683578, 0.11701511591672897, -0.15182054042816162, -0.014080917462706566, -0.08763200789690018, 0.15429510176181793, -0.07314234226942062, -0.01989523507654667, -0.1611866056919098, 0.12291781604290009, -0.15308162569999695, 0.1528327912092209, -0.018544228747487068, -0.12848541140556335, -0.04252376779913902, 0.14645639061927795, 0.1484702229499817, 0.11510983854532242, 0.12261679768562317, -0.05010102316737175, 0.049311842769384384, 0.12727881968021393, -0.05679001659154892, 0.036747947335243225, -0.017393767833709717, 0.07517135888338089, -0.09569192677736282, -0.11008574068546295, 0.16415920853614807, -0.05371236428618431], [0.10706675797700882, -0.013857587240636349, 0.07329637557268143, -0.1414577066898346, -0.14977626502513885, 0.014698057435452938, 0.10421690344810486, -0.12264132499694824, 0.00824014749377966, 0.10659558326005936, -0.08279959112405777, -0.09539030492305756, -0.07568681985139847, 0.006766182370483875, 0.1507122665643692, -0.09883413463830948, 0.07871763408184052, -0.12133122235536575, 0.0836571678519249, -0.13815034925937653, 0.19472090899944305, -0.028129788115620613, 0.15365193784236908, 0.0009935182752087712, -0.10300389677286148, -0.07766764611005783, -0.03555413708090782, -0.09909675270318985, -0.0995112881064415, -0.1391185224056244, -0.0738367959856987, 0.09994561225175858], [-0.1667502522468567, -0.08845064043998718, 0.04872674122452736, -0.17283062636852264, -0.15567772090435028, 0.1538950800895691, -0.10155940055847168, 0.07635431736707687, -0.16794243454933167, -0.02926011197268963, 0.06251639127731323, -0.17740243673324585, -0.15530972182750702, -0.03184501826763153, -0.019661804661154747, -0.10149147361516953, -0.012754860334098339, 0.06035301461815834, -0.113683320581913, 0.06323029845952988, 0.12217345833778381, -0.19933448731899261, 0.044591277837753296, -0.122392937541008, -0.03777294605970383, -0.05542550981044769, -0.15287484228610992, 0.05513143166899681, 0.14420180022716522, -0.16388170421123505, 0.17161141335964203, -0.17807728052139282], [-0.07039380073547363, 0.16102270781993866, -0.1658744513988495, -0.037217628210783005, -0.09361227601766586, -0.030574645847082138, 0.03289947286248207, -0.04961731657385826, 0.08867548406124115, 0.0008924484136514366, 0.047929707914590836, 0.07192683219909668, 0.13351266086101532, -0.1314024180173874, -0.07824045419692993, -0.09540405124425888, -0.07047062367200851, 0.08693097531795502, 0.017725367099046707, -0.06450733542442322, -0.03873886540532112, -0.062417421489953995, -0.20700998604297638, 0.014698661863803864, -0.016073910519480705, -0.010803812183439732, -0.01628744602203369, 0.019397590309381485, -0.1214786171913147, 0.06216055154800415, 0.11203362792730331, -0.012210965156555176], [-0.09481704235076904, 0.08515265583992004, 0.05558996647596359, 0.19890819489955902, -0.1413661539554596, -0.12122081220149994, 0.0025928057730197906, -0.18330755829811096, 0.09360748529434204, -0.04986025020480156, 0.055655092000961304, 0.07209095358848572, 0.13787302374839783, 0.12882976233959198, 0.08177784830331802, -0.038093678653240204, -0.008542253635823727, 0.06575608253479004, -0.14509433507919312, 0.002957716351374984, -0.09840124845504761, 0.17130210995674133, 0.14588318765163422, -0.060999106615781784, -0.09276044368743896, 0.05980908125638962, 0.02203434333205223, 0.1440863311290741, -0.15546052157878876, 0.025364000350236893, -0.1018911600112915, 0.15208308398723602], [0.08343406766653061, 0.08337990939617157, 0.24619261920452118, -0.04121408611536026, -0.13289867341518402, 0.04374292492866516, 0.032294366508722305, 0.09802345931529999, 0.10832446813583374, -0.14297038316726685, -0.13564753532409668, -0.002697489457204938, 0.1711464822292328, -0.1541498601436615, 0.10790529102087021, 0.15672387182712555, 0.18656937777996063, 0.12520696222782135, -0.004339676816016436, 0.16280733048915863, -0.019605252891778946, 0.09030643105506897, 0.10666859894990921, -0.06138886138796806, -0.08164593577384949, -0.0964186042547226, -0.03473624959588051, -0.048577677458524704, 0.12125604599714279, -0.13122428953647614, -0.020192552357912064, 0.0497286282479763], [-0.21316301822662354, 0.1349145919084549, -0.1064738854765892, 0.11518028378486633, 0.0518389455974102, -0.07753705233335495, -0.0988556519150734, -0.041341427713632584, -0.17290689051151276, -0.033131107687950134, -0.10278959572315216, -0.11889391392469406, 0.021947305649518967, 0.16591644287109375, -0.09929259866476059, 0.11238966137170792, -0.19686971604824066, 0.1675657480955124, 0.07039891928434372, 0.15897969901561737, -0.11360879987478256, -0.10496905446052551, 0.004461870063096285, -0.11148451268672943, -0.15542393922805786, 0.07815263420343399, 0.1457778960466385, 0.09174805134534836, -0.15497589111328125, -0.07847429066896439, -0.12143617123365402, -0.0373198427259922], [0.10698307305574417, -0.08087196946144104, 0.10869316756725311, -0.06697876006364822, 0.16521131992340088, -0.14618046581745148, -0.0001373657869407907, -0.15489594638347626, 0.0025084756780415773, -0.0350198931992054, 0.14292314648628235, 0.10843942314386368, -0.048264238983392715, 0.03675903379917145, -0.011410689912736416, 0.14286242425441742, -0.08359719812870026, -0.011399727314710617, 0.12008189409971237, -0.024163000285625458, 0.04746708273887634, 0.012645537033677101, 0.13787031173706055, 0.11163545399904251, 0.05615672096610069, -0.017780154943466187, -0.03846683353185654, 0.16419725120067596, 0.16759249567985535, -0.12414685636758804, 0.002264980925247073, -0.13233248889446259], [-0.08589349687099457, -0.1704351305961609, 0.08690804243087769, 0.09788196533918381, 0.13108333945274353, 0.15129299461841583, 0.13567578792572021, -0.0030115812551230192, 0.07624972611665726, -0.1170349195599556, -0.13930080831050873, -0.16325119137763977, 0.16683794558048248, -0.05605234578251839, 0.13446752727031708, -0.1789940446615219, 0.1476888209581375, -0.11202162504196167, 0.10832139849662781, -0.0668640285730362, 0.04324721172451973, 0.023732662200927734, 0.06863326579332352, -0.0744919404387474, -0.03852764144539833, 0.07536594569683075, 0.09747835993766785, 0.08321462571620941, -0.002221394795924425, -0.119122214615345, -0.11171285808086395, -0.08744528889656067], [-0.09251461178064346, 0.14050790667533875, 0.17188194394111633, -0.11172644048929214, 0.12122403830289841, 0.0013541857479140162, 0.15216118097305298, 0.04731684550642967, -0.12248622626066208, -0.13058246672153473, 0.04002903401851654, 0.020883111283183098, 0.12764494121074677, -0.10537468641996384, 0.08270111680030823, 0.012432034127414227, -0.06878849864006042, -0.05802387371659279, -0.00287344167008996, 0.16036482155323029, 0.06638887524604797, 0.04145793244242668, -0.11702962964773178, 0.13005222380161285, -0.021806970238685608, -0.1313503235578537, 0.1682315617799759, 0.022363100200891495, 0.2079925388097763, 0.0719635859131813, -0.0958818718791008, -0.15020427107810974], [0.12689781188964844, -0.1310943365097046, 0.010711201466619968, 0.18681493401527405, 0.08150239288806915, -0.09976091980934143, 0.1458708643913269, -0.18001775443553925, 0.1260112076997757, 0.13054148852825165, 0.15373699367046356, -0.026606034487485886, -0.0869394987821579, 0.13664084672927856, 0.06496654450893402, 0.14588937163352966, 0.023280257359147072, 0.06085237115621567, 0.13946731388568878, -0.047856904566287994, 0.05721922591328621, -0.11572713404893875, 0.05113277956843376, -0.05919337645173073, 0.09944051504135132, 0.10221434384584427, 0.03990451619029045, 0.1146969199180603, -0.15229731798171997, -0.05052844434976578, 0.09693880379199982, 0.0558474138379097], [0.03249348700046539, 0.054927580058574677, 0.10671233385801315, 0.03591509535908699, 0.17055632174015045, -0.15744245052337646, 0.05110728368163109, -0.08255887031555176, 0.10784713923931122, 0.1667666882276535, -0.07475566118955612, 0.16185176372528076, 0.17747023701667786, -0.16806158423423767, -0.012464702129364014, 0.09777076542377472, 0.15534377098083496, 0.0034062068443745375, -0.15314960479736328, -0.026157543063163757, -0.11335529386997223, -0.035626836121082306, 0.08409000933170319, 0.0959077775478363, 0.1475190371274948, -0.0696844682097435, -0.01989429071545601, 0.06834153085947037, -0.15796984732151031, 0.04098838195204735, 0.1609632670879364, 0.1242789700627327], [0.019827673211693764, -0.13295339047908783, -0.1937575787305832, -0.09448806941509247, -0.009469396434724331, -0.16911613941192627, -0.11716616898775101, -0.17523343861103058, 0.13501153886318207, -0.1905415803194046, -0.0863780751824379, -0.09286803007125854, 0.1137889102101326, -0.006185231730341911, -0.02809828147292137, -0.15485377609729767, -0.04541052505373955, 0.060585156083106995, 0.08503424376249313, 0.11180435866117477, -0.07885183393955231, -0.03736115247011185, 0.11895013600587845, 0.13933944702148438, -0.16781650483608246, -0.03941705822944641, -0.1583494395017624, -0.059929899871349335, -0.15178224444389343, -0.013408766128122807, -0.16759176552295685, -0.04737802967429161], [-0.09007083624601364, 0.09812619537115097, -0.08156249672174454, -0.24534356594085693, -0.12445369362831116, -0.07790400087833405, 0.010184047743678093, -0.15481017529964447, -0.18349705636501312, -0.01294911839067936, -0.034498635679483414, -0.14317938685417175, -0.08722659200429916, -0.19456270337104797, -0.17301777005195618, 0.014233944937586784, 0.06835680454969406, 0.06804928928613663, -0.03496981039643288, -0.011596402153372765, -0.05573902279138565, -0.20203930139541626, 0.07533302903175354, -0.01742648519575596, -0.017004506662487984, 0.12659451365470886, -0.07669797539710999, 0.06675082445144653, 0.00018718146020546556, -0.16142545640468597, 0.0441117137670517, -0.14303073287010193], [0.13015258312225342, -0.14532220363616943, -0.043577440083026886, 0.0015961281023919582, 0.13011224567890167, -0.08899105340242386, -0.06719540804624557, 0.07520537078380585, 0.04444843903183937, -0.17774395644664764, 0.0775454118847847, -0.09015101194381714, -0.08007976412773132, 0.1572331190109253, 0.058368559926748276, 0.023593515157699585, -0.15138202905654907, -0.1919143944978714, 0.17189040780067444, -0.049689266830682755, 0.13408875465393066, -0.1271214783191681, 0.011268039233982563, 0.10492900758981705, 0.09733564406633377, 0.002756786532700062, -0.03764418885111809, 0.11459704488515854, -0.05515259504318237, -0.18780960142612457, -0.09794439375400543, -0.14900650084018707], [0.028032246977090836, 0.02316204085946083, -0.12242112308740616, -0.15377287566661835, 0.06316951662302017, -0.013340742327272892, 0.09111334383487701, -0.08158597350120544, -0.11385665833950043, -0.18010354042053223, 0.020233770832419395, 0.01813413016498089, -0.1003727987408638, 0.15678671002388, 0.13810358941555023, 0.14242427051067352, -0.13721051812171936, 0.1367427408695221, 0.06479490548372269, -0.005003759637475014, -0.023348107933998108, -0.10906897485256195, 0.05820417031645775, -0.148482084274292, 0.03404608741402626, -0.013538073748350143, 0.10255657136440277, 0.06648825109004974, 0.09469763934612274, -0.007179866544902325, 0.1554136723279953, -0.038453053683042526], [-0.029632028192281723, -0.0732642412185669, -0.06148528680205345, 0.10231125354766846, 0.06276468187570572, 0.10050039738416672, 0.1300978809595108, 0.14726844429969788, 0.11480192095041275, 0.17001841962337494, -0.1077209860086441, 0.0051686083897948265, 0.055105604231357574, 0.023349856957793236, -0.034290801733732224, 0.04514385759830475, -0.17691519856452942, 0.04242676496505737, -0.0603218637406826, -0.03087715618312359, -0.14684176445007324, -0.06396567076444626, -0.13082166016101837, 0.1718137413263321, -0.060668960213661194, -0.011295848526060581, -0.14827223122119904, -0.0026285341009497643, 0.030551999807357788, -0.1685412973165512, 0.10444771498441696, -0.07285910099744797], [0.130003422498703, 0.11963031440973282, -0.05537622794508934, -0.09493795782327652, -0.11850138008594513, -0.13411997258663177, -0.10749249160289764, 0.023085886612534523, -0.10567368566989899, -0.13214389979839325, -0.08213341236114502, -0.15402086079120636, 0.006981095299124718, -0.13417324423789978, -0.05117025598883629, -0.16667842864990234, 0.022168925032019615, -0.07113101333379745, -0.08582478761672974, -0.09932693094015121, 0.05568302422761917, 0.06804027408361435, -0.1400923728942871, 0.1309087872505188, 0.020826203748583794, 0.05251522734761238, 0.039730653166770935, -0.06490346789360046, -0.007109591271728277, -0.023111596703529358, 0.08137176930904388, 0.0675046369433403], [0.14700907468795776, -0.03796796873211861, 0.06095248833298683, -0.1668575257062912, -0.11820191890001297, 0.08558633178472519, 0.029743267223238945, 0.13610893487930298, 0.02878987230360508, 0.15228542685508728, -0.08476312458515167, 0.019121229648590088, -0.046614572405815125, 0.15320074558258057, 0.053069282323122025, -0.02813836932182312, -0.018475834280252457, -0.00461507448926568, -0.1322297751903534, -0.048471856862306595, -0.014258214272558689, -0.09914026409387589, -0.1577356904745102, -0.10467525571584702, 0.0181837547570467, -0.06974919140338898, -0.07176868617534637, 0.1433413028717041, -0.030553694814443588, -0.07264240086078644, -0.14900699257850647, -0.018832877278327942], [0.05078078806400299, -0.15555863082408905, 0.12220065295696259, 0.10414551198482513, 0.0005791935254819691, -0.08619234710931778, 0.03633703291416168, -0.082306407392025, -0.04127124324440956, 0.15933626890182495, -0.0005706125521101058, 0.09774801880121231, 0.06444969773292542, -0.009717804379761219, 0.1451975256204605, -0.09013685584068298, 0.05728239566087723, -0.16073264181613922, -0.05577002838253975, -0.03894415497779846, 0.0021393459755927324, -0.169065460562706, -0.013539006002247334, 0.1556444764137268, -0.0784941092133522, 0.07184599339962006, 0.10370048880577087, -0.16682247817516327, -0.06133873760700226, -0.046686336398124695, -0.09270258247852325, -0.047537293285131454], [-0.05617338418960571, -0.17544153332710266, 0.016774356365203857, 0.008049601688981056, -0.02785879373550415, 0.08789010345935822, 0.09978380799293518, -0.06665315479040146, 0.09747874736785889, -0.027773050591349602, -0.06497099995613098, -0.13998949527740479, -0.017108341678977013, 0.05087675526738167, 0.15071630477905273, -0.06903330236673355, -0.06550828367471695, 0.08429276943206787, -0.11401773989200592, 0.11939820647239685, 0.16052009165287018, -0.17227087914943695, -0.11368764936923981, -0.004097023047506809, -0.07585793733596802, -0.09745241701602936, 0.00703075248748064, -0.1525372415781021, 0.1114918440580368, 0.1630515605211258, -0.0161509420722723, 0.11909294128417969], [-0.13993987441062927, -0.07559092342853546, 0.1099800243973732, -0.09791112691164017, 0.14727944135665894, 0.15517795085906982, -0.1907593458890915, -0.1575145572423935, -0.0008782046497799456, -0.1028781309723854, 0.14217735826969147, -0.05719612538814545, -0.10342837125062943, -0.008130842819809914, 0.10345764458179474, -0.2018599957227707, 0.014005407691001892, -0.1568395048379898, -0.15155012905597687, -0.0341055728495121, -0.08030997961759567, -0.19153116643428802, 0.09133797138929367, 0.034511078149080276, -0.033015165477991104, -0.08346766978502274, 0.16947130858898163, -0.17886890470981598, 0.05963106453418732, -0.09617506712675095, -0.0050774491392076015, -0.16598598659038544], [-0.1200508251786232, 0.14339813590049744, 0.022285515442490578, 0.005057466682046652, -0.027803486213088036, 0.1317266821861267, 0.08976243436336517, 0.11190404742956161, 0.0995803028345108, -0.08654803037643433, 0.022571543231606483, 0.07029116898775101, 0.15743742883205414, -0.0244028028100729, -0.16871175169944763, 0.1695033311843872, -0.18569861352443695, 0.01282823272049427, -0.03461907058954239, -0.0761578232049942, -0.03931820020079613, 0.05747443437576294, -0.18239524960517883, 0.004750121384859085, -0.15906879305839539, -0.05750154331326485, 0.029819415882229805, 0.1061471477150917, -0.04962620511651039, 0.17136336863040924, -0.12683552503585815, 0.0006727788713760674], [-0.03111780807375908, 0.04397881403565407, 0.1708408147096634, -0.1922987550497055, -0.016578735783696175, -0.07216314226388931, 0.04190120846033096, 0.06036176159977913, 0.13184209167957306, 0.12456445395946503, 0.10401187092065811, 0.14562946557998657, 0.10149897634983063, -0.1646486520767212, -0.10087090730667114, -0.09850186109542847, -0.038034725934267044, 0.1130957081913948, 0.0662403553724289, 0.1411954015493393, 0.14410994946956635, 0.027731237933039665, -0.05132461339235306, -0.18358561396598816, -0.07771530747413635, 0.06583268195390701, -0.11759632080793381, 0.10550550371408463, 0.09490107744932175, 0.010336093604564667, -0.0046442109160125256, -0.13589464128017426], [-0.1415611356496811, 0.016278766095638275, -0.20742136240005493, 0.05222952738404274, -0.07374494522809982, 0.019513949751853943, -0.06955660134553909, 0.14278022944927216, 0.09962538629770279, 0.12623243033885956, -0.10176790505647659, -0.0527019128203392, 0.0054728128015995026, -0.0072937109507620335, 0.03304604813456535, 0.1713305562734604, -0.11567632108926773, -0.0853918120265007, -0.19428029656410217, -0.08605825155973434, -0.02340087480843067, 0.03716374561190605, 0.1420268565416336, -0.14128798246383667, 0.14212819933891296, 0.014711327850818634, 0.036721836775541306, 0.15814705193042755, 0.04736477881669998, 0.058180227875709534, 0.035883691161870956, 0.10482234507799149]], "actor.0.bias": [-0.050296708941459656, -0.13378196954727173, 0.06203464791178703, -0.010275455191731453, -0.03552943840622902, -0.07977692782878876, -0.0971740335226059, 0.1018659695982933, -0.1443580985069275, 0.11249984055757523, -0.059821221977472305, -0.04892705753445625, 0.03017367236316204, 0.00821674708276987, 0.19135907292366028, -0.1357106864452362, -0.0398055724799633, 0.05594250187277794, 0.15591204166412354, 0.15416550636291504, -0.139079749584198, 0.13367177546024323, -0.13369539380073547, 0.1580532342195511, 0.0755612701177597, -0.14935937523841858, -0.021011976525187492, -0.10188918560743332, 0.10739225894212723, -0.15197904407978058, 0.1563134789466858, 0.13493508100509644, 0.13002900779247284, -0.13617335259914398, -0.042222585529088974, -0.04526371881365776, -0.03289060667157173, 0.1409285068511963, 0.023011527955532074, -0.049628131091594696, 0.13426852226257324, -0.05685842037200928, -0.08863802999258041, 0.00019926464301533997, -0.16274552047252655, 0.07304687798023224, -0.07225894182920456, 0.0846462994813919, 0.06072200462222099, 0.08953090012073517, 0.004882419016212225, -0.10402512550354004, 0.016156384721398354, 0.05828311666846275, -0.10212010890245438, -0.14596524834632874, -0.07114988565444946, 0.06728906184434891, 0.14514416456222534, -0.12383724004030228, 0.031161058694124222, 0.0016399947926402092, -0.01816733554005623, 0.00949373934417963], "actor.2.weight": [[0.003190350951626897, -0.04508518800139427, 0.08595909178256989, 0.09663660079240799, 0.013763362541794777, -0.08827756345272064, -0.09699149429798126, -0.14475607872009277, 0.1380121409893036, 0.11237232387065887, 0.041630618274211884, 0.07949758321046829, 0.09960468113422394, 0.04402778670191765, -0.035322513431310654, 0.15044328570365906, 0.032554492354393005, 0.008038658648729324, -0.010666889138519764, -0.12707003951072693, -0.07442237436771393, -0.05488790571689606, 0.05331246182322502, 0.0510910227894783, -0.051829587668180466, 0.13374781608581543, 0.00027309064171276987, -0.006668127607554197, -0.04908723011612892, -0.027829520404338837, 0.09506099671125412, 0.010841231793165207, 0.10182347148656845, 0.06725645810365677, -0.021291350945830345, -0.05384211242198944, -0.10065306723117828, 0.09773458540439606, 0.12552325427532196, -0.011031873524188995, -0.13615475594997406, 0.08483338356018066, 0.08715695142745972, -0.06062424182891846, -0.040870074182748795, 0.08782082796096802, 0.12209702283143997, -0.0913415402173996, 0.0848630890250206, 0.026745550334453583, 0.006930563598871231, 0.010429107584059238, -0.11214808374643326, -0.00385653437115252, -0.02823791652917862, -0.02495455928146839, -0.10716092586517334, 0.022477971389889717, -0.097623310983181, -0.09385952353477478, -0.07598643004894257, 0.002358226338401437, -0.09441927075386047, -0.005351177416741848], [0.09309547394514084, 0.10833165049552917, 0.060924652963876724, -0.13354456424713135, -0.020790375769138336, 0.0064727491699159145, 0.03201046213507652, 0.12027601152658463, -0.08510224521160126, -0.10834097117185593, -0.005691885482519865, 0.1425248235464096, -0.10122688859701157, 0.007531694136559963, -0.06918990612030029, 0.001205850625410676, -0.14397713541984558, 0.10519153624773026, -0.04271964356303215, -0.031365882605314255, 0.10499466955661774, -0.012364150956273079, 0.0010635124053806067, -0.0011553163640201092, -0.032962020486593246, 0.002128269989043474, 0.07857617735862732, -0.004613214638084173, 0.0052142031490802765, 0.01787944883108139, -0.043473582714796066, -0.0983004942536354, -0.06328428536653519, -0.11915688216686249, -0.16367939114570618, -0.035906240344047546, -0.018959321081638336, -0.061495766043663025, -0.06784109771251678, 0.06224820390343666, 0.1051984578371048, 0.032457903027534485, -0.07040299475193024, -0.09087573736906052, 0.015458181500434875, 0.0335213840007782, 0.10558001697063446, 0.03940252959728241, 0.11344122886657715, 0.049371857196092606, -0.1270637810230255, 0.035210829228162766, 0.15103808045387268, 0.0944940447807312, 0.07464048266410828, -0.05097105726599693, 0.11783771961927414, -0.00019023993809241802, -0.1273786425590515, -0.06933212280273438, 0.05228825658559799, -0.06129041314125061, 0.038607217371463776, 0.05482601374387741], [0.09361518174409866, 0.08594205230474472, -0.04146834462881088, -0.014094055630266666, 0.1556650996208191, -0.07766199111938477, -0.022909430786967278, -0.034228019416332245, -0.03693369776010513, 0.08233919739723206, 0.0012831824133172631, 0.10747314244508743, -0.10870848596096039, 0.008249710313975811, 0.004882674664258957, -0.012518450617790222, -0.026838604360818863, 0.06021834537386894, 0.04968034476041794, 0.05816873908042908, 0.1583661437034607, -0.01769796945154667, 0.07459773868322372, -0.028563715517520905, 0.016684485599398613, 0.0878717303276062, 0.030664365738630295, 0.05097000673413277, 0.0211718138307333, 0.01463253702968359, 0.026930702850222588, -0.014101243577897549, -0.16785432398319244, -0.04811188578605652, -0.03746011108160019, -0.12050990015268326, 0.08560162782669067, -0.14916357398033142, -0.13079725205898285, -0.13198970258235931, 0.0663093701004982, -0.007910081185400486, -0.029153387993574142, -0.007870426401495934, -0.0513463132083416, -0.023382434621453285, 0.03345344588160515, 0.004140587989240885, -0.0763385146856308, -0.10367926955223083, -0.041025709360837936, 0.05536075681447983, -0.0008136465330608189, 0.07318228483200073, 0.03641922026872635, 0.014461308717727661, 0.008791311644017696, 0.04880009964108467, -0.04530516266822815, -0.0555160790681839, 0.04163763299584389, 0.051965076476335526, 0.14016255736351013, 0.08597147464752197], [0.03372592106461525, -0.0023802926298230886, 0.06058964133262634, 0.026064561679959297, -0.032214850187301636, -0.13738465309143066, -0.07513399422168732, -0.05413316935300827, -0.0017261744942516088, -0.1386922299861908, 0.09287221729755402, -0.03322711959481239, -0.15171940624713898, -0.0883837342262268, -0.08723942935466766, -0.06805326044559479, 0.013344655744731426, 0.0732722133398056, -0.014255352318286896, 0.03874628618359566, -0.04867088422179222, 0.0672491118311882, -0.010605040937662125, 0.0362597331404686, -0.16124647855758667, -0.006932007614523172, -0.0497109517455101, -0.11402937769889832, 0.03474508970975876, -0.08946024626493454, 0.11498406529426575, -0.14366492629051208, -0.12819403409957886, 0.030366510152816772, 0.002585094654932618, 0.11511960625648499, 0.09112729132175446, 0.0981670394539833, 0.06582091003656387, -0.10090289264917374, -0.04573223739862442, 0.022731894627213478, 0.022577879950404167, 0.08088637888431549, -0.055664293467998505, 0.1442384123802185, 0.02291673794388771, -0.0506143756210804, -0.039020080119371414, 0.05720292776823044, 0.08161222189664841, 0.1256011575460434, 0.02643967606127262, -0.009833816438913345, -0.12480898201465607, 0.1261952668428421, -0.006700190249830484, 0.03691957890987396, 0.05325528606772423, -0.05193351209163666, -0.08756789565086365, -0.09546233713626862, -0.05517812445759773, 0.022408539429306984], [0.07750468701124191, 0.09598299860954285, 0.046770233660936356, -0.03406683728098869, -0.018766945227980614, -0.09803052246570587, 0.035983581095933914, -0.0022991965524852276, -0.0889233648777008, -0.036581870168447495, -0.16322438418865204, 0.040179554373025894, -0.1558002382516861, -0.04759379103779793, -0.09317707270383835, 0.004625649657100439, -0.11462759971618652, -0.03962753713130951, -0.03736196830868721, -0.12060766667127609, 0.15379314124584198, 0.0260928887873888, -0.062419988214969635, 0.0558924525976181, 0.023653673008084297, 0.04909052699804306, 0.12257470190525055, -0.006444135215133429, -0.02046596072614193, 0.04557010903954506, -0.024802248924970627, -0.06681511551141739, -0.06707888096570969, -0.04460984095931053, -0.03848568722605705, -0.12469734251499176, -0.05050770565867424, -0.12475980818271637, -0.057867441326379776, -0.00015130241808947176, -0.011634815484285355, -0.05304640159010887, -0.04976438730955124, -0.07546805590391159, -0.07454567402601242, -0.035742320120334625, -0.061259374022483826, 0.08671917021274567, 0.0381041020154953, 0.08101069182157516, 0.07303202897310257, -0.007495655212551355, 0.10779039561748505, 0.0895291194319725, 0.15433815121650696, 0.05853337049484253, 0.03290434554219246, -0.026787415146827698, -0.08634770661592484, 0.11143629252910614, 0.046620260924100876, 0.046653199940919876, -0.05167893320322037, -0.0707584023475647], [-0.06299249827861786, -0.1064227893948555, -0.11472305655479431, -0.0390029102563858, 0.12122280895709991, 0.01538429968059063, -0.05997801572084427, 0.05181103199720383, -0.0935513898730278, 0.05682120472192764, -0.08671857416629791, -0.022231174632906914, -0.03864939883351326, -0.1109057143330574, -0.019517511129379272, 0.06878551095724106, -0.09321407973766327, 0.0202174074947834, 0.12404200434684753, -0.1330469399690628, -0.09628523886203766, 0.08762521296739578, -0.007207419723272324, 0.059948548674583435, -0.10729468613862991, -0.07033047825098038, 0.10336688160896301, -0.12573789060115814, 0.1009012833237648, -0.057538434863090515, 0.04330255463719368, 0.018947448581457138, 0.11521515250205994, 0.12032091617584229, 0.039101481437683105, 0.11581471562385559, -0.0353182777762413, 0.11243673413991928, -0.04765698313713074, 0.07780371606349945, -0.11263802647590637, 0.10407190769910812, -0.0743211880326271, 0.04173987731337547, -0.028315721079707146, 0.07258937507867813, 0.0573296882212162, -0.1234302818775177, 0.08665589243173599, -0.06875195354223251, 0.09569457918405533, 0.05011694133281708, 0.01197824440896511, -0.11277902871370316, -0.1106744259595871, 0.03467223048210144, -0.1185242086648941, 0.047248926013708115, -0.03616831451654434, -0.09658829867839813, -0.10559052228927612, 0.09960130602121353, -0.04436932131648064, -0.05220527946949005], [-0.030419275164604187, 0.10692750662565231, 0.11473048478364944, -0.10320152342319489, -0.07372759282588959, -0.12381431460380554, -0.08197662979364395, 0.042194969952106476, 0.10720143467187881, 0.06419944763183594, 0.0935702919960022, 0.04377274587750435, 0.05904683470726013, 0.12070726603269577, -0.045257505029439926, 0.09310998022556305, -0.09265432506799698, -0.1273730993270874, -0.06758513301610947, 0.11428195983171463, -0.05539710819721222, -0.09322447329759598, -0.0021482997108250856, 0.025930091738700867, 0.07368768006563187, 0.07580085098743439, 0.029071595519781113, -0.029853899031877518, -0.09431427717208862, 0.058255527168512344, -0.01905183680355549, 0.07770628482103348, 0.12064903974533081, -0.033456433564424515, -0.07170882821083069, -0.029434315860271454, -0.011591685004532337, 0.11441060155630112, -0.054681431502103806, 0.1375393271446228, -0.05906124785542488, -0.14397837221622467, -0.07852613180875778, 0.07752401381731033, 0.015229607000946999, 0.11385046690702438, 0.09784308075904846, -0.025164445862174034, -0.06305546313524246, 0.042482972145080566, -0.06573038548231125, -0.09303142875432968, -0.10151640325784683, 0.018581919372081757, -0.09149095416069031, 0.041439831256866455, -0.038390155881643295, -0.06518373638391495, -0.048085544258356094, 0.07372748851776123, -0.015592606738209724, -0.00825760792940855, 0.001769874943420291, -0.10793650150299072], [-0.03438776358962059, 0.10968752950429916, -0.12009116262197495, -0.014081364497542381, 0.08008413016796112, -0.002534243743866682, -0.017124783247709274, 0.18150080740451813, 0.06816697120666504, 0.022513626143336296, 0.0031104227527976036, -0.07283440232276917, 0.04562205448746681, 0.020012933760881424, 0.07669708877801895, -0.08396352082490921, -0.07117512077093124, -0.022250892594456673, 0.0658615306019783, -0.012653042562305927, 0.010636024177074432, -0.07119163870811462, -0.06677878648042679, -0.04091335088014603, 0.0946144387125969, -0.13470016419887543, -0.1462419331073761, 0.1277489960193634, 0.07129374891519547, -0.06240000203251839, 0.08091994374990463, -0.016095271334052086, -0.11353787779808044, -0.12458306550979614, -0.09336644411087036, -0.10481376200914383, -0.17456527054309845, -0.13939112424850464, 0.05626155808568001, 0.029391994699835777, 0.030578162521123886, 0.012565280310809612, -0.04632127285003662, 0.020643683150410652, -0.04760638624429703, -0.08124766498804092, 0.09101159125566483, -0.023333242163062096, 0.15999671816825867, -0.04165935888886452, 0.14713358879089355, 0.08642195165157318, -0.04782787710428238, -0.10267064720392227, -0.017763329669833183, -0.07037060707807541, 0.1037140041589737, -0.10784545540809631, -0.08927714824676514, 0.05903524160385132, 0.015089019201695919, -0.004523161798715591, -0.07344543933868408, -0.11527271568775177], [0.0738910660147667, 0.12419769912958145, 0.07260505855083466, -0.0388752706348896, 0.0003988782991655171, -0.004052726551890373, 0.0657232403755188, -0.03166802227497101, -0.007542656268924475, -0.11629131436347961, 0.062008537352085114, -0.06087049841880798, 0.11160039901733398, 0.006933617405593395, -0.11503218859434128, 0.08354538679122925, 0.026080334559082985, -0.11760406196117401, -0.06791810691356659, -0.07849827408790588, 0.11843650788068771, 0.05833909288048744, -0.06040855124592781, -0.0744188129901886, 0.04928162693977356, 0.12000769376754761, -0.01226799190044403, 0.00952730793505907, 0.0520230270922184, 0.07164162397384644, -0.013291453942656517, 0.10572880506515503, -0.07180508971214294, 0.05823864787817001, -0.020649466663599014, 0.12360407412052155, 0.10813001543283463, -0.09104503691196442, 0.1242813691496849, -0.07667072862386703, -0.11184118688106537, -0.11139395833015442, 0.101817287504673, -0.026881586760282516, 0.015686869621276855, 0.11120641976594925, 0.030304720625281334, 0.08655499666929245, 0.08084224164485931, 0.10334454476833344, 0.11734408140182495, -0.1062140241265297, -0.0740247443318367, 0.08057396113872528, -0.07387616485357285, -0.032808464020490646, -0.04713309556245804, -0.10401220619678497, -0.05264531075954437, -0.05485713109374046, 0.10747075825929642, -0.06903915852308273, -0.0395074225962162, 0.028891215100884438], [0.06721965223550797, -0.02154306136071682, 0.10721948742866516, 0.12128416448831558, 0.024440499022603035, 0.08779878914356232, 0.10792078822851181, -0.10899511724710464, -0.14205528795719147, -0.0793064534664154, 0.04957813397049904, 0.06316404789686203, -0.050548553466796875, 0.05547751486301422, 0.10978426784276962, -0.08384241908788681, 0.006594765931367874, 0.08722026646137238, -0.07959728688001633, 0.09313859790563583, 0.07434960454702377, 0.021158551797270775, -0.08753569424152374, 0.1367659717798233, -0.13473550975322723, 0.030218228697776794, -0.05726547911763191, -0.09406320750713348, 0.04499439522624016, 0.14277246594429016, -0.053564850240945816, 0.11842264980077744, -0.05523728206753731, -0.08216594159603119, 0.09373445063829422, -0.015488268807530403, -0.04055245593190193, 0.08083019405603409, -0.04615212231874466, 0.03787493705749512, 0.0717226043343544, 0.0723925456404686, -0.11564625799655914, -0.004145355429500341, -0.1486840397119522, 0.04796462878584862, -0.0812203511595726, 0.07667674124240875, -0.11966826021671295, -0.07047244906425476, -0.10945715010166168, -0.052799392491579056, 0.045761436223983765, -0.02820534259080887, 0.10385718196630478, 0.12218279391527176, -0.06161068007349968, 0.09017772227525711, -0.11520590633153915, 0.07469206303358078, -0.027976302430033684, 0.036202721297740936, -0.04305674508213997, 0.1284504532814026], [0.08080156147480011, 0.0701875314116478, 0.004428101237863302, -0.10755764693021774, -0.06908829510211945, -0.08061062544584274, 0.0720544159412384, 0.04473619908094406, 0.1294969618320465, 0.11616126447916031, -0.08231063187122345, -0.058837853372097015, -0.07338777184486389, -0.014608338475227356, -0.09021392464637756, 0.026811353862285614, 0.028188586235046387, -0.14384134113788605, -0.1442399024963379, -0.017786160111427307, 0.07617923617362976, -0.0007640421972610056, -0.08602272719144821, 0.06394845992326736, 0.11606263369321823, 0.019736509770154953, -0.0588478147983551, 0.1316593587398529, -0.11476661264896393, -0.15094460546970367, -0.12159446626901627, -0.0634540244936943, 0.021140174940228462, -0.04977554827928543, -0.06834650039672852, -0.1202525645494461, 0.01452989224344492, -0.07374312728643417, -0.08155796676874161, 0.12333889305591583, 0.011193525977432728, -0.0735013484954834, -0.09623882919549942, 0.07633456587791443, 0.1645442545413971, 0.054036855697631836, -0.008750881999731064, -0.09423215687274933, 0.0481354184448719, -0.024293100461363792, -0.07860476523637772, -0.02922993153333664, -0.03109101392328739, 0.05724041908979416, 0.0685620903968811, -0.06185705214738846, 0.11143588274717331, -0.007360517047345638, 0.07908346503973007, 0.06955011934041977, 0.14286667108535767, -0.07036737352609634, -0.026328234001994133, -0.037078287452459335], [-0.10358564555644989, 0.052878450602293015, -0.060162562876939774, -0.006323178298771381, 0.09545714408159256, -0.007219304330646992, -0.08548925817012787, 0.09275525063276291, -0.012128936126828194, 0.0880674198269844, -0.07733820378780365, -0.013526557013392448, -0.017724165692925453, -0.029746370390057564, 0.10475964844226837, -0.08555040508508682, -0.11836513876914978, -0.01639268919825554, 0.13075441122055054, 0.08556482940912247, 0.0444369912147522, 0.05712020397186279, -0.014051834121346474, 0.08509210497140884, 0.08093775808811188, 0.06258313357830048, -0.09233078360557556, -0.004203105811029673, -0.08298695087432861, -0.0190542284399271, -0.01094635110348463, -0.02874276600778103, 0.04011119529604912, 0.05727852135896683, 0.09526879340410233, 0.07394464313983917, 0.00686886440962553, -0.07448909431695938, 0.11822932213544846, -0.12721899151802063, -0.024302445352077484, -0.10985180735588074, -0.07628878206014633, -0.11462491750717163, -0.12428075075149536, -0.0560939759016037, 0.06881319731473923, -0.03129095211625099, -0.1253475695848465, 0.08074712753295898, -0.0764956995844841, 0.13817113637924194, 0.00834422092884779, 0.052712537348270416, -0.09433730691671371, 0.08071328699588776, 0.1270357072353363, -0.04431721940636635, -0.056506045162677765, 0.12024987488985062, 0.046677689999341965, 0.029261520132422447, -0.001617607194930315, 0.03723940625786781], [0.0045687309466302395, -0.01573636382818222, -0.054950714111328125, -0.023526480421423912, 0.027861597016453743, 0.07538191229104996, 0.056644756346940994, -0.08305970579385757, 0.1504645049571991, 0.08165614306926727, 0.038836270570755005, 0.0002966007450595498, 0.009936951100826263, -0.01316656731069088, -0.010024956427514553, 0.13625985383987427, 0.11564856767654419, -0.10112765431404114, -0.09422621876001358, 0.05535833165049553, 0.1310618817806244, 0.003979829140007496, 0.04706040024757385, -0.017871033400297165, 0.08973048627376556, 0.1171829029917717, 0.08169043064117432, 0.06808953732252121, 0.030079912394285202, 0.009011128917336464, 0.04845171421766281, 0.10514786094427109, 0.007045431062579155, -0.06433149427175522, -0.003634322201833129, -0.01879972591996193, 0.0008660909370519221, -0.0546797476708889, -0.04902459308505058, 0.07911136001348495, -0.09292276948690414, -0.1313612014055252, 0.07026101648807526, 0.12421416491270065, 0.10123084485530853, -0.01803077943623066, -0.10519754886627197, -0.10313098132610321, 0.14228439331054688, -0.09432312101125717, 0.09665735065937042, 0.014287378638982773, 0.07070877403020859, -0.12067684531211853, -0.08740221709012985, 0.03392914682626724, -0.10239946097135544, 0.06431451439857483, -0.10147097706794739, -0.0727616623044014, -0.004861427471041679, 0.10284844785928726, 0.11514147371053696, -0.02693483605980873], [-0.02927567809820175, -0.012724935077130795, 0.009165337309241295, -0.017872527241706848, -0.027559425681829453, -0.12139300256967545, -0.020843664184212685, -0.16817735135555267, -0.1524198353290558, 0.0301800724118948, 0.06010795384645462, 0.08396381884813309, 0.05405009165406227, -0.129451721906662, -0.028706654906272888, 0.04282701760530472, 0.0736045241355896, -0.04194644093513489, 0.01951722428202629, 0.10888255387544632, -0.1278674155473709, 0.018717089667916298, -0.03185306116938591, -0.005164163187146187, -0.06855862587690353, -0.05322355031967163, 0.05298876762390137, -0.0300615094602108, -0.0034507187083363533, -0.007496257312595844, 0.1359255015850067, -0.09205318987369537, 0.06955432891845703, 0.10409010946750641, -0.012085097841918468, 0.04657571762800217, 0.014618704095482826, -0.03665344789624214, -0.09480099380016327, -0.13443034887313843, -0.07857261598110199, 0.02832125499844551, 0.12919209897518158, 0.0897349938750267, -0.14992547035217285, 0.017682388424873352, -0.11054512113332748, 0.041503533720970154, -0.017848283052444458, 0.06924378126859665, 0.004495917819440365, 0.07322681695222855, 0.004232016857713461, -0.09642769396305084, -0.021619198843836784, 0.030479883775115013, -0.027207376435399055, 0.059760864824056625, 0.00732568372040987, -0.06796614080667496, 0.049111735075712204, 0.0076039512641727924, 0.06678435206413269, 0.13853897154331207], [-0.09650839865207672, 0.06236105039715767, 0.1200433298945427, 0.1158343106508255, -0.07099366933107376, -0.09771247208118439, 0.12417172640562057, -0.02083713747560978, 0.14003558456897736, -0.030249662697315216, 0.10673422366380692, 0.07483901083469391, 0.00415625236928463, 0.12469776719808578, 0.06222344562411308, 0.0617523267865181, 0.02553696185350418, -0.000825697963591665, -0.03331078588962555, -0.09719385206699371, 0.037460148334503174, -0.05920349061489105, -0.15883074700832367, 0.02268281951546669, 0.06244273483753204, -0.043118104338645935, -0.05343390256166458, 0.08194942027330399, 0.0018125060014426708, 0.10074040293693542, -0.13533799350261688, 0.08325400948524475, 0.12657389044761658, 0.023751942440867424, -0.07606565207242966, -0.09812984615564346, -0.048172514885663986, -0.14973825216293335, -0.1122485026717186, -0.024524979293346405, -0.04692462459206581, 0.07439801096916199, -0.09320302307605743, 0.05420806631445885, 0.0008505537989549339, -0.005375084467232227, -0.03887692466378212, 0.044557154178619385, 0.09720300137996674, 0.1213732436299324, 0.12616181373596191, 0.06718148291110992, -0.15664120018482208, 0.058580417186021805, -0.1167244017124176, -0.07061761617660522, -0.10447713732719421, 0.0002898528764490038, 0.0029783195350319147, 0.04524194076657295, 0.11554126441478729, 0.023870864883065224, -0.05334991216659546, -0.12130587548017502], [-0.0428125262260437, -0.06367336958646774, 0.06200480833649635, 0.10866202414035797, -0.08098337799310684, 0.005390575155615807, -0.06902699172496796, 0.13785070180892944, 0.004180910997092724, 0.04558173567056656, -0.00855918787419796, -0.08681271225214005, -0.0035914459731429815, 0.09031470119953156, 0.07737426459789276, -0.042636554688215256, -0.014778045006096363, 0.021154090762138367, -0.12272399663925171, 0.11085093766450882, 0.09815852344036102, -0.0641213208436966, 0.07221513241529465, -0.07593037188053131, -0.07571006566286087, 0.05593933165073395, 0.0644628256559372, 0.10558252781629562, -0.056739937514066696, 0.019724717363715172, -0.014272930100560188, 0.04435766860842705, 0.0973115935921669, -0.033287618309259415, -0.1517021507024765, 0.026187118142843246, -0.11529126018285751, -0.11799801886081696, -0.10657265782356262, -0.08902616798877716, -0.02998596616089344, 0.0877624973654747, 0.05721065402030945, 0.09079263359308243, -0.09238294512033463, 0.08106961846351624, 0.04811633750796318, 0.035113755613565445, -0.04890972748398781, 0.019043460488319397, -0.09584273397922516, 0.048165008425712585, 0.00436826329678297, -0.10531394928693771, -0.09549940377473831, 0.0611804760992527, 0.003964263945817947, 0.07613017410039902, -0.042269110679626465, 0.07422798126935959, -0.04391967132687569, 0.022183876484632492, -0.07086484879255295, 0.01583094336092472], [0.000547262083273381, 0.11673426628112793, -0.09077320247888565, -0.0027615816798061132, -0.04955335333943367, 0.038900021463632584, -0.1003444641828537, 0.1372540295124054, 0.04357657954096794, 0.05705316737294197, -0.13717840611934662, 0.024799160659313202, -0.025005321949720383, 0.00796508975327015, 0.06189154088497162, -0.038749583065509796, -0.11978451162576675, 0.07301429659128189, 0.020099477842450142, -0.07914765179157257, 0.027913594618439674, 0.10262110829353333, 0.09014742076396942, -0.04145060107111931, 0.000357963377609849, -0.08256316184997559, 0.07121071964502335, -0.029505811631679535, 0.03189680352807045, -0.04595315083861351, -0.04845443367958069, 0.09474940598011017, -0.15022459626197815, -0.15247701108455658, -0.01485754270106554, -0.006426832173019648, 0.11815723776817322, 0.03661977872252464, -0.03060610592365265, -0.03800368309020996, -0.0059243845753371716, -0.00733394967392087, -0.019242921844124794, -0.05651332437992096, 0.04779123142361641, -0.06370329111814499, 0.058525532484054565, 0.07978753000497818, -0.07809408009052277, 0.010322635062038898, -0.03377450257539749, 0.00801482517272234, 0.04696732386946678, 0.04214613512158394, 0.1007016971707344, 0.007602392695844173, -0.0728360190987587, -0.03777708858251572, 0.09342531859874725, 0.002505887532606721, 0.1314290314912796, -0.04416806250810623, -0.011961845681071281, 0.11054264008998871], [0.011464680545032024, 0.06642918288707733, 0.11676350235939026, 0.01608881726861, 0.03752640634775162, 0.09564080089330673, -0.04605778679251671, -0.06416164338588715, -0.10507053136825562, -0.03940320014953613, 0.0730123370885849, -0.10531532019376755, -0.06692047417163849, -0.04605381190776825, 0.04610942304134369, 0.05948125571012497, 0.13303813338279724, 0.0038550288882106543, 0.07626498490571976, 0.09650590270757675, -0.04900876060128212, 0.017964689061045647, 0.035706765949726105, 0.03776164725422859, 0.11117193102836609, 0.07420627027750015, 0.09797768294811249, -0.10471969842910767, 0.04638506472110748, -0.019673053175210953, 0.018558083102107048, 0.02703932486474514, -0.026425134390592575, -0.11676173657178879, 0.027630256488919258, -0.038086529821157455, 0.08426955342292786, -0.050918687134981155, -0.003308636602014303, -0.029122883453965187, -0.08269459009170532, -0.0005210516974329948, 0.09402158111333847, 0.07245337963104248, 0.047665856778621674, 0.08273809403181076, 0.013255062513053417, -0.04533926770091057, 0.05074534937739372, -0.09503395110368729, 0.09811398386955261, -0.02748963236808777, -0.1146957278251648, -0.10420285910367966, 0.01517751719802618, -0.08878792822360992, -0.059680819511413574, 0.05177443102002144, -0.038925524801015854, -0.05558418110013008, 0.10024264454841614, -0.05485169216990471, -0.038899216800928116, -0.07438734173774719], [-0.12099330127239227, -0.09313508868217468, 0.06732580810785294, 0.09556245058774948, -0.10044747591018677, -0.007764945272356272, -0.029347430914640427, -0.11544186621904373, 0.13590453565120697, 0.12196734547615051, 0.11485605686903, -0.08474919199943542, 0.1469406634569168, 0.05185754597187042, 0.05552906543016434, -0.04571535810828209, 0.06038292869925499, 0.02346639148890972, 0.07308683544397354, -0.10509561747312546, -0.001864082645624876, -0.08202342689037323, 0.05178949609398842, 0.09375698864459991, 0.13700996339321136, -0.06992746144533157, -0.05639195069670677, 0.15256847441196442, 0.03246859461069107, 0.10577955096960068, -0.1603504717350006, -0.019738690927624702, -0.07661827653646469, 0.0368456095457077, 0.12868022918701172, -0.018961600959300995, -0.06681089103221893, -0.026670437306165695, 0.1177404373884201, -0.02602965570986271, -0.06970261037349701, -0.12514522671699524, 0.012097797356545925, 0.10753041505813599, 0.17678475379943848, 0.003953439183533192, 0.123659148812294, 0.054831862449645996, 0.06231286749243736, 0.12758097052574158, -0.05315544083714485, 0.09076254814863205, -0.021949337795376778, -0.010940705426037312, 0.016651907935738564, 0.010538461618125439, 0.04068349301815033, -0.053599245846271515, -0.0054787443950772285, 0.07315115630626678, -0.05976363271474838, -0.056783366948366165, 0.059193503111600876, 0.09659580886363983], [-0.033887673169374466, -0.020038975402712822, 0.08099018037319183, 0.060866083949804306, 0.02224070020020008, -0.11555951833724976, 0.032879091799259186, 0.13830848038196564, -0.041388776153326035, 0.050954122096300125, -0.1107013151049614, 0.06479436904191971, -0.1225934773683548, -0.08738172054290771, 0.10872121155261993, 0.08406691253185272, -0.0036617061123251915, 0.04954581707715988, 0.056505393236875534, -0.13508237898349762, 0.13754479587078094, -0.059111520648002625, -0.09028588235378265, -0.11395376175642014, -0.009531223215162754, -0.016414908692240715, -0.05298620089888573, 0.059928007423877716, 0.09430532157421112, -0.059844281524419785, -0.03406986594200134, -0.055259186774492264, -0.13562029600143433, -0.12939715385437012, -0.07913800328969955, -0.0012943997280672193, -0.07709583640098572, 0.0680113360285759, -0.10184124112129211, 0.028719892725348473, 0.02895372547209263, -0.09244860708713531, -0.0842982679605484, -0.06560695171356201, -0.09186015278100967, -0.0545739121735096, -0.003089484991505742, 0.07401581853628159, -0.06107431277632713, -0.00035018997732549906, -0.08477608114480972, 0.11016526818275452, 0.02091200463473797, -0.010164324194192886, -0.09532427787780762, -0.010388814844191074, 0.042125727981328964, 0.07272356003522873, -0.10910165309906006, -0.016533181071281433, -0.012552883476018906, 0.047112129628658295, -0.06556722521781921, -0.022192712873220444], [-0.12259922921657562, 0.09150280803442001, -0.06138932704925537, 0.10829699039459229, 0.06798060983419418, 0.04995383322238922, -0.10180453211069107, -0.035297270864248276, -0.025752680376172066, 0.06172354891896248, -0.08219581842422485, 0.05512386932969093, -0.006828084588050842, 0.05866231396794319, -0.02839202620089054, -0.06661960482597351, -0.07267165184020996, -0.05762345716357231, -0.052512027323246, 0.018232978880405426, -0.0021074945107102394, -0.10348108410835266, 0.052782684564590454, 0.11331502348184586, 0.07899187505245209, 0.05599665641784668, 0.11971882730722427, 0.07926362752914429, 0.09366776794195175, -0.07735113799571991, 0.024626292288303375, 0.022733453661203384, 0.0792166218161583, 0.016861699521541595, -0.0014150949427857995, 0.08497605472803116, 0.06503983587026596, 0.05608445405960083, -0.08083388954401016, 0.06032472848892212, 0.12104954570531845, 0.1230037733912468, 0.09534474462270737, 0.11104876548051834, 0.07412192225456238, -0.07881306856870651, 0.09907743334770203, -0.07230006903409958, -0.08144548535346985, -0.07291775196790695, 0.017172183841466904, 0.07859265804290771, 0.10803829878568649, 0.07064478099346161, 0.03294336795806885, 0.07991952449083328, 0.027690382674336433, -0.05001596361398697, -0.10168931633234024, -0.12123334407806396, -0.011019673198461533, 0.01808520033955574, 0.022253556177020073, 0.06467273831367493], [0.061517223715782166, 0.06893540918827057, 0.11815152317285538, -0.09610926359891891, -0.0270694512873888, -0.01573624089360237, 0.014425273984670639, -0.09463866055011749, -0.0966123715043068, -0.04296356067061424, -0.12291716039180756, 0.10501684248447418, 0.13008171319961548, 0.09743616729974747, 0.06853294372558594, -0.02118712291121483, 0.09134823083877563, -0.0829397663474083, -0.09567984938621521, -0.08964075148105621, 0.12992846965789795, 0.001956912688910961, -0.02222144976258278, 0.11507206410169601, -0.02432018704712391, 0.1174992248415947, 0.047815952450037, 0.02863410674035549, 0.054157208651304245, -0.025953704491257668, 0.11410192400217056, 0.06183869019150734, -0.04033837094902992, -0.061973754316568375, 0.056890830397605896, 0.09689586609601974, 0.08435181528329849, -0.05510399490594864, -0.09312175959348679, -0.10724237561225891, 0.013702088966965675, -0.007679614704102278, -0.13388721644878387, 0.009402952156960964, -0.05477338656783104, 0.06370289623737335, 0.13620689511299133, 0.042905356734991074, 0.11709649115800858, 0.12657073140144348, -0.026281772181391716, 0.0329379104077816, 0.10584864020347595, -0.05156845971941948, -0.090355783700943, -0.01103723980486393, 0.06875917315483093, -0.08267850428819656, -0.07526705414056778, -0.018938206136226654, -0.04923294112086296, -0.010445702821016312, 0.054468926042318344, 0.018696404993534088], [0.0663495808839798, -0.0878881961107254, 0.0644974485039711, 0.011010614223778248, -0.004877681378275156, -0.03311557322740555, -0.12612022459506989, 0.02457398548722267, -0.007963228970766068, -0.13640423119068146, 0.052368421107530594, 0.05966886505484581, -0.032500915229320526, -0.04899335652589798, -0.03664088621735573, -0.13231830298900604, -0.049250099807977676, 0.009899888187646866, -0.10011088848114014, 0.04473242163658142, 0.09566846489906311, -0.011568048037588596, 0.06231815367937088, -0.05891318991780281, -0.035039667040109634, -0.12209693342447281, 0.008069165982306004, -0.11973067373037338, -0.04280044138431549, -0.09051790088415146, -0.059952326118946075, 0.053552087396383286, 0.11186718195676804, -0.03765665367245674, 0.10099315643310547, -0.007737806066870689, -0.10761521011590958, -0.08947797119617462, -0.017566602677106857, 0.014461935497820377, 0.10931600630283356, -0.03479764983057976, 0.1071970984339714, -0.05224631726741791, 0.07551554590463638, 0.02710968255996704, -0.048164885491132736, -0.08589398860931396, 0.0429021455347538, -0.11218470335006714, 0.012644108384847641, -0.07841264456510544, 0.11597099155187607, 0.07400109618902206, 0.02471575327217579, -0.02777346782386303, -0.011810114607214928, 0.09333661198616028, -0.1307801902294159, 0.06936363130807877, -0.12457620352506638, 0.0039758640341460705, -0.014569679275155067, -0.08678911626338959], [-0.06641020625829697, 0.07299263775348663, 0.07726850360631943, 0.0996265709400177, 0.024599580094218254, -0.11054559051990509, 0.055894967168569565, -0.0785125270485878, 0.08612468838691711, 0.014951737597584724, 0.09712627530097961, 0.07024794816970825, 0.08809257298707962, -0.09289922565221786, -0.062275633215904236, 0.09098836034536362, -0.08115478605031967, 0.04784337431192398, -0.04461734741926193, 0.11363089084625244, -0.05173182114958763, 0.07467859983444214, -0.008637048304080963, 0.027369998395442963, 0.050980549305677414, 0.017694104462862015, -0.10226075351238251, 0.12523862719535828, -0.07418101280927658, 0.02142362669110298, -0.09182751178741455, 0.003396071493625641, 0.1387946456670761, 0.02141953632235527, 0.1394495815038681, -0.10381308943033218, -0.023689212277531624, 0.05111224949359894, -0.08295569568872452, -0.0069546387530863285, -0.10627143830060959, -0.11190200597047806, -0.050255801528692245, 0.14721256494522095, -0.04061952978372574, -0.005059659481048584, -0.12284474819898605, 0.11186052858829498, -0.039727311581373215, 0.006595844402909279, 0.03632635250687599, 0.0012678677449002862, -0.1400633007287979, -0.10278215259313583, -0.13148760795593262, -0.08198491483926773, -0.007180340122431517, -0.09955297410488129, 0.0045493608340620995, -0.11476290971040726, -0.11278016120195389, -0.009613871574401855, -0.1277126669883728, -0.0023559872061014175], [0.08829950541257858, -0.020307105034589767, 0.05999838560819626, 0.0514712780714035, -0.03774707019329071, 0.08627767860889435, 0.08664817363023758, 0.07953096181154251, -0.08092372119426727, -0.09543608129024506, -0.037735465914011, 0.06028526648879051, 0.026020171120762825, 0.04017471894621849, 0.02958807907998562, 0.09433531761169434, -0.03675410524010658, -0.06293578445911407, -0.06436248123645782, -0.024661041796207428, 0.07467442005872726, 0.05433495715260506, 0.04124686121940613, 0.012322403490543365, 0.06856400519609451, 0.10248832404613495, -0.0693468376994133, 0.11526327580213547, 0.07913638651371002, -0.021570540964603424, -0.09418143332004547, -0.009775802493095398, 0.008419418707489967, -0.12016724050045013, -0.1660558581352234, -0.08032463490962982, -0.05603409931063652, -0.12230315804481506, 0.045136649161577225, 0.05002926290035248, 0.12386376410722733, 0.07106292992830276, -0.1281207799911499, -0.054490603506565094, 0.12403041124343872, -0.0690278708934784, 0.08797874301671982, 0.08861706405878067, -0.05616902559995651, -0.016187872737646103, -0.09665045142173767, -0.133933886885643, 0.11502441018819809, 0.12033657729625702, -0.05448775738477707, -0.07100195437669754, -0.03431146219372749, 0.12727855145931244, 0.03360160440206528, -0.09134629368782043, 0.0003895539848599583, 0.08875483274459839, 0.06549564749002457, 0.05310063809156418], [-0.04527665302157402, -0.00832290481775999, -0.03931250050663948, -0.04349835216999054, 0.06587453931570053, -0.038666732609272, -0.11221997439861298, -0.05620132014155388, 0.1141696497797966, -0.09528661519289017, 0.11590265482664108, 0.06087341532111168, -0.06809874624013901, 0.026147935539484024, 0.1143723651766777, -0.12965992093086243, -0.07314302027225494, 0.10337473452091217, -0.08819660544395447, -0.092128686606884, -0.0534762367606163, 0.00015610980335623026, -0.028619006276130676, -0.08174832165241241, 0.07417032867670059, -0.04360188916325569, 0.05411311239004135, -0.11337673664093018, 0.028625374659895897, 0.04848898574709892, 0.05330096185207367, -0.0072885905392467976, -0.02241004817187786, -0.02582436054944992, -0.06558423489332199, 0.01822062022984028, -0.10425633192062378, 0.007252966053783894, 0.025691404938697815, 0.015639204531908035, -0.07643193006515503, 0.023122118785977364, 0.024448778480291367, -0.04492330178618431, 0.05785612761974335, -0.006772797089070082, 0.02083636447787285, -0.041109856218099594, 0.0839780643582344, -0.055313754826784134, 0.10363325476646423, -0.07020167261362076, -0.07145146280527115, 0.033289529383182526, 0.06252226233482361, 0.12218702584505081, 0.11064822226762772, -0.1159166470170021, -0.0004139925877097994, 0.09160302579402924, 0.0561848022043705, -0.039827171713113785, 0.008823626674711704, -0.09148359298706055], [0.07838206738233566, -0.04653753340244293, -0.025395341217517853, 0.10310952365398407, 0.029988013207912445, 0.047278814017772675, 0.11001129448413849, 0.005599857773631811, 0.09832310676574707, 0.14802204072475433, -0.07510747015476227, 0.06911041587591171, 0.06801622360944748, 0.03009127266705036, -0.13231956958770752, -0.09419415891170502, 0.012504744343459606, -0.059671226888895035, -0.09863615036010742, 0.012135838158428669, 0.0722258910536766, 0.0031563297379761934, 0.028677895665168762, 0.019860781729221344, 0.026424193754792213, -0.0806504413485527, -0.1271923929452896, 0.03769732639193535, 0.0028795867692679167, -0.06868728995323181, -0.056687723845243454, 0.08892659097909927, -0.03977711871266365, -0.026601038873195648, 0.11172067373991013, 0.0569637231528759, -0.08363655209541321, -0.1250246912240982, 0.0030549196526408195, -0.06772954761981964, -0.11515343934297562, 0.04290203005075455, -0.09082047641277313, -0.04949697107076645, 0.057562727481126785, -0.09616238623857498, 0.07653551548719406, 0.03726055845618248, 0.028399305418133736, 0.07357481867074966, 0.012665650807321072, -0.011111495085060596, 0.08873558044433594, 0.06204904615879059, 0.09553767740726471, -0.07589393854141235, 0.033814653754234314, -0.04648808389902115, 0.12515214085578918, 0.03778138384222984, 0.014619323424994946, 0.026066016405820847, -0.08582030236721039, 0.12128317356109619], [0.10465304553508759, -0.024878518655896187, 0.11827825754880905, -0.1134069412946701, -0.04890623316168785, 0.010424724780023098, -0.005416836589574814, 0.08456914871931076, 0.12980082631111145, -0.030758481472730637, 0.04290199652314186, 0.08009926974773407, 0.03423953428864479, -0.11130710691213608, 0.05533614009618759, 0.11088845878839493, -0.04542428255081177, -0.0031264584977179766, -0.10866361856460571, -0.015055746771395206, -0.03668298199772835, 0.08059436082839966, -0.11501888930797577, -0.02094462886452675, 0.08242746442556381, -0.009258568286895752, -0.004339680541306734, -0.023287834599614143, -0.12581828236579895, 0.006344285327941179, 0.011891265399754047, 0.11134590953588486, -0.0035823225043714046, 0.02601827122271061, 0.07264706492424011, 0.03775109350681305, 0.025737430900335312, 0.07524799555540085, 0.09149162471294403, 0.08601119369268417, -0.06367608159780502, -0.06253731995820999, 0.06956756114959717, -0.016574034467339516, 0.16033360362052917, 0.018995817750692368, 0.1325223445892334, 0.09949106723070145, 0.031443532556295395, 0.04064447432756424, -0.07445092499256134, -0.0699959322810173, -0.09215214103460312, -0.062379952520132065, 0.0009137416491284966, -0.007142594549804926, -0.07164081186056137, -0.018429210409522057, -0.08689358830451965, 0.08514916151762009, 0.10411692410707474, 0.031844086945056915, -0.07168421149253845, -0.12700727581977844], [0.04039439186453819, -0.09592330455780029, 0.0569811575114727, -0.06806681305170059, -0.122116819024086, -0.011888652108609676, 0.060700785368680954, 0.08730436861515045, 0.07145483046770096, 0.12475708872079849, -0.09117328375577927, 0.10460980236530304, 0.017866885289549828, 0.11832424253225327, -0.10387757420539856, -0.06295912712812424, 0.07473606616258621, -0.1626252979040146, 0.05500282347202301, 0.008153058588504791, -0.03804507479071617, -0.11435690522193909, -0.09958017617464066, -0.09667129814624786, 0.1479915976524353, -0.0983676016330719, 0.02517852559685707, -0.007171215023845434, -0.12331248819828033, -0.04372648149728775, -0.09303900599479675, -0.05279509723186493, 0.1435377448797226, -0.08318784832954407, 0.053452204912900925, -0.01621936820447445, -0.09010857343673706, -0.05827118828892708, 0.11688309162855148, 0.0392744243144989, 0.03430842235684395, -0.03143179044127464, 0.0775873064994812, 0.021968580782413483, -0.007116883527487516, 0.022898221388459206, 0.07665770500898361, -0.0040026260539889336, 0.11486859619617462, 0.14381447434425354, -0.07791756093502045, -0.1388763040304184, -0.12972545623779297, 0.029112044721841812, -0.12478981912136078, 0.017499275505542755, 0.06817217171192169, 0.015154075808823109, -0.06601884961128235, -0.05369461327791214, 0.03737432882189751, -0.08770611882209778, 0.006717867683619261, 0.06465281546115875], [-0.051678385585546494, -0.04346802458167076, -0.07151880115270615, 0.040728747844696045, 0.0574718713760376, 0.09703951328992844, 0.1019073873758316, 0.04990363121032715, -0.08334844559431076, -0.16781355440616608, -0.12452457845211029, 0.10992918908596039, 0.019411690533161163, 0.017343802377581596, 0.0767831951379776, -0.01674225740134716, 0.0866674855351448, 0.05119216442108154, -0.11160705983638763, -0.015178222209215164, -0.06404905021190643, -0.018385501578450203, 0.049613699316978455, -0.10103578865528107, -0.10498687624931335, -0.12909379601478577, 0.13954302668571472, -0.03991445153951645, 0.007612259592860937, -0.008181121200323105, -0.013962198980152607, 0.07716691493988037, -0.11201024800539017, -0.040366750210523605, -0.06368748843669891, -0.06644675880670547, -0.11752383410930634, -0.10637103766202927, -0.11788524687290192, -0.03635639697313309, 0.007168145850300789, -0.02901814691722393, 0.146871879696846, -0.1380687654018402, -0.06684812158346176, -0.05567780137062073, -0.06742385029792786, -0.03247807174921036, -0.03841293230652809, 0.0008159536519087851, 0.04155933856964111, 0.1433672308921814, -0.0049938964657485485, 0.1010996624827385, 0.07722889631986618, -0.12076705694198608, 0.009699061512947083, 0.014018597081303596, 0.055288877338171005, -0.11289536207914352, 0.01132636796683073, -0.0374988317489624, 0.09222978353500366, 0.011086095124483109], [-0.08656036108732224, 0.08421708643436432, -0.007965240627527237, -0.0466756597161293, -0.06564948707818985, 0.024108609184622765, -0.043927352875471115, -0.02362283319234848, 0.01568833366036415, -0.07995018362998962, 0.1393730491399765, -0.0033557142596691847, 0.10427147895097733, 0.10928893089294434, -0.020090606063604355, 0.010552030988037586, 0.12033949792385101, 0.10100064426660538, 0.10267206281423569, -0.0007067634724080563, -0.023717718198895454, -0.09398242086172104, -0.05751078575849533, 0.06654226779937744, 0.05265098437666893, 0.09871190786361694, 0.10544403642416, 0.06699825823307037, 0.08155439794063568, 0.06615995615720749, 0.041967373341321945, 0.009004192426800728, -0.004932916257530451, 0.18298222124576569, 0.17922191321849823, 0.04438888281583786, 0.014221493154764175, 0.07825390249490738, 0.03672173619270325, 0.09986607730388641, -0.0790867730975151, -0.14695242047309875, 0.09456074237823486, 0.1348293572664261, 0.07198935747146606, 0.06494849175214767, -0.0606473833322525, 0.0369018018245697, -0.06370507180690765, -0.08922985941171646, -0.007459970191121101, -0.000986293307505548, -0.0907401293516159, 0.05557844787836075, 0.09376466274261475, -0.095281682908535, -0.13715893030166626, -0.11580013483762741, 0.08028588443994522, -0.02069319784641266, -0.06489839404821396, 0.1552933305501938, -0.08048775047063828, -0.050796229392290115], [-0.05314551293849945, 0.03665852174162865, -0.09694620966911316, 0.04616102576255798, 0.10271311551332474, 0.05866032466292381, -0.1143740564584732, 0.03375466540455818, -0.06286311149597168, -0.03689911216497421, 0.011873683892190456, -0.07399526238441467, -0.0007408673409372568, -0.031365636736154556, 0.05059874430298805, 0.08921264857053757, 0.10765170305967331, 0.015864655375480652, 0.01565226912498474, 0.02550872042775154, 0.02209852635860443, -0.08859966695308685, -0.09256748855113983, 0.03828944265842438, 0.09831836819648743, 0.038969580084085464, 0.05866388604044914, -0.051998600363731384, 0.09425195306539536, 0.022029371932148933, 0.0008684592903591692, -0.03551943227648735, 0.051828719675540924, -0.03432859480381012, 0.029964346438646317, -0.11140317469835281, 0.12693221867084503, -0.08325701951980591, -0.05117190629243851, -0.060413751751184464, -0.0345318503677845, -0.007573101203888655, 0.05844474211335182, 0.1130845919251442, -0.016598645597696304, 0.12298940867185593, -0.12528564035892487, -0.006335919722914696, -0.055519938468933105, 0.006367841269820929, -0.10006990283727646, 0.10275207459926605, 0.01911938562989235, 0.06412822753190994, -0.119561567902565, -0.09048165380954742, 0.03574882075190544, 0.0959506705403328, -0.12599478662014008, -0.11366836726665497, 0.06259142607450485, -0.10703569650650024, -0.060925889760255814, -0.07719656825065613], [0.07510249316692352, -0.08683890104293823, 0.10707395523786545, -0.1028032973408699, 0.021044086664915085, 0.0005963779985904694, 0.03010251186788082, -0.07961564511060715, 0.1556347757577896, 0.1392086148262024, 0.09112047404050827, 0.07819541543722153, 0.12255536019802094, -0.05190659686923027, -0.037406761199235916, 0.1405802071094513, -0.09631351381540298, 0.04523170366883278, 0.09339477121829987, 0.06450913101434708, -0.020208025351166725, -0.05429134890437126, 0.034954845905303955, -0.017269110307097435, -0.03213178366422653, 0.11594710499048233, 0.048412490636110306, 0.0487535186111927, 0.09914258122444153, 0.10581588000059128, -0.0027673521544784307, -0.07503166794776917, 0.09750278294086456, 0.011017576791346073, 0.041660379618406296, 0.03122643567621708, -0.03976117819547653, 0.011181686073541641, 0.04279559850692749, 0.048024073243141174, -0.07808050513267517, -0.04687162861227989, 0.039830178022384644, -0.0661681666970253, -0.07867094874382019, 0.13452468812465668, -0.005217388272285461, 0.07893594354391098, -0.1228857934474945, 0.08156616240739822, -0.09291942417621613, 0.0787123590707779, -0.12169833481311798, -0.08533868193626404, -0.02929546870291233, 0.08911173045635223, 0.010157659649848938, -0.11882629990577698, 0.0017112870700657368, -0.0606193020939827, 0.005417101550847292, -0.002754981629550457, 0.030802465975284576, 0.07845365256071091], [0.06310156732797623, 0.05160197243094444, -0.09417949616909027, -0.06908220797777176, 0.06585340946912766, -0.08844809979200363, 0.02928413450717926, 0.03360423445701599, -0.03795390576124191, -0.09062093496322632, 0.03214743733406067, -0.021360181272029877, 0.08518386632204056, 0.11160697042942047, 0.08151022344827652, -0.04073869809508324, 0.06408615410327911, 0.09614895284175873, -0.08326275646686554, 0.10489485412836075, 0.07920870184898376, 0.07322976738214493, 0.018502863124012947, 0.06068890541791916, -0.06452444940805435, -0.024047084152698517, -0.04132360965013504, -0.08788184076547623, -0.0007536864723078907, 0.10152990370988846, -0.09185769408941269, -0.05077057704329491, -0.03685469552874565, -0.030416617169976234, -0.048957459628582, 0.05928777530789375, 0.0513225756585598, 0.07841665297746658, -0.029233001172542572, -0.00636315206065774, -0.08617184311151505, -0.051128603518009186, -0.03532958775758743, 0.014353123493492603, -0.08936864137649536, 0.07111568003892899, -0.08974338322877884, -0.048543281853199005, 0.0339568629860878, 0.019027194008231163, 0.11692753434181213, -0.02277081273496151, 0.06726866960525513, 0.12186968326568604, 0.03942389041185379, -0.03499256819486618, 0.1049465760588646, -0.09756957739591599, -0.005235482472926378, -0.04308599233627319, -0.015231028199195862, 0.013672251254320145, -0.13277901709079742, 0.03583481162786484], [0.06613605469465256, -0.1126834973692894, -0.11281600594520569, 0.07494127750396729, 0.0447285920381546, 0.1119631826877594, 0.054437365382909775, -0.0608401782810688, 0.005132381804287434, 0.05377634987235069, 0.06145970895886421, 0.06083840876817703, 0.1178317666053772, -0.0242095198482275, 0.07947384566068649, 0.11709867417812347, 0.06293519586324692, 0.0662931352853775, 0.11074099689722061, -0.0192173533141613, 0.051840730011463165, -0.03579280152916908, 0.10892076045274734, -0.11792284995317459, 0.034238990396261215, 0.08726823329925537, 0.016782402992248535, 0.06333882361650467, 0.011294754222035408, 0.12474969029426575, -0.07290088385343552, 0.04068945348262787, 0.07799723744392395, 0.042349547147750854, -0.050175100564956665, -0.0474703311920166, 0.00605373689904809, 0.028511691838502884, -0.09551460295915604, -0.10302112251520157, -0.009697157889604568, -0.04796270281076431, 0.1110125333070755, -0.009978847578167915, -0.06251173466444016, -0.0036344360560178757, -0.10623341053724289, -0.07859756797552109, -0.024515941739082336, 0.09696377068758011, -0.10472395271062851, 0.049651045352220535, 0.06971275061368942, 0.053521618247032166, -0.05101785436272621, 0.04051421582698822, -0.08981091529130936, -0.03584592789411545, -0.05272988602519035, -0.10906520485877991, 0.0187204759567976, -0.049663376063108444, 0.02066819742321968, 0.07665074616670609], [0.05825750157237053, -0.02929837815463543, 0.0943474993109703, -0.004389997571706772, 0.11018426716327667, 0.0885276198387146, 0.04675730690360069, 0.16269943118095398, 0.06789477914571762, -0.13021846115589142, -0.09064340591430664, 0.004923474974930286, -0.14551246166229248, 0.058085329830646515, 0.0697680339217186, -0.11347763985395432, 0.015996599569916725, -0.031246190890669823, 0.12210772931575775, 0.03726866468787193, 0.1332441121339798, 0.015378100797533989, 0.11151987314224243, 0.10944360494613647, 0.002548696007579565, -0.1465921550989151, 0.052236948162317276, 0.006607940420508385, 0.11429460346698761, -0.07067322731018066, -0.05996660143136978, -0.04105639085173607, -0.0732804387807846, -0.13509845733642578, -0.06317666918039322, -0.09082742035388947, 0.021764956414699554, 0.04314834624528885, -0.018962563946843147, -0.017374077811837196, -0.08648103475570679, 0.01844225637614727, 0.02293749712407589, 0.07230452448129654, 0.07360053062438965, -0.13976140320301056, 0.13299083709716797, -0.010093719698488712, 0.14100411534309387, -0.04632371664047241, 0.1068640723824501, -0.07208922505378723, 0.0578746423125267, 0.10867857933044434, 0.1200975552201271, 0.09869632869958878, -0.10770977288484573, -0.0062769148498773575, 0.08401338011026382, -0.03066193498671055, 0.10681203007698059, 0.09437549114227295, 0.03865966200828552, 0.012814813293516636], [0.11412754654884338, 0.10052043199539185, 0.015511096455156803, 0.02315732277929783, 0.1270553022623062, -0.05409899353981018, -0.0886436179280281, 0.030107934027910233, -0.005977084394544363, -0.00455330079421401, -0.13821882009506226, 0.09649748355150223, 0.04734606668353081, -0.004422725178301334, 0.14628629386425018, -0.009721134789288044, -0.046822451055049896, 0.1444610208272934, 0.04014940932393074, -0.08900102972984314, -0.09461461007595062, -0.12767338752746582, -0.04038779065012932, -0.08797622472047806, -0.02821394056081772, -0.12101530283689499, 0.0380849614739418, -0.058698754757642746, -0.03932153806090355, -0.06915269047021866, 0.005548740737140179, 0.005374173633754253, -0.09708333015441895, -0.16931046545505524, 0.029980547726154327, 0.042419999837875366, 0.019892241805791855, -0.08907157182693481, -0.0049298908561468124, -0.11170975118875504, 0.14552944898605347, 0.13895243406295776, 0.015806375071406364, -0.1517956405878067, 0.009172103367745876, 0.021261904388666153, -0.0671054944396019, 0.023000625893473625, -0.037331510335206985, -0.057101618498563766, -0.15178145468235016, 0.06211356818675995, 0.09120911359786987, -0.07140930742025375, -0.016006696969270706, -0.08191641420125961, 0.07117824256420135, 0.15661610662937164, 0.10431002825498581, -0.01337932888418436, 0.15749697387218475, -0.13120615482330322, 0.12487776577472687, 0.0890350267291069], [-0.12408352643251419, 0.0005745252128690481, -0.11402957141399384, 0.05514230206608772, 0.0410335548222065, -0.026527516543865204, -0.0520237572491169, -0.12806469202041626, 0.06118835508823395, 0.02660534158349037, -0.0452861413359642, 0.08644131571054459, 0.042457617819309235, -0.09946714341640472, -0.061971042305231094, -0.05950140953063965, -0.100107841193676, -0.055974628776311874, -0.04167679324746132, -0.04163429141044617, -0.12948784232139587, -0.06607548147439957, 0.06197501718997955, -0.0848875418305397, -0.10359364002943039, -0.013133201748132706, -0.020462365821003914, 0.11639106273651123, -0.09245303273200989, -0.01726970449090004, 0.08328111469745636, -0.06963508576154709, 0.08818629384040833, 0.03590216860175133, 0.00703180767595768, -0.03208628296852112, -0.10177002102136612, -0.08351726830005646, -0.041465844959020615, 0.04419395327568054, 0.09961427748203278, -0.12605395913124084, -0.054509732872247696, 0.06447357684373856, -0.1142103299498558, 0.06613350659608841, 0.02994558960199356, 0.0411013662815094, -0.0238640233874321, -0.10790977627038956, -0.07109784334897995, -0.09374748170375824, 0.004481406882405281, 0.04359332472085953, 0.04076514020562172, 0.08826591074466705, 0.05424245819449425, 0.06636331975460052, 0.07807518541812897, -0.1228887289762497, -0.13447587192058563, 0.1200300008058548, -0.03458061069250107, 0.10196498036384583], [-0.05652923509478569, 0.02066812478005886, -0.12924911081790924, 0.010772149078547955, 0.052584875375032425, -0.10613725334405899, -0.08140753954648972, 0.0898064523935318, -0.11122437566518784, -0.017273111268877983, -0.03596619516611099, -0.04639110341668129, -0.019592611119151115, -0.04827260226011276, -0.09424512833356857, 0.024106048047542572, -0.13268372416496277, 0.11878054589033127, -0.03080475702881813, -0.061572831124067307, 0.07835811376571655, -0.04595562815666199, -0.053165215998888016, 0.047582197934389114, -0.11190997809171677, -0.021956149488687515, 0.08978770673274994, 0.08168228715658188, 0.0628889873623848, 0.1403927057981491, 0.11255290359258652, -0.06175168231129646, 0.08653218299150467, -0.060160331428050995, -0.058498088270425797, 0.10501991957426071, -0.024231670424342155, 0.04304077848792076, -0.09025803953409195, 0.07312735915184021, 0.08354287594556808, -0.046143438667058945, 0.06378825008869171, -0.11728940159082413, -0.11558806151151657, 0.05983123183250427, 0.06483583152294159, 0.07349570095539093, -0.020407529547810555, 0.0390787310898304, -0.055232249200344086, 0.14495597779750824, 0.11282196640968323, 0.0018451432697474957, -0.09916751831769943, -0.09104247391223907, 0.008900408633053303, 0.08781209588050842, -0.08464386314153671, 0.031186068430542946, 0.06393859535455704, 0.09192643314599991, -0.024215254932641983, 0.11022026836872101], [-0.018532531335949898, -0.038443583995103836, -0.036906007677316666, 0.07992508262395859, 