{"actor.0.weight": [[0.01647639274597168, -0.15126252174377441, 0.12235560268163681, -0.09747903048992157, -0.04114991053938866, 0.634380578994751, -0.11003284156322479, -0.03722914308309555, -0.008356377482414246, 0.3315942883491516, 0.14404195547103882, 0.15956071019172668, 0.004099817015230656, 0.19636110961437225, -0.02863113209605217, 0.01889079436659813, -0.07506340742111206, 0.0065820058807730675, 0.05354508012533188, -0.14058299362659454, 0.03432928025722504, -0.24033471941947937, -0.04590780660510063, -0.11940926313400269, -0.1524643450975418, 0.010637344792485237, 0.16314134001731873, -0.18146273493766785, -0.06960242986679077, -0.055975109338760376, -0.052542105317115784, -0.12327611446380615], [-0.03152642026543617, 0.25756195187568665, 0.12709195911884308, -0.027650529518723488, -0.4138787090778351, -0.3952484726905823, -0.04772106185555458, 0.003553224029019475, -0.12583106756210327, -0.27010592818260193, 0.07228983938694, 0.1018252968788147, -0.15033873915672302, 0.03080248460173607, -0.1785147339105606, 0.14817240834236145, -0.11258583515882492, 0.07728850096464157, 0.07109040021896362, 0.10043614357709885, -0.10262814164161682, 0.1050357073545456, -0.005122181493788958, 0.015442094765603542, 0.05808490142226219, 0.23783694207668304, -0.029019879177212715, -0.08467865735292435, 0.11641878634691238, 0.16125881671905518, 0.0730881541967392, -0.00047075049951672554], [0.03200695291161537, -0.1273133009672165, -0.16520532965660095, -0.14896021783351898, -0.1598162055015564, 0.56071537733078, 0.02075805701315403, 0.06620378792285919, 0.113444983959198, 0.15304407477378845, -0.08985546976327896, -0.04064720869064331, -0.0987490713596344, -0.009627465158700943, 0.17844416201114655, -0.1091649979352951, -0.05952282249927521, 0.016320116817951202, -0.04743415117263794, -0.0502595454454422, 0.08236623555421829, -0.22905202209949493, -0.1222398653626442, -0.05236315354704857, -0.08009345084428787, -0.11822463572025299, 0.21915172040462494, 0.018886329606175423, 0.20781150460243225, -0.07348349690437317, -0.04604529216885567, -0.17595045268535614], [0.28017160296440125, -0.2179068624973297, 0.08692286908626556, -0.12977543473243713, -0.5024735927581787, 0.5596200227737427, 0.06208550184965134, -0.07299446314573288, -0.07122602313756943, 0.23501881957054138, -0.05551052838563919, 0.06827098876237869, 0.12643249332904816, -0.028141288086771965, 0.050642482936382294, -0.03575859218835831, -0.1264202743768692, -0.05149193853139877, -0.09624186158180237, -0.1708904504776001, -0.025537103414535522, 0.09659863263368607, 0.06074253469705582, 0.047768883407115936, 0.24846886098384857, -0.09873951971530914, 0.15109701454639435, 0.09864068776369095, 0.01605730503797531, -0.26913395524024963, 0.149076446890831, -0.13868556916713715], [0.1395253688097, 0.23414729535579681, 0.12810280919075012, 0.10364891588687897, -0.28488898277282715, -0.5164220929145813, 0.06962402164936066, 0.1021270602941513, -0.17331817746162415, -0.30286410450935364, 0.1277269423007965, 0.07576952874660492, 0.10969675332307816, 0.047704316675662994, -0.07136697322130203, -0.1259925663471222, 0.16010300815105438, -0.0023635553661733866, -0.0021372130140662193, 0.13608193397521973, 0.011187016032636166, 0.017327748239040375, 0.016583872959017754, -0.047134846448898315, 0.05018193647265434, 0.15922187268733978, 0.07277078181505203, 0.13494786620140076, 0.16184374690055847, 0.15593306720256805, -0.10197246819734573, -0.05136225372552872], [0.008133519440889359, 0.19416236877441406, 0.09239593893289566, -0.14061152935028076, 0.08386804908514023, 0.4407353699207306, -0.08503995835781097, 0.03788113594055176, -0.12822753190994263, 0.36054569482803345, -0.0971728265285492, -0.14157314598560333, 0.14309628307819366, -0.035120293498039246, -0.02821839228272438, -0.1453389823436737, -0.11283562332391739, -0.12807157635688782, 0.12396860867738724, -0.2405947744846344, -0.09461069852113724, -0.18820500373840332, -0.09718287736177444, -0.21442387998104095, 0.009096907451748848, -0.045319393277168274, -0.13978518545627594, 0.036534979939460754, 0.0013495120219886303, -0.058958180248737335, 0.16951419413089752, -0.03444867208600044], [-0.03142243251204491, -0.10435374826192856, 0.05727455019950867, 0.09561491757631302, 0.15414242446422577, -0.515627384185791, -0.10647417604923248, 0.01338027510792017, -0.01950237900018692, -0.2057361900806427, -0.013363613747060299, 0.03291243687272072, 0.10288998484611511, -0.16560082137584686, 0.06517676264047623, -0.12256082147359848, 0.04682159796357155, 0.13618195056915283, -0.10940664261579514, 0.09354782104492188, -0.0213194340467453, -0.04097040370106697, -0.03946356475353241, 0.06321585178375244, -0.22479626536369324, 0.1719890981912613, 0.09487967193126678, -0.04688243567943573, -0.05162528157234192, 0.27430230379104614, -0.08307840675115585, 0.19013024866580963], [-0.1852123737335205, -0.2547512650489807, -0.1419772058725357, 0.030057204887270927, 0.19301044940948486, 0.3455175757408142, 0.13428014516830444, 0.0349927581846714, 0.07351292669773102, 0.30041930079460144, -0.08563172817230225, 0.12305188924074173, 0.10258610546588898, -0.11557069420814514, 0.13915136456489563, -0.20286279916763306, 0.06644440442323685, -0.1531941145658493, -0.12596610188484192, -0.11060680449008942, 0.10398664325475693, 0.05611675605177879, -0.02788892760872841, -0.1097417101264, -0.0825820043683052, -0.05822456628084183, -0.07250160723924637, 0.012582685798406601, 0.06959287077188492, -0.2084118276834488, 0.0017130911583080888, -0.03249877318739891], [0.06719402968883514, 0.024715952575206757, -0.039692360907793045, -0.20854316651821136, 0.5594933032989502, 0.17495493590831757, -0.013508422300219536, 0.03953317925333977, 0.3374478220939636, 0.3082880675792694, -0.19597086310386658, -0.02717340551316738, -0.042141806334257126, 0.22766031324863434, -0.21693606674671173, -0.024547237902879715, 0.08640984445810318, -0.13841179013252258, 0.0043530031107366085, 0.008368399925529957, 0.08304644376039505, -0.15225166082382202, -0.21490724384784698, -0.20316661894321442, 0.03259803354740143, 0.10200756788253784, -0.13704322278499603, 0.0373106449842453, 0.05419742316007614, -0.0913621038198471, -0.2208402454853058, 0.12866142392158508], [-0.04304830729961395, 0.21077430248260498, 0.15309497714042664, 0.12099584192037582, -0.5078880190849304, -0.45014792680740356, 0.04360653832554817, -0.1055576354265213, -0.2346705049276352, -0.03491455689072609, 0.03399098291993141, 0.10811948031187057, -0.008679261431097984, -0.15050403773784637, 0.13804297149181366, 0.12913839519023895, -0.0036500224377959967, 0.11803719401359558, -0.07042483240365982, -0.06850625574588776, 0.20572896301746368, -0.11387497186660767, 0.16620555520057678, -0.04913501441478729, 0.10630158334970474, 0.06911183148622513, 0.011957517825067043, -0.09727245569229126, 0.11813356727361679, 0.19079208374023438, -0.007421810179948807, 0.1765984147787094], [-0.1353340446949005, 0.10992421954870224, -0.02855931594967842, -0.06165657937526703, 0.5397003293037415, 0.10373065620660782, 0.0685921162366867, -0.013943428173661232, 0.09977316856384277, 0.14243608713150024, 0.13974572718143463, 0.003029532264918089, 0.06462636590003967, -0.051892541348934174, -0.14171569049358368, -0.020784256979823112, 0.058549851179122925, 0.0912080928683281, -0.147194042801857, 0.08806952834129333, -0.21291781961917877, 0.11096692085266113, -0.1397010087966919, -0.05295271798968315, -0.04546352103352547, -0.04936213046312332, 0.06971227377653122, -0.03983275592327118, -0.16820891201496124, 0.12424097210168839, -0.039975639432668686, -0.010468138381838799], [0.009215516038239002, 0.1295456886291504, 0.03470151871442795, 0.11703000962734222, 0.5437837839126587, -0.4778458774089813, 0.09315028041601181, 0.023714132606983185, 0.30912452936172485, -0.15128937363624573, -0.03759043663740158, -0.03188361972570419, 0.0925828218460083, -0.07701161503791809, -0.002820739056915045, -0.007040561642497778, -0.018365057185292244, 0.1118466779589653, -0.16580379009246826, 0.01908182166516781, -0.009149765595793724, -0.020551996305584908, -0.10030785948038101, -0.041913457214832306, -0.18810081481933594, 0.03727608919143677, -0.19112829864025116, 0.06718196719884872, -0.027023639529943466, 0.09314322471618652, 0.005132871679961681, 0.08917338401079178], [-0.12924128770828247, 0.001222670660354197, 0.06712253391742706, -0.1707042008638382, 0.4449981451034546, 0.4743078947067261, -0.1106295958161354, -0.05470852553844452, 0.19678525626659393, 0.09290634095668793, -0.05234018340706825, 0.13400253653526306, 0.15686196088790894, 0.0851396769285202, -0.06579414010047913, -0.0831003487110138, -0.09312544018030167, 0.005131570156663656, -0.010060584172606468, -0.07635536789894104, -0.07753660529851913, -0.19039486348628998, 0.0407639816403389, -0.13249656558036804, -0.12909464538097382, -0.15023864805698395, 0.11306998133659363, -0.024661947041749954, -0.05814483389258385, -0.06666018813848495, -0.18754003942012787, -0.19820941984653473], [0.08496946841478348, 0.0961303636431694, 0.03530607372522354, 0.1382414847612381, -0.6833702921867371, -0.07458334416151047, 0.007282522041350603, -0.09932336211204529, -0.14647383987903595, -0.0641028881072998, -0.024951105937361717, 0.11799443513154984, -0.10145922005176544, -0.20150919258594513, 0.2057081013917923, 0.09212235361337662, 0.1796296238899231, 0.06026015058159828, 0.0356006994843483, 0.07232927531003952, 0.02893247827887535, -0.050308726727962494, 0.13110752403736115, 0.0602976530790329, -0.012877036817371845, -0.045284803956747055, 0.043461497873067856, -0.10583532601594925, 0.18423043191432953, -0.15811686217784882, 0.04988248273730278, 0.1227274164557457], [-0.024597549811005592, 0.09618514031171799, 0.16083170473575592, -0.13035255670547485, -0.24724441766738892, 0.36004507541656494, -0.12217670679092407, 0.07530974596738815, -0.11511684209108353, -0.020572680979967117, 0.12389851361513138, 0.04200966656208038, -0.22328510880470276, -0.15233643352985382, 0.13748762011528015, -0.07951468229293823, -0.0743628591299057, 0.12999391555786133, 0.1752493530511856, -0.184125155210495, 0.19570590555667877, -0.07499964535236359, 0.046494826674461365, 0.04118260741233826, -0.03470148891210556, 0.006843111012130976, -0.022303083911538124, -0.12350775301456451, -0.02685205265879631, -0.06384821236133575, -0.11576192826032639, -0.16195301711559296], [0.12325167655944824, 0.11213614791631699, 0.15673914551734924, -0.1343715935945511, -0.5129266977310181, -0.09055636823177338, -0.09654351323843002, -0.04122188314795494, -0.042568646371364594, 0.09100665897130966, 0.11478867381811142, -0.1062430888414383, -0.1785605251789093, -0.11356578022241592, 0.16008473932743073, 0.006432014983147383, 0.02302844449877739, -0.1387631595134735, -0.13380499184131622, 0.026102988049387932, -0.027701381593942642, -0.11599091440439224, 0.11001671105623245, 0.14637641608715057, -0.08585460484027863, -0.013295716606080532, 0.05367385596036911, 0.13512670993804932, -0.04727405309677124, -0.10885121673345566, 0.06740081310272217, -0.1410900503396988], [0.021516796201467514, 0.20183208584785461, 0.026177261024713516, -0.0988195464015007, -0.5874431133270264, -0.08783304691314697, -0.17268666625022888, 0.09865929186344147, -0.11177252233028412, -0.2479589730501175, 0.07438550889492035, -0.0654858648777008, -0.10622111707925797, -0.05360523611307144, 0.1108684316277504, 0.01863328367471695, 0.15978984534740448, 0.041594699025154114, -0.16850195825099945, -0.08829335123300552, 0.1892465502023697, 0.2226279079914093, 0.06411108374595642, 0.0736294612288475, 0.2054770141839981, -0.07775377482175827, 0.025528866797685623, 0.06375752389431, 0.13382193446159363, 0.19576799869537354, 0.1367168128490448, 0.18273325264453888], [0.09468076378107071, -0.16826246678829193, -0.01064755953848362, 0.08626415580511093, 0.21430929005146027, 0.05320071801543236, -0.006837538443505764, -0.0685003474354744, 0.03693311661481857, 0.2026366889476776, -0.056026022881269455, -0.09791296720504761, 0.04105933755636215, -0.09060056507587433, -0.024550896137952805, 0.06251560151576996, -0.04649161174893379, -0.01879691891372204, 0.07570625096559525, -0.127035990357399, -0.05795702710747719, 0.12148523330688477, -0.1402251273393631, -0.1012536808848381, 0.0029730401001870632, -0.18605771660804749, 0.14420832693576813, -0.006155436858534813, -0.12482093274593353, -0.05741516128182411, -0.04803257808089256, 0.15019184350967407], [-0.14577338099479675, 0.03615996986627579, 0.1393658071756363, -0.0895935669541359, -0.022132737562060356, -0.4079480767250061, 0.11453310400247574, -0.08001458644866943, -0.13858847320079803, -0.22982479631900787, -0.06669797003269196, -0.1328144669532776, 0.08126126974821091, -0.13721470534801483, -0.09177718311548233, 0.1510305553674698, -0.05798124521970749, -0.005893674213439226, 0.042713992297649384, -0.12222088128328323, 0.01871808059513569, 0.034295812249183655, -0.004026429262012243, 0.08112538605928421, -0.1097995713353157, -0.009242811240255833, -0.12077373266220093, 0.05297842249274254, 0.10250856727361679, 0.007706943433731794, 0.06789252907037735, 0.18209819495677948], [0.14836618304252625, 0.2050148993730545, 0.010311832651495934, -0.06861389428377151, -0.5465899705886841, -0.18201246857643127, -0.1843751072883606, 0.08507580310106277, -0.21896526217460632, -0.0013084111269563437, 0.1269514411687851, 0.13944315910339355, -0.08055304735898972, -0.18560631573200226, 0.15956956148147583, 0.06585734337568283, 0.21016356348991394, 0.16580338776111603, 0.07422704994678497, -0.07713283598423004, -0.06013920530676842, -0.06467315554618835, 0.004019429441541433, 0.011988874524831772, 0.2831611633300781, 0.15017421543598175, -0.1340315192937851, 0.16995011270046234, 0.1362510323524475, -0.04273625463247299, 0.16994084417819977, -0.04255972430109978], [0.04766431823372841, 0.14784617722034454, 0.07209692895412445, -0.052845753729343414, -0.3045429289340973, 0.4319835305213928, 0.08186713606119156, 0.01591651141643524, -0.15246573090553284, 0.26979491114616394, 0.059826333075761795, -0.1569923609495163, -0.06408745050430298, -0.04609311372041702, -0.10876673460006714, -0.229664608836174, 0.12943539023399353, -0.0022381439339369535, 0.17546206712722778, -0.07292440533638, 0.08598007261753082, 0.013918298296630383, 0.17350435256958008, 0.08857446163892746, 0.17145492136478424, 0.038067229092121124, 0.0161356832832098, -0.16694262623786926, -0.08711250126361847, -0.18485161662101746, -0.05952126160264015, -0.25561171770095825], [-0.10314425826072693, -0.07994530349969864, 0.036191489547491074, -0.001684572664089501, 0.3681350648403168, 0.16031619906425476, 0.03293886408209801, 0.06022344529628754, 0.1710129827260971, 0.18344129621982574, -0.06072254106402397, 0.074111208319664, 0.11822201311588287, 0.10624869912862778, -0.18481191992759705, -0.1439790427684784, -0.16698871552944183, 0.1146545559167862, 0.08603353053331375, -0.003734488971531391, 0.047838643193244934, -0.1708524525165558, 0.06628885120153427, 0.06729339063167572, -0.1589992195367813, -0.21505072712898254, -0.07428668439388275, -0.13962844014167786, 0.07406817376613617, -0.2012489140033722, -0.007334640249609947, -0.046740829944610596], [-0.028277866542339325, 0.06455129384994507, -0.16637781262397766, 0.08196074515581131, 0.32727813720703125, -0.15606510639190674, -0.10384275019168854, -0.09774323552846909, 0.13841485977172852, -0.07889173924922943, -0.13212035596370697, 0.14030829071998596, 0.13369175791740417, 0.07585659623146057, 0.058032214641571045, -0.02151975966989994, 0.14527541399002075, 0.003854418406262994, 0.033221591264009476, 0.19571132957935333, 0.04519161209464073, 0.20539182424545288, 0.06116127222776413, -0.08355307579040527, -0.16081646084785461, 0.06555697321891785, 0.06722034513950348, 0.04244234040379524, -0.01223507896065712, 0.20217542350292206, 0.03286204859614372, 0.05485478416085243], [0.1650000661611557, -0.10335730016231537, 0.010387604124844074, -0.16406451165676117, -0.6128038167953491, 0.32084906101226807, -0.00622975779697299, 0.0694514662027359, -0.1683320701122284, 0.16393893957138062, -0.04310699179768562, 0.05685167387127876, 0.06451340764760971, -0.13058479130268097, -0.022412782534956932, -0.148093119263649, 0.05801096558570862, -0.12168849259614944, 0.11636602133512497, 0.10228587687015533, 0.19077642261981964, 0.09201902151107788, 0.028085730969905853, -0.11374087631702423, 0.01957670971751213, 0.10972025990486145, 0.13586097955703735, -0.027468465268611908, 0.2946440577507019, -0.008734130300581455, 0.02974630706012249, -0.04179185628890991], [-0.06232048571109772, 0.0894087553024292, -0.17936193943023682, -0.08530540019273758, 0.26767751574516296, 0.2946799397468567, 0.009631389752030373, 0.009326029568910599, -0.02356773614883423, 0.24568697810173035, -0.05047932639718056, -0.07336828112602234, 0.20468634366989136, -0.0031418465077877045, -0.15075017511844635, -0.08519855886697769, -0.1189991682767868, -0.09766818583011627, 0.13451997935771942, 0.09302156418561935, 0.019038638100028038, 0.06441954523324966, 0.013119603507220745, -0.14616236090660095, -0.16494321823120117, -0.19210678339004517, -0.10376434773206711, -0.05006406083703041, -0.0021869484335184097, 0.013150377199053764, -0.019451428204774857, 0.10924316197633743], [0.11391015350818634, -0.09351062029600143, -0.00254986179061234, -0.0808752179145813, -0.23026344180107117, -0.2789842486381531, -0.058677129447460175, 0.13450376689434052, -0.048105835914611816, -0.05270402505993843, -0.00916536245495081, 0.13360431790351868, 0.1161850094795227, -0.11126241832971573, 0.0019430180545896292, 0.08634297549724579, 0.003580471035093069, 0.061458688229322433, 0.07512044161558151, 0.17481940984725952, 0.1566862016916275, 0.09318824112415314, 0.14997296035289764, 0.04928644001483917, 0.08242300897836685, 0.18490740656852722, 0.021597763523459435, 0.04324109107255936, -0.0863412544131279, 0.17632494866847992, -0.06463024765253067, -0.11753252148628235], [0.0874057412147522, -0.213092640042305, -0.042762842029333115, -0.07498512417078018, -0.319268137216568, 0.6322846412658691, 0.14733412861824036, -0.03684733435511589, -0.04151470214128494, 0.31756916642189026, -0.04583735018968582, -0.11411972343921661, 0.07155275344848633, 0.08052227646112442, -0.11889755725860596, 0.1406954526901245, 0.14080677926540375, -0.11694951355457306, 0.009800447151064873, -0.09839002788066864, -0.09242940694093704, 0.021248718723654747, 0.1407899260520935, -0.10367944091558456, 0.1086706817150116, 0.009557684883475304, -0.06594204902648926, -0.1232413798570633, 0.04756690934300423, -0.2165793925523758, 0.0773092657327652, 0.07859842479228973], [0.09304433315992355, -0.12853878736495972, -0.021537257358431816, -0.10099533945322037, -0.014358483254909515, 0.30926716327667236, 0.012628871016204357, 0.03538146987557411, 0.04449267312884331, 0.10545660555362701, 0.1389027237892151, -0.03621375933289528, 0.16892169415950775, -0.07008060067892075, 0.09723014384508133, 0.09178543835878372, 0.1574530154466629, 0.01314419787377119, 0.08053922653198242, -0.04610509052872658, -0.07012920081615448, -0.17044217884540558, -0.06656868755817413, -0.008650915697216988, 0.030409254133701324, 0.12125533074140549, -0.07653066515922546, -0.021836021915078163, -0.044229745864868164, 0.027267716825008392, 0.0034349102061241865, -0.07200877368450165], [0.13512977957725525, -0.13547685742378235, -0.04365729168057442, -0.15609098970890045, -0.5241503119468689, 0.4340929687023163, -0.03316676616668701, 0.09323973208665848, -0.32110822200775146, 0.23937509953975677, 0.10502985119819641, -0.10369656980037689, -0.13456371426582336, -0.1041254848241806, 0.15523745119571686, 0.054893191903829575, 0.12083570659160614, 0.05267145857214928, -0.058756470680236816, 0.029702473431825638, 0.16544091701507568, 0.026665590703487396, 0.1580246090888977, 0.042391467839479446, 0.20142880082130432, -0.1422094702720642, 0.1777062714099884, -0.07583855092525482, 0.2760181725025177, 0.05664753168821335, -0.1391095668077469, -0.1617899090051651], [-0.23342762887477875, 0.09170938283205032, -0.05679820850491524, 0.09440682083368301, 0.27556782960891724, 0.12378128618001938, -0.12672607600688934, 0.06498892605304718, 0.1904536783695221, 0.01998462900519371, -0.059989508241415024, -0.0630764290690422, -0.09781050682067871, 0.16141802072525024, 0.060153719037771225, -0.06685348600149155, -0.09070537984371185, 0.026165837422013283, 0.02684202417731285, -0.07520737498998642, -0.12136165052652359, -0.07942826300859451, 0.10292958468198776, -0.1162896454334259, -0.09647396206855774, -0.18056397140026093, -0.0863536074757576, -0.1448889970779419, 0.07480832189321518, -0.23859147727489471, -0.182624951004982, 0.1264476478099823], [-0.1398857682943344, 0.06701594591140747, 0.07882078737020493, 0.004263870883733034, -0.4388215243816376, 0.13830110430717468, -0.04876213148236275, -0.08630790561437607, -0.21051111817359924, -0.05003693699836731, 0.15199190378189087, 0.08804197609424591, -0.013253657147288322, 0.1388622522354126, 0.23493430018424988, -0.06632829457521439, -0.046047937124967575, 0.11257045716047287, 0.1434875875711441, -0.14680717885494232, 0.11183400452136993, -0.04917565733194351, -0.09734666347503662, -0.054100293666124344, 0.020910734310746193, -0.0030191608238965273, 0.09996815770864487, -0.020767727866768837, 0.16466420888900757, -0.18638482689857483, 0.00958844181150198, -0.13437165319919586], [0.046078749001026154, 0.08604919165372849, 0.08772030472755432, -0.0467500314116478, -0.192961648106575, 0.123008593916893, -0.13210634887218475, 0.1840323656797409, -0.11822298914194107, 0.051853593438863754, 0.045807134360075, -0.07410699129104614, -0.0832848995923996, -0.10261054337024689, -0.0016679191030561924, -0.18127372860908508, 0.10652949661016464, 0.0714254081249237, 0.07337771356105804, 0.0013666447484865785, 0.11767731606960297, -0.14430567622184753, 0.14662981033325195, -0.050568729639053345, -0.011650634929537773, -0.06676921248435974, -0.10274751484394073, -0.1058402806520462, 0.20822344720363617, -0.18149438500404358, -0.004912529606372118, 0.10012586414813995], [-0.026329193264245987, 0.20647825300693512, 0.1602761298418045, -0.12189915031194687, -0.2788155972957611, -0.5697163343429565, -0.0545840859413147, -0.08579690754413605, -0.15534651279449463, -0.09953188896179199, -0.04953211918473244, 0.1638191044330597, -0.008151569403707981, -0.02482985146343708, -0.026309633627533913, 0.007996880449354649, -0.06733476370573044, -0.019309362396597862, -0.08911410719156265, 0.067251056432724, 0.07623499631881714, 0.0027701198123395443, -0.025708286091685295, 0.0804048553109169, -0.19811709225177765, 0.03175724297761917, 0.015484281815588474, -0.032979149371385574, 0.12152455002069473, 0.06720636785030365, 0.05625084042549133, 0.028881503269076347], [0.05093485862016678, 0.2528376877307892, 0.1131599172949791, 0.1459227055311203, -0.03654439374804497, -0.7091490030288696, 0.03738994523882866, 0.08968338370323181, -0.009150066412985325, -0.1527322679758072, -0.04995487257838249, 0.08359136432409286, -0.10168007016181946, -0.04383072257041931, 0.028971901163458824, 0.007037285715341568, -0.11448606848716736, -0.017457306385040283, -0.030316991731524467, 0.02927006408572197, -0.15113691985607147, -0.005670899525284767, 0.12861885130405426, 0.1622779369354248, -0.0007500776555389166, -0.07016260176897049, 0.002874598139896989, -0.0118399104103446, -0.16284292936325073, 0.1302385777235031, -0.14179450273513794, -0.05214884504675865], [0.1098315417766571, 0.047843195497989655, 0.11981242150068283, -0.011017970740795135, -0.27189645171165466, -0.1341547816991806, -0.05292315036058426, -0.0749325230717659, -0.2249092012643814, 0.050291769206523895, 0.028091633692383766, 0.16410104930400848, -0.04689675197005272, 0.09702267497777939, -0.0009588102693669498, 0.06992452591657639, -0.07229374349117279, 0.1427297443151474, 0.12109541893005371, 0.06781355291604996, 0.09795523434877396, -0.05117732658982277, 0.07985623925924301, -0.12725460529327393, 0.09753405302762985, -0.08717960119247437, 0.11013638228178024, -0.06711332499980927, -0.07204603403806686, -0.15179748833179474, -0.0010684278095141053, -0.08740784227848053], [-0.10726159065961838, -0.12049553543329239, -0.027892403304576874, 0.08920340985059738, -0.0868423581123352, 0.5746017098426819, -0.060098301619291306, -0.09060166776180267, 0.13822020590305328, 0.2494179606437683, -0.1306978017091751, 0.009013599716126919, -0.037959158420562744, 0.13117797672748566, 0.11627707630395889, -0.016249729320406914, -0.15176993608474731, 0.018563339486718178, 0.10907145589590073, 0.047211237251758575, -0.08122747391462326, 0.018296759575605392, 0.05431902036070824, -0.19049422442913055, 0.15773844718933105, -0.014785795472562313, 0.023365072906017303, -0.2432328164577484, 0.11438402533531189, -0.150887593626976, 0.08458978682756424, -0.22037501633167267], [0.0799197405576706, 0.062226805835962296, -0.0963997170329094, -0.12263374030590057, 0.35445383191108704, 0.2857876718044281, -0.021005092188715935, -0.05390283092856407, 0.10794965922832489, -0.04306203871965408, -0.10935916751623154, -0.11205750703811646, 0.13175539672374725, 0.1397174894809723, 0.07160501182079315, 0.06998773664236069, 0.05075909569859505, 0.08601249754428864, -0.13220573961734772, 0.15500880777835846, -0.23574456572532654, 0.01559346541762352, 0.013319266960024834, 0.0749615803360939, -0.16819676756858826, -0.1326071172952652, -0.13889656960964203, 0.015368985943496227, -0.024417899549007416, 0.13271886110305786, -0.09982842206954956, -0.0531223826110363], [-0.11712981015443802, 0.07241122424602509, -0.04223617911338806, 0.1551448106765747, -0.36209046840667725, -0.32881468534469604, 0.05644368380308151, -0.08896879106760025, -0.22009912133216858, -0.13458064198493958, 0.07594050467014313, 0.09298861026763916, -0.1502949744462967, -0.02257508598268032, 0.027343617752194405, 0.106498584151268, -0.15452711284160614, -0.1455209106206894, 0.18847627937793732, 0.21423885226249695, 0.15531335771083832, 0.06902451813220978, -0.10290808975696564, -0.09219341725111008, -0.09178313612937927, 0.020803771913051605, 0.08055291324853897, 0.19612708687782288, 0.14544914662837982, -0.0619022510945797, 0.10200001299381256, 0.15484194457530975], [0.11138128489255905, -0.04582853615283966, 0.127500519156456, 0.06266051530838013, -0.4399484097957611, 0.14873328804969788, 0.009488305076956749, -0.12106280773878098, -0.338079571723938, -0.15894195437431335, -0.13411183655261993, -0.08574534952640533, -0.09390826523303986, 0.060296930372714996, 0.10997544229030609, -0.14168815314769745, -0.04614945501089096, -0.13120001554489136, 0.14683805406093597, -0.07480701059103012, 0.16556820273399353, -0.10249130427837372, 0.013933873735368252, 0.14658063650131226, 0.13075309991836548, 0.16597270965576172, -0.031085461378097534, -0.06041567772626877, 0.0491231232881546, -0.18598437309265137, 0.04157530516386032, 0.08611258864402771], [-0.010405910201370716, 0.18410725891590118, 0.060718294233083725, 0.08313176035881042, -0.3352053761482239, -0.34910261631011963, 0.14246751368045807, -0.019325947389006615, -0.1041628047823906, 0.05350767821073532, -0.022751156240701675, -0.11136790364980698, 0.07396750897169113, 0.07228744029998779, 0.024634407833218575, 0.17382346093654633, -0.04214588180184364, 0.008012622594833374, 0.013303433544933796, 0.031927090138196945, -0.004757935646921396, -0.08602197468280792, -0.04736300930380821, 0.1005503386259079, -0.09112166613340378, 0.1884625256061554, -0.1091647818684578, 0.02572367526590824, 0.04710141569375992, -0.008231214247643948, 0.06666303426027298, -0.11494344472885132], [-0.1310674399137497, 0.04155180975794792, -0.04900961369276047, -0.11851199716329575, 0.32575106620788574, 0.24240334331989288, 0.009631741791963577, 0.12545998394489288, 0.2655157446861267, 0.21123859286308289, 0.11719951778650284, -0.14392408728599548, 0.03459363803267479, -0.040326979011297226, -0.043559376150369644, -0.050091471523046494, 0.13411845266819, -0.10618408024311066, -0.12705937027931213, 0.0616278275847435, -0.17449122667312622, 0.022431690245866776, -0.08323364704847336, -0.13648495078086853, -0.1422184705734253, -0.119320809841156, -0.10347458720207214, 0.09143907576799393, -0.23527221381664276, -0.16048572957515717, 0.04296722263097763, 0.11181747168302536], [0.056266702711582184, 0.04380679503083229, 0.07447271049022675, -0.1598275601863861, -0.04022075608372688, 0.5594942569732666, 0.1353500783443451, -0.07776885479688644, -0.07403871417045593, 0.26042717695236206, -0.1232030838727951, 0.14907698333263397, -0.09224903583526611, 0.1770632117986679, -0.06949863582849503, -0.1863311231136322, 0.10906360298395157, -0.0817730724811554, -0.004489962477236986, -0.17553986608982086, -0.01054841186851263, 0.07198004424571991, -0.05168719217181206, -0.10199339687824249, -0.04020187631249428, -0.14610080420970917, 0.05142593011260033, -0.0650765523314476, 0.035858407616615295, -0.153180792927742, -0.1064915880560875, -0.013708214275538921], [0.053896963596343994, 0.17106059193611145, -0.06184261292219162, -0.08501166105270386, -0.27377110719680786, 0.04357557371258736, 0.13094373047351837, 0.09656232595443726, -0.010008196346461773, 0.1045084148645401, 0.030278833582997322, -0.0876089408993721, 0.10989844053983688, -0.11042862385511398, 0.1337791234254837, 0.07579188048839569, 0.05535326898097992, -0.1840803325176239, 0.016018232330679893, 0.07038772106170654, 0.14896100759506226, 0.1328478455543518, 0.040908366441726685, 0.01127276849001646, 0.01496105082333088, 0.11297337710857391, -0.021575216203927994, -0.07292445749044418, 0.1546708196401596, -0.1230047419667244, -0.15905429422855377, 0.07396937161684036], [-0.043472278863191605, 0.07911527901887894, -0.09286656230688095, 0.07391183823347092, 0.21494817733764648, 0.40917453169822693, 0.19291041791439056, 0.04455111175775528, 0.1649455726146698, -0.07116621732711792, -0.09251097589731216, -0.012758099474012852, -0.13542428612709045, 0.10237088799476624, 0.07213037461042404, -0.07534454017877579, -0.1914873570203781, 0.02559971623122692, -0.1232752799987793, -0.111594058573246, -0.003919350448995829, -0.25517940521240234, -0.10831090807914734, 0.030665017664432526, 0.013967117294669151, -0.003592427121475339, -0.02874814160168171, 0.043068911880254745, 0.0433100126683712, -0.06753237545490265, 0.09684482961893082, -0.1578405350446701], [-0.13558293879032135, 0.03694627061486244, 0.09236882627010345, -0.024635519832372665, -0.08686802536249161, -0.5700964331626892, -0.004021859262138605, -0.10625964403152466, -0.07639861851930618, -0.13331753015518188, -0.16067786514759064, 0.005630795378237963, -0.1487182229757309, -0.09083345532417297, -0.08100791275501251, -0.0728323757648468, -0.021801242604851723, 0.19148264825344086, 0.034906402230262756, -0.0352669321000576, -0.05825228989124298, 0.19046466052532196, -0.03818559646606445, 0.005867932923138142, 0.07939648628234863, 0.06060127913951874, 0.06885368376970291, 0.19345298409461975, -0.04799625650048256, 0.10678278654813766, 0.02805989608168602, -0.06055659428238869], [-0.1563420444726944, 0.16993571817874908, -0.04573921486735344, 0.06534628570079803, 0.47503912448883057, -0.5775936841964722, 0.0036640276666730642, -0.05182219669222832, 0.07654251903295517, -0.25965118408203125, -0.047670233994722366, 0.1706482172012329, 0.11609669774770737, -0.12639427185058594, -0.14722096920013428, 0.045754220336675644, -0.19996176660060883, 0.010070946998894215, -0.06012547388672829, 0.07687737047672272, -0.002846200717613101, 0.1652514785528183, 0.11092422157526016, 0.0482248030602932, 0.05129922926425934, 0.08215732127428055, -0.047555696219205856, -0.07577305287122726, -0.13129524886608124, 0.14316745102405548, -0.0600472018122673, 0.05692141130566597], [-0.146973118185997, 0.1619240939617157, -0.09125427901744843, 0.10842069238424301, 0.511361837387085, -0.26979681849479675, -0.05664209648966789, 0.025874003767967224, 0.08252798020839691, -0.24872936308383942, -0.0052843838930130005, 0.09668372571468353, -0.07491599023342133, -0.02988838590681553, 0.08552322536706924, 0.027772974222898483, -0.12404230237007141, -0.04457090422511101, 0.009801210835576057, -0.12054164707660675, -0.03916674479842186, 0.06398425251245499, -0.010738205164670944, 0.17066504061222076, 0.042585600167512894, 0.1344301551580429, -0.08762696385383606, -0.005271931644529104, -0.01231986004859209, 0.18443286418914795, -0.07232488691806793, 0.0811622366309166], [0.039045363664627075, 0.05707460641860962, 0.07244255393743515, -0.11598162353038788, -0.6016790866851807, 0.21994073688983917, -0.13072903454303741, 0.12437903881072998, -0.28089022636413574, 0.04386840760707855, 0.14392466843128204, 0.1333143711090088, -0.011999049223959446, 0.14342837035655975, -0.014786968939006329, -0.07621458917856216, -0.14432331919670105, 0.10164989531040192, 0.12937957048416138, -0.08385346829891205, 0.013111285865306854, -0.0867742970585823, 0.020367588847875595, -0.11815444380044937, 0.2331010401248932, 0.13584479689598083, 0.03347174823284149, 0.057292286306619644, 0.20798423886299133, -0.11784666031599045, 0.10399457812309265, 0.09732244908809662], [-0.208592027425766, 0.10266618430614471, 0.02606043964624405, 0.08236262947320938, 0.2680935561656952, -0.2886616289615631, 0.08157722651958466, -0.11366373300552368, -0.027138900011777878, -0.05206392705440521, 0.06450632959604263, 0.1637255698442459, 0.041023220866918564, -0.10280360281467438, 0.03688804805278778, 0.075900137424469, 0.05253125727176666, 0.0018436572281643748, -0.15648074448108673, 0.15658830106258392, -0.2629716992378235, 0.23162688314914703, -0.2010343372821808, -0.08609244972467422, 0.005251365713775158, 0.05423087626695633, 0.04359036684036255, -0.02719900570809841, 0.015304924920201302, 0.22220955789089203, -0.029900602996349335, -0.07876712083816528], [0.02934660017490387, -0.18856298923492432, -0.13768504559993744, -0.025643285363912582, -0.10618046671152115, 0.37241634726524353, 0.1277855783700943, 0.1864071786403656, -0.03636182099580765, 0.3352731168270111, -0.09227431565523148, -0.07844766229391098, -0.031004205346107483, -0.11024633795022964, -0.07776259630918503, -0.05265750363469124, 0.17356348037719727, -0.02987239696085453, -0.10942746698856354, 0.013957272283732891, 0.227354496717453, -0.2565270960330963, 0.13787144422531128, -0.15142303705215454, 0.04509664326906204, -0.24538739025592804, -0.034574732184410095, 0.08278075605630875, 0.149729922413826, -0.10440941154956818, 0.10008781403303146, -0.15157680213451385], [-0.13173477351665497, 0.02667631022632122, 0.04945974797010422, -0.08254283666610718, -0.5133528113365173, 0.3743361234664917, 0.07445341348648071, -0.017100606113672256, -0.18504944443702698, 0.004272394347935915, 0.12864689528942108, -0.06194648891687393, 0.09954839944839478, 0.09560739248991013, 0.017426906153559685, 0.012407793663442135, 0.17790009081363678, 0.11723518371582031, -0.1582908183336258, 0.09993600100278854, -0.03917418047785759, -0.04861069843173027, 0.13450248539447784, -0.10864483565092087, 0.2686317563056946, 0.12016496807336807, 0.14208775758743286, -0.11022103577852249, 0.010242100805044174, -0.006762911565601826, 0.18471848964691162, 0.022266194224357605], [-0.1131860762834549, 0.051051657646894455, 0.015765180811285973, -0.047404952347278595, -0.42918774485588074, -0.23622290790081024, 0.09773635864257812, -0.03783632814884186, -0.28138890862464905, -0.1730831414461136, -0.1522645652294159, -0.146307110786438, -0.18259230256080627, -0.12887108325958252, 0.0653902068734169, 0.1764279156923294, 0.1153368130326271, -0.07709987461566925, 0.17752566933631897, 0.12357918173074722, -0.07378503680229187, 0.15367859601974487, 0.13891413807868958, -0.032287295907735825, 0.013896727003157139, -0.07145552337169647, 0.01688333787024021, 0.23837418854236603, 0.18536818027496338, 0.13453352451324463, 0.12939515709877014, -0.06130437180399895], [0.3271109461784363, 0.05177097022533417, -0.012821206822991371, -0.1879761964082718, -0.6525110602378845, 0.06989573687314987, -0.020908376201987267, -0.006832216400653124, -0.28008487820625305, 0.11928053945302963, -0.10044300556182861, -0.09687794744968414, -0.07072728872299194, -0.02105010114610195, 0.13023217022418976, -0.09915897250175476, 0.0857912227511406, -0.16257742047309875, 0.09311000257730484, 0.08394249528646469, -0.030963953584432602, 0.011056608520448208, -0.0241694338619709, 0.09343571215867996, 0.12333021312952042, -0.05215729400515556, 0.11286117136478424, 0.05923978611826897, 0.09924254566431046, 0.01641187071800232, 0.1421692669391632, -0.00766582228243351], [0.21034687757492065, 0.11054082959890366, -0.011549106799066067, 0.08720563352108002, -0.06870175898075104, -0.03805713355541229, -0.016887903213500977, -0.12442883849143982, -0.06388495862483978, 0.054174792021512985, 0.08113185316324234, 0.039346784353256226, 0.10880773514509201, -0.006701661739498377, -0.06399227678775787, -0.10828959941864014, 0.029911383986473083, 0.11761946976184845, 0.02397090010344982, 0.15145352482795715, -0.08871975541114807, -0.12214187532663345, 0.0723792016506195, 0.05981813371181488, 0.09661763161420822, 0.016050761565566063, -0.1421889215707779, 0.1380152404308319, 0.010337411426007748, -0.053534992039203644, 0.138032466173172, 0.03306953236460686], [0.0011859514052048326, -0.08277058601379395, 0.11867661774158478, -0.03424406796693802, -0.04664960503578186, -0.2808081805706024, -0.06646773219108582, 0.10684475302696228, 0.016333207488059998, -0.13396242260932922, -0.0071382648311555386, -0.05673207715153694, -0.17792651057243347, 0.0878412127494812, 0.14234384894371033, 0.0009457150008529425, -0.015433314256370068, -0.06724287569522858, -0.09547311812639236, -0.006755222100764513, -0.07976877689361572, 0.1518041044473648, -0.10701362043619156, 0.12815722823143005, -0.046726029366254807, 0.08586838096380234, -0.11272559314966202, 0.0666099414229393, -0.1772894710302353, 0.18826618790626526, -0.03994310274720192, -0.09835860133171082], [0.17291809618473053, 0.03712817281484604, -0.08890414983034134, -0.1237904354929924, -0.33171147108078003, 0.5213221311569214, -0.08919906616210938, -0.010850261896848679, -0.3007086217403412, 0.10316270589828491, 0.11253847181797028, -0.016340991482138634, 0.10331013053655624, 0.16110286116600037, 0.019897062331438065, -0.025939637795090675, 0.15511387586593628, -0.035283882170915604, 0.048517629504203796, 0.0064908042550086975, 0.18105146288871765, -0.042624399065971375, 0.03296864032745361, -0.0016012081177905202, 0.14795155823230743, 0.1118551641702652, 0.1068209633231163, -0.11795949190855026, 0.21345332264900208, -0.22122231125831604, 0.0471949502825737, 0.0646107941865921], [-0.007314363494515419, 0.05334727466106415, -0.03266946226358414, -0.11961296200752258, 0.4600049555301666, 0.4388783276081085, 0.14604681730270386, -0.14312191307544708, -0.06015174463391304, 0.24988780915737152, 0.1564125269651413, 0.07838492095470428, 0.02527926303446293, 0.15984487533569336, -0.043751321732997894, 0.004767061211168766, 0.010430465452373028, -0.09413456916809082, -0.01549545582383871, -0.08746957778930664, 0.08441152423620224, -0.11947284638881683, 0.12120187282562256, -0.13066601753234863, -0.022102385759353638, 0.09777040034532547, -0.11718624085187912, -0.036180075258016586, -0.05903702974319458, 0.020645886659622192, -0.05761602148413658, -0.024613916873931885], [0.03772353753447533, -0.10042111575603485, 0.10712269693613052, -0.04612040892243385, -0.674483060836792, -0.1539469063282013, -0.11169049888849258, -0.09273109585046768, -0.3646012246608734, 0.14606907963752747, 0.1407802402973175, 0.07980359345674515, -0.1597542017698288, 0.08840376138687134, -0.1692117601633072, -0.020261555910110474, 0.07633214443922043, -0.07658093422651291, 0.10266424715518951, 0.017425457015633583, 0.21811561286449432, -0.08974562585353851, 0.1432310789823532, -0.015463014133274555, 0.2811378240585327, 0.01846848614513874, 0.1419113278388977, -0.06580956280231476, 0.021928833797574043, 0.048662785440683365, 0.10215792804956436, 0.14311736822128296], [0.06576447188854218, -0.09008686244487762, -0.17339426279067993, 0.10887506604194641, 0.3212761878967285, 0.33950382471084595, -0.03074841946363449, 0.03436507657170296, 0.18202349543571472, 0.08385489881038666, -0.050842318683862686, -0.004129899200052023, -0.03144261986017227, 0.02726835384964943, -0.05149494856595993, -0.031161990016698837, -0.006363572087138891, 0.09989333152770996, 0.11350203305482864, -0.09758859127759933, 0.052576858550310135, -0.008735786192119122, -0.009886100888252258, -0.029724985361099243, -0.16837935149669647, -0.09507140517234802, -0.057797856628894806, -0.19504903256893158, 0.08409237116575241, -0.23788514733314514, -0.04000280052423477, 0.04854918643832207], [0.1196059063076973, -0.13016973435878754, 0.01859167590737343, 8.379007340408862e-06, -0.36056429147720337, -0.4989822804927826, 0.04060911759734154, -0.0972026064991951, -0.178267702460289, -0.35026052594184875, 0.06605447083711624, 0.17966125905513763, 0.10629067569971085, -0.17904995381832123, 0.13301900029182434, -0.05207470431923866, -0.14045004546642303, -0.09488870948553085, 0.14673550426959991, 0.05701730400323868, 0.12289423495531082, 0.20869947969913483, -0.0412449985742569, 0.16330967843532562, -0.004965607542544603, 0.24801835417747498, 0.023630352690815926, 0.23522526025772095, 0.1106378585100174, 0.04630862548947334, -0.15764208137989044, 0.23350407183170319], [-0.2209988236427307, -0.08592040836811066, -0.1877792328596115, -0.12220702320337296, 0.33840951323509216, 0.45338645577430725, 0.030981523916125298, -0.07492990791797638, 0.3941047787666321, 0.1758149117231369, 0.021272387355566025, -0.01776845194399357, 0.05067930370569229, 0.12435395270586014, -0.0956331193447113, -0.1654616743326187, 0.05285549536347389, 0.08351926505565643, -0.1389240324497223, 0.06531461328268051, -0.006431199610233307, -0.07752081751823425, 0.05137064307928085, 0.11580013483762741, -0.12171923369169235, -0.16715697944164276, -0.15068793296813965, 0.04481811076402664, -0.1059935986995697, -0.1608622670173645, 0.04349509999155998, 0.009943133220076561], [-0.2326597273349762, -0.22990773618221283, -0.2151322066783905, 0.03238111361861229, 0.4747382402420044, 0.27968546748161316, -0.1207309439778328, -0.09332864731550217, 0.13180726766586304, 0.18081285059452057, 0.08162533491849899, -0.08154395967721939, 0.21827159821987152, -0.03239186480641365, -0.06477843970060349, -0.05777158960700035, 0.149184450507164, -0.09438372403383255, -0.038051724433898926, 0.027096020057797432, -0.21371494233608246, 0.005638593807816505, -0.031374163925647736, 0.15159383416175842, -0.10092564672231674, -0.12222754210233688, -0.025993717834353447, -0.08253078162670135, -0.12722551822662354, -0.13910110294818878, 0.01707463711500168, -0.0012944540940225124], [-0.04566330462694168, 0.15796038508415222, 0.14269691705703735, -0.12980826199054718, -0.6979192495346069, -0.1521843820810318, -0.1823401153087616, -0.1265990436077118, -0.2651536166667938, 0.12315423786640167, 0.02552640810608864, 0.10249616950750351, 0.009237950667738914, 0.01475810632109642, 0.04618710279464722, -0.031104382127523422, 0.1697757989168167, -0.14537803828716278, 0.13779497146606445, 0.12944775819778442, 0.07944642007350922, 0.1124134361743927, 0.1517394632101059, -0.06036186218261719, 0.025343498215079308, -0.016227025538682938, -0.06734994798898697, -0.08962800353765488, 0.1639421582221985, 0.02238212712109089, 0.07707127928733826, 0.11539596319198608], [0.09155759960412979, 0.09245400130748749, -0.012620069086551666, 0.11683214455842972, -0.21738934516906738, 0.5317432284355164, -0.03206666558980942, -0.0788932740688324, -0.12438634783029556, 0.20430907607078552, 0.19666823744773865, -0.1621471494436264, -0.05003789812326431, 0.1755531132221222, 0.1674562394618988, -0.21380546689033508, 0.057012878358364105, -0.11655333638191223, 0.010943167842924595, 0.09734665602445602, 0.05875676870346069, 0.01837979070842266, 0.04464011639356613, -0.15515974164009094, 0.24549055099487305, -0.16391600668430328, 0.0565795972943306, -0.24860352277755737, 0.22158777713775635, -0.2159828245639801, -0.00014115763769950718, 0.009847947396337986]], "actor.0.bias": [-0.07371556013822556, -0.11882288008928299, 0.15490807592868805, -0.022117897868156433, 0.042924001812934875, 0.023774709552526474, 0.08481311053037643, -0.11872907727956772, 0.12452031672000885, -0.07785990834236145, 0.030663685873150826, 0.06749539077281952, 0.05019092187285423, 0.09905135631561279, 0.020930854603648186, 0.1468529999256134, 0.06709793210029602, 0.030579300597310066, 0.10586094856262207, 0.1070706844329834, 0.10143323242664337, -0.021794676780700684, 0.07414010912179947, -0.10275068134069443, 0.044104840606451035, 0.126286119222641, -0.056778572499752045, 0.0283349696546793, -0.03405486419796944, 0.07776151597499847, 0.054196812212467194, 0.1151915192604065, -0.048216693103313446, 0.004515169654041529, -0.03619992360472679, -0.08233192563056946, 0.007886902429163456, 0.13652658462524414, 0.05250635743141174, 0.042880792170763016, 0.011992286890745163, -0.07195932418107986, 0.055738415569067, -0.06824956834316254, -0.0020813243463635445, 0.09445161372423172, 0.10020260512828827, -0.010436074808239937, 0.09150641411542892, 0.03946788236498833, -0.07372231781482697, -0.0942615270614624, 0.09418454021215439, -0.015014716424047947, -0.05485466122627258, -0.08714450150728226, -0.08746307343244553, -0.02555418387055397, 0.11676882207393646, 0.10813421756029129, 0.05691547691822052, 0.135856494307518, 0.061766210943460464, 0.03324245288968086], "actor.2.weight": [[-0.06124674901366234, 0.0019336866680532694, -0.06340804696083069, -0.010397723875939846, 0.03436649963259697, -0.0252950731664896, 0.05318962782621384, 0.06893344223499298, 0.09971914440393448, -0.03709298372268677, 0.11776243150234222, 0.10596419125795364, 0.014473898336291313, 0.051602479070425034, 0.10674387961626053, 0.06521642953157425, 0.10000768303871155, -0.030374661087989807, -0.029068373143672943, -0.020595040172338486, -0.08855809271335602, 0.03633936122059822, -0.06991671025753021, 0.0899747833609581, 0.13404342532157898, 0.1022416427731514, -0.06302279978990555, 0.029909588396549225, -0.12625358998775482, 0.07651255279779434, 0.06563520431518555, -0.001663492526859045, -0.040277425199747086, -0.1675431877374649, 0.01115473359823227, 0.058600153774023056, 0.07845094054937363, -0.034004971385002136, -0.020214322954416275, -0.00016443959611933678, 0.009357355535030365, 0.11362094432115555, -0.09304799884557724, -0.04030900448560715, 0.0316605344414711, -0.013591832481324673, -0.03643997758626938, -0.08225621283054352, 0.058072175830602646, 0.032190531492233276, 0.08726884424686432, -0.02415825054049492, -0.07202407717704773, -0.06922886520624161, 0.06511037796735764, 0.024505730718374252, -0.015292942523956299, -0.03421532362699509, 0.016804099082946777, 0.06496443599462509, -0.024918533861637115, 0.07925612479448318, 0.07462190091609955, -0.04271969199180603], [-0.026964129880070686, -0.056391194462776184, -0.014645264483988285, -0.04731371998786926, -0.036676470190286636, 0.05202222988009453, 0.013851157389581203, -0.0914931446313858, -0.0951140820980072, -0.06555917114019394, -0.1297856867313385, -0.06444446742534637, 0.02854471653699875, 0.09180817753076553, -0.05676667392253876, 0.10495970398187637, 0.011912875808775425, -0.09793127328157425, 0.05040035396814346, -0.05477949231863022, -0.0053755054250359535, -0.08561098575592041, -0.06914116442203522, 0.10687493532896042, 0.005059937015175819, -0.02992573194205761, 0.041356947273015976, -0.04186604171991348, -0.07582595944404602, 0.08014792948961258, -0.09515764564275742, -0.08201243728399277, -0.03295537829399109, -0.0012884506722912192, 0.10380234569311142, 0.05151348561048508, -0.00833522342145443, -0.058654893189668655, 0.03097134456038475, 0.008911766111850739, 0.044048458337783813, -0.002273364458233118, -0.08455515652894974, 0.0772847831249237, -0.045649975538253784, 0.054985880851745605, -0.05699416622519493, -0.04995466768741608, 0.08528059720993042, 0.038855090737342834, -0.0447712205350399, 0.12361706793308258, 0.03111370839178562, 0.08198626339435577, 0.017100678756833076, 0.08788809180259705, -0.07415826618671417, -0.06463240087032318, 0.010315297171473503, 0.08690967410802841, -0.10851789265871048, -0.02700994722545147, 0.1570069044828415, 0.018893161788582802], [-0.14012406766414642, -0.11960160732269287, 0.02891746163368225, -0.14971478283405304, -0.02264564484357834, 0.06662286072969437, -0.03025333397090435, -0.05988876521587372, 0.05778612196445465, -0.01138093788176775, 0.016822736710309982, -0.010785043239593506, 0.07680147886276245, 0.011431185528635979, 0.017232704907655716, -0.14163073897361755, -0.024250075221061707, -0.04958124831318855, -0.06608797609806061, -0.12108398973941803, -0.09961840510368347, 0.05542222410440445, 0.06855589151382446, -0.013591163791716099, -0.0735405907034874, -0.03332096338272095, -0.04569944739341736, 0.03149503469467163, 0.044072359800338745, -0.13023163378238678, -0.10090845078229904, 0.06722784787416458, 0.06295009702444077, 0.08317901194095612, 0.05112279951572418, -0.08465535193681717, 0.05039828270673752, -0.07489517331123352, 0.05881424620747566, -0.08647408336400986, 0.08051878958940506, 0.08642825484275818, -0.08861250430345535, 0.09407240152359009, 0.08062844723463058, 0.1699906587600708, 0.0062208049930632114, -0.13869516551494598, 0.015077156014740467, -0.010838907212018967, -0.11011635512113571, -0.081229567527771, 0.034571826457977295, 0.03343746066093445, 0.006733068265020847, -0.10094854980707169, 0.08162105083465576, -0.1408454179763794, -0.002639462472870946, 0.061918675899505615, 0.1696525365114212, 0.1487821787595749, -0.1717764288187027, -0.11836756020784378], [0.0890345498919487, -0.016108090057969093, -0.02064470201730728, -0.10072460025548935, 0.09263024479150772, -0.11344150453805923, 0.0358087420463562, -0.05510827526450157, 0.00204645749181509, 0.05221209302544594, 0.007219924591481686, 0.08295436203479767, -0.023294616490602493, -0.1054602861404419, 0.10113801062107086, -0.0009343347628600895, -0.12821561098098755, -0.06802964210510254, 0.039775148034095764, 0.09581642597913742, -0.03463462367653847, -0.1189887747168541, 0.0032080269884318113, -0.0734255313873291, 0.024398859590291977, -0.03396770358085632, -0.07973796874284744, -0.1019790917634964, -0.06819524616003036, -0.03645800054073334, 0.038605984300374985, 0.07654086500406265, 0.12041245400905609, 0.0852564349770546, -0.09288368374109268, -0.1082393154501915, 0.05398651957511902, -0.11712520569562912, -0.04580143094062805, 0.05006866902112961, 0.07088696211576462, -0.056822847574949265, -0.05710916966199875, -0.06098056584596634, -0.01444342453032732, 0.10691482573747635, 0.1251601278781891, 0.02639569155871868, 0.044994890689849854, -0.05395083874464035, 0.08360608667135239, 0.10197585076093674, 0.07700581103563309, -0.1255100965499878, 0.03080574981868267, 0.08148837089538574, 0.033422574400901794, -0.12021581083536148, 0.046021509915590286, 0.08529462665319443, 0.06371496617794037, 0.003586801467463374, -0.005699211731553078, 0.01906530000269413], [0.039727527648210526, -0.04719299077987671, 0.02663828432559967, -0.08630620688199997, 0.07455090433359146, 0.07159534841775894, -0.0504576712846756, -0.05723176524043083, 0.07727576047182083, -0.012195268645882607, -0.009277773089706898, 0.03686879575252533, 0.08170643448829651, 0.07769761979579926, 0.10730120539665222, -0.0433499775826931, -0.07004719972610474, 0.031216450035572052, -0.057720452547073364, -0.010413901880383492, -0.004454330541193485, 0.07955238223075867, 0.027467921376228333, -0.0823102593421936, 0.05696990713477135, -0.011562406085431576, 0.04812518134713173, -0.12480006366968155, 0.08814068138599396, -0.017740698531270027, 0.07873769104480743, 0.06429712474346161, -0.10756146162748337, -0.04238590598106384, -0.07193119078874588, 0.005203369539231062, -0.0032185029704123735, -0.06872913241386414, 0.09397926926612854, -0.05613374337553978, 0.10517372190952301, 0.08269280940294266, 0.022268440574407578, 0.05332198366522789, -0.04505567252635956, -0.07155200839042664, -0.06430522352457047, 0.0387449786067009, 0.10235411673784256, 0.02963091805577278, 0.0683676227927208, 0.061498213559389114, -0.09843208640813828, -0.1139492616057396, -0.08285126090049744, 0.13150478899478912, 0.008821066468954086, -0.038046084344387054, 0.055031999945640564, -0.01064450666308403, -0.006835832726210356, -0.03121524304151535, -0.08058671653270721, -0.0680849552154541], [0.1428585648536682, -0.053802624344825745, 0.1484009176492691, 0.12123092263936996, -0.080373115837574, 0.028728321194648743, -0.0658675879240036, 0.10324618965387344, -0.019846027716994286, -0.02857569418847561, -0.038302093744277954, -0.008024840615689754, 0.1322784572839737, -0.0495404377579689, -0.08862379938364029, 0.03831467032432556, -0.12101514637470245, 0.042677994817495346, 0.09548018872737885, -0.1129705086350441, 0.017089124768972397, -0.08233894407749176, 0.0867244303226471, -0.11065938323736191, 0.08339805901050568, 0.04379769414663315, 0.08563878387212753, -0.05645729601383209, 0.10254000127315521, 0.13560612499713898, -0.12593074142932892, -0.031334131956100464, 0.06699077785015106, -0.12497173994779587, 0.025480052456259727, 0.08601328730583191, -0.06012377142906189, -0.0004498389607761055, -0.029319487512111664, -0.10052552074193954, 0.06089136749505997, 0.059034064412117004, -0.05152595415711403, 0.04461335763335228, -0.12756574153900146, 0.03428800776600838, 0.0647510215640068, -0.06809168308973312, 0.08450157195329666, -0.03268942981958389, -0.06565014272928238, -0.09512101113796234, 0.063133105635643, -0.11556632816791534, -0.07759036868810654, -0.07479708641767502, -0.05759633332490921, -0.0433528795838356, 0.05277944728732109, -0.061320919543504715, -0.05091732740402222, -0.04834150895476341, -0.03269270434975624, 0.0665644183754921], [-0.0811055451631546, 0.02496442012488842, 0.12000508606433868, 0.049034010618925095, 0.021511128172278404, 0.04997576028108597, -0.08656936138868332, 0.07735811918973923, -0.14296583831310272, 0.11425857245922089, -0.06342227011919022, -0.15515142679214478, -0.009844229556620121, 0.05973060056567192, 0.013439026661217213, -0.05444248393177986, 0.12707851827144623, 0.02817756123840809, -0.021565748378634453, 0.05602656304836273, -0.07845259457826614, 0.06272756308317184, 0.02275802567601204, -0.001055080909281969, 0.08038356155157089, 0.09368537366390228, 0.1297331303358078, 0.05055138096213341, 0.0742458924651146, -0.015564162284135818, 0.02567240409553051, -0.1048998087644577, -0.04859285056591034, 0.06859710812568665, 0.04910467937588692, -0.05163682997226715, 0.0739966481924057, -0.09753493219614029, 0.0844520553946495, 0.0746595710515976, -0.03971761092543602, 0.10511603951454163, -0.022535573691129684, -0.01624864712357521, 0.09232939779758453, -0.11247796565294266, -0.14067159593105316, -0.04972292482852936, 0.08541642129421234, -0.0504382848739624, 0.08103736490011215, 0.08529882878065109, 0.08635802567005157, 0.03123333863914013, -0.11270128935575485, 0.11911746114492416, -0.09885930269956589, 0.03752649202942848, 0.010216346941888332, 0.08314748853445053, -0.10950662940740585, 0.054659198969602585, 0.13002744317054749, 0.1585361361503601], [0.09112530946731567, -0.10938500612974167, -0.0047211311757564545, -0.03810007497668266, -0.006249293684959412, -0.013137932866811752, -0.0018129358068108559, 0.07509356737136841, 0.06894490122795105, 0.02722802944481373, 0.12768767774105072, -0.06488335877656937, 0.0502103716135025, -0.06811890006065369, -0.0691269263625145, -0.027769822627305984, -0.01554326992481947, 0.11892340332269669, 0.0872318297624588, -0.04557877033948898, 0.17267031967639923, -0.03606525808572769, 0.07849235087633133, 0.12398778647184372, -0.11748124659061432, 0.03298142924904823, -0.03776749595999718, 0.11709337681531906, -0.01605069637298584, 0.13813702762126923, 0.112538643181324, 0.06011737510561943, 0.026546062901616096, 0.015099585987627506, -0.01040786225348711, 0.05078674107789993, -0.07551024109125137, -0.03689929097890854, -0.041614484041929245, -0.06137562543153763, 0.08847688138484955, 0.06605444103479385, 0.0018200933700427413, -0.020073406398296356, 0.0816769227385521, -0.09646303951740265, -0.13812647759914398, 0.040208443999290466, -0.04815083369612694, 0.07468822598457336, -0.022626398131251335, 0.03527858108282089, 0.11667366325855255, -0.021059824153780937, 0.06110832840204239, 0.025160277262330055, -0.05490950495004654, -0.040252916514873505, 0.052216537296772, -0.08857962489128113, 0.14328110218048096, -0.023531757295131683, -0.08847978711128235, 0.11736694723367691], [0.06595068424940109, 0.09576666355133057, 0.13507266342639923, 0.09138407558202744, 0.026140889152884483, 0.13656435906887054, 0.03065512143075466, 0.15043571591377258, -0.03060804307460785, -0.034704577177762985, -0.06868486851453781, 0.04883316159248352, 0.10721459984779358, -0.03986583277583122, 0.1266729235649109, 0.0670420229434967, 0.12027472257614136, -0.09459032118320465, -0.05810588225722313, -0.011788335628807545, 0.052150025963783264, 0.07063519209623337, 0.015157697722315788, 0.09902026504278183, 0.08617117255926132, -0.08146723359823227, -0.09334089607000351, 0.07112714648246765, 0.12455902248620987, 0.021603815257549286, 0.14153578877449036, -0.11085862666368484, -0.11731924116611481, 0.04214983060956001, 0.011627317406237125, -0.0479947030544281, 0.059780221432447433, -0.02160014398396015, 0.10348769277334213, 0.04546284303069115, 0.10011056810617447, -0.034277744591236115, -0.09895611554384232, 0.05672336369752884, 0.03284753859043121, -0.14857032895088196, -0.01511291228234768, 0.14989864826202393, -0.051893047988414764, 0.04596313089132309, -0.02551296539604664, 0.013895643875002861, 0.052940912544727325, -0.10566574335098267, -0.010256168432533741, 0.08471331745386124, -0.04995070770382881, 0.0800875648856163, -0.09486344456672668, -0.14934875071048737, 0.02828763611614704, -0.09631168097257614, 0.08990106731653214, 0.07380486279726028], [0.07943487912416458, -0.0019216079963371158, -0.04538244754076004, -0.08244044333696365, 0.11290343105792999, -0.047202762216329575, -0.13742341101169586, 0.0048113735392689705, -0.1470317244529724, 0.13277319073677063, -0.15465570986270905, 0.0713067576289177, 0.08800958842039108, 0.016251180320978165, 0.09776820242404938, -0.03932378068566322, 0.08939401060342789, -0.05666983127593994, -0.033209022134542465, 0.006002193316817284, 0.011258355341851711, 0.07141683995723724, -0.0896272286772728, 0.033268820494413376, -0.12495427578687668, 0.028529847040772438, -0.11667528003454208, -0.0824728012084961, -0.020874500274658203, -0.10010726004838943, -0.015595314092934132, -0.09534639865159988, -0.026205021888017654, 0.0906829982995987, -0.05130602791905403, -0.07337257266044617, -0.08912773430347443, 0.12465906143188477, 0.07998239994049072, -0.09067190438508987, -0.04598452150821686, -0.10723134875297546, -0.05280138924717903, -0.11076486855745316, 0.10136764496564865, -0.049269381910562515, 0.04758039489388466, -0.0701136589050293, -0.08501038700342178, -0.07222700864076614, -0.09522498399019241, 0.05417897552251816, 0.04756120592355728, -0.11766727268695831, 0.0811677947640419, 0.0015699005452916026, 0.04369298368692398, 0.14562058448791504, -0.12471307069063187, 0.15983222424983978, 0.0017299752216786146, -0.021024776622653008, 0.07017745077610016, -0.1006699874997139], [-0.03679938614368439, 0.09035038203001022, 0.09138116240501404, -0.01559707336127758, 0.09531378000974655, 0.11608824878931046, -0.09534791111946106, -0.01411475706845522, 0.04869069904088974, 0.11345240473747253, -0.12888319790363312, -0.11705751717090607, 0.04459986090660095, 0.1457655280828476, 0.0341339036822319, 0.11040426045656204, 0.12580041587352753, 0.10628329962491989, 0.019056212157011032, 0.10931561887264252, -0.01906496472656727, -0.14747314155101776, -0.09012056142091751, 0.13636597990989685, -0.05628393962979317, 0.052205465734004974, -0.005769885145127773, -0.03303886204957962, 0.03351601958274841, -0.033608585596084595, -0.05069740489125252, 0.11489304155111313, -0.058909110724925995, 0.044957004487514496, 0.001955516403540969, -0.12252682447433472, 0.039627887308597565, -0.004904312547296286, -0.01335829310119152, -0.02036800980567932, -0.017397485673427582, 0.019224394112825394, 0.049824051558971405, 0.028030414134263992, 0.020548658445477486, -0.030473217368125916, 0.048008013516664505, 0.07585520297288895, 0.06040560454130173, -0.02767612785100937, -0.04358077049255371, 0.0679103210568428, -0.002453798661008477, -0.08987056463956833, -0.021754596382379532, -0.08953631669282913, -0.013017090037465096, 0.023894619196653366, 0.04865344613790512, 0.12999854981899261, -0.16831879317760468, -0.1742301881313324, 0.0515359602868557, 0.06793563067913055], [0.08644802123308182, 0.08744776248931885, 0.11035801470279694, 0.08702624589204788, 0.0003701492678374052, 0.06927153468132019, -0.07318586111068726, -0.05508806183934212, -0.0888451337814331, -0.03311610966920853, -0.1866597831249237, -0.07851536571979523, -0.024340471252799034, 0.06696467846632004, 0.12729229032993317, -0.05629541724920273, -0.00789245218038559, 0.05189846456050873, -0.03401975333690643, 0.07372595369815826, 0.04525238275527954, -0.12772826850414276, 0.012146628461778164, 0.003939435351639986, 0.08945134282112122, 0.09066367149353027, 0.09228836745023727, -0.080999955534935, -0.0075281839817762375, -0.11824064701795578, 0.10362859815359116, 0.02772454544901848, 0.016199206933379173, -0.01350689958781004, -0.07391642034053802, -0.06998123228549957, -0.03221864625811577, -0.00369207258336246, 0.16489437222480774, 0.10994262248277664, -0.03142018988728523, -0.031435683369636536, 0.10459800809621811, -0.02513786219060421, -0.008815966546535492, -0.15174219012260437, 0.009642240591347218, 0.14200718700885773, -0.013802950270473957, 0.08406472951173782, -0.02146548591554165, 0.13105101883411407, 0.13794688880443573, -0.08174387365579605, -0.0011860171798616648, -0.07231773436069489, -0.024844398722052574, 0.10573858767747879, -0.005114295985549688, -0.09333094954490662, -0.023423267528414726, -0.06552939862012863, 0.05289469286799431, 0.03474107384681702], [0.09187668561935425, 0.007116568274796009, -0.11332229524850845, -0.13350185751914978, 0.05895045027136803, 0.08178871124982834, 0.06220884993672371, 0.09854884445667267, -0.02449953928589821, -0.1015067920088768, 0.04498208314180374, 0.11431252211332321, 0.0953674465417862, -0.08330049365758896, 0.027676422148942947, -0.043904535472393036, -0.16736066341400146, -0.13806352019309998, 0.10268808901309967, -0.015511377714574337, 0.08626425266265869, 0.06660738587379456, 0.11512284725904465, 0.01867818832397461, 0.11983589828014374, 0.07167435437440872, -0.08717378228902817, -0.01718774251639843, -0.16018405556678772, -0.05188849940896034, -0.0829443410038948, -0.01289774663746357, -0.03818640857934952, -0.05180567875504494, -0.09405258297920227, -0.07411709427833557, -0.03305790573358536, -0.10797444730997086, -0.10085365176200867, 0.09784896671772003, -0.1384868174791336, -0.022150343284010887, -0.11657284945249557, -0.05860341712832451, -0.13958267867565155, 0.038642339408397675, 0.01414441131055355, -0.1489420384168625, 0.13614025712013245, 0.0271538645029068, -0.021821768954396248, -0.13450072705745697, -0.10361817479133606, -0.05527220293879509, -0.0450642853975296, 0.04067836329340935, 0.148469015955925, 0.03043559566140175, 0.039192985743284225, 0.09464576095342636, 0.055300869047641754, 0.052186302840709686, -0.12097179144620895, 0.046883344650268555], [-0.006464665289968252, 0.07013893127441406, -0.02986089140176773, 0.020110629498958588, 0.07829318195581436, -0.08263513445854187, 0.06519071012735367, 0.040933310985565186, -0.17894595861434937, 0.0002551357611082494, 0.028585610911250114, -0.05198332294821739, -0.01333339512348175, 0.10644504427909851, 0.057459112256765366, 0.043060027062892914, 0.12074141949415207, -0.10057570040225983, -0.0016528338892385364, 0.0761902704834938, 0.07035849988460541, -0.09858685731887817, 0.06576376408338547, 0.10320153832435608, -0.004789784550666809, 0.10843077301979065, 0.08270837366580963, -0.06405994296073914, 0.0372687391936779, 0.07204902172088623, -0.07344193756580353, 0.0421929657459259, -0.04942646995186806, 0.0071855043061077595, 0.04351487383246422, -0.0006120853358879685, 0.030956201255321503, 0.06409697979688644, -0.03528811037540436, -0.08048353344202042, 0.06427568197250366, -0.09499529004096985, -0.07870546728372574, -0.04442772641777992, 0.15016521513462067, 0.08487995713949203, 0.029250187799334526, 0.08069290220737457, 0.011327541433274746, 0.07555496692657471, -0.02417116053402424, 0.025068772956728935, 0.01316092163324356, 0.08257076144218445, -0.13010437786579132, 0.039208851754665375, -0.07172106206417084, -0.002036026678979397, -0.09106040000915527, 0.02440919727087021, -0.03888392820954323, -0.17350934445858002, 0.09314443916082382, 0.019273828715085983], [0.060220833867788315, 0.058257605880498886, 0.13012833893299103, -0.011944753117859364, 0.0021732610184699297, -0.032389622181653976, -0.049195293337106705, 0.015274069271981716, 0.05889570340514183, -0.16389776766300201, -0.0164243932813406, -0.06648712605237961, 0.1060556024312973, -0.13298310339450836, -0.08821812272071838, -0.14987751841545105, 0.008430753834545612, -0.00041155319195240736, 0.05249912291765213, -0.14736738801002502, 0.0771879032254219, 0.002701327670365572, 0.018669765442609787, -0.1282772570848465, 0.12968556582927704, -0.09848082810640335, -0.1053258404135704, 0.069963239133358, -0.06832582503557205, 0.10676981508731842, -0.06474032998085022, -0.15690641105175018, 0.014853846281766891, -0.09277676790952682, -0.11809936165809631, 0.03185538947582245, 0.09751200675964355, 0.04434249550104141, -0.03527592122554779, 0.04414445906877518, -0.05394057184457779, 0.1457059532403946, 0.09206222742795944, -0.00919189304113388, -0.10195685178041458, 0.0644545927643776, -0.005443534813821316, -0.08514441549777985, -0.11330293118953705, 0.12889313697814941, -0.08557673543691635, -0.05765165388584137, 0.0008174641407094896, -0.08317305892705917, -0.009773512370884418, -0.0511254146695137, -0.014578485861420631, 0.028184743598103523, 0.005247496068477631, 0.017702879384160042, -0.05067576467990875, 0.05767467990517616, -0.19722996652126312, -0.14960476756095886], [0.027191175147891045, 0.10605517029762268, -0.07487384229898453, -0.05753932520747185, 0.17005488276481628, -0.0616372674703598, 0.009508552961051464, -0.002010038821026683, -0.04011247679591179, -0.016392948105931282, -0.03823954984545708, -0.0685858502984047, -0.040316030383110046, -0.04812223091721535, 0.025161845609545708, -0.05240607634186745, 0.054941728711128235, 0.09121037274599075, -0.06847870349884033, 0.0670076534152031, -0.023058556020259857, -0.023344459012150764, -0.05522703379392624, -0.01716754399240017, 0.025130508467555046, -0.051410868763923645, -0.07147014141082764, 0.09599370509386063, -0.05280674993991852, -0.03156738728284836, -0.10314576327800751, -0.030683014541864395, 0.07723933458328247, 0.06218326836824417, 0.041294582188129425, -0.10748312622308731, -0.0446227602660656, -0.02300436794757843, -0.1529509723186493, -0.07377614080905914, -0.043599922209978104, -0.07760883122682571, 0.06297703087329865, 0.08466348052024841, -0.027239546179771423, 0.09890670329332352, 0.09351447969675064, 0.11655815690755844, 0.08874548971652985, -0.0395129919052124, -0.08140551298856735, -0.00455500790849328, 0.009428968653082848, 0.05496063828468323, -0.027134457603096962, 0.02299690805375576, -0.05055636912584305, -0.08052171766757965, 0.0059896428138017654, 0.13426396250724792, -0.06073940172791481, -0.19041496515274048, 0.0904657170176506, -0.10179980844259262], [0.014042451977729797, 0.08237332850694656, -0.16278426349163055, -0.04365004971623421, 0.011700555682182312, 0.009593850933015347, 0.09627065062522888, -0.09384579211473465, -0.02315988577902317, -0.08148770779371262, -0.07390886545181274, -0.02339702844619751, 0.005785869434475899, 0.010171789675951004, -0.11850111186504364, 0.05544893071055412, -0.055978406220674515, -0.04064100980758667, 0.01504408847540617, 0.09157967567443848, -0.16892872750759125, -0.04064492881298065, 0.03219637647271156, -0.09019839018583298, -0.02365788444876671, -0.06440633535385132, 0.018703198060393333, 0.005538493394851685, -0.11805582791566849, 0.010155919939279556, -0.039271969348192215, -0.09458493441343307, 0.0714050754904747, -0.037483036518096924, 0.06202099472284317, -0.19391699135303497, 0.007035302929580212, -0.04059188812971115, -0.052143730223178864, 0.0877319797873497, -0.09416397660970688, -0.03375476971268654, 0.09561663120985031, 0.025899704545736313, -0.055080365389585495, -0.011081214062869549, 0.06080395728349686, -0.10794638097286224, 0.012784341350197792, -0.07862189412117004, -0.1359056532382965, -0.039197273552417755, -0.10853034257888794, 0.020567191764712334, 0.007873882539570332, 0.02247631549835205, -0.029794996604323387, -0.11042707413434982, 0.10497884452342987, 0.0852697566151619, -0.09744677692651749, 0.005113818682730198, -0.10889624059200287, -0.10826022922992706], [-0.10472827404737473, 0.05444205552339554, 0.09613683819770813, -0.00718111963942647, 0.03700514882802963, -0.12299498915672302, -0.047444652765989304, 0.0018715397454798222, 0.008996464312076569, -0.1364019215106964, 0.014838476665318012, 0.11274579912424088, -0.05715635046362877, -0.0785558670759201, -0.03746318072080612, -0.16257278621196747, -0.158985435962677, 0.02961190976202488, -0.03782966732978821, 0.02716771699488163, -0.08275315165519714, 0.06520047783851624, 0.07053681463003159, -0.11894961446523666, -0.006278557237237692, 0.026544436812400818, 0.07534516602754593, -0.049002885818481445, -0.06600169092416763, -0.09162246435880661, 0.019185159355401993, -0.05420190095901489, -0.04125787317752838, -0.05497581884264946, 0.042417071759700775, -0.09238690882921219, 0.14295434951782227, -0.001629778416827321, -0.023107947781682014, 0.008304867893457413, 0.13300184905529022, 0.018686095252633095, 0.06588666141033173, -0.030392471700906754, -0.04225034639239311, 0.14062392711639404, -0.040535662323236465, -0.11014136672019958, 0.1326545625925064, 0.10495280474424362, -0.007601581513881683, 0.06330303102731705, -0.14327682554721832, -0.04913357272744179, 0.052001554518938065, -0.09286627173423767, 0.0859006941318512, -0.1002964973449707, 0.028567278757691383, 0.07181192189455032, 0.08472812175750732, 0.034054115414619446, -0.09577681124210358, -0.03231140971183777], [0.012590108439326286, 0.04331774264574051, -0.04022704437375069, 0.019661853089928627, -0.10339586436748505, 0.10918721556663513, -0.059509847313165665, 0.1357707977294922, 0.07059481739997864, -0.044612519443035126, -0.02088889479637146, 0.06971167773008347, 0.15003281831741333, 0.016904739663004875, 0.08750007301568985, 0.0036053324583917856, -0.06815799325704575, -0.06328154355287552, -0.1274091750383377, -0.016556954011321068, 0.14310112595558167, 0.07496435195207596, -0.06386575102806091, -0.07821277529001236, 0.1017303317785263, -0.13737556338310242, -0.07339723408222198, -0.027851032093167305, -0.011267699301242828, -0.0008880108944140375, -0.052973952144384384, 0.0494803786277771, 0.04590752720832825, -0.10943237692117691, -0.07333538681268692, 0.09662271291017532, 0.06547873467206955, 0.0063387323170900345, -0.06872964650392532, -0.033736974000930786, 0.14405913650989532, -0.0113455755636096, -0.015994399785995483, 0.02053249068558216, 0.046191923320293427, -0.046478237956762314, 0.03505490720272064, 0.05564887076616287, -0.03656987473368645, 0.06125515699386597, 0.057368431240320206, -0.1499497890472412, 0.13465872406959534, -0.11070653796195984, -0.09614083170890808, -0.022153206169605255, -0.07263706624507904, -0.09538577497005463, 0.13413771986961365, -0.11701402068138123, -0.019541611894965172, -0.02279316820204258, 0.06953252106904984, -0.020233159884810448], [0.1627691388130188, -0.015556620433926582, 0.06396281719207764, -0.0627402663230896, -0.1644102931022644, -0.003368848469108343, 0.07251788675785065, -0.10754423588514328, -0.017399156466126442, -0.16795311868190765, 0.1237768903374672, -0.07564746588468552, 0.03331870213150978, 0.06230863556265831, -0.044850025326013565, -0.023673586547374725, 0.0869867205619812, 0.10803143680095673, 0.08258058875799179, -0.058083076030015945, 0.045648202300071716, 0.008091054856777191, 0.049840349704027176, -0.031228380277752876, -0.0265232864767313, 0.059832461178302765, -0.05208410322666168, -0.06374629586935043, 0.041455235332250595, -0.06387130916118622, -0.05955127999186516, 0.002357230056077242, 0.0216501634567976, 0.04006517305970192, 0.08900397270917892, 0.11102710664272308, 0.0039878422394394875, -0.12292682379484177, 0.07132343202829361, -0.10645671933889389, 0.010737095028162003, 0.13326740264892578, 0.051499057561159134, 0.12372611463069916, -0.011287087574601173, -0.05898742750287056, 0.0020313775166869164, -0.0548580139875412, -0.04737737029790878, 0.06891840696334839, 0.01714598760008812, -0.017507756128907204, -0.014970452524721622, 0.05050425976514816, 0.028795333579182625, 0.05978868529200554, 0.04643183946609497, -0.12600746750831604, 0.13532030582427979, -0.1590242236852646, -0.05466031655669212, 0.10634994506835938, 0.005410798359662294, 0.15946903824806213], [-0.018959220498800278, -0.057313911616802216, 0.12017463892698288, -0.05100124329328537, 0.00963485799729824, -0.002010660944506526, -0.023981492966413498, -0.01944294013082981, 0.12113815546035767, -0.06360875815153122, 0.02981632389128208, 0.1260264664888382, -0.03551284596323967, -0.1197633296251297, 0.025434454903006554, 0.013813218101859093, -0.07425186038017273, -0.0629132017493248, -0.1201503574848175, -0.1345345377922058, 0.08861011266708374, -0.015015087090432644, 0.01914719119668007, -0.08745314925909042, -0.01875375024974346, -0.036421846598386765, -0.06614752858877182, 0.08569672703742981, 0.06185665354132652, 0.10475187003612518, -0.08725477755069733, -0.03885158523917198, 0.011003399267792702, -0.03223292529582977, 0.015359091572463512, -0.1399904191493988, -0.020227685570716858, -0.13839642703533173, 0.02183009311556816, 0.003851786255836487, -0.052174367010593414, -0.0041191172786056995, 0.01979815401136875, 0.09768613427877426, 0.0028017328586429358, 0.009478536434471607, 0.1121879443526268, -0.112648606300354, -0.03983179107308388, -0.03663374483585358, -0.03895265981554985, 0.06398791074752808, -0.09603570401668549, 0.015230141580104828, 0.026516836136579514, 0.09072678536176682, -0.07063449919223785, -0.09729591012001038, 0.055671390146017075, -0.13146550953388214, 0.114860400557518, -0.08640306442975998, -0.11249887198209763, -0.134712353348732], [0.11787694692611694, 0.016495632007718086, -0.05964205041527748, 0.11615856736898422, -0.059528131037950516, -0.07554827630519867, -0.005832515191286802, 0.1144668236374855, -0.1793079525232315, -0.06300055235624313, -0.10197293758392334, -0.0022726228926330805, -0.05807069316506386, 0.10847354680299759, 0.11675134301185608, -0.04148300364613533, -0.04486704245209694, 0.05408061668276787, 0.036742616444826126, 0.020525380969047546, 0.13320857286453247, -0.03650388866662979, 0.049015384167432785, 0.13624367117881775, -0.09518343210220337, -0.023908991366624832, -0.006311237346380949, 0.018580589443445206, 0.053645409643650055, 0.03986920416355133, 0.03313283994793892, 0.037861913442611694, 0.027363399043679237, -0.12505841255187988, 0.04527902975678444, 0.10936812311410904, -0.07218720763921738, 0.12819315493106842, -0.03364068269729614, 0.09447555243968964, 0.004606901668012142, 0.10364498943090439, 0.12038933485746384, 0.0938221663236618, 0.07802926003932953, -0.06465466320514679, -0.01254512369632721, -0.03557676449418068, -0.04337124153971672, 0.01293229404836893, 0.1425834596157074, 0.05092361196875572, 0.018787626177072525, -0.07965882122516632, -0.04717127978801727, 0.0815553292632103, -0.08665665984153748, -0.02126798778772354, -0.12059289216995239, -0.08791954070329666, 0.016664784401655197, -0.08916054666042328, 0.13889548182487488, -0.018630648031830788], [-0.10708942264318466, 0.12944774329662323, -0.11946599185466766, -0.14185169339179993, 0.09087325632572174, -0.15007446706295013, 0.02925647422671318, -0.06614884734153748, 0.008491234853863716, 0.03057217039167881, 0.011943613179028034, 0.14127878844738007, 0.003375121159479022, 0.018829811364412308, -0.02029680646955967, -0.05037975311279297, 0.011166799813508987, -0.03704493120312691, 0.11475447565317154, -0.025395162403583527, -0.026979582384228706, -0.08096212893724442, 0.07206267863512039, -0.021262334659695625, -0.015855547040700912, 0.03481224551796913, -0.09978032112121582, 0.015003439970314503, -0.05661860853433609, -0.10479676723480225, -0.020907193422317505, -0.07238198816776276, 0.0862981528043747, 0.06642874330282211, -0.04122484475374222, -0.14412133395671844, -0.01664414070546627, 0.04618075117468834, -0.0008161362493410707, 0.02643352746963501, 0.06475629657506943, -0.07004544883966446, 0.05291096493601799, 0.09307339787483215, 0.06207694485783577, 0.04790430888533592, -0.10793693363666534, -0.06746275722980499, 0.0599270798265934, -0.1238122209906578, -0.06754403561353683, -0.08186201006174088, 0.0739598348736763, 0.0445481576025486, 0.06588061153888702, -0.1027875617146492, 0.0332038588821888, -0.1168157234787941, 0.10389362275600433, -0.010138722136616707, -0.0873589813709259, 0.06977232545614243, 0.005291770212352276, -0.02660386450588703], [0.0034410476218909025, 0.09519331902265549, 0.025525061413645744, 0.0924493744969368, 0.11194293200969696, 0.0890655592083931, -0.020003613084554672, 0.06382237374782562, 0.015167460776865482, 0.10763553529977798, 0.06963304430246353, -0.08359561115503311, 0.055979810655117035, 0.11287233233451843, 0.07416380941867828, -0.07507734000682831, -0.10855076462030411, -0.05032645910978317, 0.06173143908381462, -0.06051069125533104, 0.09154307097196579, -0.028411980718374252, -0.03318006172776222, -0.013521507382392883, 0.10841220617294312, 0.1401595175266266, -0.053970642387866974, 0.07428064942359924, 0.12199296802282333, 0.08726624399423599, 0.07407642900943756, -0.018997717648744583, 0.026747504249215126, -0.05083472281694412, 0.06584522873163223, 0.06115217134356499, 0.11959512531757355, -0.11208465695381165, 0.06411277502775192, 0.048638951033353806, -0.08056680858135223, -0.07034081965684891, 0.028238866478204727, 0.11101587116718292, -0.00066883530234918, 0.10769406706094742, 0.02611737884581089, 0.013346961699426174, 0.05043365806341171, 0.029833879321813583, -0.08587659895420074, 0.05568406730890274, -0.05371501296758652, 0.03642274811863899, -0.1331971138715744, 0.04484125226736069, 0.04644631966948509, 0.022918667644262314, 0.03958287462592125, -0.06468674540519714, 0.004596266895532608, 0.004443985875695944, -0.09519916027784348, -0.08626624196767807], [-0.01862594299018383, 0.14913856983184814, -0.016242537647485733, 0.012690117582678795, 0.07224919646978378, 0.08428061008453369, -0.038018569350242615, -0.003561218734830618, -0.06426330655813217, 0.09462351351976395, -0.021536892279982567, -0.056739695370197296, 0.034560345113277435, 0.11656449735164642, -0.07856354117393494, -0.08647700399160385, 0.12518012523651123, -0.10702160745859146, -0.10812968015670776, 0.08925756812095642, -0.034483615309000015, 0.11051060259342194, 0.07262880355119705, 0.15119820833206177, 0.06882286071777344, 0.015899572521448135, -0.14864841103553772, -0.053652532398700714, 0.13011331856250763, 0.055383652448654175, 0.13503141701221466, -0.018523748964071274, 0.16015300154685974, -0.05459027737379074, 0.12734895944595337, -0.09392959624528885, 0.05851263925433159, -0.011559199541807175, 0.1368076354265213, 0.0798744410276413, -0.011071793735027313, 0.03313399478793144, 0.1212172582745552, 0.0658460482954979, 0.07612892985343933, -0.051414571702480316, -0.09304121136665344, 0.02334933914244175, -0.0796494111418724, -0.10473403334617615, -0.0009775575017556548, 0.050051264464855194, 0.04363210126757622, 0.03954183682799339, 0.10887034237384796, 0.00624800892546773, -0.07665012031793594, 0.11906956136226654, 0.02033652737736702, 0.11855922639369965, 0.011511972174048424, -0.17530637979507446, 0.13331270217895508, -0.05172314867377281], [0.03760470822453499, -0.01706737093627453, -0.041062261909246445, -0.17900210618972778, 0.1639554798603058, 0.0292128287255764, 0.031498778611421585, -0.05886762961745262, -0.10588886588811874, 0.15058031678199768, 0.09547702968120575, 0.1289817839860916, -0.08160609751939774, -0.06140848994255066, 0.014685718342661858, 0.03383320942521095, 0.06877465546131134, -0.008013219572603703, 0.1477011740207672, 0.021407723426818848, -0.050352223217487335, -0.13348370790481567, 0.10753920674324036, -0.03361625596880913, -0.08979068696498871, 0.014483609236776829, -0.03860149905085564, 0.01909945160150528, -0.04636118933558464, 0.08756796270608902, -0.10590537637472153, -0.01064749713987112, 0.02830290049314499, 0.03834465891122818, -0.037949446588754654, -0.09594086557626724, 0.00915172416716814, -0.009349079802632332, 0.0669361799955368, 0.09559278935194016, -0.018457092344760895, 0.07062621414661407, -0.08574278652667999, 0.10368139296770096, 0.09609459340572357, 0.08589623123407364, 0.04446466267108917, -0.02138095162808895, 0.12703637778759003, -0.19590023159980774, 0.1144556924700737, 0.1472124606370926, -0.08511606603860855, -0.03185322880744934, -0.06269057840108871, -0.027279546484351158, 0.021039733663201332, -0.058451805263757706, 0.009245048277080059, 0.07481119781732559, -0.15177437663078308, -0.03779446706175804, 0.1372966468334198, -0.1511698216199875], [0.044414035975933075, 0.02700398489832878, 0.047478172928094864, -0.08632349222898483, 0.10266783088445663, -0.02258286438882351, 0.014413880184292793, -0.09895971417427063, -0.046777356415987015, -0.014257281087338924, -0.06539611518383026, 0.1615377962589264, 0.027217496186494827, -0.01686003990471363, -0.047671981155872345, 0.00592470308765769, 0.08480813354253769, -0.07274194061756134, 0.10069571435451508, -0.021145818755030632, -0.08176960051059723, 0.07687947154045105, 0.1306786984205246, -0.033397383987903595, 0.12058235704898834, 0.014099371619522572, -0.018758155405521393, 0.0632321760058403, -0.17459768056869507, 0.0012504345504567027, -0.17214517295360565, -0.026860127225518227, -0.04084623232483864, 0.10640685260295868, -0.016213782131671906, -0.020607193931937218, 0.06397299468517303, -0.006454916670918465, -0.13889913260936737, -0.005652533378452063, 0.04235176742076874, 0.041347380727529526, 0.0028105652891099453, 0.06603285670280457, -0.061877742409706116, -0.005099511239677668, 0.12102251499891281, -0.038449566811323166, -0.0811811089515686, -0.11578962206840515, -0.04217164218425751, -0.11004089564085007, -0.14479419589042664, -0.05668967217206955, -0.01685338281095028, 0.03778781369328499, -0.15324050188064575, 0.016299812123179436, -0.06558354198932648, 0.06926165521144867, -0.0769869014620781, -0.06195536628365517, -0.1182488352060318, -0.07787778973579407], [-0.0871342122554779, 0.0700681284070015, -0.06021770089864731, 0.03483567386865616, 0.15435998141765594, 0.08322335034608841, -0.07278390228748322, -0.10761022567749023, -0.1310877650976181, 0.0941726341843605, 0.049077387899160385, -0.04782303050160408, -0.004224998410791159, 0.07868538051843643, 0.13722817599773407, -0.044470928609371185, -0.00719326501712203, -0.09069713950157166, 0.08852309733629227, 0.01698351465165615, 0.01236240565776825, 0.07534971833229065, -0.011579723097383976, 0.08091257512569427, 0.07520231604576111, -0.1117967814207077, -0.061022430658340454, -0.05046343058347702, 0.09799493104219437, -0.09204033017158508, 0.15090657770633698, -0.002382238395512104, 0.11876843124628067, 0.14291349053382874, 0.09227872639894485, 0.0113882040604949, -0.08300992846488953, 0.01643179915845394, -0.019022496417164803, 0.10327980667352676, -0.0054064844734966755, -0.0815611258149147, 0.05560104176402092, -0.11574383080005646, 0.00030038441764190793, 0.03280753642320633, -0.016385024413466454, 0.03977986052632332, 0.07865538448095322, -0.0721987709403038, 0.04438300058245659, 0.051744844764471054, 0.1443243771791458, 0.01721382513642311, 0.05897193402051926, 0.15201498568058014, 0.022508656606078148, 0.13171766698360443, 0.012192386202514172, -0.10458740592002869, -0.17166490852832794, -0.1705639362335205, 0.05275825783610344, -0.04124472662806511], [-0.04751279205083847, -0.17922696471214294, 0.148742213845253, 0.20274929702281952, -0.10983762890100479, -0.0779477208852768, -0.12695688009262085, 0.03850368782877922, 0.0784442275762558, -0.1216428354382515, -0.06634555011987686, 0.07163044065237045, 0.0258349496871233, 0.06350141763687134, 0.061536334455013275, 0.030894270166754723, -0.046917736530303955, 0.056665342301130295, -0.03513523191213608, 0.0775262713432312, 0.09999004006385803, 0.021747959777712822, -0.12415677309036255, 0.1285800188779831, -0.01021013967692852, 0.11945940554141998, 0.16817083954811096, 0.021323520690202713, 0.17310279607772827, 0.0020279090385884047, 0.06969098001718521, -0.03377776965498924, 0.01960352435708046, -0.16647394001483917, 0.037452951073646545, -0.0005592319066636264, -0.06092221289873123, 0.06841657310724258, -0.06339743733406067, 0.03616961091756821, 0.1018020361661911, 0.057410888373851776, -0.09252750873565674, 0.011046681553125381, -0.15876828134059906, -0.09224571287631989, -0.027901992201805115, 0.1424293965101242, -0.10499873012304306, 0.10572802275419235, 0.11496590077877045, -0.05095893144607544, 0.09499872475862503, 0.02134200558066368, 0.08043811470270157, 0.11392324417829514, -0.08085636049509048, -0.05233319103717804, 0.02455211617052555, -0.10450070351362228, 0.043945807963609695, -0.058236557990312576, 0.05741001293063164, 0.08529097586870193], [-0.030896514654159546, 0.0963125005364418, 0.009929548017680645, 0.04270591959357262, 0.08279906958341599, 0.03503681346774101, -0.019054481759667397, -0.01664073020219803, -0.14647208154201508, -0.02830321155488491, -0.11238408833742142, -0.1288447380065918, 0.05249999463558197, 0.12579059600830078, -0.0406988225877285, 0.11445813626050949, 0.04173465073108673, 0.05639534443616867, 0.01832408271729946, -0.023722797632217407, -0.013829643838107586, 0.059738047420978546, 0.10557490587234497, 0.1116497814655304, 0.06645027548074722, -0.06899961829185486, 0.0720207542181015, 0.1280817687511444, 0.1145501658320427, 0.026636820286512375, 0.009743602946400642, 0.06838134676218033, 0.0077434745617210865, -0.15966813266277313, -0.019287273287773132, -0.05298754945397377, -0.07962936162948608, -0.10073702782392502, -0.06469143182039261, 0.02513216622173786, -0.08984556049108505, 0.09106562286615372, 0.10789363086223602, 0.020709441974759102, -0.14222246408462524, 0.04889485985040665, -0.09923730045557022, 0.10343264788389206, -0.05739300698041916, 0.007403691299259663, 0.09033329039812088, -0.03446938097476959, 0.1329130083322525, -0.05206114426255226, 0.02495303563773632, 0.11096695065498352, 0.11024121195077896, 0.013651125133037567, -0.027324389666318893, -0.01449058298021555, 0.08641055971384048, -0.0993359386920929, -0.005064200609922409, 0.08543630689382553], [0.11050695925951004, 0.01980496570467949, -0.019281135872006416, -0.14930717647075653, -0.1397150754928589, 0.11535824090242386, -0.09706417471170425, -0.08345064520835876, -0.06778422743082047, -0.10711310058832169, 0.04429471120238304, 0.008631203323602676, 0.03531079739332199, -0.07858585566282272, -0.046286169439554214, 0.10600607097148895, 0.04378162696957588, -0.1099463552236557, 0.06496402621269226, -0.013636324554681778, -0.009757354855537415, -0.027780497446656227, 0.04828266426920891, -0.039928097277879715, -0.01808774657547474, -0.04654483124613762, -0.09279739111661911, 0.04360318183898926, -0.11547493189573288, 0.05100465938448906, 0.062924824655056, 0.0490618534386158, -0.016170907765626907, -0.08686552941799164, -0.05837487429380417, 0.05312463268637657, 0.16008567810058594, -0.06077957525849342, 0.02155006118118763, -0.028760289773344994, 0.09361174702644348, -0.030550099909305573, -0.0010199554963037372, 0.015103851445019245, 0.030369799584150314, 0.1615232229232788, -0.041659485548734665, 0.0037532963324338198, -0.0846083015203476, 0.04138660803437233, -0.06533868610858917, -0.06694070994853973, -0.06665756553411484, 0.03712600842118263, 0.09894176572561264, 0.08336790651082993, 0.07392047345638275, -0.06949088722467422, 0.08416687697172165, -0.019360238686203957, -0.043730590492486954, 0.16458089649677277, -0.012980070896446705, -0.0002659407036844641], [0.06913778930902481, 0.07956152409315109, 0.10615598410367966, 0.026453901082277298, -0.05240146815776825, 0.08045333623886108, -0.11442950367927551, -0.006987063214182854, -0.08006657660007477, 0.06939510256052017, -0.06828375160694122, -0.09290913492441177, 0.1319197416305542, -0.03768331557512283, 0.14037184417247772, -0.03899400681257248, 0.053686369210481644, -0.11584115773439407, -0.02648971602320671, 0.07317093014717102, -0.032212551683187485, 0.004560794215649366, 0.01749299094080925, 0.16018791496753693, -0.03854277357459068, -0.07354844361543655, -0.06011873856186867, -0.02677624300122261, 0.04659643396735191, -0.08198601007461548, -0.0767383724451065, -0.020640233531594276, -0.007020573131740093, -0.09409349411725998, -0.07363318651914597, 0.07020077854394913, -0.07130217552185059, 0.0252759400755167, 0.021928206086158752, 0.06774540990591049, -0.04517577961087227, 0.12155608832836151, 0.028718171641230583, 0.04662849381566048, -0.10264884680509567, -0.09262744337320328, 0.025479784235358238, 0.17286637425422668, -0.10885710269212723, -0.004947176203131676, 0.15534444153308868, 0.0037274060305207968, -0.08463101089000702, 0.07035201042890549, -0.021085742861032486, -0.05551038309931755, -0.03372335433959961, 0.06826760619878769, -0.02527633309364319, -0.14339078962802887, 0.02574109099805355, -0.12351318448781967, 0.08967743813991547, 0.13953033089637756], [-0.07199813425540924, 0.06064557284116745, -0.020184511318802834, -0.09515956789255142, -0.033740900456905365, -0.09254591166973114, -0.14637798070907593, 0.04263076186180115, -0.008492880500853062, 0.0018496453994885087, 0.02793683111667633, 0.05455363169312477, 0.016010398045182228, -0.14617550373077393, -0.006741437595337629, -0.04637910798192024, -0.13238488137722015, 0.00646360544487834, -0.022253407165408134, -0.012738988734781742, 0.06871402263641357, -0.11380594968795776, -0.07440793514251709, 0.10693170130252838, -0.03732380270957947, -0.0794859379529953, -0.07168812304735184, -0.0596710741519928, 0.06490625441074371, 0.09152807295322418, 0.06234469637274742, 0.05305100604891777, -0.037569593638181686, -0.05997874587774277, -0.07133080065250397, -0.012844668701291084, -0.01002468541264534, -0.10208991914987564, -0.10040775686502457, -0.09073831886053085, -0.010873192921280861, 0.0215171929448843, 0.11435659229755402, 0.10969121009111404, 0.02848469465970993, -0.06758198142051697, -0.04509111866354942, -0.07320147752761841, -0.05257163569331169, -0.04356463998556137, -0.05543927848339081, 0.059446342289447784, -0.1270674616098404, -0.016012955456972122, -0.11644719541072845, 0.1296142339706421, -0.01605287753045559, -0.11005259305238724, -0.008011571131646633, -0.008303530514240265, -0.002642921172082424, -0.08311384916305542, 0.06741310656070709, 0.039785027503967285], [-0.0044242823496460915, 0.04836048185825348, 0.09104027599096298, -0.045039236545562744, 0.1395948827266693, -0.05604952573776245, 0.08053522557020187, -0.11964572221040726, -0.20283909142017365, 0.03159835934638977, 0.004865128081291914, -0.17478060722351074, -0.09417039155960083, -0.050764743238687515, -0.08926146477460861, -0.009608344174921513, 0.05517856776714325, -0.01410918589681387, -0.019427580758929253, -0.024606283754110336, -0.03436988219618797, -0.049879636615514755, -0.030659841373562813, 0.005830900277942419, -0.04077882319688797, -0.11221298575401306, 0.03489644080400467, -0.04999561235308647, 0.07036099582910538, -0.09066332876682281, 0.04506247118115425, -0.060142483562231064, 0.13072055578231812, 0.01589301787316799, 0.11921203136444092, 0.1479525864124298, -0.0013871662085875869, -0.03134363144636154, 0.07172536104917526, 0.031089240685105324, -0.11255379766225815, -0.08130056411027908, -0.016381535679101944, 0.10553616285324097, 0.007561602164059877, -0.02653620019555092, 0.012577684596180916, 0.11040320247411728, -0.12533383071422577, 0.05857619643211365, 0.022748010233044624, 0.03672175854444504, 0.12162380665540695, -0.08490373194217682, -0.15540015697479248, 0.07622160762548447, -0.0047723473981022835, 0.0397888608276844, -0.09141319990158081, 0.10308574140071869, -0.15641717612743378, -0.05805099755525589, -0.007904251106083393, -0.002692498965188861], [0.14610373973846436, 0.047371190041303635, 0.1124977394938469, -0.02921791560947895, 0.058713387697935104, 0.07479384541511536, -0.1179470494389534, 0.03371299058198929, -0.05211982503533363, -0.1554649919271469, 0.12140490859746933, -0.00857143010944128, 0.10235364735126495, -0.13123451173305511, -0.01726686581969261, 0.004946586675941944, -0.15788741409778595, -0.09333653748035431, -0.015241106040775776, 0.044585101306438446, 0.03297393023967743, 0.09118026494979858, -0.02722625620663166, 0.04382655397057533, -0.05062182992696762, -0.07534807920455933, 0.14625750482082367, -0.02115272730588913, 0.016347570344805717, 0.07146581262350082, -0.07213013619184494, 0.08566121011972427, -0.04249502345919609, 0.008086821995675564, -0.12822973728179932, -0.07170102745294571, 0.06887757778167725, 0.050931718200445175, 0.07040052115917206, -0.12778499722480774, -0.05976751074194908, 0.0795321837067604, 0.003068760968744755, -0.09153549373149872, -0.09254622459411621, -0.11115241050720215, 0.06624431163072586, -0.04904967173933983, 0.016480017453432083, 0.09857643395662308, -0.022295495495200157, -0.08083253353834152, 0.0782446637749672, -0.11940884590148926, -0.008591883815824986, 0.09598089754581451, 0.15494154393672943, 0.07824099063873291, -0.025898776948451996, -0.10085639357566833, -0.04377419874072075, 0.13028156757354736, 0.005698859225958586, -0.061579085886478424], [-0.16676662862300873, 0.0280072670429945, -0.15702413022518158, -0.08387066423892975, -0.0021632739808410406, -0.08026646822690964, -0.08942960202693939, 0.0038534849882125854, -0.0883447676897049, 0.10687114298343658, -0.03401375934481621, 0.1824696809053421, 0.003887623781338334, 0.04624534398317337, -0.02161416970193386, 0.011114619672298431, 0.01201712153851986, 0.05910683050751686, -0.003985010087490082, -0.1511411815881729, -0.04030117392539978, 0.05857623368501663, -0.037194181233644485, -0.12392823398113251, 0.058195531368255615, 0.08878584206104279, -0.02604498341679573, -0.0962773859500885, -0.15321524441242218, -0.023225033655762672, 0.0537283718585968, -0.12674584984779358, 0.04153646528720856, 0.07081755250692368, -0.03952407464385033, 0.052638132125139236, -0.0045426394790410995, -0.0848190113902092, 0.020457882434129715, 0.07523959130048752, 0.033197853714227676, 0.008221473544836044, 0.06679243594408035, -0.05154045671224594, -0.04607105627655983, 0.030254045501351357, -0.02274046093225479, -0.016493603587150574, -0.016571782529354095, -0.07939145714044571, -0.12363369762897491, 0.07173089683055878, -0.1522582769393921, -0.05188082903623581, -0.019024480134248734, -0.16559678316116333, -0.08634982258081436, -0.03173729404807091, -0.03447975963354111, -0.06924284994602203, 0.046377312391996384, -0.03392966836690903, -0.02370855212211609, -0.025516007095575333], [0.05103332921862602, -0.1528661698102951, 0.1270150989294052, 0.1682654470205307, -0.006627814378589392, -0.04350828006863594, -0.01297150831669569, -0.012614710256457329, 0.056324783712625504, 0.021386925131082535, -0.09287659823894501, 0.014370743185281754, 0.14770925045013428, 0.07110799849033356, 0.14029385149478912, 0.09874870628118515, 0.1716398447751999, 0.0012822336284443736, -0.02326616458594799, 0.04783414676785469, 0.08448542654514313, -0.034626491367816925, -0.10262424498796463, -0.04807795211672783, -0.07493749260902405, -0.08356411755084991, 0.15292328596115112, 0.030774984508752823, -0.015220805071294308, -0.01881597936153412, 0.0650600790977478, 0.05631503090262413, -0.0027199191972613335, -0.09411028772592545, 0.04119208827614784, 0.028752118349075317, 0.049250077456235886, -0.012717596255242825, 0.09162455052137375, 0.022804856300354004, -0.05872594565153122, 0.016371475532650948, 0.08525927364826202, 0.03750379756093025, 0.04364240542054176, -0.18503700196743011, 0.061424821615219116, 0.13377422094345093, -0.058614734560251236, 0.14159558713436127, 0.06810802966356277, -0.0471135638654232, 0.03441762551665306, 0.06305713206529617, -0.07661083340644836, 0.15762417018413544, 0.04455679655075073, 0.0641610398888588, 0.133335143327713, 0.0344112254679203, -0.10559020191431046, 0.08367461711168289, 0.12924806773662567, 0.014017801731824875], [0.12669508159160614, -0.011767742224037647, 0.08096177875995636, -0.0462188720703125, 0.006092637777328491, -0.07150211185216904, 0.045000914484262466, 0.10891595482826233, 0.013171727769076824, -0.16341526806354523, 0.06008175015449524, -0.06567029654979706, 0.04038459062576294, -0.05635616183280945, 0.004677691962569952, 0.017695335671305656, -0.11427970975637436, 0.07304191589355469, -0.027123726904392242, 0.019792160019278526, 0.007598051801323891, -0.03797039017081261, 0.14593055844306946, -0.016253238543868065, 0.06284904479980469, 0.044170793145895004, 0.10171325504779816, -0.04482131823897362, 0.03088483214378357, 0.03611178696155548, 0.04620109871029854, -0.1239800676703453, -0.15423063933849335, -0.11954834312200546, -0.020133817568421364, 0.1292807012796402, -0.061333782970905304, -0.023012908175587654, -0.11826175451278687, -0.10092049092054367, 0.043137844651937485, -0.046954989433288574, 0.004940356593579054, 0.11396565288305283, -0.0029230869840830564, 0.049921195954084396, -0.010602527298033237, 0.04601092264056206, 0.02473389357328415, 0.014806315302848816, -0.045911550521850586, -0.06527024507522583, -0.16848306357860565, -0.16280564665794373, -0.03772938251495361, -0.06434710323810577, 0.06198133900761604, 0.05562933161854744, 0.1456354856491089, -0.006338636856526136, 0.1345386654138565, 0.09158239513635635, -0.15196245908737183, 0.03609853237867355], [0.1053406372666359, -0.14025293290615082, -0.005675678141415119, -0.12636838853359222, 0.04623303934931755, 0.08196931332349777, 0.026658037677407265, -0.007636812049895525, 0.038809482008218765, -0.005888668820261955, -0.04488426819443703, 0.07446880638599396, 0.022331738844513893, -0.1307314783334732, 0.006509358529001474, -0.13493289053440094, -0.10535909980535507, 0.08908610790967941, 0.09313663840293884, 0.04700974375009537, -0.04967961832880974, -0.0552997887134552, -0.10620905458927155, -0.04879838973283768, 0.13106785714626312, 0.0077679213136434555, 0.048829223960638046, -0.02904403954744339, -0.08420856297016144, -0.09773487597703934, 0.0014498229138553143, -0.07254080474376678, -0.08998654037714005, 0.003738959087058902, 0.04940493404865265, 0.09783691167831421, 0.049989085644483566, -0.1458793580532074, 0.006569453980773687, 0.05391746014356613, -0.030541827902197838, 0.021606041118502617, 0.025033719837665558, 0.11170072108507156, -0.11132165789604187, 0.13213549554347992, 0.008555371314287186, -0.11013928800821304, -0.004292394034564495, 0.016772007569670677, -0.014427200891077518, 0.019185561686754227, 0.04496665671467781, 0.12851548194885254, 0.027417832985520363, 0.06997311860322952, -0.0727703720331192, -0.10850585252046585, 0.005923223216086626, -0.11998447775840759, -0.019614826887845993, 0.05149412527680397, -0.12222239375114441, -0.0020776146557182074], [-0.017749443650245667, 0.13998693227767944, -0.012837294489145279, -0.03833649680018425, 0.1786436289548874, 0.01615648716688156, 0.09384630620479584, -0.19867272675037384, -0.13339267671108246, 0.18400196731090546, 