{
  "architecture": {
    "input_size": 2,
    "output_size": 3,
    "hidden_layers": [
      64,
      64
    ],
    "activation": "relu"
  },
  "weights": [
    {
      "layer_index": 0,
      "weight": [
        [
          0.04543057084083557,
          -0.18615321815013885,
          -0.5280795693397522,
          -0.7753055095672607,
          -0.1823810487985611,
          0.7225520014762878,
          0.47863444685935974,
          -0.11605766415596008,
          -0.6003062725067139,
          0.10589732974767685,
          0.2822461426258087,
          0.3715009391307831,
          -0.9877658486366272,
          -0.457275927066803,
          -0.46321550011634827,
          0.3286699950695038,
          0.3535414934158325,
          -0.030912354588508606,
          0.41322410106658936,
          0.7144788503646851,
          1.0731254816055298,
          -0.45184770226478577,
          0.15576587617397308,
          0.5556157231330872,
          -0.5388185381889343,
          0.7160352468490601,
          -0.47226282954216003,
          -0.22564345598220825,
          0.029595037922263145,
          0.05974557623267174,
          1.2558600902557373,
          0.1726330667734146,
          -0.2347138226032257,
          -0.4885341227054596,
          -0.08518383651971817,
          0.7221738696098328,
          -0.8877890706062317,
          -0.6283206939697266,
          1.8287065029144287,
          0.42019885778427124,
          -0.8476540446281433,
          0.5659159421920776,
          -0.4652893841266632,
          0.6611218452453613,
          1.6657181978225708,
          0.659110426902771,
          0.08351300656795502,
          0.5111265182495117,
          -0.4980083405971527,
          0.5775836706161499,
          -0.06841617077589035,
          -0.45826199650764465,
          -0.7845910787582397,
          -0.24087952077388763,
          0.4925880432128906,
          0.2016277313232422,
          -0.3075468838214874,
          0.41620099544525146,
          -0.06499356031417847,
          0.46371883153915405,
          -0.5161184072494507,
          -0.33103859424591064,
          1.073414921760559,
          -0.17683102190494537
        ],
        [
          -4.80000638961792,
          -6.186910152435303,
          -1.3932619094848633,
          1.1985191106796265,
          0.3547155559062958,
          0.46354973316192627,
          0.6479495167732239,
          0.6084657907485962,
          5.420222282409668,
          -0.48743361234664917,
          0.5252164006233215,
          -0.7922970652580261,
          1.7086093425750732,
          0.5413697957992554,
          2.4659547805786133,
          5.259090900421143,
          -0.2216774970293045,
          7.2641801834106445,
          -0.8379871249198914,
          -2.613407611846924,
          0.5549226999282837,
          2.208731174468994,
          7.376232624053955,
          0.5249050259590149,
          0.4695216119289398,
          1.6001311540603638,
          -4.660909652709961,
          3.570026159286499,
          -0.6170327067375183,
          -5.324395179748535,
          0.41415926814079285,
          0.11892786622047424,
          4.724264144897461,
          -6.407196998596191,
          0.704629123210907,
          0.5524964332580566,
          -3.2632343769073486,
          0.6474200487136841,
          0.40669170022010803,
          -4.020031929016113,
          -2.0715272426605225,
          0.6710873246192932,
          -0.6882615685462952,
          0.24915555119514465,
          1.0444592237472534,
          0.3464888036251068,
          6.961005687713623,
          -0.19522638618946075,
          0.44401946663856506,
          0.627174437046051,
          5.4181013107299805,
          -5.763095855712891,
          -0.16715331375598907,
          0.705892026424408,
          -2.615565299987793,
          -0.0015225970419123769,
          0.39836931228637695,
          -0.636284589767456,
          3.6707260608673096,
          -0.051955513656139374,
          -7.08740234375,
          -5.5190253257751465,
          1.7964760065078735,
          -0.03179165720939636
        ]
      ],
      "bias": [
        0.2586819529533386,
        0.25907909870147705,
        0.4165637493133545,
        -0.13131366670131683,
        -0.316362589597702,
        0.6507684588432312,
        -0.5425074696540833,
        -0.24534454941749573,
        0.2906387150287628,
        -0.22598911821842194,
        -0.5625920295715332,
        0.2988995909690857,
        -0.1964990794658661,
        -0.5507439374923706,
        0.004433644004166126,
        0.2459760457277298,
        -0.6381019949913025,
        0.392879843711853,
        0.7981741428375244,
        0.564044177532196,
        -0.046523358672857285,
        0.038095876574516296,
        0.5528978705406189,
        -0.4937950670719147,
        -0.6718413233757019,
        0.3982112407684326,
        0.9254778027534485,
        0.2721377909183502,
        -0.041020020842552185,
        0.2936974763870239,
        0.04019111767411232,
        -0.5473175048828125,
        0.2089574784040451,
        0.8681555986404419,
        -0.25696030259132385,
        0.6438939571380615,
        -0.10919579863548279,
        0.10850018262863159,
        0.024844368919730186,
        0.39400413632392883,
        -0.1957836151123047,
        -0.3042295277118683,
        -0.5980181097984314,
        -0.5311036109924316,
        0.08154802024364471,
        -0.5953567028045654,
        0.4722968637943268,
        -0.3626209497451782,
        -0.6095315217971802,
        0.5105588436126709,
        0.2517184317111969,
        0.27945676445961,
        0.6430691480636597,
        -0.6327860951423645,
        0.413735955953598,
        -0.4301641285419464,
        -0.5523453950881958,
        -0.21746547520160675,
        0.5125023722648621,
        -0.5547567009925842,
        0.3336234390735626,
        0.4179229736328125,
        0.3668712079524994,
        -0.2787849009037018
      ],
      "input_size": 2,
      "output_size": 64
    },
    {
      "layer_index": 1,
      "weight": [
        [
          -0.09051632881164551,
          -0.11434377729892731,
          0.6801348924636841,
          0.037350133061409,
          -0.07437419891357422,
          -0.07436086237430573,
          -0.0712868943810463,
          -0.12859484553337097,
          -0.030612260103225708,
          -0.039910320192575455,
          0.4904178977012634,
          0.36814045906066895,
          -0.12009692192077637,
          -0.25140053033828735,
          -0.3659675717353821,
          -0.056747015565633774,
          -0.5606954097747803,
          -0.0632077157497406,
          0.03903438150882721,
          0.6506102085113525,
          -0.13221196830272675,
          -0.08534949272871017,
          -0.03837893158197403,
          0.0814194455742836,
          -0.12776724994182587,
          -0.15370257198810577,
          -0.6793786287307739,
          -0.08567516505718231,
          -0.00992080569267273,
          -0.03776334226131439,
          -0.6969990134239197,
          -0.03530452772974968,
          0.5072959065437317,
          -0.16292251646518707,
          0.11997221410274506,
          -0.2917826473712921,
          0.027409853413701057,
          -0.11434745043516159,
          -0.2447604238986969,
          -0.6728079319000244,
          -0.8797294497489929,
          -0.015233100391924381,
          -0.07979264855384827,
          0.5873605608940125,
          -0.035560064017772675,
          -0.12740565836429596,
          0.10381782054901123,
          -0.012984798289835453,
          0.08234160393476486,
          0.3533514738082886,
          0.018277747556567192,
          0.5057953596115112,
          -0.054280586540699005,
          -0.19988895952701569,
          0.5051016211509705,
          -1.0338994264602661,
          -0.12139575183391571,
          -0.023946702480316162,
          -0.15152142941951752,
          -0.11597025394439697,
          -0.08829786628484726,
          0.04254778102040291,
          -0.1446693390607834,
          -1.101655125617981
        ],
        [
          -0.057077571749687195,
          -0.09598270058631897,
          0.41042014956474304,
          -0.027148455381393433,
          0.02807919681072235,
          -0.04672326147556305,
          0.08355215191841125,
          -0.15520066022872925,
          0.06089276075363159,
          0.10207389295101166,
          0.5012847781181335,
          0.056658126413822174,
          0.047796428203582764,
          -0.16570577025413513,
          -0.3410169184207916,
          0.021278610453009605,
          -0.3456610441207886,
          -0.19718725979328156,
          -0.026440978050231934,
          0.596861720085144,
          -0.20662172138690948,
          0.08222067356109619,
          -0.0004608638701029122,
          0.09178122878074646,
          -0.12143116444349289,
          -0.11569692194461823,
          -0.52548748254776,
          0.013384997844696045,
          -0.1410827934741974,
          -0.011712517589330673,
          -0.4524833559989929,
          -0.1137208491563797,
          0.3157922923564911,
          -0.18035106360912323,
          0.008637979626655579,
          -0.06237027049064636,
          0.04369216784834862,
          0.01297809462994337,
          -0.20979666709899902,
          -0.6663145422935486,
          -0.5691790580749512,
          -0.027930596843361855,
          0.12340424954891205,
          0.5084138512611389,
          -0.07830959558486938,
          -0.1074771136045456,
          -0.08918364346027374,
          -0.11076413094997406,
          -0.1265253722667694,
          0.3557133078575134,
          -0.049058493226766586,
          0.3525276780128479,
          -0.08138921111822128,
          -0.31144535541534424,
          0.3287566602230072,
          -0.7796664237976074,
          0.058131828904151917,
          -0.02527490258216858,
          -0.3270706534385681,
          0.041446503251791,
          -0.14692644774913788,
          -0.13395442068576813,
          -0.11395718902349472,
          -0.9220951199531555
        ],
        [
          -0.1107470691204071,
          -0.06129603087902069,
          0.14762242138385773,
          -0.010674450546503067,
          0.07424287497997284,
          -0.10582491755485535,
          0.047597505152225494,
          0.05807092785835266,
          -0.11521077156066895,
          0.07262007147073746,
          0.22197102010250092,
          -0.14205411076545715,
          -0.05755341053009033,
          0.060442857444286346,
          0.01107102632522583,
          0.05382116138935089,
          0.0656031146645546,
          -0.033449046313762665,
          -0.0008753687143325806,
          0.23864330351352692,
          0.14529596269130707,
          -0.11319656670093536,
          -0.10886262357234955,
          -0.1296139508485794,
          0.005048306193202734,
          0.04412166029214859,
          -0.043795909732580185,
          -0.10392895340919495,
          -0.09360631555318832,
          0.005432136822491884,
          0.10405710339546204,
          0.005182461813092232,
          0.17714564502239227,
          -0.1891002058982849,
          0.09028908610343933,
          -0.044212888926267624,
          0.008825168013572693,
          -0.11716750264167786,
          -0.028067586943507195,
          -0.06293714046478271,
          0.09910346567630768,
          -0.15643030405044556,
          0.0643346756696701,
          0.22220973670482635,
          -0.09286267310380936,
          0.08781465142965317,
          0.08839350938796997,
          -0.014043553732335567,
          -0.05635719373822212,
          0.16914679110050201,
          -0.01173239853233099,
          0.22920089960098267,
          0.00722899055108428,
          -0.00869027990847826,
          0.23880857229232788,
          0.016886362805962563,
          -0.10190090537071228,
          -0.09022840857505798,
          0.023056544363498688,
          -0.10128079354763031,
          0.14678427577018738,
          -0.1611606776714325,
          -0.06004701554775238,
          0.09488570690155029
        ],
        [
          -0.031566645950078964,
          0.09023478627204895,
          0.059107907116413116,
          -0.047453418374061584,
          -0.06810666620731354,
          0.061318282037973404,
          -0.060754310339689255,
          0.04964423552155495,
          0.0809047669172287,
          -0.08231925964355469,
          0.2804657816886902,
          -0.988784670829773,
          -0.03562609851360321,
          -0.23998987674713135,
          -0.1577809453010559,
          0.05208887532353401,
          0.6079151034355164,
          -0.2849709391593933,
          0.01693984866142273,
          0.12805737555027008,
          -0.14780643582344055,
          0.08353888243436813,
          -0.11702258884906769,
          -0.08185918629169464,
          -0.08760613948106766,
          -0.21174681186676025,
          0.4895736575126648,
          -0.08504404127597809,
          -0.04091733321547508,
          -0.018182098865509033,
          0.6079487204551697,
          0.06405118852853775,
          0.44994062185287476,
          0.04778400436043739,
          -0.10142345726490021,
          -0.3130948841571808,
          -0.12990251183509827,
          0.004901938606053591,
          0.5091021060943604,
          -0.09608611464500427,
          0.8247861862182617,
          -0.10941101610660553,
          -0.027015522122383118,
          0.24727004766464233,
          -0.01451122760772705,
          -0.4331345856189728,
          -0.08530887961387634,
          0.08690804988145828,
          -0.029953137040138245,
          0.3310595750808716,
          -0.13071627914905548,
          0.41962772607803345,
          0.005222499370574951,
          -0.16719117760658264,
          0.4802691340446472,
          0.547961950302124,
          0.010527387261390686,
          -0.10427750647068024,
          -0.7519681453704834,
          -0.04496229439973831,
          -0.03963539004325867,
          -0.018720656633377075,
          -0.08984427899122238,
          0.4641205668449402
        ],
        [
          0.06791408360004425,
          -0.11024816334247589,
          -0.009884059429168701,
          -0.019632264971733093,
          -0.0929122120141983,
          0.029689893126487732,
          0.03856697678565979,
          0.08606651425361633,
          0.11070317029953003,
          -0.05488868057727814,
          0.02563348412513733,
          -0.10104215145111084,
          0.02566923201084137,
          -0.11781491339206696,
          0.08710858225822449,
          -0.049932003021240234,
          -0.08611957728862762,
          -0.000660240650177002,
          0.09217223525047302,
          0.03991630673408508,
          -0.06507228314876556,
          -0.07234334945678711,
          0.1108529269695282,
          0.004277855157852173,
          0.02161608636379242,
          0.09248216450214386,
          0.11860635876655579,
          -0.06741859018802643,
          0.022578775882720947,
          -0.10782308876514435,
          -0.09960925579071045,
          -0.08645783364772797,
          -0.041336894035339355,
          -0.00036694109439849854,
          0.10297498106956482,
          -0.054607510566711426,
          -0.07790973782539368,
          -0.107810840010643,
          -0.11436791718006134,
          0.07918423414230347,
          -0.12113723158836365,
          0.04833337664604187,
          0.10637645423412323,
          0.0400814563035965,
          0.08375284075737,
          -0.10855993628501892,
          -0.02145160734653473,
          -0.09488281607627869,
          -0.11004519462585449,
          0.10600452125072479,
          -0.061226069927215576,
          0.10664106905460358,
          -0.0491291880607605,
          -0.016512125730514526,
          0.03915846347808838,
          -0.06380192935466766,
          0.05273185670375824,
          0.011482968926429749,
          -0.05347065627574921,
          0.024229809641838074,
          -0.05058284103870392,
          0.04817204177379608,
          -0.034185633063316345,
          -0.06675700843334198
        ],
        [
          0.030541837215423584,
          0.002893984317779541,
          -0.9735275506973267,
          0.0725628137588501,
          0.023898214101791382,
          0.02260904386639595,
          0.11689361184835434,
          0.06994838267564774,
          0.03928525745868683,
          0.027453716844320297,
          -1.3194235563278198,
          0.28308820724487305,
          -0.027500048279762268,
          1.2612128257751465,
          1.302225947380066,
          0.036005452275276184,
          -0.7498879432678223,
          1.5642287731170654,
          -0.008348137140274048,
          -1.0544631481170654,
          1.1093518733978271,
          0.05912531912326813,
          -0.0694696307182312,
          0.07286582142114639,
          -0.10623669624328613,
          1.5190041065216064,
          -0.41006553173065186,
          -0.01520693302154541,
          -0.13889674842357635,
          -0.04890628531575203,
          -0.834153413772583,
          -0.009615439921617508,
          -1.1897746324539185,
          -0.0298884566873312,
          -0.07537828385829926,
          1.2969683408737183,
          -0.10089010000228882,
          -0.10645017772912979,
          -0.204548180103302,
          0.3791351616382599,
          -0.7275276780128479,
          0.06146593019366264,
          -0.08766132593154907,
          -1.1802544593811035,
          0.055278927087783813,
          1.4209587574005127,
          0.01929984986782074,
          -0.037448544055223465,
          -0.051689647138118744,
          -1.3276280164718628,
          -0.04843752086162567,
          -1.1859160661697388,
          -0.06319579482078552,
          1.3246655464172363,
          -1.164101481437683,
          -0.015866577625274658,
          -0.04167473316192627,
          0.0581507682800293,
          0.5047776103019714,
          0.09435160458087921,
          0.2571395933628082,
          0.04716869816184044,
          -0.005477260798215866,
          -0.06906693428754807
        ],
        [
          0.062127918004989624,
          0.019627556204795837,
          -0.07754398882389069,
          0.03750123083591461,
          0.04767048358917236,
          0.1172446459531784,
          0.06917355954647064,
          -0.05007101595401764,
          0.05066178739070892,
          -0.005506753921508789,
          0.06301166117191315,
          -0.08619824051856995,
          0.052311837673187256,
          -0.07403460144996643,
          -0.09303039312362671,
          -0.07504302263259888,
          -0.09897737205028534,
          0.03275175392627716,
          0.02259986102581024,
          -0.11858241260051727,
          -0.055871620774269104,
          0.060669466853141785,
          0.06356362998485565,
          -0.03612424433231354,
          -0.11689721047878265,
          -0.02604864537715912,
          -0.08651226758956909,
          -0.08144353330135345,
          -0.08510714769363403,
          -0.026908472180366516,
          0.05878928303718567,
          -0.11815536022186279,
          0.10737201571464539,
          0.06575299799442291,
          0.006620943546295166,
          -0.10806217789649963,
          -0.04455168545246124,
          -0.025922834873199463,
          -0.10640919208526611,
          -0.11074160039424896,
          0.058289483189582825,
          -0.07665751874446869,
          0.0498676598072052,
          -0.03770647943019867,
          0.032507434487342834,
          0.12494422495365143,
          -0.06939345598220825,
          0.034168168902397156,
          -0.061242759227752686,
          0.07038083672523499,
          0.01549336314201355,
          -0.12230914831161499,
          0.057412534952163696,
          0.07423992455005646,
          -0.119681715965271,
          0.03392845392227173,
          -0.047129154205322266,
          -0.048133015632629395,
          0.05373889207839966,
          -0.10113535821437836,
          -0.09687343239784241,
          0.11990809440612793,
          0.09094998240470886,
          -0.10168810188770294
        ],
        [
          -0.05639912188053131,
          0.059064075350761414,
          0.01507580280303955,
          -0.014559507369995117,
          -0.03355590999126434,
          -0.011298567056655884,
          0.003009885549545288,
          0.10674110054969788,
          0.034227803349494934,
          0.04901653528213501,
          -0.05085135996341705,
          -0.09024254977703094,
          -0.08618059754371643,
          -0.0846196711063385,
          0.10029587149620056,
          0.04524564743041992,
          -0.10454827547073364,
          -0.11533248424530029,
          0.03278587758541107,
          0.09083124995231628,
          0.021059393882751465,
          0.03508111834526062,
          -0.10296210646629333,
          0.016478657722473145,
          0.0624423623085022,
          0.0371621698141098,
          0.05188971757888794,
          -0.06332260370254517,
          0.1069725751876831,
          0.10922548174858093,
          0.0034494996070861816,
          -0.09786790609359741,
          0.10218141973018646,
          0.0064566731452941895,
          -0.03188444674015045,
          0.11710691452026367,
          0.04795047640800476,
          -0.03318822383880615,
          0.0473693311214447,
          -0.10451215505599976,
          -0.05922617018222809,
          -0.05577705800533295,
          -0.08281126618385315,
          0.027149617671966553,
          0.12393255531787872,
          0.07316099107265472,
          -0.021743759512901306,
          0.09238414466381073,
          -0.006961643695831299,
          -0.009423404932022095,
          0.05103176832199097,
          0.06821653246879578,
          -0.03599932789802551,
          0.11863954365253448,
          -0.05589437484741211,
          -0.11621202528476715,
          -0.08430665731430054,
          0.09379346668720245,
          -0.038903459906578064,
          -0.07309034466743469,
          0.004254326224327087,
          0.01734936237335205,
          -0.108726367354393,
          -0.09927593171596527
        ],
        [
          -0.11453630775213242,
          0.0385914146900177,
          -0.16489428281784058,
          -0.08171433210372925,
          -0.07512311637401581,
          -0.0824141800403595,
          -0.15462617576122284,
          -0.06131302937865257,
          -0.1018538624048233,
          0.004150792025029659,
          -0.003702367190271616,
          -0.3270832896232605,
          -0.0024907737970352173,
          0.15315547585487366,
          0.0633082389831543,
          -0.13727575540542603,
          0.30288276076316833,
          0.14528241753578186,
          -0.1146603673696518,
          -0.1880016326904297,
          0.24313724040985107,
          -0.08577961474657059,
          -0.07195011526346207,
          -0.12143062055110931,
          0.0078050862066447735,
          0.21806620061397552,
          0.26260384917259216,
          0.03783172369003296,
          -0.03911547362804413,
          -0.09870263189077377,
          0.2474420666694641,
          -0.11051351577043533,
          -0.13335442543029785,
          -0.14660531282424927,
          -0.06616443395614624,
          0.07335545122623444,
          0.004338786471635103,
          0.08570122718811035,
          0.18164077401161194,
          0.2319229394197464,
          0.33264485001564026,
          -0.14402198791503906,
          -0.06285831332206726,
          -0.16777729988098145,
          -0.07632500678300858,
          0.10454072058200836,
          -0.0730801373720169,
          0.033619437366724014,
          0.0022926090750843287,
          -0.07320646941661835,
          0.08217038959264755,
          -0.14581501483917236,
          0.033599503338336945,
          0.017567815259099007,
          -0.025190172716975212,
          0.329171746969223,
          -0.06414911150932312,
          -0.10309191048145294,
          -0.0039714062586426735,
          -0.012600290589034557,
          0.12943077087402344,
          -0.04815897345542908,
          -0.12972961366176605,
          0.25650492310523987
        ],
        [
          0.034424200654029846,
          0.07123404741287231,
          -0.010058000683784485,
          0.05308973789215088,
          -0.06433229148387909,
          0.10948812961578369,
          -0.11018815636634827,
          -0.05489949882030487,
          0.07939550280570984,
          -0.004924282431602478,
          -0.056186676025390625,
          0.07598437368869781,
          0.059451550245285034,
          0.02870345115661621,
          -0.008313387632369995,
          0.09113611280918121,
          -0.06706191599369049,
          0.10917723178863525,
          -0.02570110559463501,
          0.12344826757907867,
          0.022887036204338074,
          0.01837460696697235,
          0.08197289705276489,
          -0.03647494316101074,
          0.07763783633708954,
          -0.014865010976791382,
          -0.0566047728061676,
          0.07769247889518738,
          -0.05958119034767151,
          0.08728975057601929,
          0.07286632061004639,
          0.043640002608299255,
          0.12425152957439423,
          -0.017321571707725525,
          -0.07882210612297058,
          -0.09882281720638275,
          0.04568786919116974,
          0.05374772846698761,
          0.114521324634552,
          -0.09233321249485016,
          0.014290019869804382,
          0.11065371334552765,
          -0.03842121362686157,
          0.0782800018787384,
          -0.0655946284532547,
          0.0038169771432876587,
          -0.017919063568115234,
          0.0779397189617157,
          -0.09495602548122406,
          0.06017160415649414,
          0.0889882892370224,
          -0.12454891204833984,
          0.013176292181015015,
          0.011080533266067505,
          0.02580873668193817,
          -0.09412609040737152,
          -0.016390889883041382,
          0.0598270446062088,
          -0.1000211238861084,
          0.002529814839363098,
          -0.0781838446855545,
          -0.10845471918582916,
          0.03697402775287628,
          -0.1236618310213089
        ],
        [
          -0.06134837865829468,
          -0.1248864233493805,
          0.019559472799301147,
          0.03145596385002136,
          0.10858044028282166,
          0.0949268639087677,
          0.00015814602375030518,
          0.004650384187698364,
          -0.02798384428024292,
          0.11879308521747589,
          -0.08891530334949493,
          -0.11618748307228088,
          -0.06590831279754639,
          0.08293554186820984,
          0.008827462792396545,
          0.11558464169502258,
          0.0041342973709106445,
          -0.039870500564575195,
          -0.0038093924522399902,
          0.08060987293720245,
          -0.02751736342906952,
          -0.09631933271884918,
          -0.03515191376209259,
          -0.047337427735328674,
          -0.05608905851840973,
          0.05992251634597778,
          -0.10454508662223816,
          -0.04356081783771515,
          0.06389354169368744,
          -0.1041894257068634,
          -0.08624610304832458,
          -0.09533652663230896,
          0.031049445271492004,
          0.0860801637172699,
          0.058933719992637634,
          -0.040247589349746704,
          0.0832705944776535,
          0.022974371910095215,
          -0.032722875475883484,
          -0.08130224049091339,
          0.07713541388511658,
          -0.12313120067119598,
          0.026578843593597412,
          0.07066287100315094,
          0.1192670613527298,
          -0.09682272374629974,
          0.01627005636692047,
          -0.0758126825094223,
          0.05663560330867767,
          0.06618708372116089,
          -0.09570115804672241,
          0.04979097843170166,
          -0.09644868969917297,
          -0.10283821821212769,
          -0.03562571108341217,
          -0.1203841120004654,
          -0.0757916271686554,
          0.08079245686531067,
          -0.09173272550106049,
          -0.04344196617603302,
          -0.03833034634590149,
          0.07684962451457977,
          -0.08805958926677704,
          0.0013598054647445679
        ],
        [
          -0.10580693930387497,
          -0.10034641623497009,
          0.12242571264505386,
          -0.1202632337808609,
          0.007718667387962341,
          0.024968503043055534,
          -0.1643487960100174,
          0.07715201377868652,
          -0.030010312795639038,
          0.04366222769021988,
          0.11001814901828766,
          0.1500711292028427,
          -0.04224444925785065,
          -0.028057146817445755,
          0.1574116349220276,
          0.03176135569810867,
          -0.0912775844335556,
          0.062243904918432236,
          0.05037415027618408,
          0.19014869630336761,
          -0.008920454420149326,
          0.09036464244127274,
          0.001665664603933692,
          0.03066498041152954,
          -0.09932959079742432,
          0.08303296566009521,
          0.08261998742818832,
          -0.09827259182929993,
          -0.017401905730366707,
          0.02659357339143753,
          -0.4293506145477295,
          -0.007319760043174028,
          0.1297162026166916,
          -0.021870363503694534,
          0.009050413966178894,
          0.03601094335317612,
          -0.07062526047229767,
          -0.03519877418875694,
          -0.2867511212825775,
          0.1543240249156952,
          -0.43108564615249634,
          0.06331000477075577,
          0.020914196968078613,
          0.09141167253255844,
          -0.11176472157239914,
          0.07333876937627792,
          -0.11391854286193848,
          0.04885619506239891,
          -0.11454819142818451,
          0.1436573565006256,
          -0.05286194011569023,
          0.07866188138723373,
          -0.016357099637389183,
          0.1253487765789032,
          0.033998169004917145,
          -0.21093423664569855,
          -0.08447059988975525,
          0.08535656332969666,
          0.47825926542282104,
          -0.1289844661951065,
          0.1632191240787506,
          0.05914045497775078,
          0.03342552110552788,
          -0.3536229431629181
        ],
        [
          -0.0761779397726059,
          -0.05108095705509186,
          -2.084259271621704,
          -0.08789066225290298,
          -0.06378218531608582,
          0.10096341371536255,
          0.005934159737080336,
          0.051157135516405106,
          0.061307743191719055,
          0.0134115070104599,
          -2.0283043384552,
          -0.01161428913474083,
          0.07961039245128632,
          1.6712732315063477,
          1.7183302640914917,
          -0.06872328370809555,
          -0.19325387477874756,
          1.7793539762496948,
          -0.1106051653623581,
          -1.955156683921814,
          1.6331952810287476,
          -0.07046687602996826,
          0.054825395345687866,
          0.0405389666557312,
          0.0857653096318245,
          1.90077805519104,
          -0.7485687732696533,
          0.12021681666374207,
          -0.033804088830947876,
          0.011531618423759937,
          0.36365532875061035,
          -0.011804662644863129,
          -1.9434056282043457,
          0.04212264344096184,
          0.022209152579307556,
          1.9967963695526123,
          0.055080972611904144,
          0.0843721330165863,
          0.4757285416126251,
          -0.7420576810836792,
          0.26943546533584595,
          -0.11965849995613098,
          0.036018624901771545,
          -2.065037727355957,
          0.058719977736473083,
          1.8159810304641724,
          -0.024563446640968323,
          -0.0964784249663353,
          -0.10729044675827026,
          -2.0965423583984375,
          0.07223906368017197,
          -1.9853758811950684,
          -0.0077863116748631,
          1.6881046295166016,
          -2.002028465270996,
          0.3838254511356354,
          0.081459179520607,
          0.01184147596359253,
          -0.9914306998252869,
          0.02536189928650856,
          0.4046807885169983,
          -0.11791292577981949,
          -0.06520893424749374,
          0.3274458348751068
        ],
        [
          -0.0066414475440979,
          -0.07139098644256592,
          0.036345288157463074,
          -0.06148208677768707,
          -0.0347699373960495,
          -0.00822499394416809,
          -0.02817833423614502,
          0.014265596866607666,
          -0.031895384192466736,
          -0.04083429276943207,
          0.05087169259786606,
          0.022772282361984253,
          -0.04718078672885895,
          0.05420824512839317,
          0.018806777894496918,
          -0.09078891575336456,
          -0.08556129038333893,
          -0.03686494752764702,
          0.10962824523448944,
          -0.1229388415813446,
          0.010415502823889256,
          -0.1136118620634079,
          0.04409211874008179,
          0.024822548031806946,
          -0.05927856266498566,
          0.01744857244193554,
          -0.079083651304245,
          0.08669432997703552,
          -0.026100903749465942,
          -0.08874893188476562,
          -0.02594890631735325,
          -0.05280345678329468,
          -0.04824486002326012,
          0.01775817573070526,
          0.06034193933010101,
          -0.04622678458690643,
          -0.031047672033309937,
          0.05938361585140228,
          0.015669479966163635,
          -0.0786384642124176,
          0.03021886944770813,
          0.055368244647979736,
          0.10406392812728882,
          0.09349718689918518,
          -0.06583963334560394,
          -0.03469395264983177,
          -0.04068067669868469,
          0.06367866694927216,
          -0.007995977997779846,
          -0.10789500176906586,
          -0.09424307942390442,
          -0.02305305190384388,
          -0.0375610888004303,
          0.06724238395690918,
          -0.08180319517850876,
          0.03076997399330139,
          -0.11281302571296692,
          0.09791387617588043,
          -0.11173895001411438,
          -0.059164226055145264,
          -0.01949894428253174,
          -0.0813172459602356,
          0.12379950284957886,
          0.06872721016407013
        ],
        [
          0.04662506654858589,
          0.05797603726387024,
          -0.2363976687192917,
          0.06717377156019211,
          -0.07529883086681366,
          -0.062183886766433716,
          -0.006571776699274778,
          0.03594598174095154,
          -0.07959990203380585,
          -0.06316152960062027,
          0.11935292184352875,
          -0.6655313968658447,
          -0.019137278199195862,
          -0.010329646989703178,
          0.2530863285064697,
          -0.03024078719317913,
          0.6876302361488342,
          0.029456743970513344,
          -0.10489936172962189,
          -0.3280351161956787,
          0.13418488204479218,
          -0.11829313635826111,
          0.067405566573143,
          -0.05421805381774902,
          0.09236512333154678,
          -0.02404443919658661,
          0.6694362163543701,
          0.025663480162620544,
          -0.011008049361407757,
          -0.004280389286577702,
          0.7696945071220398,
          -0.11499980837106705,
          0.0815945491194725,
          0.042869724333286285,
          -0.09494586288928986,
          0.13426299393177032,
          0.04122680798172951,
          -0.07260309159755707,
          0.43805885314941406,
          0.1847175806760788,
          0.7272381782531738,
          -0.002405524253845215,
          -0.007458239793777466,
          0.016169866546988487,
          -0.059937942773103714,
          -0.11328606307506561,
          0.08865876495838165,
          -0.09478680044412613,
          0.051191702485084534,
          -0.030541442334651947,
          -0.08970038592815399,
          -0.09879905730485916,
          -0.03521093353629112,
          -0.06902734935283661,
          -0.024484481662511826,
          0.6394869685173035,
          -0.09569555521011353,
          -0.02277013659477234,
          -0.2743423581123352,
          -0.08899618685245514,
          0.17771601676940918,
          -0.15380072593688965,
          0.03901867941021919,
          0.4650605618953705
        ],
        [
          0.025393012911081314,
          -0.06509549915790558,
          0.4584710896015167,
          0.06649014353752136,
          -0.07558730244636536,
          -0.043552737683057785,
          0.14615170657634735,
          0.01754888892173767,
          0.002756282687187195,
          -0.005737593397498131,
          1.5147255659103394,
          0.11098572611808777,
          0.02598939836025238,
          -1.4906578063964844,
          -1.5106738805770874,
          0.021973848342895508,
          0.9590352177619934,
          -1.6206259727478027,
          0.02580428123474121,
          0.3466649055480957,
          -1.4296677112579346,
          -0.08012977242469788,
          -0.00971693079918623,
          -0.07302826642990112,
          -0.10337413847446442,
          -1.5899168252944946,
          2.851330518722534,
          -0.029481619596481323,
          0.05076000839471817,
          -0.054156601428985596,
          1.677192211151123,
          -0.08966609835624695,
          1.6337149143218994,
          -0.07440613955259323,
          -0.04627995193004608,
          -1.4454556703567505,
          -0.08477003872394562,
          -0.10383646190166473,
          0.06505294144153595,
          1.1826311349868774,
          2.0616745948791504,
          0.019980885088443756,
          0.061811789870262146,
          1.6484689712524414,
          -0.10030686855316162,
          -1.4343700408935547,
          0.07632318139076233,
          -0.06684993207454681,
          0.07735343277454376,
          1.8530974388122559,
          -0.05459941178560257,
          1.5498696565628052,
          -0.02107881009578705,
          -1.5819509029388428,
          1.7546014785766602,
          0.27704504132270813,
          -0.01765213906764984,
          0.11125172674655914,
          1.025414228439331,
          -0.10963840782642365,
          -1.6152968406677246,
          -0.0220764372497797,
          0.0844368115067482,
          0.7678151726722717
        ],
        [
          0.10298259556293488,
          -8.416175842285156e-05,
          -0.05968448519706726,
          0.11605477333068848,
          -0.044575199484825134,
          0.11324846744537354,
          0.07275696098804474,
          -0.07783158123493195,
          0.07701174914836884,
          0.09110930562019348,
          -0.056695371866226196,
          -0.06331110000610352,
          -0.05467382073402405,
          -0.11529400944709778,
          0.022759780287742615,
          -0.04306735098361969,
          0.04080586135387421,
          -0.0016941875219345093,
          0.11539740860462189,
          0.04320456087589264,
          0.020490869879722595,
          -0.10868717730045319,
          0.11402913928031921,
          -0.10169140994548798,
          0.10319925844669342,
          -0.003633543848991394,
          0.040541261434555054,
          0.0014485567808151245,
          0.0806674063205719,
          0.022566035389900208,
          -0.11101758480072021,
          -0.03278537094593048,
          0.11152729392051697,
          0.020948484539985657,
          -0.02772730588912964,
          -0.08446301519870758,
          0.059917181730270386,
          -0.011505722999572754,
          -0.11090780794620514,
          -0.012556448578834534,
          0.015588298439979553,
          -0.10001753270626068,
          0.06682828068733215,
          -0.051275044679641724,
          -0.01819191873073578,
          0.0907997339963913,
          -0.02665671706199646,
          -0.005758330225944519,
          -0.1208275705575943,
          0.09792697429656982,
          0.06680114567279816,
          0.08720776438713074,
          -0.004887744784355164,
          0.07223215699195862,
          -0.07625626027584076,
          -0.09695082902908325,
          0.09344974160194397,
          0.08668984472751617,
          -0.04865337908267975,
          -0.006126284599304199,
          0.014435410499572754,
          -0.019991159439086914,
          0.0706423968076706,
          -0.07102194428443909
        ],
        [
          0.07266321033239365,
          -0.09513066709041595,
          -0.8275367617607117,
          0.09398077428340912,
          0.09835800528526306,
          -0.05851927027106285,
          -0.15355563163757324,
          -0.11081981658935547,
          -0.11550398170948029,
          0.07576053589582443,
          -0.5041463971138,
          -0.15473216772079468,
          -0.09245660901069641,
          0.505474865436554,
          0.5080921649932861,
          0.008944101631641388,
          0.7101539969444275,
          0.5946168303489685,
          -0.10035404562950134,
          -0.790162980556488,
          0.6032284498214722,
          -0.09290209412574768,
          -0.13816185295581818,
          -0.05473950877785683,
          -0.09399944543838501,
          0.5008646845817566,
          0.9057626724243164,
          -0.06249228119850159,
          0.08866746723651886,
          -0.06527790427207947,
          0.5936347246170044,
          -0.10917016863822937,
          -0.5539402365684509,
          0.02487742342054844,
          0.03720375895500183,
          0.4532656669616699,
          -0.09593959152698517,
          0.03799797594547272,
          0.12254241853952408,
          0.44081732630729675,
          0.836875855922699,
          0.0378853976726532,
          -0.03924880921840668,
          -0.43328654766082764,
          -0.0772724375128746,
          0.5746163725852966,
          -0.09685851633548737,
          -0.030629770830273628,
          -0.07174719870090485,
          -0.3448218107223511,
          0.025111787021160126,
          -0.5764437913894653,
          0.011262774467468262,
          0.6362479329109192,
          -0.38448360562324524,
          0.5032034516334534,
          0.03329484164714813,
          -0.07725855708122253,
          0.5440354943275452,
          -0.10042794048786163,
          0.5705270767211914,
          -0.1384466588497162,
          -0.11653148382902145,
          0.575385332107544
        ],
        [
          0.04636630415916443,
          0.11290059983730316,
          0.091300830245018,
          -0.04254894703626633,
          0.10102853178977966,
          -0.1622055321931839,
          -0.011861319653689861,
          -0.06688424199819565,
          -0.09541887044906616,
          0.10809879004955292,
          0.10096994787454605,
          0.2284536212682724,
          -0.08333036303520203,
          0.18765635788440704,
          0.10673751682043076,
          0.01792892813682556,
          -0.056271929293870926,
          0.09651074558496475,
          0.008170276880264282,
          0.22710517048835754,
          0.12248014658689499,
          0.0016400922322645783,
          0.061438169330358505,
          -0.03903929516673088,
          -0.11112213134765625,
          0.16471950709819794,
          0.013488761149346828,
          0.04726439714431763,
          -0.13455654680728912,
          -0.06603582203388214,
          -0.12966831028461456,
          -0.10939401388168335,
          0.013491415418684483,
          -0.10398967564105988,
          -0.050044283270835876,
          0.20342867076396942,
          0.04769916087388992,
          -0.026118360459804535,
          -0.06868714839220047,
          0.24806150794029236,
          -0.056825608015060425,
          0.012736881151795387,
          0.012161403894424438,
          0.04481268674135208,
          -0.03183390945196152,
          0.02872757613658905,
          0.006710663437843323,
          -0.026328762993216515,
          -0.0617094524204731,
          0.19195741415023804,
          0.054441072046756744,
          0.08546196669340134,
          -0.024316459894180298,
          0.00672715250402689,
          0.1254056990146637,
          -0.1382635235786438,
          -0.07887141406536102,
          -0.011873498558998108,
          0.3437497019767761,
          -0.051686521619558334,
          0.17489898204803467,
          -0.16065534949302673,
          0.0020565283484756947,
          0.03585691377520561
        ],
        [
          0.05412212014198303,
          0.09056785702705383,
          0.4905056953430176,
          0.07720892131328583,
          0.017653658986091614,
          -0.14658749103546143,
          -0.08192052692174911,
          -0.077690489590168,
          -0.1057848185300827,
          0.002170558786019683,
          0.02616463415324688,
          0.24396948516368866,
          -0.0683317631483078,
          0.19030354917049408,
          0.02018994279205799,
          0.0031133992597460747,
          -0.4468613564968109,
          0.18073397874832153,
          0.03459535539150238,
          0.48030129075050354,
          -0.004737696144729853,
          0.026483606547117233,
          -0.11043775081634521,
          -0.11278141289949417,
          -0.08982571959495544,
          0.1356121003627777,
          -0.23280657827854156,
          -0.004364281892776489,
          -0.12165997177362442,
          0.09255466610193253,
          -0.856188178062439,
          0.023427575826644897,
          0.055861696600914,
          -0.005152790807187557,
          -0.06448447704315186,
          0.004303848370909691,
          -0.15335001051425934,
          -0.11661365628242493,
          -0.557833194732666,
          0.3670515716075897,
          -0.894462525844574,
          -0.005477204453200102,
          0.042973414063453674,
          0.13307549059391022,
          0.05750512704253197,
          0.20067815482616425,
          0.1120644062757492,
          0.08539433777332306,
          0.08478644490242004,
          0.020756997168064117,
          -0.02302704006433487,
          0.08091560006141663,
          -0.10968232899904251,
          0.16848033666610718,
          0.13030363619327545,
          -0.30671149492263794,
          0.12172998487949371,
          -0.049964189529418945,
          0.43112578988075256,
          -0.10099507868289948,
          0.008858433924615383,
          0.06874044239521027,
          -0.1078888550400734,
          -0.344116747379303
        ],
        [
          -0.07914584875106812,
          -0.05999314785003662,
          -0.7512481212615967,
          0.06200340390205383,
          0.04427599906921387,
          0.013958735391497612,
          -0.11385872960090637,
          -0.011230453848838806,
          0.10953700542449951,
          0.05438302084803581,
          -0.3464016020298004,
          -0.23003478348255157,
          0.12333935499191284,
          -0.10049539804458618,
          -0.23133864998817444,
          0.09872990846633911,
          0.24132634699344635,
          -0.2564639151096344,
          -0.03512836992740631,
          -0.8579733967781067,
          -0.05840310454368591,
          -0.014619380235671997,
          -0.06857132911682129,
          -0.1151617020368576,
          0.06276756525039673,
          -0.11572829633951187,
          0.24962657690048218,
          -0.11244894564151764,
          -0.14111436903476715,
          0.06636147201061249,
          0.4020744562149048,
          0.08902214467525482,
          -0.45249730348587036,
          0.07998501509428024,
          -0.09415900707244873,
          -0.13627146184444427,
          -0.09911742806434631,
          0.05337376892566681,
          0.3330322802066803,
          0.21700002253055573,
          0.4888790547847748,
          0.12371568381786346,
          -0.0744326114654541,
          -0.3638046085834503,
          -0.010985225439071655,
          -0.13242287933826447,
          -0.07632802426815033,
          0.09654401242733002,
          -0.07761208713054657,
          -0.6699981093406677,
          0.045242905616760254,
          -0.44634246826171875,
          -0.01122632622718811,
          -0.06714921444654465,
          -0.2966528832912445,
          0.4683941900730133,
          0.07792216539382935,
          -0.0002119988203048706,
          -0.06714144349098206,
          0.07766556739807129,
          -0.21927377581596375,
          -0.02738754265010357,
          -0.020995566621422768,
          0.5114237666130066
        ],
        [
          -0.14810143411159515,
          -0.028600886464118958,
          -0.17050756514072418,
          -0.11017771065235138,
          0.06745767593383789,
          -0.0516258105635643,
          -0.10709235072135925,
          -0.10133437812328339,
          0.022556930780410767,
          -0.12732724845409393,
          0.1453193873167038,
          -0.6514089703559875,
          -0.11977089941501617,
          -0.1576627790927887,
          0.10947258770465851,
          0.10982950776815414,
          0.8642745018005371,
          -0.07642322778701782,
          0.09065060317516327,
          0.003920732531696558,
          0.03038848377764225,
          0.04245345667004585,
          -0.10850296169519424,
          -0.08494625985622406,
          -0.05999594181776047,
          -0.1032775491476059,
          0.9669304490089417,
          0.11750037968158722,
          -0.009783850982785225,
          -0.0487295426428318,
          0.784744381904602,
          -0.010569791309535503,
          0.0987422913312912,
          -0.12274639308452606,
          0.042867571115493774,
          -0.11927870661020279,
          -0.14078408479690552,
          -0.14887745678424835,
          0.2949232757091522,
          0.1239221841096878,
          0.9069127440452576,
          -0.08648309111595154,
          -0.020386919379234314,
          0.05946163088083267,
          0.10292799770832062,
          -0.3041972815990448,
          0.05084216594696045,
          0.08086808770895004,
          0.0703427866101265,
          0.1850261688232422,
          -0.015484418720006943,
          0.2530460059642792,
          0.053148288279771805,
          -0.04833943024277687,
          0.3055558502674103,
          0.4241562783718109,
          0.11681652069091797,
          0.05239318311214447,
          -0.21943730115890503,
          0.04555423557758331,
          0.09881887584924698,
          -0.06283164769411087,
          -0.10990825295448303,
          0.5556536912918091
        ],
        [
          0.010140830650925636,
          0.03658175468444824,
          -0.6270602941513062,
          0.08617820590734482,
          0.004205659031867981,
          0.04638944938778877,
          -0.06904137879610062,
          0.0575946643948555,
          0.060822829604148865,
          0.09213341027498245,
          -0.5884461998939514,
          -0.08406757563352585,
          0.049842655658721924,
          0.6419128179550171,
          0.7438024282455444,
          -0.108122818171978,
          0.7292048931121826,
          0.5669854283332825,
          -0.05865807831287384,
          -0.7576814889907837,
          0.43870434165000916,
          -0.07495199143886566,
          -0.010851752012968063,
          -0.13805603981018066,
          0.06268219649791718,
          0.7505856156349182,
          1.1544641256332397,
          0.027142927050590515,
          -0.046011753380298615,
          0.11079300194978714,
          0.6073102355003357,
          0.016771113499999046,
          -0.4320257604122162,
          0.1119358018040657,
          -0.024841904640197754,
          0.5190809369087219,
          -0.013440725393593311,
          0.016051629558205605,
          0.05631747096776962,
          0.5529793500900269,
          0.9173112511634827,
          0.07036672532558441,
          -0.12273287773132324,
          -0.5701296329498291,
          -0.03599388524889946,
          0.49862512946128845,
          -0.006814166903495789,
          0.03578953444957733,
          -0.12211944907903671,
          -0.4715820252895355,
          0.06666671484708786,
          -0.434688001871109,
          -0.04938323050737381,
          0.6385211944580078,
          -0.47714582085609436,
          0.316744863986969,
          -0.026171386241912842,
          -0.1125851422548294,
          0.6441667675971985,
          -0.111129529774189,
          0.6094494462013245,
          0.0449141189455986,
          -0.13620415329933167,
          0.5478967428207397
        ],
        [
          0.03457982838153839,
          0.05836509168148041,
          -0.109306201338768,
          0.10910698771476746,
          0.10021267831325531,
          -0.05233757197856903,
          -0.0870131105184555,
          0.05633172392845154,
          0.029408171772956848,
          -0.0047608911991119385,
          0.11169715225696564,
          -0.08040782809257507,
          -0.09400801360607147,
          0.05769143998622894,
          -0.012565717101097107,
          0.043759942054748535,
          -0.012773647904396057,
          -0.07642486691474915,
          0.11511695384979248,
          0.11882461607456207,
          -0.042373090982437134,
          -0.05024246871471405,
          0.11265484988689423,
          -0.07639437913894653,
          -0.092529296875,
          0.05487138032913208,
          0.04414215683937073,
          -0.11909331381320953,
          -0.0942661464214325,
          0.015014201402664185,
          -0.08404453098773956,
          -0.04834206402301788,
          0.00850483775138855,
          0.04347728192806244,
          0.07634870707988739,
          -0.012824073433876038,
          0.03623788058757782,
          0.03159146010875702,
          -0.09574335813522339,
          0.06563399732112885,
          0.12128293514251709,
          0.10703374445438385,
          -0.0670986920595169,
          0.11588157713413239,
          0.06154875457286835,
          -0.016073569655418396,
          -0.11383934319019318,
          -0.06145535409450531,
          -0.04807022213935852,
          -0.09826681017875671,
          -0.0715273767709732,
          0.042136579751968384,
          0.05794091522693634,
          -0.04162454605102539,
          0.001559033989906311,
          0.09966965019702911,
          -0.08545677363872528,
          0.03773610293865204,
          0.02863048017024994,
          0.011006951332092285,
          -0.10310769081115723,
          -0.08928382396697998,
          0.019434094429016113,
          -0.1151299774646759
        ],
        [
          0.09275192022323608,
          0.020374000072479248,
          -1.559971809387207,
          0.0011012107133865356,
          0.016267359256744385,
          0.02786957658827305,
          0.09801016002893448,
          -0.07063588500022888,
          0.0898907333612442,
          -0.05799014866352081,
          -1.358199954032898,
          0.02362566441297531,
          -0.06102924048900604,
          1.3616187572479248,
          1.434699535369873,
          0.09698560833930969,
          -0.8491432070732117,
          1.4983493089675903,
          0.10411316156387329,
          -1.2817777395248413,
          1.271016240119934,
          0.10777734220027924,
          -0.06980140507221222,
          0.11016097664833069,
          -0.07908597588539124,
          1.5226835012435913,
          -1.0071799755096436,
          0.0995999127626419,
          0.12535540759563446,
          0.08271849900484085,
          -0.7335359454154968,
          -0.07981397956609726,
          -1.4855507612228394,
          0.10980100929737091,
          0.07381051778793335,
          1.3689477443695068,
          0.00841700192540884,
          0.007767675444483757,
          0.024356650188565254,
          -0.016029197722673416,
          -0.820273220539093,
          -0.06422805786132812,
          0.01358380913734436,
          -1.4510061740875244,
          0.006756395101547241,
          1.3430473804473877,
          -0.058805063366889954,
          0.029328063130378723,
          0.051280926913022995,
          -1.5211423635482788,
          0.001205400563776493,
          -1.3404252529144287,
          0.08055270463228226,
          1.3046990633010864,
          -1.480063796043396,
          0.007599666714668274,
          -0.04732149839401245,
          0.08239221572875977,
          0.10847251117229462,
          -0.003401081310585141,
          -0.03492776304483414,
          -0.09030364453792572,
          -0.06686888635158539,
          -0.01153011154383421
        ],
        [
          -0.036982983350753784,
          -0.12470632791519165,
          0.1846843957901001,
          0.0030450522899627686,
          0.09737375378608704,
          -0.0883769541978836,
          -0.11122437566518784,
          0.09915313124656677,
          -0.009297952055931091,
          0.13657505810260773,
          0.8695047497749329,
          -0.13140498101711273,
          0.09037519991397858,
          -0.7683077454566956,
          -0.6753644347190857,
          0.009153217077255249,
          0.5835402607917786,
          -0.7799466848373413,
          0.0652036964893341,
          0.26320064067840576,
          -0.6646275520324707,
          -0.0014162957668304443,
          0.11161662638187408,
          -0.01160477101802826,
          -0.03287625312805176,
          -0.7802438735961914,
          0.7277796864509583,
          -0.11944150924682617,
          -0.09953966736793518,
          0.06706705689430237,
          0.3057299554347992,
          -0.06345152854919434,
          0.8111690282821655,
          0.037717174738645554,
          0.0012697428464889526,
          -0.721929132938385,
          -0.04868268966674805,
          0.034600093960762024,
          0.5684343576431274,
          0.6862666606903076,
          0.5155750513076782,
          0.05135871469974518,
          -0.09871773421764374,
          0.7283145785331726,
          -0.10411878675222397,
          -0.7187193036079407,
          -0.035619333386421204,
          0.03724526986479759,
          -0.03133894503116608,
          0.4461367428302765,
          -0.10450506210327148,
          0.6668007373809814,
          0.046238794922828674,
          -0.593593180179596,
          0.4218159317970276,
          0.3472389578819275,
          -0.006033286452293396,
          -0.11754864454269409,
          0.4423827528953552,
          0.022281020879745483,
          -0.6699756979942322,
          -0.08005639165639877,
          0.03496022894978523,
          0.40629640221595764
        ],
        [
          -0.030469976365566254,
          -0.09663708508014679,
          0.2642667889595032,
          -0.1052577868103981,
          0.0657741129398346,
          -0.14709709584712982,
          -0.003235604614019394,
          -0.06060662120580673,
          -0.037947654724121094,
          -0.10740314424037933,
          0.1616983562707901,
          0.1352931708097458,
          -0.0639287531375885,
          0.026226764544844627,
          -0.024911388754844666,
          0.002146582817658782,
          -0.06546542048454285,
          0.023568663746118546,
          -0.12229233980178833,
          0.26294901967048645,
          0.025750942528247833,
          -0.09769510477781296,
          0.02746129408478737,
          -0.12037989497184753,
          -0.08259172737598419,
          0.09012238681316376,
          -0.026977168396115303,
          0.07669812440872192,
          0.07932361960411072,
          0.012526636943221092,
          -0.033814139664173126,
          -0.1373482197523117,
          0.14609794318675995,
          -0.16764256358146667,
          -0.06851387023925781,
          -0.0988253653049469,
          0.036744896322488785,
          -0.019625145941972733,
          -0.06381593644618988,
          0.05276861414313316,
          -0.005690408404916525,
          0.062195226550102234,
          -0.09644412994384766,
          0.25249919295310974,
          -0.030919957906007767,
          0.0715673565864563,
          0.07314656674861908,
          0.03022390976548195,
          0.0761590525507927,
          0.23568104207515717,
          0.09833867847919464,
          0.14362487196922302,
          0.05064655467867851,
          0.05853474885225296,
          0.07967352122068405,
          -0.12344253063201904,
          -0.029407858848571777,
          0.08865948021411896,
          0.037735119462013245,
          -0.0598740316927433,
          0.04098471626639366,
          0.01628480851650238,
          -0.12469997256994247,
          -0.09769966453313828
        ],
        [
          -0.08932013064622879,
          0.08670780062675476,
          0.006906761322170496,
          -0.09364525973796844,
          -0.10402701795101166,
          0.021039512008428574,
          -0.12408510595560074,
          0.03430429473519325,
          0.0467902272939682,
          0.040080662816762924,
          0.02437788061797619,
          -0.005242899525910616,
          0.06392723321914673,
          0.1305580586194992,
          0.09322399646043777,
          -0.000487431010697037,
          0.27477458119392395,
          0.09068221598863602,
          0.11957883834838867,
          -0.21311528980731964,
          0.2413778156042099,
          -0.0477110855281353,
          -0.05144667997956276,
          -0.13962136209011078,
          0.08409962058067322,
          0.16907139122486115,
          0.1688489466905594,
          0.09492532908916473,
          0.044590242207050323,
          0.045768044888973236,
          0.17837895452976227,
          0.013123229146003723,
          0.02274899370968342,
          0.0829065591096878,
          -0.08754834532737732,
          0.23712565004825592,
          -0.06380811333656311,
          0.046760786324739456,
          0.08917399495840073,
          0.13175857067108154,
          0.18859083950519562,
          -0.13642826676368713,
          -0.11744216084480286,
          -0.04145009443163872,
          -0.03497562184929848,
          0.14599591493606567,
          0.10562777519226074,
          0.017082061618566513,
          0.06397151201963425,
          0.052899319678545,
          -0.03394715115427971,
          -0.04435672610998154,
          -0.08861273527145386,
          0.2765497863292694,
          -0.1468023806810379,
          0.289249986410141,
          0.10958276689052582,
          0.02363051474094391,
          0.30661115050315857,
          0.0003294635098427534,
          0.25361987948417664,
          0.04494043067097664,
          -0.13831037282943726,
          0.1789126992225647
        ],
        [
          0.07779744267463684,
          -0.1039213240146637,
          0.011414825916290283,
          0.010137811303138733,
          -0.025475725531578064,
          -0.10627980530261993,
          0.07797148823738098,
          0.08326300978660583,
          0.1190032958984375,
          -0.0027089715003967285,
          -0.09573034942150116,
          -0.010807469487190247,
          -0.10390740633010864,
          0.137246236205101,
          0.11864553391933441,
          0.11891984939575195,
          0.06200656294822693,
          -0.040864232927560806,
          -0.011214062571525574,
          -0.07574155926704407,
          -0.048633869737386703,
          0.0510331392288208,
          -0.04136565327644348,
          0.10654079914093018,
          0.09568457305431366,
          0.02996276319026947,
          -0.09626242518424988,
          -0.10865937173366547,
          0.01955723762512207,
          0.05425381660461426,
          0.02224273979663849,
          -0.06091408431529999,
          0.08885152637958527,
          -0.014466851949691772,
          0.053342804312705994,
          0.040498994290828705,
          0.042495742440223694,
          0.08801600337028503,
          0.010576173663139343,
          0.06113062798976898,
          -0.008331820368766785,
          0.05173855647444725,
          0.10372500121593475,
          0.07683148980140686,
          -0.04168960452079773,
          0.03931409865617752,
          -0.11131586134433746,
          0.008309349417686462,
          -0.005588501691818237,
          -0.08692876994609833,
          -0.06289069354534149,
          -0.08564667403697968,
          0.10363844037055969,
          -0.023281369358301163,
          -0.11470812559127808,
          -0.07087519764900208,
          0.10540743172168732,
          -0.02463117241859436,
          -0.09419852495193481,
          -0.03003886342048645,
          -0.032166145741939545,
          0.07643494009971619,
          0.023746013641357422,
          -0.005452822428196669
        ],
        [
          -0.022138336673378944,
          -0.014736995100975037,
          0.8710951209068298,
          0.050745394080877304,
          0.004210144281387329,
          -0.023591307923197746,
          -0.15129046142101288,
          -0.1387300044298172,
          -0.023864567279815674,
          -0.01109135989099741,
          0.6095754504203796,
          0.4913315773010254,
          0.07134252786636353,
          -0.35696542263031006,
          -0.34403499960899353,
          0.08121360093355179,
          -1.0761224031448364,
          -0.3274824023246765,
          -0.11437636613845825,
          0.876181960105896,
          -0.371002197265625,
          0.022141627967357635,
          0.028948096558451653,
          0.03272143006324768,
          -0.11296355724334717,
          -0.35274314880371094,
          -1.0944602489471436,
          -0.03232148289680481,
          0.04878973960876465,
          -0.05592950060963631,
          -1.1825793981552124,
          0.018123047426342964,
          0.46192604303359985,
          0.05774348974227905,
          -0.059650078415870667,
          -0.2628565728664398,
          -0.024475175887346268,
          0.06878742575645447,
          -0.27798330783843994,
          -0.6765002608299255,
          -1.4969974756240845,
          0.04408448562026024,
          0.019259288907051086,
          0.6915407180786133,
          0.04634919390082359,
          -0.24273473024368286,
          -0.10053551197052002,
          -0.10256141424179077,
          -0.06969889253377914,
          0.5976446270942688,
          -0.10153448581695557,
          0.5692576766014099,
          -0.14239849150180817,
          -0.2735813856124878,
          0.5682917833328247,
          -0.8692213296890259,
          -0.12308481335639954,
          -0.1180235892534256,
          -0.17725421488285065,
          -0.012524356134235859,
          -0.13196347653865814,
          0.020227020606398582,
          -0.03575022891163826,
          -1.3824608325958252
        ],
        [
          -0.12148373574018478,
          -0.033490076661109924,
          0.0991319864988327,
          0.03948691487312317,
          0.09779757261276245,
          -0.03883863240480423,
          0.025550497695803642,
          -0.088096022605896,
          0.04119110107421875,
          -0.0916362777352333,
          -0.4309244453907013,
          0.5436312556266785,
          0.11701139807701111,
          0.42109575867652893,
          0.3634912371635437,
          -0.027000591158866882,
          0.3604675531387329,
          0.45591312646865845,
          0.020460769534111023,
          0.15085329115390778,
          0.4474772810935974,
          -0.015957802534103394,
          0.025802521035075188,
          0.11680720746517181,
          -0.03698177635669708,
          0.35825294256210327,
          0.058521516621112823,
          0.032741889357566833,
          -0.056832876056432724,
          -0.04469819366931915,
          0.5143295526504517,
          0.08018306642770767,
          -0.43672671914100647,
          0.14310306310653687,
          0.042253509163856506,
          0.3047167956829071,
          0.01947617530822754,
          -0.026291534304618835,
          0.318036824464798,
          0.1720510870218277,
          0.3933338522911072,
          -0.13446028530597687,
          0.09842084348201752,
          -0.2618138790130615,
          0.006998422555625439,
          0.36239176988601685,
          -0.12239222228527069,
          0.056909654289484024,
          0.024966225028038025,
          -0.21998509764671326,
          0.03521447628736496,
          -0.23663575947284698,
          -0.023942187428474426,
          0.4115501046180725,
          -0.34911760687828064,
          0.12165987491607666,
          0.004379451274871826,
          0.03854924440383911,
          -0.0211983360350132,
          0.09155488014221191,
          0.35346847772598267,
          0.10980876535177231,
          -0.08007342368364334,
          0.1796257644891739
        ],
        [
          -0.004974231123924255,
          -0.07541860640048981,
          0.02661992609500885,
          0.06586477160453796,
          -0.03897388279438019,
          -0.0018130689859390259,
          0.046976521611213684,
          -0.09126771986484528,
          -0.055757761001586914,
          0.10059702396392822,
          -0.12067164480686188,
          -0.04459202289581299,
          0.02802160382270813,
          0.0389992892742157,
          0.11597426235675812,
          -0.060627132654190063,
          0.09625250101089478,
          0.0031538456678390503,
          0.06261712312698364,
          0.04344464838504791,
          0.04065614938735962,
          0.10576973855495453,
          0.0015336871147155762,
          -0.024247601628303528,
          0.051019683480262756,
          0.10507623851299286,
          -0.10276477038860321,
          -0.04150424897670746,
          -0.1078406423330307,
          -0.027558863162994385,
          0.017691418528556824,
          -0.07162562012672424,
          0.10116742551326752,
          0.023854702711105347,
          -0.07727834582328796,
          0.07458119094371796,
          -0.029699891805648804,
          -0.0934695154428482,
          -0.019361674785614014,
          0.12272092700004578,
          0.060482487082481384,
          -0.09346838295459747,
          -0.1107063740491867,
          -0.05080734193325043,
          -0.05357582867145538,
          0.0672403872013092,
          0.0411670058965683,
          -0.07917386293411255,
          -0.07002599537372589,
          -0.11662347614765167,
          -0.07440321147441864,
          -0.03125759959220886,
          -0.10338073968887329,
          0.07018405199050903,
          0.04286375641822815,
          0.03529156744480133,
          -0.08896063268184662,
          0.0409332811832428,
          0.01564618945121765,
          0.06438422203063965,
          -0.054088860750198364,
          0.03922012448310852,
          0.11620692908763885,
          -0.08250853419303894
        ],
        [
          -0.02424420788884163,
          0.023202434182167053,
          -0.20377595722675323,
          0.05296533927321434,
          -0.11296357214450836,
          0.05523443594574928,
          -0.03696170076727867,
          -0.13341134786605835,
          0.03527441620826721,
          -0.04376928508281708,
          -0.11695440858602524,
          -0.11442048847675323,
          -0.08386649191379547,
          0.18606121838092804,
          0.3008890450000763,
          -0.12256256490945816,
          0.41627925634384155,
          0.31957685947418213,
          -0.09705641865730286,
          -0.20598311722278595,
          0.12572023272514343,
          0.00028036514413543046,
          0.02353096753358841,
          -0.02435959503054619,
          0.05563156679272652,
          0.2241363376379013,
          0.4662066102027893,
          0.053807809948921204,
          -0.005474308505654335,
          -0.09424155950546265,
          0.33967262506484985,
          -0.03991689905524254,
          -0.14341333508491516,
          -0.15562698245048523,
          -0.06458830833435059,
          0.28778061270713806,
          -0.03823884576559067,
          -0.02918534353375435,
          0.10287575423717499,
          0.2427978813648224,
          0.2133205533027649,
          -0.05457647889852524,
          0.050647079944610596,
          -0.1375364512205124,
          0.04873745143413544,
          0.11659721285104752,
          -0.12284325063228607,
          -0.09928736090660095,
          -0.08919978141784668,
          -0.09121653437614441,
          0.039292413741350174,
          -0.12971653044223785,
          -0.11916370689868927,
          0.2898750901222229,
          -0.10326804220676422,
          0.33688488602638245,
          -0.10255758464336395,
          0.018405377864837646,
          0.14968697726726532,
          0.047615908086299896,
          0.21471574902534485,
          -0.10073217749595642,
          0.09165682643651962,
          0.41200709342956543
        ],
        [
          0.00858398899435997,
          -0.006313234567642212,
          0.25367334485054016,
          -0.027807191014289856,
          0.005991443991661072,
          -0.011266951449215412,
          -0.002610360737890005,
          0.04020807892084122,
          -0.047017306089401245,
          0.041858457028865814,
          0.2645820677280426,
          0.04899207130074501,
          -0.07565920054912567,
          0.0861327275633812,
          0.05501328781247139,
          -0.06352244317531586,
          -0.14232635498046875,
          -0.03479672968387604,
          -0.1013885885477066,
          0.21946856379508972,
          0.045852623879909515,
          0.03896753862500191,
          -0.15663562715053558,
          -0.06919959932565689,
          0.08561155200004578,
          -0.09014609456062317,
          -0.1582435667514801,
          -0.03866797685623169,
          0.032536838203668594,
          0.02308622933924198,
          -0.1316879540681839,
          -0.02194385603070259,
          0.28908616304397583,
          -0.158455491065979,
          -0.09545627236366272,
          -0.008510206826031208,
          0.03570657595992088,
          0.06065128743648529,
          -0.13303454220294952,
          -0.1538020521402359,
          -0.21745848655700684,
          0.00629963306710124,
          0.0806344598531723,
          0.22369422018527985,
          0.030136771500110626,
          0.03522370755672455,
          -0.06678907573223114,
          -0.12473651766777039,
          0.005839812569320202,
          0.2888043522834778,
          -0.09347056597471237,
          0.1532314419746399,
          -0.02874055877327919,
          0.019096622243523598,
          0.3303109109401703,
          -0.2762524485588074,
          -0.06045052409172058,
          0.014453470706939697,
          -0.1354726254940033,
          0.030896546319127083,
          0.07962935417890549,
          -0.12075595557689667,
          -0.04209871217608452,
          -0.24103033542633057
        ],
        [
          -0.08280423283576965,
          0.08266790211200714,
          -0.02529129385948181,
          0.0030551105737686157,
          -0.041285425424575806,
          -0.04046188294887543,
          0.07613830268383026,
          -0.099458247423172,
          -0.029696479439735413,
          0.09508898854255676,
          0.023296058177947998,
          -0.014627516269683838,
          -0.1242445856332779,
          0.08963951468467712,
          -0.0659252405166626,
          0.11818437278270721,
          -0.04750102758407593,
          0.0841141939163208,
          -0.10049574077129364,
          -0.06633105874061584,
          0.09106554090976715,
          0.11145859956741333,
          -0.0025103241205215454,
          -0.03486701846122742,
          0.10486273467540741,
          -0.06797143816947937,
          0.123895063996315,
          0.007786184549331665,
          0.11452138423919678,
          0.06583239138126373,
          0.008107155561447144,
          -0.0013863742351531982,
          0.002858474850654602,
          0.09038390219211578,
          -0.06961299479007721,
          -0.10313458740711212,
          0.0021836161613464355,
          0.07784375548362732,
          0.04338353872299194,
          0.12114886939525604,
          0.0719144195318222,
          0.10289962589740753,
          -0.0008046627044677734,
          0.11489425599575043,
          -0.09791339933872223,
          0.04722294211387634,
          0.11436909437179565,
          0.10764048993587494,
          0.11214758455753326,
          -0.09005863964557648,
          0.07199399173259735,
          -0.056806787848472595,
          0.056447833776474,
          -0.1121208518743515,
          -0.06991676986217499,
          -0.060878753662109375,
          0.04368157684803009,
          -0.11600832641124725,
          -0.057411953806877136,
          0.0612911581993103,
          -0.03499729931354523,
          -0.04139469563961029,
          0.021615490317344666,
          0.0687563568353653
        ],
        [
          0.008787031285464764,
          -0.02501465380191803,
          -0.00870509259402752,
          -0.12199793010950089,
          -0.0029876679182052612,
          0.055266834795475006,
          -0.0059175509959459305,
          -0.056056246161460876,
          0.0455130934715271,
          -0.017008572816848755,
          -0.15568560361862183,
          0.1624021977186203,
          -0.08940728008747101,
          0.17454397678375244,
          0.18533800542354584,
          -0.009416955523192883,
          -0.04386157542467117,
          0.2434179186820984,
          0.024334073066711426,
          0.1441630721092224,
          0.13816331326961517,
          -0.04321034625172615,
          -0.05128559097647667,
          0.08100079745054245,
          0.04988827928900719,
          0.19222122430801392,
          0.20977461338043213,
          0.06473562121391296,
          0.042740073055028915,
          -0.015647945925593376,
          -0.471668541431427,
          -0.005659946706146002,
          0.003974518273025751,
          0.014433280564844608,
          0.006040304899215698,
          0.28429725766181946,
          -0.12178177386522293,
          0.009372071363031864,
          -0.1561606377363205,
          0.38021421432495117,
          -0.23354458808898926,
          0.018192866817116737,
          0.013433828949928284,
          -0.0008144259336404502,
          -0.00037370563950389624,
          0.31535109877586365,
          0.018090873956680298,
          -0.12512828409671783,
          0.019810423254966736,
          -0.14880511164665222,
          -0.024626748636364937,
          0.035314880311489105,
          -0.031921133399009705,
          0.299458771944046,
          -0.10121146589517593,
          -0.10872069746255875,
          -0.007983073592185974,
          0.04216569662094116,
          0.6307711005210876,
          -0.1094304621219635,
          0.2623029351234436,
          0.003891081316396594,
          -0.03530671074986458,
          -0.1755673736333847
        ],
        [
          -0.10614161193370819,
          -0.0300876647233963,
          0.335928350687027,
          0.04636484012007713,
          0.07901586592197418,
          -0.09609627723693848,
          -0.12460888922214508,
          -0.05036327615380287,
          0.05531217157840729,
          -0.04900350421667099,
          0.3691864609718323,
          -1.2827759981155396,
          -0.0022704899311065674,
          -0.2588135898113251,
          -0.3244440257549286,
          -0.11632512509822845,
          -0.045769233256578445,
          -0.1690511703491211,
          0.04802556335926056,
          0.33902981877326965,
          -0.30017954111099243,
          -0.04233219474554062,
          -0.1054500937461853,
          -0.1501666009426117,
          -0.05041607841849327,
          -0.22305640578269958,
          -0.0741240605711937,
          -0.12439639866352081,
          -0.03832419589161873,
          0.04103462025523186,
          0.16134561598300934,
          -0.023264948278665543,
          0.34610551595687866,
          -0.1773819923400879,
          0.06101024150848389,
          -0.335348904132843,
          -0.11538932472467422,
          -0.02151978574693203,
          0.5444343686103821,
          -0.41436880826950073,
          0.22796238958835602,
          0.04176688194274902,
          -0.023786872625350952,
          0.36344799399375916,
          -0.1317722499370575,
          -0.22790618240833282,
          0.04026275873184204,
          -0.022293012589216232,
          0.05014810711145401,
          0.33370235562324524,
          -0.07407748699188232,
          0.40363651514053345,
          -0.04575086385011673,
          -0.3307850956916809,
          0.4707210063934326,
          0.21134710311889648,
          -0.03971165418624878,
          0.0732940137386322,
          -0.9486356377601624,
          0.000667133426759392,
          -0.2613753378391266,
          -0.045923877507448196,
          -0.04262300953269005,
          0.2438759207725525
        ],
        [
          -0.06491653621196747,
          0.018529772758483887,
          -0.003904791548848152,
          -0.05374986678361893,
          -0.06143862009048462,
          0.09659537672996521,
          -0.11277887225151062,
          0.07180893421173096,
          -0.1188676506280899,
          0.030394967645406723,
          0.025633610785007477,
          -0.7038793563842773,
          0.11338973045349121,
          -0.0931122675538063,
          0.0425296425819397,
          0.09711974859237671,
          0.18756717443466187,
          0.0692128911614418,
          0.10321035981178284,
          0.023601176217198372,
          0.02009836956858635,
          0.028447730466723442,
          0.013755055144429207,
          -0.11525776237249374,
          0.06592517346143723,
          -0.054679811000823975,
          0.1320405900478363,
          -0.10026143491268158,
          -0.1136077344417572,
          -0.07882542908191681,
          0.1738356351852417,
          0.10880565643310547,
          0.13135553896427155,
          -0.04620769992470741,
          -0.08095429837703705,
          -0.08103832602500916,
          -0.017919931560754776,
          0.01664523221552372,
          0.15441758930683136,
          0.033912986516952515,
          0.3213653266429901,
          -0.08735255897045135,
          -0.021609365940093994,
          0.09768319129943848,
          -0.12718328833580017,
          -0.1363648921251297,
          -0.05975133180618286,
          -0.0541018471121788,
          -0.06194816902279854,
          0.1901090145111084,
          -0.12437810003757477,
          0.04736678674817085,
          -0.07612861692905426,
          -0.10965318232774734,
          0.16917107999324799,
          0.303519070148468,
          -0.040851444005966187,
          -0.07131895422935486,
          -0.35195037722587585,
          -0.09858649224042892,
          0.1331290304660797,
          0.036791302263736725,
          -0.1661670058965683,
          0.22837641835212708
        ],
        [
          -0.061873938888311386,
          -0.09568998217582703,
          -0.29189231991767883,
          0.026044189929962158,
          -0.01681959629058838,
          -0.08623585850000381,
          0.07460259646177292,
          0.09944409132003784,
          0.08297136425971985,
          -0.10820624232292175,
          -0.33437860012054443,
          0.7090548276901245,
          -0.04893508553504944,
          0.476633220911026,
          0.495633065700531,
          0.06501506268978119,
          0.5120807886123657,
          0.5590104460716248,
          -0.03399941325187683,
          -0.3669646084308624,
          0.4708790183067322,
          0.0365975946187973,
          -0.09956025332212448,
          0.0689513236284256,
          -0.061899662017822266,
          0.3724949359893799,
          0.06444072723388672,
          -0.005747690796852112,
          0.08639366924762726,
          0.11779603362083435,
          0.550788164138794,
          0.04592858627438545,
          -0.2865515649318695,
          0.05098238214850426,
          -0.0023437291383743286,
          0.45265910029411316,
          0.040633365511894226,
          0.009096011519432068,
          0.32562851905822754,
          0.11532443016767502,
          0.6054359674453735,
          0.03908112645149231,
          0.12454017996788025,
          -0.4386153221130371,
          -0.015309205278754234,
          0.5687107443809509,
          0.0617380291223526,
          0.05863790959119797,
          0.06753751635551453,
          -0.46839675307273865,
          -0.08176881074905396,
          -0.3236725628376007,
          -0.12439337372779846,
          0.3546387255191803,
          -0.39340755343437195,
          0.25099584460258484,
          0.016225174069404602,
          0.008806765079498291,
          -0.05316945165395737,
          0.021687880158424377,
          0.576084554195404,
          0.09168566018342972,
          0.03691206872463226,
          0.33822306990623474
        ],
        [
          -0.16644549369812012,
          0.017150819301605225,
          0.9405092597007751,
          0.0886443629860878,
          -0.10912108421325684,
          -0.13907265663146973,
          -0.016934262588620186,
          -0.04910942539572716,
          -0.09399749338626862,
          0.03359627351164818,
          0.5165303349494934,
          0.27649956941604614,
          0.10531085729598999,
          -0.17537133395671844,
          -0.23223674297332764,
          -0.1223936527967453,
          -1.2211856842041016,
          -0.10905928909778595,
          0.00422319769859314,
          0.6863372325897217,
          -0.3479045629501343,
          0.022991014644503593,
          -0.11642666906118393,
          -0.0425567552447319,
          0.053824011236429214,
          -0.08626619726419449,
          -0.8289486765861511,
          -0.02561567723751068,
          0.09209513664245605,
          -0.106717549264431,
          -1.4132189750671387,
          -0.10772059112787247,
          0.5662099123001099,
          -0.13334237039089203,
          0.06625878810882568,
          -0.15650616586208344,
          -0.11093024909496307,
          0.09316188097000122,
          -0.8117287755012512,
          -0.29562610387802124,
          -1.5313481092453003,
          0.01912127062678337,
          -0.09181129932403564,
          0.4208762049674988,
          -0.04313109815120697,
          -0.11746874451637268,
          -0.10870659351348877,
          -0.12333691865205765,
          -0.015315964818000793,
          0.49561211466789246,
          -0.04346199706196785,
          0.48987042903900146,
          -0.17376606166362762,
          -0.24799589812755585,
          0.4782732129096985,
          -0.9056873917579651,
          0.08124428987503052,
          -0.07926760613918304,
          0.2684096693992615,
          0.027765704318881035,
          -0.21881335973739624,
          0.0740358829498291,
          0.011548949405550957,
          -1.0021860599517822
        ],
        [
          0.014123234897851944,
          0.012593463063240051,
          0.3398853838443756,
          -0.04140573367476463,
          -0.10912303626537323,
          -0.07963517308235168,
          -0.14906840026378632,
          -0.017651710659265518,
          -0.056346893310546875,
          -0.12081608921289444,
          0.365731805562973,
          -1.2366846799850464,
          -0.08624641597270966,
          -0.2460673302412033,
          -0.23260749876499176,
          -0.012672328390181065,
          0.1601453572511673,
          -0.3649974763393402,
          0.026093512773513794,
          0.3115246295928955,
          -0.31628069281578064,
          0.009146912023425102,
          0.10608081519603729,
          0.05464787781238556,
          0.015217709355056286,
          -0.4598308205604553,
          -0.0972423106431961,
          0.11349260807037354,
          -0.048124946653842926,
          0.059749945998191833,
          0.4501263499259949,
          0.07462817430496216,
          0.48945045471191406,
          0.042938053607940674,
          0.04990203678607941,
          -0.2340952754020691,
          -0.035407550632953644,
          0.08069513738155365,
          0.5271640419960022,
          -0.46356943249702454,
          0.38776445388793945,
          -0.045811817049980164,
          -0.08120137453079224,
          0.38797998428344727,
          -0.0309658944606781,
          -0.3516159653663635,
          0.08823752403259277,
          -0.1057368740439415,
          -0.018344298005104065,
          0.4513491690158844,
          -0.04343518242239952,
          0.5149838328361511,
          0.04271935671567917,
          -0.3385170102119446,
          0.5108844041824341,
          0.42054659128189087,
          0.01734459400177002,
          -0.08721935749053955,
          -0.965268075466156,
          0.030951930209994316,
          -0.31308579444885254,
          0.049207903444767,
          -0.12852071225643158,
          0.32652372121810913
        ],
        [
          0.12363776564598083,
          -0.025901764631271362,
          -0.027949079871177673,
          0.06468768417835236,
          -0.10582076013088226,
          0.03665195405483246,
          -0.11786168813705444,
          -0.060145288705825806,
          -0.11521987617015839,
          -0.06998962163925171,
          0.012026652693748474,
          -0.019510328769683838,
          0.03042636811733246,
          0.01545405387878418,
          0.049199581146240234,
          -0.0006912648677825928,
          -0.03721646964550018,
          0.05005577206611633,
          -0.10591138899326324,
          0.026254698634147644,
          -0.09419310092926025,
          -0.03170950710773468,
          0.11413542926311493,
          0.04796861112117767,
          -0.0633089691400528,
          0.051385313272476196,
          -0.12222732603549957,
          0.013571009039878845,
          -0.011594414710998535,
          0.1203678697347641,
          -0.08329497277736664,
          0.02209201455116272,
          -0.0533725768327713,
          -0.05841994285583496,
          -0.021998867392539978,
          -0.07095611095428467,
          0.03590261936187744,
          0.078152596950531,
          -0.017322853207588196,
          0.04984454810619354,
          -0.0037884116172790527,
          0.006641119718551636,
          -0.02497352659702301,
          0.05060119926929474,
          0.005469590425491333,
          0.09161451458930969,
          -0.11891600489616394,
          0.10998411476612091,
          0.003687039017677307,
          0.021231159567832947,
          0.044317662715911865,
          0.005136460065841675,
          -0.09889882802963257,
          -0.10634024441242218,
          -0.04912695288658142,
          0.01583746075630188,
          -0.09991142153739929,
          -0.04423882067203522,
          -0.020818904042243958,
          -0.06793801486492157,
          0.09510405361652374,
          0.054822057485580444,
          -0.041364774107933044,
          0.10825005173683167
        ],
        [
          0.09380760788917542,
          -0.03859560191631317,
          0.03976540267467499,
          -0.0005013495683670044,
          -0.11849787831306458,
          -0.06745889782905579,
          -0.08570188283920288,
          -0.07026451826095581,
          0.0041982680559158325,
          0.11232122778892517,
          0.026722684502601624,
          0.05478601157665253,
          -0.05801032483577728,
          0.0021258294582366943,
          -0.05986042320728302,
          -0.04803667962551117,
          -0.08996519446372986,
          -0.1022074967622757,
          0.03429894149303436,
          -0.06504176557064056,
          0.01704832911491394,
          0.0762205421924591,
          -0.06126886606216431,
          0.017806649208068848,
          0.10591427981853485,
          -0.12351308763027191,
          -0.09611272811889648,
          0.07251131534576416,
          0.09761878848075867,
          0.06036140024662018,
          0.02739030122756958,
          -0.05722896754741669,
          0.051036491990089417,
          0.032308921217918396,
          0.11815385520458221,
          -0.003009319305419922,
          0.041541799902915955,
          -0.11050143837928772,
          0.02154390513896942,
          0.09880582988262177,
          0.004630491137504578,
          -0.07680951058864594,
          -0.10842554271221161,
          0.1067638248205185,
          0.12405164539813995,
          0.10077925026416779,
          -0.09182348847389221,
          -0.12483206391334534,
          0.08279892802238464,
          0.08292728662490845,
          -0.0392085462808609,
          -0.03200659155845642,
          0.021331772208213806,
          0.06145992875099182,
          -0.02064916491508484,
          -0.10434301197528839,
          -0.04531948268413544,
          -0.0068320780992507935,
          -0.11464957892894745,
          -0.023599699139595032,
          0.00302693247795105,
          0.061689987778663635,
          0.00844302773475647,
          0.012153640389442444
        ],
        [
          -0.09660176932811737,
          0.03492818772792816,
          0.053521156311035156,
          0.0011139661073684692,
          0.014120534062385559,
          0.06026481091976166,
          -0.1083168089389801,
          0.018686816096305847,
          0.07875292003154755,
          -0.06360052525997162,
          -0.028541788458824158,
          0.08815830945968628,
          0.11557440459728241,
          0.1211458295583725,
          0.022969529032707214,
          0.08851712942123413,
          -0.09579280018806458,
          0.04504258930683136,
          0.019128814339637756,
          -0.007221713662147522,
          -0.07006323337554932,
          0.04328913986682892,
          -0.014907777309417725,
          0.019632279872894287,
          -0.034783899784088135,
          0.023459166288375854,
          0.09729687869548798,
          0.07551616430282593,
          0.028915569186210632,
          0.02721691131591797,
          0.12477512657642365,
          0.04469534754753113,
          0.09066072106361389,
          -0.009748563170433044,
          0.04415334761142731,
          -0.028784647583961487,
          -0.09742842614650726,
          0.008982077240943909,
          0.09842613339424133,
          -0.11878673732280731,
          -0.11545532941818237,
          0.005184799432754517,
          -0.12492308020591736,
          -0.014084681868553162,
          0.04641364514827728,
          0.06410206854343414,
          0.10222749412059784,
          0.09732510149478912,
          -0.06778828799724579,
          -0.03717087209224701,
          -0.0838804543018341,
          0.09686243534088135,
          0.10398964583873749,
          -0.08693787455558777,
          -0.003307163715362549,
          -0.04532839357852936,
          -0.0050664544105529785,
          0.02242112159729004,
          -0.05872531235218048,
          0.07257664203643799,
          0.04649457335472107,
          -0.01771201193332672,
          0.11294791102409363,
          -0.030836597084999084
        ],
        [
          0.09525178372859955,
          -0.02422460913658142,
          -0.4321284592151642,
          0.10833141207695007,
          -0.09150540828704834,
          0.030391881242394447,
          -0.1561276912689209,
          -0.11386820673942566,
          -0.11740195751190186,
          -0.09009068459272385,
          -0.11616922914981842,
          0.644442617893219,
          0.08095313608646393,
          0.34802040457725525,
          0.41531801223754883,
          0.09482243657112122,
          0.44697749614715576,
          0.4624604880809784,
          0.034129902720451355,
          -0.4405153691768646,
          0.3654358983039856,
          0.11265480518341064,
          0.06439980119466782,
          -0.05954907834529877,
          -0.06003311276435852,
          0.3366648256778717,
          0.25896432995796204,
          -0.10144667327404022,
          0.07690753042697906,
          0.008546635508537292,
          0.6671329736709595,
          -0.1562417447566986,
          -0.1444922536611557,
          0.14066946506500244,
          0.11444349586963654,
          0.40430307388305664,
          0.016805529594421387,
          0.0015959292650222778,
          0.24754273891448975,
          0.2835104167461395,
          0.6754305362701416,
          -0.10534541308879852,
          0.12392927706241608,
          -0.22968661785125732,
          -0.002858178224414587,
          0.4849277436733246,
          0.02406497299671173,
          0.001060259179212153,
          0.06036794185638428,
          -0.26482954621315,
          0.09973472356796265,
          -0.24022671580314636,
          0.11620734632015228,
          0.4737120568752289,
          -0.12796981632709503,
          0.33564338088035583,
          0.04642464220523834,
          0.007320597767829895,
          0.002890932373702526,
          -0.041412994265556335,
          0.34983742237091064,
          -0.06964538991451263,
          0.11710470169782639,
          0.29631850123405457
        ],
        [
          -0.10251572728157043,
          0.06060191988945007,
          0.058264896273612976,
          -0.10289132595062256,
          -0.028668850660324097,
          0.04539571702480316,
          0.025942236185073853,
          -0.09383529424667358,
          -0.1146349161863327,
          -0.047418102622032166,
          -0.10824523866176605,
          0.11054818332195282,
          0.01470397412776947,
          -0.053774818778038025,
          0.07392314076423645,
          0.05249853432178497,
          0.11749853193759918,
          0.11233560740947723,
          0.11749911308288574,
          -0.09571234881877899,
          -0.04145252704620361,
          0.038354575634002686,
          -0.08479374647140503,
          -0.07876302301883698,
          0.09098470211029053,
          -0.08411864936351776,
          0.03542613983154297,
          -0.006644874811172485,
          0.1114819347858429,
          -0.051857560873031616,
          0.11401988565921783,
          -0.12316983938217163,
          0.07665008306503296,
          -0.08424337208271027,
          0.07853734493255615,
          0.00731232762336731,
          -0.03593599796295166,
          -0.11539474129676819,
          -0.051263198256492615,
          -0.008407115936279297,
          0.10552646219730377,
          -0.12453772127628326,
          -0.10096268355846405,
          0.08870300650596619,
          0.08185090124607086,
          0.051179155707359314,
          -0.06640776991844177,
          0.03394632041454315,
          -0.050545692443847656,
          0.11175891757011414,
          0.05305643379688263,
          -0.021607741713523865,
          0.023267805576324463,
          0.01544654369354248,
          0.11859099566936493,
          0.0650378167629242,
          0.030023008584976196,
          0.0785728394985199,
          -0.031063899397850037,
          -0.09614866971969604,
          -0.05530248582363129,
          -0.08526606857776642,
          0.055935367941856384,
          -0.04683774709701538
        ],
        [
          0.047285087406635284,
          -0.06781718134880066,
          -0.33740201592445374,
          -0.12167958915233612,
          -0.050640836358070374,
          0.012677470222115517,
          -0.11233136057853699,
