{"fc1.weight": [[-0.14421918988227844, -0.03362860530614853, 0.013503683730959892, 0.2873624861240387, 0.14409005641937256, -0.3835468292236328, 0.10722152143716812, 0.26802322268486023, -0.19915616512298584, -0.09847234934568405, -0.09816110134124756, 0.11896838247776031], [0.041745249181985855, 0.3434675931930542, 0.43929973244667053, 0.02553962543606758, -0.2807457447052002, -0.6073906421661377, -0.6911391019821167, 0.19627614319324493, -0.09761620312929153, 0.07660947740077972, 0.362610787153244, -0.8721362948417664], [-0.25407853722572327, 0.265377938747406, -0.29850876331329346, -0.1585884392261505, -0.41233932971954346, -0.1662793904542923, -0.4210579991340637, 0.45079898834228516, 0.05632990226149559, -0.7424708604812622, 0.13883335888385773, 0.31643596291542053], [0.2805846631526947, -0.09002650529146194, 0.2839222848415375, -0.5047374367713928, -0.08326303213834763, -0.3121204674243927, 0.19623814523220062, -0.006181252654641867, 0.1703672558069229, -0.4583701491355896, 0.6162669658660889, -0.5209528207778931], [0.2918248772621155, 0.30916279554367065, 0.2684641480445862, 0.0048908209428191185, -0.2498251050710678, 0.10646909475326538, 0.22302977740764618, 0.13644054532051086, 0.3757835328578949, 0.06854453682899475, -0.34524333477020264, -0.5110751390457153], [-0.21395131945610046, 0.3309801518917084, -0.01878485642373562, -0.0497705414891243, -0.5379381775856018, 0.056810565292835236, -0.4960145056247711, -0.23475876450538635, -0.4264146089553833, -0.04919257387518883, -0.14804115891456604, 0.33832526206970215], [0.08540859818458557, 0.21352383494377136, -0.04982560873031616, 0.07945839315652847, -0.18541313707828522, -0.19617384672164917, 0.4071469008922577, 0.4021396338939667, -0.12003976851701736, 0.012537822127342224, 0.007096907123923302, -0.11300431936979294], [0.1884184181690216, 0.24728134274482727, -9.561772458255291e-05, -0.09649743884801865, -0.15028685331344604, 0.235076442360878, -0.19228070974349976, -0.15164485573768616, -0.29232901334762573, -0.3881983458995819, 0.22789940237998962, -0.07965366542339325], [0.006785783916711807, 0.035945795476436615, -0.3322176933288574, -0.0048619648441672325, -0.693129301071167, 0.0739121362566948, -0.10838490724563599, 0.34679311513900757, -0.23864023387432098, 0.32002702355384827, -0.33641695976257324, 0.357888787984848], [-0.1369616985321045, 0.32877153158187866, 0.23667113482952118, -0.13608475029468536, -0.4317919611930847, -0.22467036545276642, 0.27538299560546875, 0.3575891852378845, 0.38178378343582153, -0.2656688094139099, -0.3276158273220062, 0.028185967355966568], [0.05609704926609993, 0.027018774300813675, -0.04824213311076164, 0.005717330612242222, 0.15138517320156097, 0.11657567322254181, -0.23848535120487213, -0.1512153446674347, -0.11610997468233109, 0.5018778443336487, -0.19296617805957794, 0.4852007329463959], [-0.36843055486679077, -0.030753400176763535, -0.3902200162410736, -0.09688051044940948, 0.07201134413480759, 0.10059253871440887, 0.003474739147350192, 0.12601880729198456, -0.3366378843784332, 0.2178763598203659, -0.27284401655197144, 0.01854819431900978], [-0.13235527276992798, 0.1947406381368637, 0.245804563164711, 0.36660388112068176, -0.2642774283885956, -0.26107195019721985, 0.06117198243737221, -0.24875111877918243, 0.15871810913085938, 0.15073621273040771, 0.09567262977361679, -0.22098098695278168], [-0.13778343796730042, 0.429321825504303, -0.022047415375709534, -0.9298285841941833, -0.414054274559021, 0.20170964300632477, -0.6386832594871521, -0.07212628424167633, -0.25741174817085266, 0.3650705814361572, 0.1760924607515335, 0.5537949800491333], [0.2335689663887024, -0.09086999297142029, -0.42343470454216003, 0.20826733112335205, -0.4188365638256073, 0.13657981157302856, -0.44152888655662537, -0.7426247000694275, 0.24804911017417908, 0.1268661618232727, 0.13327397406101227, 0.3610960841178894], [-0.10169713199138641, -0.04338952898979187, 0.0030067595653235912, -0.10064344108104706, 0.05461481958627701, 0.035313427448272705, -0.07073591649532318, 0.08242642879486084, 0.17369627952575684, -0.10435611754655838, 0.34139901399612427, 0.10494352877140045], [0.19964174926280975, -0.07008174061775208, 0.023915130645036697, -0.43561846017837524, -0.30121520161628723, 0.013493205420672894, -0.3425009846687317, -0.528485894203186, 0.133486807346344, -0.41925346851348877, -0.14434100687503815, -0.056343141943216324], [0.13871201872825623, 0.11362750083208084, 0.2243691086769104, 0.12401264160871506, 0.3654443323612213, -0.5110859870910645, -0.40464386343955994, -0.26201650500297546, -0.9606311917304993, 0.0809226706624031, -0.37720879912376404, 0.16484831273555756], [0.030792806297540665, -0.10735397040843964, 0.28550511598587036, 0.07116533815860748, 0.11697299778461456, -0.006655143573880196, 0.4045940339565277, 0.3791908025741577, 0.1309223473072052, -0.0727882832288742, -0.001568418461829424, -0.3785291016101837], [0.2598115801811218, 0.1342048943042755, 0.09175262600183487, -0.012678270228207111, -0.0815359428524971, 0.10456139594316483, 0.07596425712108612, -0.08585601300001144, -0.7366399765014648, 0.15595225989818573, -0.5101445913314819, -0.559956431388855], [-0.10924327373504639, -0.20228834450244904, -0.07026892155408859, -0.09041529893875122, -0.2069886326789856, -0.304328978061676, 0.13460619747638702, -0.13013695180416107, 0.15758414566516876, 0.10532144457101822, -0.3877779543399811, -0.24078385531902313], [-0.062261275947093964, 0.03003881499171257, 0.05458146706223488, 0.25956133008003235, 0.3602016270160675, 0.3281373381614685, -0.360148549079895, -0.04964066669344902, -0.31981635093688965, -0.2512228488922119, 0.08707322925329208, 0.192468523979187], [-0.18363967537879944, -0.10768287628889084, -0.2137475460767746, -0.22258985042572021, 0.29385972023010254, -0.05069182440638542, -0.3871634006500244, -0.048556964844465256, -0.6411599516868591, 0.47469812631607056, -0.40650519728660583, -0.07333596050739288], [0.16822272539138794, 0.06113016977906227, 0.02926928736269474, -0.19960182905197144, -0.24404868483543396, 0.06948705017566681, 0.23257525265216827, 0.20923998951911926, 0.008741995319724083, -0.046802107244729996, -0.2697606682777405, 0.0419636033475399], [-0.7334234118461609, 0.22527898848056793, -0.5473010540008545, -0.303348571062088, 0.08996137976646423, -0.41146862506866455, 0.2713012099266052, -0.02703135646879673, -0.26716676354408264, 0.616017758846283, 0.40689679980278015, 0.02122637815773487], [-0.09796406328678131, 0.1271209418773651, -0.14246714115142822, -0.14164237678050995, -0.14654627442359924, -0.3966785967350006, -0.20094560086727142, 0.17600974440574646, 0.1929183304309845, -0.017262930050492287, 0.26770010590553284, 0.003948618192225695], [0.15765993297100067, 0.016105610877275467, 0.210599884390831, -0.08204374462366104, -0.1347150206565857, 0.2595870792865753, -0.4493844509124756, -0.1160140261054039, -0.19668105244636536, 0.04205923527479172, 0.2508552074432373, -0.2348497211933136], [-0.2842428684234619, -0.2569343149662018, -0.09862861037254333, -0.03519078344106674, -0.15267598628997803, -0.26801687479019165, -0.09592434763908386, -0.2813284993171692, 0.18939046561717987, 0.09860873222351074, -0.15341442823410034, -0.1288996934890747], [0.23301587998867035, -0.1393919587135315, -0.44532379508018494, 0.020969871431589127, -0.4933468997478485, -0.21927672624588013, 0.23406244814395905, -0.4597106873989105, 0.4095236361026764, -0.041327185928821564, -0.6991215944290161, 0.18060332536697388], [0.19112969934940338, 0.018348129466176033, 0.2772209346294403, 0.2957310676574707, -0.33445948362350464, -0.34108084440231323, 0.3363528251647949, 0.12725341320037842, -0.16491049528121948, 0.18385730683803558, -0.07261375337839127, -0.24382621049880981], [0.04963730275630951, 0.004169585183262825, 0.01341547816991806, 0.0336047001183033, 0.03643030300736427, 0.11207259446382523, 0.30387330055236816, 0.06907247006893158, -0.21145960688591003, -0.22795701026916504, -0.16279107332229614, -0.6554903984069824], [0.14662541449069977, -0.03520268201828003, 0.1319350004196167, 0.3315267264842987, -0.21998092532157898, -0.3368337154388428, 0.11366397142410278, -0.04467331990599632, -0.15422701835632324, 0.29402732849121094, -0.8617934584617615, 0.05923699960112572], [0.34610456228256226, 0.3520863950252533, 0.2939596176147461, 0.12258994579315186, -0.08542967587709427, -0.0816507339477539, 0.18406903743743896, 0.27626845240592957, 0.09482887387275696, -0.07540640980005264, 0.2791546583175659, -0.17748980224132538], [0.24189163744449615, -0.02452137880027294, 0.17281854152679443, 0.23651579022407532, 0.3464735448360443, -0.3789588212966919, -0.4241601526737213, -0.40864020586013794, 0.02286168374121189, 0.3478686213493347, 0.34258121252059937, -0.004445367958396673], [-0.08401079475879669, 0.028588980436325073, -0.21492131054401398, 0.1969030350446701, 0.06973035633563995, -0.14970816671848297, 0.08945301920175552, 0.30311185121536255, -0.38521283864974976, -0.17482256889343262, 0.291014164686203, -0.24209947884082794], [-0.25559279322624207, -0.10117080807685852, 0.01647321879863739, -0.15318693220615387, -0.6691163182258606, 0.28810715675354004, -0.491293340921402, -0.33196064829826355, 0.2897055745124817, -0.5829887986183167, -0.004928055685013533, 0.19306597113609314], [-0.22765988111495972, -0.004548567812889814, -0.024572288617491722, -0.04999237135052681, 0.15250924229621887, 0.3946169316768646, -0.6278654932975769, -0.4276941418647766, -0.2350454330444336, -0.42995908856391907, -0.2227374017238617, -0.11500436812639236], [-0.1165253221988678, -0.23053507506847382, -0.29776468873023987, 0.21018101274967194, 0.042469803243875504, 0.00936855934560299, -0.11659598350524902, 0.043226175010204315, 0.23758524656295776, -0.3723628520965576, -0.19917550683021545, 0.36012059450149536], [0.15604268014431, 0.20928828418254852, 0.2678591012954712, 0.01427509356290102, 0.40299978852272034, 0.32818856835365295, -0.4158640503883362, -0.20815356075763702, -0.29746344685554504, -0.24051782488822937, -0.5064001679420471, 0.22838231921195984], [0.13817758858203888, -0.21587932109832764, 0.12683017551898956, 0.0060304393991827965, -0.21518675982952118, -0.23035849630832672, -0.0026941269170492887, -0.030619289726018906, 0.38034918904304504, -0.39726489782333374, -0.3237544298171997, 0.5689994096755981], [0.10593761503696442, 0.03778531774878502, 0.12772142887115479, 0.02425876073539257, 0.10767799615859985, 0.034467753022909164, 0.08983798325061798, 0.16205327212810516, 0.2028786689043045, 0.057921331375837326, 0.14076924324035645, -0.32102900743484497], [-0.36124303936958313, -0.19352048635482788, -0.18515904247760773, -0.054463811218738556, 0.1160288155078888, 0.11248317360877991, 0.1337006390094757, 0.022722706198692322, 0.1957838535308838, -0.7660254240036011, -0.012699482031166553, -0.3375898599624634], [0.03519773110747337, 0.04847828671336174, -0.26048514246940613, -0.30208319425582886, -0.11966416239738464, -0.22416959702968597, 0.01199882198125124, 0.11312706023454666, 0.04923513904213905, 0.04587595909833908, -0.38132068514823914, -0.04093169420957565], [-0.015624893829226494, 0.2773433327674866, 0.08175785094499588, 0.04565327987074852, -0.13331279158592224, 0.3451560437679291, -0.4436418414115906, -0.33654361963272095, 0.2671436369419098, -0.8607068061828613, -0.06396898627281189, 0.20519596338272095], [0.15846963226795197, -0.2015182077884674, 0.1950739324092865, 0.10091369599103928, -0.35355883836746216, -0.34269052743911743, -0.0425376370549202, 0.36755913496017456, -0.26526305079460144, 0.39934295415878296, 0.06914054602384567, 0.14644740521907806], [0.04349009692668915, 0.031405795365571976, -0.1432824581861496, -0.3131067454814911, 0.12511327862739563, 0.1281135082244873, -0.1639447659254074, -0.14068703353405, -0.38328272104263306, -0.3048842251300812, 0.28878194093704224, -0.20538833737373352], [-0.019430464133620262, -0.133973628282547, -0.13272659480571747, -0.09887052327394485, 0.1577570140361786, 0.19636112451553345, 0.2056952714920044, 0.12331584095954895, -0.05365985259413719, 0.09129400551319122, 0.1483156830072403, -0.41002097725868225], [0.10083659738302231, 0.14343209564685822, 0.2215600609779358, -0.26448366045951843, 0.2156778872013092, -0.5712668299674988, 0.14016060531139374, -0.33024170994758606, 0.017946068197488785, 0.004816385451704264, -0.6709187030792236, -0.06350668519735336], [-0.5622626543045044, 0.10243579745292664, -0.2030857801437378, 0.1534089595079422, -0.06619656831026077, 0.18727998435497284, -0.2132885456085205, 0.10069774836301804, 0.06619025766849518, 0.3535327613353729, -0.2037159651517868, 0.4567926526069641], [-0.016850830987095833, 0.12073161453008652, 0.3540576994419098, 0.244651198387146, 0.2070007622241974, 0.15940411388874054, -0.18492920696735382, -0.41508567333221436, -0.1039595827460289, -0.3420460820198059, -0.014033114537596703, -0.1545676589012146], [0.04328644648194313, 0.04498487710952759, 0.046936020255088806, 0.026914145797491074, 0.1951623409986496, 0.2210339456796646, 0.5021498203277588, 0.24545921385288239, -0.1521332710981369, -0.3111813962459564, -0.03995240479707718, -0.4666382372379303], [-0.34168046712875366, 0.19673088192939758, -0.04108884930610657, -0.21113048493862152, -0.383148729801178, 0.3054276406764984, -0.32885098457336426, -0.298469215631485, -0.28818923234939575, -0.5649134516716003, -0.08243123441934586, 0.2235594093799591], [-0.11741312593221664, 0.2056931108236313, -0.6694722175598145, -0.08870895206928253, -0.36316701769828796, 0.37292423844337463, -0.8944210410118103, -0.2448216676712036, 0.02643079310655594, 0.17604383826255798, 0.4233633279800415, -0.5470191240310669], [-0.2179105132818222, -0.25072261691093445, -0.2855616807937622, -0.36889487504959106, 0.2046232521533966, 0.09584295004606247, -0.05210477486252785, -0.037235524505376816, -0.10924659669399261, 0.1238936334848404, 0.1837770640850067, 0.15728391706943512], [-0.14463333785533905, -0.3462977111339569, 0.10243003815412521, -0.4535258412361145, 0.16404469311237335, 0.028249872848391533, 0.25716179609298706, -0.22992126643657684, -0.10386673361063004, 0.022373175248503685, 0.49508872628211975, -0.31918737292289734], [-0.027800124138593674, -0.060865577310323715, 0.001824456499889493, 0.033716391772031784, -0.1243690624833107, -0.0476413331925869, -0.15317437052726746, -0.10221435129642487, -0.13956697285175323, -0.0653146356344223, -0.2306814193725586, -0.012368929572403431], [0.31744545698165894, -0.9638216495513916, 0.22400888800621033, -0.6311824321746826, 0.3695014715194702, -0.3172213137149811, -0.4575190246105194, -0.3436908721923828, 0.4334608018398285, 0.21953535079956055, -0.02020823210477829, -0.33159294724464417], [0.04930099844932556, 0.10605685412883759, 0.17080196738243103, -0.04857809096574783, 0.27855372428894043, -0.19201938807964325, 0.29267963767051697, 0.07753685861825943, -0.19210997223854065, -0.17512036859989166, 0.10299194604158401, -0.32616037130355835], [0.22913764417171478, 0.06290717422962189, -0.07316195964813232, 0.2981385290622711, -0.4352673888206482, 0.20846064388751984, -0.15370768308639526, 0.3641335368156433, 0.1897280067205429, 0.01997445337474346, 0.07292770594358444, -0.965192973613739], [-0.2418413907289505, -0.10950352251529694, -0.28094491362571716, -0.05115891993045807, 0.1667337268590927, 0.13488928973674774, -0.08390101790428162, -0.13941530883312225, 0.01722804456949234, -0.4547826051712036, 0.0024154409766197205, 0.08243922889232635], [-0.42858973145484924, -0.19445009529590607, -0.4898678958415985, -0.371275931596756, 0.25435101985931396, 0.06730777770280838, 0.08038979768753052, 0.15654124319553375, -0.3119473159313202, -0.13862863183021545, 0.13518080115318298, 0.20058178901672363], [-0.3523274064064026, -0.4041293263435364, -0.15255367755889893, -0.28270137310028076, 0.19262684881687164, 0.1676018238067627, 0.227151021361351, -0.12834224104881287, 0.275211900472641, -0.13026104867458344, 0.012470077723264694, -0.12783408164978027], [0.22608938813209534, -0.09965784847736359, 0.23076052963733673, 0.18194685876369476, -0.2833520770072937, -0.29745805263519287, 0.320274293422699, 0.4662327170372009, -0.5486698150634766, 0.21293283998966217, 0.16099482774734497, -0.36161887645721436], [-0.1901005506515503, -0.11206670105457306, -0.24438811838626862, 0.07859393209218979, -0.09050746262073517, -0.12570616602897644, -0.24836406111717224, -0.3651041090488434, -0.4126303195953369, -0.2907048165798187, 0.05843957141041756, -0.08843598514795303], [0.09711278975009918, 0.10031486302614212, -0.5627273321151733, -0.2369677722454071, 0.022286083549261093, 0.08958275616168976, -0.09963910281658173, -0.10937816649675369, -0.08145440369844437, -0.19819824397563934, 0.3102279603481293, 0.501065194606781], [0.03084760531783104, -0.11992928385734558, -0.10609017312526703, 0.13184891641139984, -0.19104298949241638, -0.2536991536617279, 0.014361429959535599, -0.31304287910461426, 0.18545208871364594, -0.02124907448887825, -0.0450255461037159, -0.10415729880332947], [-0.4631102979183197, -0.2474147528409958, -0.6886914372444153, -0.3650034964084625, 0.021522874012589455, 0.13900908827781677, -0.4554250240325928, 0.020716635510325432, 0.11458714306354523, -0.15195252001285553, 0.14498023688793182, 0.24081039428710938], [0.18143881857395172, -0.03235486149787903, -0.02366272546350956, 0.0019379343139007688, -0.5677934885025024, 0.011986679397523403, 0.3586527407169342, -0.2844323515892029, 0.12429396063089371, 0.3375524878501892, 0.03981253504753113, 0.2574639916419983], [0.20445048809051514, 0.33540233969688416, 0.19248118996620178, 0.04244264215230942, -0.35848742723464966, -0.3678983151912689, -0.011095418594777584, -0.14803145825862885, 0.12915515899658203, 0.19114771485328674, -0.07518713176250458, -0.24539804458618164], [0.28679174184799194, 0.12330163270235062, -0.25167712569236755, 0.31437110900878906, -0.17490530014038086, -0.1960175335407257, -0.1592981517314911, -0.24995948374271393, -0.18019963800907135, 0.08428196609020233, 0.23893843591213226, -0.38859835267066956], [0.015239476226270199, -0.22194267809391022, 0.02538400888442993, -0.015606041066348553, 0.2734970152378082, -0.46298712491989136, -0.11709019541740417, -0.0995505228638649, -0.02870473638176918, -0.28774410486221313, -0.28207242488861084, 0.08163434267044067], [0.2463671863079071, 0.06349571794271469, 0.1532689929008484, 0.15813282132148743, -0.29537272453308105, -0.2490471601486206, -0.23335890471935272, 0.24879190325737, -0.3873492181301117, -0.11614775657653809, -0.11303281038999557, 0.12045534700155258], [-0.15199744701385498, 0.11882509291172028, 0.3722149133682251, -0.6651244163513184, -0.20447972416877747, -0.7243201732635498, -0.7578849792480469, 0.0713520422577858, 0.017221665009856224, -0.13689583539962769, 0.27706536650657654, 0.5036751627922058], [-0.18191897869110107, -0.34068986773490906, -0.6005339622497559, 0.17967785894870758, -0.011449595913290977, -0.32481494545936584, 0.16975100338459015, 0.04615982621908188, 0.2143784910440445, 0.2685732841491699, -0.31418490409851074, -0.025071341544389725], [-0.27898505330085754, -0.006941227242350578, 0.2657700479030609, -0.9363499283790588, 0.024385670199990273, -0.22013959288597107, 0.4425547122955322, 0.05692053213715553, -0.38045474886894226, 0.4821338951587677, 0.5886974930763245, -0.5090692043304443], [-0.20286759734153748, 0.3453487157821655, -0.09754413366317749, -0.3334665596485138, -0.03141426295042038, -0.46229085326194763, 0.00044752241228707135, -0.32900357246398926, 0.6295028924942017, -0.012325447984039783, -0.157124325633049, -0.010221957229077816], [0.2191409468650818, 0.03796042501926422, -0.3755231201648712, 0.3190241754055023, -0.45766276121139526, -0.660362184047699, -0.11858049035072327, 0.08841457217931747, 0.17783384025096893, 0.21105150878429413, -0.2727418839931488, -0.24586138129234314], [0.26555731892585754, -0.05366623401641846, -0.1181236207485199, 0.026243414729833603, 0.2691720724105835, 0.15917566418647766, 0.016379304230213165, 0.14603042602539062, 0.3518635630607605, -0.5204455852508545, -0.004748379345983267, -0.4596170485019684], [0.12050267308950424, -0.047269005328416824, -0.060795556753873825, -0.05809592455625534, 0.0863177552819252, -0.20516417920589447, 0.017389411106705666, -0.23238353431224823, -0.6232360005378723, -0.31039345264434814, -0.5347887873649597, -0.0171293243765831], [0.18144147098064423, 0.008913236670196056, 0.2943718731403351, 0.020927904173731804, -0.5267273187637329, 0.2276926189661026, -0.02416270598769188, 0.2656062841415405, 0.15937258303165436, -0.5438370108604431, -0.15289360284805298, 0.12597811222076416], [-0.23296138644218445, 0.18955828249454498, -0.05381055548787117, 0.026076514273881912, 0.23362573981285095, -0.24333253502845764, -0.37336575984954834, -0.4353415071964264, -0.25528961420059204, 0.3094320297241211, -0.26678895950317383, -0.07341960072517395], [0.30675798654556274, -0.05105174705386162, 0.23253604769706726, -0.058862894773483276, 0.19870176911354065, -0.10967881232500076, -0.43144211173057556, -0.21793606877326965, -0.05760969594120979, 0.30077606439590454, -0.1788039207458496, -0.2954068183898926], [0.22322595119476318, -0.3889020085334778, 0.2051704078912735, 0.1485087126493454, 0.04366403445601463, 0.03893088921904564, -0.12204822897911072, -0.1310279369354248, 0.1446220576763153, 0.49616125226020813, 0.7360851764678955, -0.2709186375141144], [-0.2999648451805115, -0.43462732434272766, -0.10184924304485321, -0.270399808883667, 0.2012900710105896, -0.14303645491600037, -0.34744858741760254, -0.21158252656459808, 0.07269889116287231, 0.1244402676820755, 0.19107414782047272, 0.007322631310671568], [-0.3463796079158783, -0.17173372209072113, -0.16800464689731598, 0.10744524002075195, 0.2027283012866974, -0.13920223712921143, 0.08148398995399475, -0.17137856781482697, 0.32575589418411255, 0.12214966863393784, -0.3277595639228821, -0.2808428406715393], [-0.25853243470191956, -0.2840782701969147, -0.16977795958518982, -0.19683881103992462, 0.29239800572395325, 0.23427483439445496, 0.313848078250885, 0.10031643509864807, 0.19422189891338348, -0.576614260673523, 0.06323349475860596, -0.18323734402656555], [-0.27111342549324036, -0.05048372596502304, -0.180721715092659, -0.36103200912475586, 0.1876298487186432, -0.2052580565214157, -0.11035622656345367, 0.17049412429332733, -0.23766538500785828, 0.21649639308452606, 0.12793414294719696, 0.09384273737668991], [0.05405474081635475, 0.1919037103652954, -0.012744621373713017, 0.25596681237220764, 0.21891629695892334, -0.7247731685638428, -0.44362547993659973, -0.552973210811615, -0.22359208762645721, 0.22526128590106964, 0.09305121749639511, -0.24535201489925385], [-0.17423199117183685, -0.08336979895830154, -0.3439774811267853, -0.13329355418682098, -0.1769612580537796, 0.28590700030326843, -0.3345161974430084, -0.24055001139640808, -0.07223042100667953, 0.04541170224547386, 0.008418912068009377, 0.20820215344429016], [-0.062467023730278015, -0.1972152441740036, -0.27525991201400757, -0.41933655738830566, 0.20289097726345062, 0.038227811455726624, 0.08997586369514465, -0.13582485914230347, -0.2795879542827606, -0.17204649746418, 0.426329642534256, -0.16847969591617584], [-0.2820805609226227, -0.4164752662181854, -0.14042779803276062, -0.31678104400634766, 0.16930849850177765, -0.05943788215517998, -0.05274967849254608, 0.19122646749019623, 0.24541409313678741, 0.1948595941066742, 0.1751643866300583, -0.1632722169160843], [-0.13159620761871338, 0.09621482342481613, -0.03762635216116905, 0.16557295620441437, 0.04108649864792824, 0.15667471289634705, -0.12166979163885117, -0.2630215585231781, 0.3763382136821747, -0.5026871562004089, 0.035860318690538406, 0.28699854016304016], [-0.9382815957069397, -0.3127234876155853, 0.0309846680611372, -0.6657009720802307, 0.21670596301555634, -0.08642193675041199, -0.2732289731502533, -0.20498307049274445, 0.17473204433918, 0.5779175758361816, -0.1864335536956787, 0.365319162607193], [-0.1950116902589798, 0.007857125252485275, 0.02950146421790123, -0.0398271381855011, -0.09363485872745514, -0.3132094144821167, 0.04792557284235954, -0.5578728318214417, -0.37270036339759827, 0.19841940701007843, -0.2988629937171936, -0.10647336393594742], [0.1443120837211609, 0.3436696529388428, -0.15236476063728333, 0.1226317510008812, -0.1464475393295288, -0.4156441390514374, 0.20265913009643555, 0.05069229379296303, -0.11803381890058517, -0.18546240031719208, 0.17653094232082367, -0.6237307786941528], [0.16029495000839233, 0.14635585248470306, 0.1655406653881073, 0.13091561198234558, 0.0667959451675415, 0.10314145684242249, -0.24979586899280548, 0.04707718268036842, -0.33173811435699463, -0.43238547444343567, -0.2544666826725006, 0.33577761054039], [0.1522883027791977, 0.14206188917160034, 0.05169526860117912, -0.1224287748336792, -0.15760503709316254, -0.11625365912914276, 0.22269035875797272, 0.36394497752189636, -0.09665066748857498, 0.07781866192817688, 0.023672129958868027, -0.049127787351608276], [0.03151366114616394, 0.037882670760154724, -0.018228832632303238, -0.10091530531644821, 0.26046836376190186, 0.04108515754342079, -0.6401668787002563, -0.4580340087413788, -0.38705572485923767, -0.16793426871299744, -0.1849832534790039, 0.17817261815071106], [0.27109864354133606, -0.43781158328056335, -0.02027270756661892, -0.016759037971496582, 0.08796472102403641, -0.001032147090882063, -0.06368111819028854, -0.22170892357826233, 0.05412036180496216, 0.42913177609443665, -0.42584988474845886, -0.11742095649242401], [0.05491654947400093, -0.023005500435829163, 0.026840489357709885, 0.03348437324166298, -0.041489116847515106, -0.014238543808460236, 0.30614686012268066, 0.02884777821600437, 0.2707909047603607, -0.2963733673095703, -0.6238120794296265, 0.34363114833831787], [-0.41485166549682617, -0.10466014593839645, -0.15133945643901825, -0.2756551504135132, 0.22189530730247498, -0.6786381602287292, -0.2880731523036957, -0.035579536110162735, 0.6471847891807556, 0.09541630744934082, 0.2939196825027466, -0.8199896812438965], [0.10513725131750107, 0.058439064770936966, 0.26397866010665894, -0.2642170786857605, -0.05237772688269615, -0.015919793397188187, -0.3121504485607147, -0.28369686007499695, 0.4529489576816559, -0.41690266132354736, -0.3776162564754486, -0.30727118253707886], [-0.0166921429336071, -0.03169786185026169, 0.16305875778198242, 0.06050511449575424, 0.34964126348495483, 0.31480756402015686, -0.23840643465518951, -0.10059686750173569, -0.0778593122959137, -0.23504838347434998, 0.06322798877954483, -0.14662176370620728], [0.2518220543861389, -0.3628982901573181, 0.24046090245246887, -0.02841615118086338, -0.19354520738124847, -0.5463796854019165, 0.1717357635498047, -0.5038415193557739, 0.5547248125076294, -0.25165754556655884, 0.016556283459067345, -0.15272749960422516], [0.014246395789086819, -0.14243614673614502, 0.15385402739048004, 0.1604878455400467, 0.11478616297245026, 0.12821578979492188, -0.5335256457328796, -0.5352663993835449, 0.10198894888162613, -0.19708029925823212, 0.1267027109861374, 0.25340455770492554], [-0.13245348632335663, -0.30963560938835144, 0.19991211593151093, -0.13535267114639282, -0.15198244154453278, -0.04242336004972458, 0.2750539481639862, -0.5425061583518982, -0.41090017557144165, 0.3582695722579956, 0.4959278106689453, -0.45978185534477234], [-0.25431638956069946, 0.1782500147819519, -0.3027024269104004, -0.10927416384220123, -0.030115677043795586, 0.38757064938545227, 0.35215452313423157, 0.05154406279325485, -0.46268805861473083, 0.6178909540176392, -0.06322834640741348, -0.17230045795440674], [0.08835838735103607, -0.5495404005050659, 0.07975905388593674, -0.6514103412628174, -0.4376412630081177, -0.08885867148637772, -0.5695043802261353, 0.24104663729667664, -0.3495592176914215, 0.008364732377231121, 0.43719756603240967, 0.3169020414352417], [0.17725901305675507, 0.18805988132953644, 0.12480836361646652, 0.23743665218353271, 0.3106452226638794, -0.5098047256469727, -0.3725578188896179, -0.438546746969223, -0.3556370735168457, -0.15815162658691406, 0.13984206318855286, 0.19967985153198242], [-0.2719903886318207, -0.18652598559856415, 0.10598404705524445, -0.13667581975460052, 0.14587467908859253, -0.4270070791244507, 0.10604333877563477, -0.40731945633888245, 0.23175279796123505, 0.09187394380569458, 0.06929585337638855, -0.2013234794139862], [0.2780289947986603, 0.11404100060462952, 0.04628504440188408, 0.2300991266965866, -0.16519324481487274, 0.22979509830474854, 0.11634393036365509, -0.2626279592514038, 0.21823042631149292, -0.6910648941993713, -0.2121073305606842, -0.4373456835746765], [-0.15179456770420074, -0.27058613300323486, -0.22540351748466492, 0.07156848907470703, -0.22249898314476013, -0.13012509047985077, -0.08390786498785019, -0.10837166011333466, -0.028012603521347046, -0.2884008586406708, -0.11696527898311615, -0.16003935039043427], [0.031367603689432144, -0.013772924430668354, -0.10880716145038605, -0.25692182779312134, 0.15350225567817688, 0.20140239596366882, 0.09551722556352615, 0.29073023796081543, -0.07512664049863815, 0.158980593085289, 0.09364395588636398, -0.26482272148132324], [0.16796636581420898, 0.03212534263730049, 0.14632438123226166, 0.1604820340871811, -0.28482821583747864, -0.04130274057388306, -0.22583794593811035, -0.262431263923645, 0.08378401398658752, -0.07461205124855042, -0.10969114303588867, -0.2601471245288849], [-0.0323559008538723, -0.3901437520980835, 0.14997033774852753, 0.003477542195469141, -0.27121618390083313, -0.00734864454716444, -0.1214505210518837, -0.00047228671610355377, 0.5197616815567017, 0.2832713723182678, -0.3697488605976105, -0.299887090921402], [-0.09517492353916168, -0.49499958753585815, -0.2924838960170746, -0.16724029183387756, 0.32694512605667114, 0.15064656734466553, 0.22343522310256958, 0.12034958600997925, 0.12121058255434036, -0.21175850927829742, -0.48481467366218567, 0.3397190272808075], [-0.4805348515510559, -0.2628551125526428, -0.17013603448867798, 0.13879041373729706, -0.4186188280582428, -0.5306888222694397, -0.5798287391662598, 0.42090877890586853, 0.06578122079372406, -0.3848291337490082, 0.41993075609207153, -0.05319102108478546], [-0.10618796199560165, -0.19075967371463776, -0.02005101554095745, -0.1830066293478012, 0.31552696228027344, 0.14213527739048004, 0.1607910841703415, -0.02578968182206154, 0.2269810438156128, 0.10266339033842087, 0.24100957810878754, 0.013732844963669777], [-0.5074506998062134, 0.42696085572242737, 0.010627524927258492, -0.3575493097305298, -0.06250979006290436, -0.2026078850030899, -0.31288599967956543, -0.25390344858169556, -0.5832914710044861, 0.19237767159938812, 0.4896450936794281, 0.006074117496609688], [0.04042547941207886, 0.07033846527338028, -0.4170745611190796, 0.10402753949165344, -0.020593786612153053, -0.0695120170712471, -0.016825281083583832, -0.011773510836064816, 0.028092317283153534, -0.5330327153205872, -0.5257337093353271, 0.4170112609863281], [0.09287988394498825, -0.48731061816215515, 0.2261938899755478, 0.009647266939282417, -0.24400447309017181, -0.11560853570699692, -0.010384013876318932, 0.13572873175144196, -0.20841027796268463, -0.5184756517410278, 0.19228500127792358, 0.48314374685287476], [-0.34509795904159546, 0.07774840295314789, -0.3295227587223053, -0.26406407356262207, -0.08382347226142883, 0.013814437203109264, 0.1965433657169342, 0.09066326171159744, -0.34457188844680786, 0.18583731353282928, -0.15815970301628113, 0.12911729514598846], [0.16153763234615326, -0.33973127603530884, 0.16426867246627808, 0.1588209718465805, -0.26682281494140625, -0.20966669917106628, -0.08326636254787445, 0.13301542401313782, 0.2188219279050827, -0.745995283126831, -0.2079332172870636, 0.4182684123516083], [-0.20707635581493378, -0.19784919917583466, -0.14199401438236237, 0.1921408623456955, 0.3409196436405182, -0.09973230957984924, -0.015340059995651245, -0.28084510564804077, -0.8909674286842346, 0.18888741731643677, -0.01074417307972908, 0.030695592984557152], [-0.36247000098228455, 0.06393520534038544, -0.2375832200050354, -0.37380295991897583, -0.6039961576461792, -0.13212715089321136, 0.12645506858825684, 0.002591810654848814, 0.11511316895484924, 0.1470279097557068, 0.2520613670349121, -0.5881216526031494], [-0.10022301226854324, 0.3189655542373657, -0.16231201589107513, -0.2768164575099945, -0.07387670129537582, -0.01869138330221176, 0.2603202760219574, 0.031989309936761856, -0.3523222804069519, 0.2182936668395996, 0.4368460476398468, 0.17178337275981903], [0.08155911415815353, 0.25395604968070984, 0.21996340155601501, -0.21866238117218018, -0.5193228125572205, 0.003820398822426796, 0.04571165889501572, -0.09408494830131531, -0.11130114644765854, 0.2658790349960327, 0.5129320621490479, -0.2884185016155243], [-0.1366720199584961, -0.2773711383342743, 0.18335214257240295, -0.004886891692876816, -0.19814561307430267, -0.11044513434171677, -0.21032465994358063, -0.42283764481544495, -0.18000006675720215, -0.18374532461166382, 0.06483941525220871, -0.4934856593608856], [-0.1413959562778473, -0.11629024147987366, -0.1504288762807846, 0.009028317406773567, 0.3828824758529663, -0.28847450017929077, -0.04486529901623726, -0.270766943693161, -0.8652514219284058, 0.4959717392921448, -0.2744220495223999, 0.11898406594991684], [-0.09677418321371078, 0.22115297615528107, 0.22082678973674774, -0.1321054995059967, -0.18404805660247803, 0.3266216516494751, -0.39846283197402954, -0.3520028293132782, -0.03757947310805321, -0.3120485544204712, -0.2952917516231537, -0.2538858950138092], [-0.4581238329410553, -0.0689614936709404, -0.10086389631032944, -0.09887167811393738, 0.15368719398975372, 0.11181601136922836, 0.07700452208518982, -0.05449545010924339, -0.2394978404045105, 0.36256587505340576, -0.20280054211616516, -0.3308180272579193], [-0.03938555717468262, 0.3109763264656067, -0.10106595605611801, -0.13245491683483124, 0.07408980280160904, 0.37513500452041626, -0.02012881077826023, -0.35778310894966125, -0.09623539447784424, -0.7191418409347534, 0.4439102113246918, -0.2642146050930023], [-0.42314401268959045, -0.008979758247733116, -0.31216153502464294, 0.09715337306261063, 0.2302188128232956, -0.14078094065189362, -0.22943195700645447, -0.2981795072555542, 0.08418601751327515, 0.12571240961551666, 0.11702346056699753, 0.4584924280643463], [-0.30789023637771606, -0.15464510023593903, -0.4397745728492737, -0.13792426884174347, 0.1749483048915863, 0.2549072802066803, 0.16824913024902344, 0.18850228190422058, -0.32449260354042053, 0.23356150090694427, -0.26578834652900696, 0.14545753598213196], [0.20435351133346558, -0.11591886729001999, 0.019883131608366966, -0.1502058207988739, 0.24373944103717804, -0.22587156295776367, 0.14866341650485992, -0.36717289686203003, -0.041420828551054, 0.09112289547920227, -0.7136918306350708, -0.29116302728652954], [0.004309271927922964, -0.18565522134304047, -0.0015603494830429554, 0.07279975712299347, -0.2348545640707016, -0.4800814986228943, 0.02928592823445797, 0.012981430627405643, 0.16726703941822052, -0.07784802466630936, -0.14192882180213928, 0.09101837128400803], [0.23313049972057343, -0.4935685098171234, -0.4762956500053406, -0.1960396021604538, -0.3462134897708893, -0.48009833693504333, -0.3333854079246521, 0.07005221396684647, 0.3715501129627228, 0.37587979435920715, 0.09200254082679749, -0.09599635004997253], [0.2438325136899948, 0.39029818773269653, 0.3484257459640503, -0.23524174094200134, -0.2483234703540802, -0.29717785120010376, 0.365109920501709, 0.3513350486755371, 0.10631801187992096, 0.31831780076026917, -0.5428785681724548, -0.1620732694864273], [0.05076579377055168, 0.16510778665542603, -0.15333832800388336, -0.03690534830093384, -0.18629173934459686, -0.35347849130630493, 0.27469828724861145, -0.34985780715942383, 0.11733037978410721, 0.006050650961697102, -0.47470998764038086, 0.028073236346244812], [-0.08927765488624573, -0.11897209286689758, -0.2854593098163605, -0.1616283506155014, -0.36385154724121094, -0.09966573864221573, -0.4300349950790405, 0.367822527885437, 0.068980373442173, 0.24447758495807648, 0.1592012494802475, 0.4987063705921173], [-0.04065237566828728, -0.2772325575351715, -0.2263948768377304, -0.2353116124868393, 0.09519051760435104, 0.09391060471534729, -0.10038460791110992, 0.09927923232316971, 0.09618211537599564, 0.029835587367415428, 0.09861157089471817, -0.07783643901348114], [-0.12296511977910995, -0.6327900290489197, -0.6261044144630432, -0.3006688952445984, -0.3192719519138336, 0.2893577814102173, -0.19826139509677887, -0.13823409378528595, -0.06721599400043488, 0.3934326767921448, -0.26552772521972656, -0.15425315499305725], [0.25411948561668396, -0.18135686218738556, -0.17135491967201233, 0.2492174357175827, 0.14379429817199707, 0.16331982612609863, -0.45729419589042664, -0.44095972180366516, -0.1254308968782425, 0.19082270562648773, 0.10442253202199936, -0.01695873774588108], [-0.2056400626897812, -0.15860264003276825, -0.1741310954093933, 0.02085023559629917, 0.04352903366088867, 0.3151748776435852, 0.05730782076716423, 0.2816457748413086, 0.12162730097770691, 0.42095959186553955, -0.38713282346725464, -0.0006138316821306944], [0.1286361664533615, -0.4312303364276886, 0.10360941290855408, 0.0805526077747345, -0.14995761215686798, 0.07276571542024612, -0.11997353285551071, -0.30256974697113037, 0.3661390244960785, 0.24424707889556885, -0.029567776247859, 0.057969655841588974], [-0.13741707801818848, -0.6760693192481995, -0.029039759188890457, -0.2266959846019745, -0.21894899010658264, -0.0189097598195076, -0.004090795759111643, 0.11300313472747803, 0.10929306596517563, -0.76176917552948, 0.10951871424913406, 0.4872469902038574], [-0.0574277862906456, -0.6224392056465149, -0.2778390944004059, 0.11834939569234848, -0.4135643243789673, 0.1176626980304718, -0.35323306918144226, 0.1750151365995407, 0.3545251488685608, 0.012252427637577057, -0.19671547412872314, 0.4700446128845215], [0.15456031262874603, 0.08589340001344681, -0.05724344775080681, 0.2830626666545868, -0.10428205877542496, 0.1577335000038147, -0.4239656329154968, -0.20338495075702667, -0.3219298720359802, -0.08673965185880661, 0.0290526170283556, -0.09654125571250916], [-0.14368852972984314, -0.2495030015707016, 0.07888513803482056, -0.207275390625, 0.20723970234394073, -0.450030654668808, -0.2931947112083435, -0.06506965309381485, 0.4137422740459442, -0.2359178364276886, 0.01500747911632061, 0.06993450969457626], [-0.2585281729698181, -0.295102596282959, -0.12283812463283539, 0.12070298194885254, -0.2331097424030304, -0.07822653651237488, -0.14203661680221558, 0.14271670579910278, 0.3023805618286133, -0.09440706670284271, -0.35143497586250305, -0.1507996916770935], [-0.08756440877914429, -0.12179277092218399, -0.21357578039169312, -0.1558648943901062, 0.1566140353679657, 0.1119573712348938, 0.21214105188846588, 0.17355337738990784, 0.13234151899814606, -0.11118876188993454, -0.16999247670173645, -0.03476713225245476], [-0.15057651698589325, 0.007628300227224827, -0.1507875770330429, 0.21187233924865723, -0.16142337024211884, -0.5033298134803772, -0.0018035972025245428, 0.19039160013198853, -0.6007862687110901, 0.3805115222930908, -0.09870214015245438, 0.0852302834391594], [-0.13962548971176147, -0.003896927461028099, 0.151326522231102, -0.18236367404460907, -0.06004369258880615, 0.016443131491541862, -0.7107036113739014, -0.27183011174201965, 0.28832364082336426, -0.3051925599575043, 0.20481173694133759, -0.02951534278690815], [0.1162085086107254, -0.23439890146255493, -0.16509339213371277, -0.2832629084587097, -0.20729976892471313, -0.15827630460262299, 0.012094033882021904, 0.08632092922925949, -0.15359601378440857, 0.013191788457334042, -0.02760356478393078, -0.2946566641330719], [0.24279838800430298, -0.24729879200458527, 0.3233906924724579, 0.19041383266448975, -0.2806186378002167, -0.07924679666757584, 0.3462156057357788, 0.2658897638320923, -0.4883884787559509, -0.7958272695541382, -0.06108090654015541, -0.11188260465860367], [-0.0468117892742157, 0.06936221569776535, -0.6124615669250488, -0.34175756573677063, -0.31769734621047974, 0.13261857628822327, 0.08440148085355759, -0.03531692922115326, -0.20096828043460846, -0.010907896794378757, 0.3676433265209198, 0.21420501172542572], [0.05280161276459694, -0.049946073442697525, -0.7532871961593628, -0.15552011132240295, -0.4344941973686218, 0.03831768035888672, 0.19731451570987701, -0.6875078082084656, 0.16145163774490356, 0.2602441906929016, 0.15102091431617737, 0.27256232500076294], [-0.22211860120296478, -0.2101047933101654, 0.286369651556015, 0.141636461019516, -0.03882308676838875, -0.016745975241065025, -0.3287249505519867, 0.019317572936415672, 0.3864128887653351, 0.32075977325439453, -0.20987388491630554, -0.40160632133483887], [-0.003935924731194973, -0.22838114202022552, 0.012244222685694695, 0.14653250575065613, 0.31285256147384644, 0.39920008182525635, 0.003915275447070599, 0.023477312177419662, -0.7461585402488708, 0.3786674439907074, -0.4120985269546509, -0.2480742186307907], [0.08295371383428574, 0.21932263672351837, 0.13834059238433838, 0.28646042943000793, 0.15153372287750244, -0.5631201863288879, -0.04713164269924164, 0.2792154848575592, -0.113128662109375, -0.7811667323112488, -0.162187397480011, -0.28256160020828247], [0.059624187648296356, 0.17439618706703186, 0.14571420848369598, 0.04448862373828888, 0.37125736474990845, 0.35796642303466797, -0.2372802495956421, -0.1637340486049652, -0.07838566601276398, -0.03909888491034508, -0.55738765001297, -0.044643860310316086], [0.15740855038166046, 0.08983584493398666, 0.003044420387595892, 0.20956049859523773, -0.2546093463897705, -0.49846920371055603, -0.3325221538543701, 0.1090061292052269, -0.4135153591632843, -0.4971606135368347, -0.5199955701828003, -0.3259357511997223], [0.21113480627536774, -0.03462405130267143, -0.42085644602775574, 0.23188427090644836, -0.33287060260772705, -0.147486612200737, -0.30598706007003784, 0.01049730833619833, 0.10928241908550262, 0.039919186383485794, 0.3574363589286804, 0.16569358110427856], [-0.41656801104545593, 0.2192545235157013, -0.0883273184299469, 0.07783380895853043, -0.022449282929301262, -0.42241668701171875, 0.10457637161016464, 0.046478595584630966, 0.26058441400527954, -0.47105666995048523, -0.22607412934303284, -0.11665540933609009], [-0.0371529757976532, 0.2619152069091797, -0.5034354329109192, -0.3260830044746399, 0.18921108543872833, -0.13197606801986694, -0.108706034719944, 0.21938607096672058, -0.2958991527557373, -0.1176503598690033, 0.1959456503391266, 0.6008836030960083], [-0.31331002712249756, -0.04140356928110123, -0.32877326011657715, 0.004870028700679541, 0.26911014318466187, -0.21150173246860504, -0.5688316226005554, -0.013245702721178532, 0.26238328218460083, 0.12369922548532486, 0.1335846185684204, 0.3883790671825409], [-0.2710379958152771, 0.034196630120277405, 0.20186904072761536, 0.22346080839633942, 0.17568986117839813, -0.3646451532840729, 0.3721112608909607, 0.26918932795524597, -0.3099982738494873, -0.06701885163784027, -0.11824387311935425, -0.26436689496040344], [0.017260251566767693, 0.1331963986158371, -0.02540585584938526, 0.11352130770683289, -0.3473801612854004, -0.19276195764541626, -0.16781006753444672, 0.24693304300308228, 0.22888697683811188, -0.4013112783432007, 0.21314318478107452, -0.5104829668998718], [0.1826292723417282, 0.23470516502857208, 0.2376638501882553, 0.04244936257600784, 0.16263447701931, 0.21604569256305695, -0.5106414556503296, -0.4859204590320587, 0.3239002525806427, -0.5170182585716248, 0.29778173565864563, -0.00856796931475401], [0.07491942495107651, -0.16685399413108826, 0.18120121955871582, -0.5434192419052124, -0.22945687174797058, -0.2517169713973999, -0.11190292239189148, 0.14209392666816711, 0.24354708194732666, 0.08784744143486023, 0.5406684279441833, -0.5715847611427307], [0.21257755160331726, 0.1870049089193344, 0.013898882083594799, -0.08032946288585663, 0.053262755274772644, 0.37635138630867004, 0.003095936728641391, -0.23229867219924927, -0.03315136209130287, -0.21299326419830322, 0.2708119750022888, -0.02938762679696083], [-0.3278910517692566, 0.033465687185525894, 0.04563158005475998, 0.14684240520000458, 0.009284518659114838, -0.36960989236831665, 0.1178274154663086, -0.023064466193318367, 0.2062309980392456, 0.3155217468738556, -0.12082789093255997, -0.3055074214935303], [0.1303950846195221, 0.061999570578336716, 0.08061859756708145, 0.11331149190664291, 0.13363367319107056, 0.35278791189193726, -0.1487174779176712, -0.3241470158100128, -0.2907222509384155, 0.19855396449565887, -0.08538597077131271, 0.07764987647533417], [-0.28847524523735046, 0.17232832312583923, -0.04277997836470604, 0.06859367340803146, -0.12081257998943329, -0.11673267185688019, -0.0715525895357132, 0.08498114347457886, -0.24405331909656525, -0.08979041874408722, -0.24126385152339935, 0.08686316758394241], [-0.25371718406677246, 0.1278631091117859, -0.05274171009659767, 0.01876598224043846, -0.3021625280380249, -0.18053293228149414, 0.15913748741149902, -0.5262975692749023, 0.14842179417610168, 0.1867515593767166, -0.9528548717498779, 0.2646004557609558], [-0.6673174500465393, 0.24346576631069183, -0.4953571856021881, -0.6381303668022156, -0.9195587635040283, -0.4670329689979553, 0.07169955968856812, -0.03443896025419235, -0.5055994391441345, 0.5533275604248047, -0.3695988953113556, -0.44424864649772644], [-0.2949814200401306, 0.04097623750567436, -0.46207234263420105, 0.03875261917710304, 0.13239221274852753, 0.011337561532855034, 0.321750283241272, 0.21912381052970886, 0.2747892737388611, -0.4642622768878937, 0.04359811916947365, -0.19107447564601898], [-0.02982538379728794, -0.02098846063017845, -0.14080587029457092, -0.19813735783100128, 0.1307428479194641, 0.18496233224868774, -0.1227213516831398, -0.20994341373443604, 0.1434670388698578, -0.46499571204185486, 0.1391250491142273, 0.06497347354888916], [-0.08452039957046509, -0.09333880245685577, 0.059985775500535965, 0.05771037936210632, 0.0298897884786129, 0.1016317829489708, 0.07950690388679504, 0.019843783229589462, -0.5273662209510803, -0.10070331394672394, -0.1272038221359253, 0.01125683356076479], [-0.6879310607910156, -0.2534717321395874, -0.032122787088155746, 0.1353239268064499, 0.3227686285972595, 0.2778163254261017, 0.2849121689796448, -0.04237499088048935, 0.3506121039390564, 0.31581196188926697, -0.17678487300872803, -0.12598064541816711], [0.2833416163921356, 0.1964266151189804, -0.057736705988645554, 0.024251924827694893, -0.48427194356918335, 0.13745024800300598, -0.2871769070625305, 0.009636093862354755, -0.06533600389957428, 0.23175537586212158, -0.08664757758378983, -0.36231306195259094], [-0.2729179561138153, -0.061312250792980194, -0.018361447378993034, -0.03364234417676926, 0.09618684649467468, 0.2274133265018463, 0.2706921696662903, 0.20599070191383362, -0.2708553373813629, -0.14627070724964142, -0.02415766380727291, -0.5233204960823059], [-0.20859095454216003, -0.03859072923660278, 0.10360365360975266, -0.06647500395774841, 0.11893129348754883, 0.01151489932090044, 0.07560886442661285, -0.13692675530910492, -0.03171877562999725, 0.05811905488371849, 0.20914897322654724, 0.061225906014442444], [-0.5007420778274536, -0.032140083611011505, -0.19377785921096802, -0.27470889687538147, -0.5244054794311523, -0.10486388206481934, -0.4148777425289154, -0.05344787985086441, 0.16635824739933014, 0.22187171876430511, 0.10458735376596451, 0.36571937799453735], [-0.5242129564285278, -0.07015012949705124, -0.0024364301934838295, -0.33776628971099854, 0.14066138863563538, -0.13007397949695587, -0.3735024929046631, -0.03342634066939354, -0.19373980164527893, -0.22379639744758606, -0.3355713188648224, 0.4575529396533966], [0.08266542851924896, -0.3359713554382324, 0.2644813358783722, 0.14697261154651642, -0.30497878789901733, -0.37651580572128296, 0.35170626640319824, -0.066959448158741, -0.416583389043808, 0.1613978147506714, -0.7298781871795654, 0.19529852271080017], [0.2995595932006836, 0.24762189388275146, 0.2464202493429184, -0.044551629573106766, -0.3082333505153656, -0.09583111852407455, -0.05240127816796303, -0.20246146619319916, -0.15431787073612213, 0.04249091446399689, -0.5239121317863464, 0.11266530305147171], [-0.1437407284975052, -0.033042676746845245, 0.28981080651283264, -0.1166251003742218, -0.2581702470779419, 0.26149678230285645, -0.5194047689437866, -0.18652082979679108, -0.21741992235183716, -0.6376631855964661, -0.20292291045188904, 0.03579035401344299], [0.360908180475235, -0.7219539284706116, -0.04233845695853233, 0.009593586437404156, 0.13592472672462463, 0.14964890480041504, -0.19115972518920898, -0.2519615590572357, 0.43440282344818115, -0.4896671175956726, 0.47680944204330444, -0.14201869070529938], [0.13155673444271088, 0.13186796009540558, -0.32290899753570557, 0.15203233063220978, -0.12344138324260712, -0.43055233359336853, 0.3822019696235657, 0.3169404864311218, 0.4491465389728546, -0.29197221994400024, -0.31307026743888855, 0.005157058127224445], [0.02984805963933468, -0.02842925488948822, -0.17786288261413574, 0.07841821014881134, 0.4930449426174164, -0.41907697916030884, -0.3853652775287628, -0.06211845949292183, -0.4246150851249695, 0.2764219641685486, 0.015882907435297966, 0.5173919200897217], [0.12119924277067184, -0.29445385932922363, 0.1196531131863594, -0.006363946478813887, 0.08597709238529205, 0.18652762472629547, -0.11176750808954239, -0.056873172521591187, 0.3384745717048645, 0.5634230971336365, -0.09952163696289062, -0.18891344964504242], [-0.10092376172542572, 0.33801475167274475, -0.48446133732795715, -0.4744771122932434, -0.8016318082809448, 0.07101888209581375, 0.2763114273548126, -0.24108800292015076, -0.688139796257019, -0.506675660610199, -0.24652411043643951, 0.34956052899360657], [-0.2960759997367859, -0.5139845609664917, -0.11802943050861359, 0.2653258144855499, -0.3529490530490875, -0.11083754152059555, 0.11214065551757812, 0.1610686182975769, -0.36764633655548096, -0.341374009847641, 0.4485713243484497, 0.23284652829170227], [-0.2466830164194107, 0.17275197803974152, -0.06964270770549774, 0.2046431452035904, -0.0981752872467041, -0.1743566244840622, -0.14477981626987457, -0.3200872540473938, -0.07476599514484406, 0.4595467448234558, -0.2051028460264206, 0.28974655270576477], [0.006819370202720165, 0.005812724120914936, -0.19629254937171936, -0.18376344442367554, -0.1648557186126709, -0.13054686784744263, -0.01209650281816721, -0.05139240622520447, 0.17982976138591766, 0.09720944613218307, 0.36531466245651245, 0.2772328853607178], [-0.023733457550406456, -0.272734135389328, 0.09493616223335266, -0.4591232240200043, -0.42792242765426636, -0.05243111774325371, -0.1366380751132965, -0.410345196723938, 0.031598903238773346, -0.0715109258890152, 0.3786274790763855, -0.37520575523376465], [-0.22754082083702087, 0.17054829001426697, 0.1467273086309433, 0.2874299883842468, -0.7093831896781921, -0.20911066234111786, 0.2508772313594818, 0.26365306973457336, 0.019640235230326653, -0.062347009778022766, -0.7221178412437439, 0.10992762446403503], [-0.2608568072319031, -0.27922219038009644, -0.2566479444503784, -0.18239949643611908, 0.0010798880830407143, -0.07826957106590271, 0.13943763077259064, 0.02705228701233864, 0.069794200360775, 0.05703567713499069, -0.3289693295955658, -0.4679650068283081], [0.20316387712955475, -0.020081913098692894, 0.14850270748138428, 0.11986685544252396, 0.40427881479263306, 0.3107714354991913, -0.21664954721927643, -0.20544207096099854, -0.17514668405056, 0.08927763253450394, -0.0396365150809288, 0.12616361677646637], [-0.01731208711862564, 0.1576894223690033, -0.07548204809427261, 0.20436406135559082, -0.07179944217205048, -0.3037729561328888, 0.2658727169036865, -0.1794106513261795, -0.07182030379772186, -0.25597748160362244, -0.10942158102989197, -0.1599581241607666], [0.35465487837791443, 0.2693902254104614, 0.20225776731967926, -0.14276620745658875, -0.25721243023872375, -0.23824530839920044, 0.09968937933444977, -0.20490878820419312, -0.28909972310066223, -0.003985125105828047, -0.7524882555007935, 0.16434048116207123], [0.31581911444664, 0.08334588259458542, 0.19857695698738098, 0.44437333941459656, -0.011059981770813465, -0.19798117876052856, 0.135132297873497, 0.33708202838897705, -1.164345145225525, 0.026445426046848297, -0.3834274709224701, -0.16274197399616241], [-0.012815299443900585, 0.24717742204666138, -0.10115896910429001, 0.04927647113800049, -0.3282918930053711, -0.26995933055877686, -0.21777266263961792, 0.1971222460269928, 0.03082074411213398, 0.07921873033046722, -0.027663974091410637, -0.5207446217536926], [0.04769653454422951, -0.25387337803840637, -0.3283558785915375, -0.277640700340271, -0.22654971480369568, -0.2267242968082428, 0.06917788088321686, -0.202311709523201, 0.32580801844596863, 0.025679385289549828, -0.049560774117708206, 0.043401557952165604], [0.1960478127002716, 0.118637815117836, 0.16282574832439423, -0.12368135899305344, -0.09531857073307037, 0.2739790081977844, -0.11879075318574905, -0.09595917910337448, 0.07028073817491531, -0.48517340421676636, -0.25899064540863037, 0.22998759150505066], [-0.3720712959766388, 0.04568300023674965, 0.22688505053520203, 0.2447633296251297, -0.2675447463989258, 0.02949509210884571, -0.37023770809173584, 0.20658351480960846, 0.023550420999526978, -0.27998819947242737, -0.22782447934150696, -0.5149164199829102], [-0.17933301627635956, 0.33985620737075806, -0.04364131763577461, 0.2793623208999634, -0.29244503378868103, 0.25062358379364014, -0.3409430682659149, 0.22272974252700806, -0.08020952343940735, -0.8915198445320129, -0.11361692100763321, -0.5416693687438965], [-0.12476836889982224, -0.028489721938967705, -0.12551529705524445, 0.17899848520755768, -0.37032178044319153, -0.31379008293151855, 0.03651262819766998, -0.3311138451099396, 0.22009140253067017, -0.09048940241336823, 0.18161022663116455, -0.1006842851638794], [-0.25266653299331665, -0.4644934833049774, 0.23167043924331665, 0.3805372416973114, -0.029911905527114868, -0.46736282110214233, -0.5060485005378723, -0.45620593428611755, 0.2519596517086029, 0.2268996238708496, -0.43953830003738403, 0.016823172569274902], [0.3973407745361328, 0.13734589517116547, 0.09035681933164597, 0.34806206822395325, -0.2598329484462738, -0.3526288866996765, 0.222547709941864, -0.3720313012599945, 0.2852230966091156, -0.036582618951797485, 0.07459209859371185, 0.08490455895662308], [-0.024565553292632103, 0.12122879922389984, -0.33201757073402405, 0.13092708587646484, -0.13633891940116882, -0.37062522768974304, 0.12268313765525818, -0.27591443061828613, -0.49142614006996155, -0.34227269887924194, 0.19993260502815247, 0.16975145041942596], [-0.4725688099861145, -0.24825192987918854, 0.26708024740219116, -0.3029337525367737, -0.14068914949893951, 0.37567049264907837, 0.048243165016174316, -0.5019296407699585, 0.0873117670416832, 0.4840867817401886, 0.19432954490184784, -0.31815895438194275], [0.06438475102186203, 0.2737925946712494, 0.04137031361460686, 0.18225489556789398, 0.041641414165496826, -0.07035712897777557, -0.10826195776462555, -0.36910712718963623, 0.02680326998233795, -0.23899570107460022, 0.22957684099674225, -0.5473711490631104], [0.2518317699432373, 0.26198500394821167, 0.22023522853851318, 0.04786285012960434, -0.5729849338531494, -0.4229593575000763, -0.42879772186279297, 0.44112706184387207, 0.2050635665655136, -0.31363964080810547, 0.02256554365158081, -0.4419580101966858], [-0.17099441587924957, 0.2656943202018738, 0.2073238641023636, 0.18922315537929535, -0.306314617395401, -0.20899775624275208, 0.34813764691352844, -0.16014070808887482, 0.4461095333099365, 0.22278648614883423, -1.0223033428192139, 0.028931589797139168], [-0.05431800335645676, 0.17132636904716492, 0.2483188807964325, 0.09384587407112122, 0.33018356561660767, 0.27132222056388855, 0.2637156844139099, -0.10186740010976791, -0.23566675186157227, -0.26642894744873047, -0.8123745918273926, 0.3469519317150116], [-0.31104138493537903, -0.03577126935124397, -0.03364097699522972, 0.018101513385772705, -0.19704030454158783, -0.2157989740371704, -0.1203795000910759, 0.26267004013061523, -0.5633265376091003, 0.3882279098033905, -0.18260475993156433, -0.046295929700136185], [-0.06673496961593628, -0.1927727460861206, 0.09037705510854721, -0.18097196519374847, -0.01938541606068611, 0.26932185888290405, -0.054156508296728134, 0.0870797261595726, -0.5387252569198608, 0.2906591296195984, -0.061898909509181976, -0.8235111236572266], [-0.32789355516433716, -0.21364730596542358, -0.13319995999336243, -0.06398460268974304, -0.0897340252995491, -0.4440731108188629, -0.32051387429237366, 0.1703796088695526, 0.2940516173839569, -0.11878494173288345, -0.0397525355219841, -0.4602813720703125], [-0.11631797254085541, 0.405002623796463, 0.18171662092208862, 0.26812198758125305, 0.1667521893978119, 0.015577147714793682, -0.3081669807434082, -0.19954590499401093, 0.09685511142015457, -0.7613767385482788, -0.027980536222457886, -0.4496457576751709], [0.07275215536355972, 0.24760952591896057, -0.13260234892368317, -0.35906484723091125, 0.22566446661949158, -0.17902301251888275, -0.21634547412395477, -0.5701394081115723, -0.6373878121376038, -0.868929922580719, 0.4276379942893982, -0.22567345201969147], [0.014128675684332848, 0.12026750296354294, -0.3502592146396637, -0.12208537012338638, -0.20805779099464417, 0.08995667845010757, 0.1920885294675827, -0.02318689227104187, -0.48027467727661133, 0.30142396688461304, -0.15065228939056396, -0.5402706265449524], [-0.1589301973581314, 0.23330624401569366, -0.6784362196922302, -0.020731166005134583, -0.3006291389465332, 0.08256135880947113, 0.04685397818684578, 0.18443140387535095, -0.43131300806999207, -0.7444443702697754, 0.04263952374458313, 0.6407453417778015], [-0.07483792304992676, 0.030371397733688354, -0.21131718158721924, -0.07293981313705444, 0.15914614498615265, -0.05340992286801338, 0.0678633525967598, 0.2596282362937927, 0.02191261760890484, -0.14702986180782318, -0.14297163486480713, -0.2497079074382782], [0.14000064134597778, 0.17867350578308105, -0.31560730934143066, 0.09420762211084366, 0.23385533690452576, 0.3381909728050232, -0.0378585159778595, -0.014484969899058342, -0.5993513464927673, -0.14243769645690918, -0.5968498587608337, -0.5128310322761536], [0.06430012732744217, 0.014483350329101086, 0.13266189396381378, -0.34683459997177124, 0.023807799443602562, 0.2192801684141159, 0.0027358345687389374, -0.2575319707393646, -0.3282645046710968, -0.30085113644599915, 0.5531198382377625, -0.0652356818318367], [0.010665534064173698, 0.04107555001974106, 0.186234250664711, -0.22048862278461456, 0.07716049998998642, 0.22272898256778717, -0.13165196776390076, 0.11467652022838593, 0.22801515460014343, 0.19389310479164124, -0.39213597774505615, 0.13000892102718353], [-0.20491760969161987, -0.21300868690013885, 0.4493264853954315, -0.30896803736686707, -0.2602230906486511, -0.2438933402299881, -0.008792160078883171, -0.9239977598190308, -0.004990184213966131, 0.48492223024368286, 0.6138392686843872, -0.6799159646034241], [-0.5434852838516235, -0.018531600013375282, 0.20516404509544373, -0.8822810649871826, -0.4704568088054657, -0.11011137068271637, 0.23105821013450623, -0.19339191913604736, -0.015882909297943115, 0.47047924995422363, 0.398693323135376, -0.18446937203407288], [-0.009949790313839912, -0.3488341271877289, -0.10738974809646606, 0.11781076341867447, 0.056458037346601486, -0.5186641812324524, 0.11482422053813934, -0.15373894572257996, 0.44628432393074036, -0.4558013677597046, 0.10560166835784912, 0.41417771577835083], [-0.3156220018863678, 0.03806965425610542, -0.2686663568019867, -0.2517283260822296, 0.02743508480489254, -0.48119524121284485, -0.31156373023986816, -0.5816015601158142, 0.06003086641430855, -0.2513962388038635, -0.2796168923377991, 0.178437277674675], [-0.025884056463837624, -0.021438682451844215, -0.24993638694286346, -0.4352208375930786, 0.1473332792520523, -0.2443341165781021, 0.0767248123884201, 0.028109397739171982, -0.09526065737009048, -0.1035393625497818, 0.22410370409488678, 0.12992657721042633], [-0.08603294938802719, -0.1129039078950882, -0.25450894236564636, -0.18380294740200043, -0.10924746096134186, 0.01937129534780979, 0.06559398025274277, -0.08738879859447479, -0.024151591584086418, -0.12750227749347687, 0.15156792104244232, -0.47684431076049805], [-0.2621125876903534, -0.264800488948822, -0.1945803314447403, -0.15045535564422607, 0.2692708969116211, 0.010839748196303844, -0.08520561456680298, -0.030890462920069695, 0.2461288571357727, -0.2926299273967743, -0.5463134050369263, 0.04744332656264305], [-0.1886664181947708, -0.11318112164735794, 0.04927876964211464, 0.2599789798259735, -0.5894922018051147, -0.38565075397491455, 0.35965466499328613, -0.31175506114959717, 0.17924465239048004, 0.32096534967422485, -0.1430378407239914, 0.31095752120018005], [-0.01542382687330246, 0.20542247593402863, 0.008180061355233192, 0.10823764652013779, 0.23026403784751892, 0.20208635926246643, -0.08808818459510803, -0.09024251252412796, 0.03530459105968475, -0.45459237694740295, -0.015383217483758926, 0.2890787422657013], [0.4305974543094635, 0.1698673665523529, 0.05135731026530266, -0.7434311509132385, -0.5536638498306274, -0.3647780120372772, 0.22368374466896057, -0.5840427279472351, -0.034450557082891464, -0.1253098100423813, 0.15867619216442108, 0.29184144735336304], [-0.06766200065612793, -0.2027205228805542, 0.18549460172653198, 0.06363882124423981, -0.11873964220285416, -0.38833627104759216, 0.10135212540626526, -0.2799707353115082, -0.3954353630542755, 0.10103756934404373, -0.14165371656417847, 0.2682909071445465], [-0.19625449180603027, -0.0063844528049230576, 0.19077543914318085, 0.15847869217395782, 0.3352600634098053, 0.33448266983032227, 0.14193297922611237, -0.3407949209213257, 0.07645682245492935, -0.3522416353225708, -0.11309434473514557, 0.0031852631364017725], [0.22223737835884094, 0.08754359185695648, 0.1649119257926941, -0.1001676619052887, -0.31029850244522095, -0.3645775020122528, -0.04874081164598465, 0.04092273488640785, -0.34287115931510925, 0.22781459987163544, -0.2921663820743561, 0.1301766335964203], [0.020717598497867584, 0.08003167062997818, 0.10237909108400345, -0.3976901173591614, 0.24789340794086456, 0.23193858563899994, -0.28884342312812805, -0.31914541125297546, -0.14012984931468964, 0.3752225935459137, 0.012694453820586205, -0.2998851537704468], [0.15278789401054382, -0.3214471638202667, -0.1605343222618103, -0.04586082696914673, 0.04201025143265724, -0.07548342645168304, 0.17337873578071594, -0.2544233500957489, 0.1478213369846344, -0.2758386433124542, -0.44667932391166687, 0.13710232079029083], [0.02547488734126091, -0.31201547384262085, 0.2130344659090042, 0.1388276368379593, 0.0977005884051323, 0.003477114252746105, -0.3486938774585724, -0.4886590242385864, -0.2640978693962097, 0.03066255711019039, -0.33422285318374634, 0.13626262545585632], [0.05705839768052101, -0.18900401890277863, 0.19376090168952942, -0.23541533946990967, 0.12262552976608276, -0.258836954832077, -0.31304916739463806, -0.23748216032981873, -0.32091477513313293, -0.0774678885936737, -0.2716592252254486, 0.3330962359905243], [0.24323545396327972, 0.11439002305269241, 0.07473970949649811, -0.08247850090265274, -0.5079673528671265, -0.5154837965965271, 0.1586250215768814, 0.2026096135377884, 0.1636047512292862, 0.026329001411795616, -0.17769205570220947, 0.08422492444515228], [0.006721199490129948, 0.15878818929195404, 0.29641976952552795, -0.3563861548900604, -0.32418614625930786, -0.45175597071647644, 0.17735454440116882, -0.00470326142385602, 0.013871653005480766, 0.07526834309101105, 0.015591120347380638, 0.37620022892951965], [0.1660671830177307, -0.24685943126678467, -0.04598217457532883, -0.018415899947285652, 0.24403636157512665, 0.19429540634155273, -0.04727337136864662, -0.5318377614021301, -0.3305881917476654, -0.21731363236904144, 0.22966186702251434, -0.3781174123287201], [0.10192651301622391, 0.09465014189481735, -0.3240727186203003, 0.08971108496189117, -0.5714482069015503, -0.07934413105249405, 0.06610581278800964, -0.3528970777988434, -0.2989296317100525, 0.3797279894351959, -0.3497583270072937, 0.2845042943954468], [-0.39217546582221985, -0.45976904034614563, -0.41576844453811646, 0.1698976755142212, 0.15904639661312103, -0.14452408254146576, 0.12738636136054993, -0.2242373377084732, -0.21749982237815857, -0.2583584487438202, 0.46251535415649414, -0.25255224108695984], [-0.1883980631828308, -0.46840518712997437, -0.2171369194984436, -0.1372009813785553, 0.3261900246143341, -0.149702250957489, -0.31096503138542175, -0.4958015978336334, -0.5239876508712769, -0.21832473576068878, -0.11822745949029922, 0.17226116359233856], [-0.15124447643756866, 0.06983637064695358, -0.11880435049533844, -0.09108689427375793, 0.030021123588085175, 0.17460045218467712, -0.3142887353897095, -0.29142770171165466, 0.15185546875, -0.238437220454216, 0.06014876812696457, -0.0045576938427984715], [0.15124072134494781, 0.342764288187027, 0.22345808148384094, 0.14490503072738647, -0.3929412066936493, -0.5397480130195618, -0.09711755067110062, 0.1272883266210556, 0.35023075342178345, -0.04855423793196678, -0.48692306876182556, -0.02143292874097824], [-0.05427376925945282, 0.11406520754098892, -0.5987343788146973, -0.2642863988876343, -0.15299655497074127, 0.008749247528612614, 0.30366238951683044, 0.3360995650291443, -0.15295717120170593, 0.14725352823734283, 0.03421144559979439, 0.3444814085960388], [0.13547180593013763, -0.23168499767780304, 0.0326017402112484, 0.01211309339851141, 0.06650586426258087, -0.33009207248687744, 0.30810701847076416, -0.32434383034706116, -0.4778193533420563, 0.017406882718205452, -0.14564871788024902, 0.15570080280303955], [0.10625334829092026, -0.0971890389919281, 0.22406083345413208, -0.45324358344078064, 0.11973423510789871, -0.19969548285007477, -0.5393685102462769, 0.05906490981578827, 0.6284476518630981, -0.5377113819122314, -0.19283488392829895, -0.05323987081646919]], "fc1.bias": [0.22416521608829498, 0.06303735077381134, -0.3906840682029724, -0.2001238763332367, 0.225092813372612, 0.07895852625370026, 0.24653252959251404, 0.23043449223041534, -0.145811527967453, 0.17969642579555511, -0.25843724608421326, -0.17223696410655975, 0.25353434681892395, -0.39089396595954895, 0.027207037433981895, -0.46131110191345215, 0.056825362145900726, 0.09824074059724808, 0.22870157659053802, 0.38402682542800903, -0.15283498167991638, 0.28578537702560425, 0.11592662334442139, 0.18728825449943542, -0.32455533742904663, -0.0723828375339508, 0.3560613989830017, -0.11141949892044067, -0.2839777171611786, 0.3172866106033325, -0.15490970015525818, 0.23645567893981934, 0.45500361919403076, -0.19062356650829315, 0.2679249942302704, 0.2616882622241974, 0.22259880602359772, -0.29439231753349304, 0.18788139522075653, 0.057802461087703705, -0.47896477580070496, -0.010856973007321358, -0.26207390427589417, 0.412216454744339, 0.12080631405115128, -0.13144245743751526, -0.2959296405315399, 0.24251700937747955, -0.5393826365470886, 0.2157302051782608, -0.33208930492401123, 0.02336915023624897, -0.15043915808200836, -0.42967888712882996, -0.37548747658729553, -0.0015972593100741506, -0.18789368867874146, 0.41169294714927673, 0.033138252794742584, -0.16074775159358978, -0.2667400538921356, -0.1742677092552185, 0.2618311941623688, -0.04832644760608673, -0.26549509167671204, -0.04107293859124184, -0.2229359745979309, -0.2560514509677887, 0.328155517578125, 0.33283838629722595, 0.273205429315567, -0.3256116211414337, -0.239131897687912, -0.3840705156326294, -0.3057427704334259, -0.008343057706952095, 0.012460439465939999, 0.2949235439300537, 0.13140547275543213, 0.15658143162727356, 0.07810861617326736, -0.12272379547357559, -0.22043797373771667, -0.053662970662117004, -0.1608881801366806, -0.24156367778778076, -0.294121116399765, 0.14196933805942535, 0.19562731683254242, 0.05426294729113579, -0.2383517324924469, 0.0914822593331337, -0.2936655879020691, 0.15205852687358856, 0.34850335121154785, -0.06965436786413193, -0.039281733334064484, 0.28487348556518555, -0.26414355635643005, -0.07453014701604843, -0.10267835110425949, -0.11316774785518646, 0.24946632981300354, 0.054806821048259735, 0.2039954513311386, -0.1636754274368286, -0.46044090390205383, -0.3701765239238739, -0.12635354697704315, -0.06609708070755005, 0.34746190905570984, -0.20190146565437317, -0.48549994826316833, -0.23109130561351776, -0.22736215591430664, -0.38235974311828613, -0.12465741485357285, -0.4431605041027069, -0.1560795158147812, -0.11387889832258224, -0.2707541286945343, -0.20139755308628082, -0.10331472754478455, 0.057398296892642975, -0.1642734706401825, -0.3371926248073578, -0.43396955728530884, 0.1556377112865448, 0.33687257766723633, 0.09141901880502701, -0.18316411972045898, 0.29168498516082764, -0.3509901165962219, -0.18122835457324982, 0.14675180613994598, -0.28723976016044617, 0.03306414186954498, 0.036338288336992264, -0.016567831858992577, -0.4075922966003418, -0.39021146297454834, -0.03692302852869034, 0.4438190162181854, -0.43786749243736267, -0.2786218822002411, -0.08924702554941177, -0.4115564227104187, 0.3439360558986664, -0.20206069946289062, -0.15486657619476318, -0.33543914556503296, 0.19792841374874115, 0.13735926151275635, -0.21581079065799713, 0.18844570219516754, -0.35247567296028137, -0.3362332582473755, -0.3186891973018646, 0.17079704999923706, 0.007776614278554916, 0.05742131546139717, 0.16065780818462372, 0.3587052822113037, 0.18214209377765656, -0.4702278971672058, -0.25695616006851196, 0.2589820623397827, 0.045341987162828445, -0.024895088747143745, -0.09786406904459, -0.09725906699895859, -0.6027359366416931, 0.1260552704334259, -0.26479819416999817, 0.21162855625152588, -0.0491928905248642, -0.19063837826251984, 0.19933302700519562, -0.25677287578582764, -0.49895140528678894, 0.252524197101593, -0.2611670196056366, -0.5150232315063477, -0.2041447013616562, -0.09188501536846161, 0.15205387771129608, 0.15749576687812805, 0.24208292365074158, -0.4044400155544281, 0.042646486312150955, -0.11453291028738022, -0.36002209782600403, -0.2423424869775772, 0.03747882694005966, -0.1712305247783661, -0.4410158097743988, 0.00711166812106967, 0.1343938112258911, -0.019460538402199745, 0.14043110609054565, 0.03823450580239296, 0.17793574929237366, 0.45363229513168335, 0.21092458069324493, -0.2776831388473511, 0.3358567953109741, -0.03657769039273262, 0.21080242097377777, 0.23617537319660187, -0.19516319036483765, -0.18921270966529846, -0.2246047854423523, -0.4062834084033966, 0.24212327599525452, -0.10225682705640793, -0.13961142301559448, 0.3087674379348755, 0.05569320172071457, -0.22656136751174927, 0.24595415592193604, 0.11262506991624832, 0.10310068726539612, -0.16717495024204254, -0.3979186713695526, 0.10375145077705383, -0.24662970006465912, -0.4194674491882324, -0.45537322759628296, -0.20112387835979462, -0.37290477752685547, -0.30995067954063416, 0.14727362990379333, -0.16302542388439178, -0.11446680128574371, -0.10513748973608017, -0.12711463868618011, 0.15871447324752808, 0.00952121801674366, 0.18228720128536224, 0.18372130393981934, 0.4879460036754608, -0.09275484830141068, -0.2761763632297516, 0.17623108625411987, 0.3402855694293976, 0.381579726934433, -0.0584823377430439, 0.2866606116294861, -0.16339893639087677, -0.15537099540233612, 0.09931648522615433, 0.14887669682502747, -0.015438265167176723, -0.364935040473938, 0.24676164984703064, -0.2945539653301239], "fc2.weight": [[-0.09926552325487137, 0.1740875095129013, 0.05854770168662071, 0.3074202537536621, -0.12782831490039825, -0.11207539588212967, -0.47470080852508545, -0.09942936897277832, -0.17387738823890686, 0.03678375110030174, 0.030880991369485855, -0.06553489714860916, -0.13311220705509186, -0.06877926737070084, -0.174287810921669, 0.34784337878227234, -0.19951379299163818, -0.058640241622924805, -0.08657986670732498, -0.07431059330701828, 0.12487508356571198, 0.06479936093091965, -0.2322123795747757, -0.4862675070762634, -0.16619743406772614, 0.14696566760540009, -0.08410383760929108, -0.008257485926151276, -0.6415243148803711, -0.3057732582092285, -0.1715037226676941, -0.0266374871134758, -0.06939774751663208, 0.11586076766252518, -0.21907229721546173, -0.32162392139434814, -0.16278839111328125, -0.2539977729320526, -0.03537609800696373, 0.068807452917099, -0.13458706438541412, -0.24014374613761902, -0.0924181193113327, -0.02692708745598793, -0.07704059779644012, 0.011250876821577549, -0.02992987632751465, 0.04712396860122681, 0.14270778000354767, 0.06490932404994965, -0.21172073483467102, -0.18997371196746826, -0.14600667357444763, -0.16505979001522064, 0.020505238324403763, -0.06878060102462769, 0.17272591590881348, -0.036584675312042236, -0.698901891708374, -0.043453242629766464, -0.026537181809544563, -0.2870764434337616, -0.4023312032222748, 0.056507717818021774, -0.02902759611606598, 0.04883041977882385, -0.13892674446105957, -0.7537669539451599, 0.0461621955037117, -0.31749996542930603, 0.03769151121377945, -0.026822976768016815, 0.45836320519447327, -0.3649730682373047, -0.3577749729156494, -0.5954655408859253, -0.024113159626722336, -0.14298385381698608, -0.1347351223230362, -0.22976502776145935, -0.03221750259399414, 0.059332333505153656, 0.07626280933618546, 0.11602795869112015, 0.05319400876760483, 0.03834661841392517, 0.20267215371131897, -0.09354474395513535, -0.33189818263053894, 0.02391393482685089, 0.21855540573596954, 0.05820769816637039, 0.36680832505226135, -0.14652526378631592, -0.3031597137451172, -0.1460324227809906, -0.1613703817129135, 0.030958624556660652, 0.08758966624736786, -0.1697503924369812, 0.6354163885116577, 0.17369496822357178, 0.046885762363672256, -0.030077258124947548, 0.1384284496307373, 0.045804958790540695, -0.38441798090934753, -0.2287968099117279, -0.04639514908194542, 0.03442883491516113, -0.08743727952241898, -0.0018252953886985779, -0.13688045740127563, -0.0037477314472198486, 0.7140612006187439, -0.2623279094696045, -0.18769098818302155, 0.1279752403497696, 0.049446169286966324, -0.12951046228408813, 0.011750172823667526, -0.078948974609375, 0.05646746605634689, -0.07958079874515533, -0.006647035479545593, -0.5896474719047546, -0.04652118682861328, 0.12329473346471786, -0.07973022013902664, 0.03444682061672211, -0.3069234788417816, -0.09780552983283997, 0.076708123087883, -0.2121686190366745, 0.056217730045318604, -0.17556706070899963, -0.36295607686042786, -0.2609609067440033, -0.4784548580646515, -0.12068525701761246, -0.008452795445919037, 0.032279159873723984, -0.06488790363073349, -0.01148038450628519, 0.17491376399993896, 0.12692791223526, -0.29427585005760193, -0.13468535244464874, 0.38223719596862793, -0.1305365115404129, -0.4329718351364136, -0.34349504113197327, 0.3498673141002655, 0.015768639743328094, -0.3397720158100128, 0.10864976048469543, -0.43205249309539795, 0.1883082538843155, -0.28066563606262207, -0.47560828924179077, -0.09524017572402954, -0.06049131229519844, -0.16064700484275818, -0.21799598634243011, -0.11286795884370804, 0.1649288833141327, -0.1015772745013237, -0.4220394790172577, 0.1206849068403244, 0.35078197717666626, -0.20954574644565582, -0.12701483070850372, -0.03788285329937935, -0.05290953442454338, 0.1894737184047699, -0.21399444341659546, -0.3625883460044861, 0.0972132608294487, -0.14456768333911896, -0.13072532415390015, -0.18977117538452148, 0.04920525848865509, -0.05791827663779259, -0.18114815652370453, 0.1292332410812378, -0.21117067337036133, -0.2238938808441162, -0.006725930143147707, 0.09960740059614182, -0.6521254777908325, -0.011683491058647633, 0.15839052200317383, 0.003050890052691102, -0.15915562212467194, 0.19265399873256683, -0.12863382697105408, -0.10604068636894226, -0.16227084398269653, -0.022602124139666557, -0.0044755106791853905, -0.09972894191741943, -0.3711841106414795, -0.42504367232322693, -0.6938239932060242, -0.2666395306587219, 0.013778574764728546, -0.12389428168535233, -0.17515702545642853, -0.56525057554245, 0.4666040539741516, -0.8070772886276245, -0.05098291486501694, 0.06732852756977081, -0.2241610884666443, -0.2074451744556427, 0.050786878913640976, -0.05531411990523338, -0.3580032289028168, -0.1523236632347107, -0.39604783058166504, 0.11209570616483688, 0.14501872658729553, -0.10008411854505539, -0.040202949196100235, -0.6516168117523193, -0.21907098591327667, -0.08496125787496567, 0.21512578427791595, -0.07861489057540894, -0.536983072757721, 0.23776426911354065, -0.0315120704472065, -0.1935943216085434, -0.014280712231993675, -0.2432866096496582, -0.027299407869577408, -0.024181893095374107, -0.38966941833496094, -0.0062586357817053795, 0.03797350451350212, -0.1430560052394867, 0.11395136266946793, -0.05838026478886604, 0.13792738318443298, 0.1152946874499321, -0.13711968064308167, -0.029879529029130936, -0.053022343665361404, -0.06813878566026688, -0.11373382806777954, -0.03548777475953102, -0.45896950364112854, 0.015407214872539043, -0.06747176498174667, -0.13474823534488678, 0.38287732005119324], [0.05568194016814232, -0.016216296702623367, 0.030539026483893394, -0.011159406043589115, -0.03250797465443611, 0.0004966662963852286, 0.013695321045815945, -0.0282973013818264, -0.0076563432812690735, 0.05363007262349129, -0.08903191238641739, 0.02130386419594288, 0.0007188678137026727, 0.01425489503890276, -0.034795645624399185, -0.06204383447766304, 0.047455888241529465, -0.03595595806837082, -0.07164645195007324, 0.0455583818256855, 0.04766697809100151, 0.04150211811065674, 0.05351131409406662, -0.05727092921733856, -0.04111040383577347, 0.017367413267493248, -0.02314777672290802, -0.008890636265277863, 0.023671168833971024, -0.028957869857549667, 0.035902656614780426, -0.041077300906181335, -0.016761459410190582, 0.0396994948387146, -0.02939293347299099, -0.04290065914392471, 0.02046782523393631, -0.030320532619953156, 0.023701518774032593, -0.10389313846826553, 0.03825366497039795, -0.029481085017323494, 0.04479966685175896, -0.017073258757591248, 0.00685890531167388, -0.04531826823949814, 0.020711971446871758, 0.03630456700921059, -0.057985205203294754, -0.05114855617284775, -0.06774131953716278, 0.01251933816820383, -0.049976952373981476, -0.1126837283372879, -0.010982377454638481, -0.017773287370800972, -0.059413280338048935, -0.008547762408852577, -0.05240553617477417, 0.03947708010673523, -0.01706863008439541, 0.014594098553061485, -0.04802404344081879, -0.038592297583818436, -0.040465567260980606, 0.032911427319049835, 0.034796085208654404, -0.03656185790896416, 0.06158175319433212, -0.002327124122530222, -0.02050875686109066, -0.05439566448330879, 0.026929616928100586, 0.0012298449873924255, 0.0427851676940918, -0.09038371592760086, 0.03225088119506836, 0.00981417577713728, -0.004760841839015484, -0.044284459203481674, -0.04438953474164009, 0.028699524700641632, -0.09115893393754959, -0.020905131474137306, 0.04308871552348137, 0.036536768078804016, 0.03883569687604904, -0.05273119732737541, -0.026136940345168114, 0.04026355221867561, -0.011558521538972855, -0.023569731041789055, 0.025575151666998863, -0.07062333077192307, 0.03984148055315018, -0.013957842253148556, -0.017308419570326805, 0.02347131446003914, 0.04460873827338219, -0.06121118739247322, -0.0140475332736969, -0.06307444721460342, 0.001269725849851966, -0.010350841097533703, 0.02118483930826187, -0.023084070533514023, -0.06271088868379593, 0.04265548288822174, 0.005973294842988253, -0.05724456533789635, -0.031233256682753563, -0.014688678085803986, 0.02967623621225357, 0.02465677261352539, 0.0057960376143455505, -0.06361736357212067, -0.03756088390946388, 0.0049754781648516655, 0.054014720022678375, -0.015932299196720123, 0.004813144914805889, -0.0002710123953875154, 0.03482019528746605, -0.05384790152311325, 0.017353294417262077, -0.007201511412858963, 0.003474530065432191, 0.011103291995823383, -0.04918406903743744, -0.0648789331316948, 0.04666135460138321, -0.006789952516555786, -0.06717213243246078, 0.0342029444873333, -0.05677249655127525, -0.06005887687206268, 0.055755678564310074, 0.039624668657779694, 0.040590107440948486, -0.04477236419916153, -0.027549386024475098, -0.04787255823612213, 0.03715599328279495, -0.02298017218708992, 0.022019030526280403, 0.01539629977196455, -0.05529456585645676, -0.03484528139233589, -0.02007329650223255, -0.007134905084967613, -0.013968505896627903, -0.04829312488436699, -0.043980956077575684, 0.006612855009734631, 0.010554403066635132, 0.007535714656114578, 0.03052578866481781, -0.027369555085897446, -0.04817859083414078, -0.0051048435270786285, -0.051527563482522964, -0.04563269019126892, -0.07211344689130783, -0.04303765296936035, -0.007873371243476868, 0.03435934707522392, 0.006979882717132568, -0.05098026618361473, 0.02998211793601513, 0.04764985665678978, 0.019307836890220642, 0.030309556052088737, -0.006589196156710386, -0.051570091396570206, -0.06220322474837303, 0.07934361696243286, -0.003849172731861472, 0.008914749138057232, -0.03461666777729988, -0.05525602027773857, -0.03716835379600525, -0.0024888780899345875, 0.03556128591299057, -0.07345591485500336, -0.011683512479066849, 0.03318013995885849, -0.04588349908590317, -0.04695143550634384, -0.03502563014626503, 0.04290447011590004, -0.05711527541279793, -0.02476654015481472, 0.02486756630241871, -0.019434479996562004, -0.0011381875956431031, -0.11944522708654404, 0.009621898643672466, -0.019082795828580856, 0.042254362255334854, 0.009862763807177544, -0.06874729692935944, 0.004683120176196098, 0.03180643916130066, 0.05375165864825249, -0.011586152017116547, -0.011160545982420444, -0.030170531943440437, -0.03231086954474449, 0.003773577744141221, 0.04867741838097572, 0.05170443281531334, -0.01842508278787136, 0.019639329984784126, 0.005966830067336559, 0.03351736441254616, 0.02343015931546688, -0.028703561052680016, -0.030677665024995804, -0.06238558515906334, 0.043225113302469254, 0.02119513973593712, -0.06809470057487488, -0.05709763616323471, -0.004258584231138229, -0.034038886427879333, 0.035472773015499115, -0.025242282077670097, -0.005235516931861639, -0.04335422068834305, 0.019664986059069633, -0.05070517212152481, 0.033824674785137177, -0.050967127084732056, 0.017363544553518295, 0.04131608456373215, -0.04686900973320007, 0.03924328088760376, 0.024795904755592346, 0.05168312042951584, 0.0260123573243618, 0.06775994598865509, -0.06800981611013412, 0.019254257902503014, -0.014415016397833824, -0.003365408396348357, 0.021642345935106277, 0.08734267204999924, 0.010616105049848557, -0.013702704571187496, -0.0664556622505188, 0.01824229210615158, 0.02697218954563141, -0.054128218442201614, -0.06766210496425629, 0.022874101996421814, -0.02704744227230549], [0.06328195333480835, 0.038532763719558716, -0.04722588509321213, 0.23201601207256317, -0.13520042598247528, 0.1274511218070984, 0.006764265708625317, -0.17066967487335205, -0.03293323144316673, -0.026492565870285034, -0.02771586924791336, -0.07448117434978485, 0.04303145036101341, -0.07758284360170364, 0.1740877628326416, -0.230128213763237, -0.011237294413149357, -0.06118610128760338, -0.009125248529016972, -0.019002269953489304, -0.2656025290489197, 0.020846648141741753, -0.04797111079096794, -0.12201409041881561, -0.2378820776939392, -0.02975449711084366, -0.05635109916329384, -0.002062963554635644, -0.5640949010848999, -0.02816750854253769, -0.1435661017894745, -0.16385890543460846, 0.02843485400080681, 0.1352350115776062, 0.07189448922872543, -0.3431769907474518, 0.028493907302618027, -0.2569207549095154, 0.026661280542612076, -0.2801499366760254, -0.09144172072410583, 0.008303318172693253, -0.0002596764243207872, -0.10227321833372116, -0.024574067443609238, 0.010847530327737331, 0.07610409706830978, -0.05562090873718262, -0.1731027066707611, -2.8731621569022536e-05, -0.050266116857528687, -0.31243857741355896, -0.052863601595163345, -0.0936373770236969, 0.2060261219739914, -0.0784459337592125, 0.2027059644460678, 0.019731013104319572, -0.06995473802089691, -0.018086599186062813, -0.04287981241941452, 0.10009004920721054, 0.008099115453660488, -0.018838662654161453, -0.15888924896717072, -0.28660494089126587, -0.25763198733329773, -0.5235396027565002, -0.07167914509773254, 0.10525494813919067, 0.015958409756422043, -0.1295163631439209, 0.22100014984607697, -0.4345475435256958, -0.07054401934146881, 0.05554938316345215, 0.03317859768867493, 0.07299690693616867, -0.06924650818109512, -0.2217494696378708, -0.17457866668701172, 0.11352274566888809, 0.15686345100402832, 0.04732651263475418, -0.11919502168893814, -0.004405807703733444, -0.15070569515228271, 0.03514770790934563, -0.41113704442977905, 0.16909544169902802, 0.08674255013465881, -0.13745488226413727, 0.4312182068824768, -0.29389452934265137, 0.10692227631807327, 0.059428878128528595, -0.0643768385052681, 0.08706975728273392, -0.02792116068303585, -0.5364559888839722, -0.20971763134002686, 0.18052606284618378, -0.022199459373950958, -0.14353397488594055, 0.19635199010372162, -0.197723850607872, -0.633179247379303, -0.18947584927082062, -0.002209343248978257, 0.08943282067775726, -0.1755177527666092, 0.04535789042711258, -0.07908462733030319, -0.025103993713855743, -0.05323272943496704, -0.14451712369918823, 0.07548573613166809, 0.09607534110546112, -0.5925729870796204, -0.27644434571266174, -0.3001263439655304, -0.2637276351451874, -0.3812130093574524, -0.027509987354278564, 0.024634182453155518, -0.5102651715278625, -0.2731720805168152, -0.06806956976652145, -0.031086796894669533, -0.02637392096221447, -0.35707637667655945, -0.11395551264286041, -0.04129631817340851, -0.2301134169101715, -0.010624525137245655, -0.048256974667310715, -0.1252320408821106, 0.02619568072259426, -0.30034735798835754, -0.32528406381607056, 0.08124473690986633, -0.10847751051187515, 0.0004585140850394964, -0.27602705359458923, -0.022336525842547417, -0.35475337505340576, -0.060193631798028946, 0.015642978250980377, 0.12489067763090134, -0.008058547973632812, -0.11695189028978348, 0.06491579860448837, -0.062419965863227844, -0.045584581792354584, -0.1068858727812767, -0.3161375820636749, -0.2148095667362213, -0.13326887786388397, -0.2143285721540451, 0.05111239105463028, -0.06137577071785927, 0.16454476118087769, 0.05065930634737015, -0.023297054693102837, -0.07061915099620819, -0.18497098982334137, -0.03225536271929741, -0.07153236120939255, 0.1776832789182663, -0.20743776857852936, -0.25828829407691956, -0.05376482754945755, -0.30497950315475464, 0.08772101998329163, -0.21151843667030334, -0.39571428298950195, 0.041730672121047974, -0.016894355416297913, -0.2450762391090393, -0.2830197215080261, -0.1512223333120346, 0.02764449454843998, 0.09276038408279419, -0.011403188109397888, 0.013032141141593456, -0.2925995886325836, -0.11429523676633835, -0.312639981508255, 0.24378812313079834, 0.14117558300495148, -0.04589115083217621, -0.12300923466682434, -0.1399681270122528, 0.0881509780883789, -0.06094712018966675, -0.21103094518184662, 0.14741015434265137, 0.2036074548959732, -0.13985513150691986, -0.045116547495126724, 0.12383989989757538, -0.09971700608730316, 0.0030246099922806025, 0.09233700484037399, -0.1896820366382599, -0.08154896646738052, -0.02685815840959549, -0.0545467846095562, 0.0317411869764328, 0.14064258337020874, -0.3439047634601593, 0.5123799443244934, -0.4369613826274872, 0.008310867473483086, 0.17143547534942627, -0.3517814874649048, -0.1685563027858734, -0.043477095663547516, -0.3154159188270569, -0.029685260728001595, 0.05526118725538254, 0.016093511134386063, -0.3302288055419922, -0.515476405620575, -0.004025737289339304, -0.04321324825286865, 0.0913156270980835, 0.07602991163730621, 0.05131152644753456, 0.049693793058395386, 0.05092139542102814, 0.20008032023906708, 0.05672094225883484, -0.0955573171377182, -0.06878229975700378, -0.6277406215667725, -0.06233655661344528, -0.11852718144655228, -0.11325125396251678, -0.13903607428073883, 0.05369037017226219, -0.007181981112807989, -0.12238252907991409, -0.0016032715793699026, 0.03964836522936821, 0.1441636085510254, -0.17425009608268738, 0.13874056935310364, -0.024331314489245415, 0.01630762778222561, -0.12121406197547913, -0.1201055720448494, 0.07633296400308609, -0.34696948528289795, -0.047417134046554565, -0.04919952154159546], [0.14523731172084808, -0.24599891901016235, 0.22627907991409302, -0.6903244256973267, -0.038861118257045746, -0.22883832454681396, 0.10200934112071991, -0.1468321830034256, -0.18145745992660522, 0.07283326983451843, 0.4390918016433716, 0.11782121658325195, -0.012547871097922325, 0.22065617144107819, -0.07536257058382034, 0.14491808414459229, 0.08820179849863052, 0.1399877816438675, 0.007736924570053816, -0.3924928307533264, 0.00902049895375967, 0.22075343132019043, -0.1863420307636261, 0.06215445697307587, -0.2831437587738037, 0.07060334086418152, -0.38197630643844604, 0.048069775104522705, 0.49410417675971985, 0.05819328501820564, -0.2017032653093338, 0.0248088501393795, 0.03588017076253891, 0.017465712502598763, 0.045831624418497086, -0.04473702237010002, -0.11283503472805023, 0.23440717160701752, 0.17530770599842072, 0.5843824744224548, -0.09362681210041046, -0.1995500922203064, 0.12075190991163254, 0.10073340684175491, 0.08535242080688477, -0.33566027879714966, 0.04269974306225777, -0.14798088371753693, 0.031181329861283302, -0.2617180645465851, -0.1566278338432312, 0.09707188606262207, -1.2686158418655396, 0.30878549814224243, -0.1763099879026413, -0.0329035259783268, 0.2865055203437805, -0.17295974493026733, -0.37314698100090027, 0.010022045113146305, 0.4273868501186371, -0.09728720784187317, -0.23530831933021545, 0.11945968866348267, 0.09041659533977509, -0.010482956655323505, -0.08094390481710434, 0.399027943611145, 0.043731462210416794, -0.22664165496826172, -0.038241609930992126, 0.14530904591083527, 0.3016428053379059, 0.26064303517341614, -0.2633058726787567, 0.2544368803501129, 0.059162501245737076, -0.2837175130844116, -0.08021379262208939, 0.04542607069015503, -0.9526190757751465, 0.1784273386001587, 0.2802724242210388, 0.22723878920078278, 0.040846969932317734, -0.2994346618652344, 0.22592595219612122, -0.9586286544799805, 0.030978482216596603, -0.41867735981941223, 0.0805651918053627, 0.09220229834318161, 0.03310105577111244, -0.09621905535459518, -0.12344025075435638, 0.33544445037841797, 0.05585913732647896, -0.43999889492988586, 0.40246322751045227, 0.36483675241470337, -0.6718620657920837, 0.14603030681610107, 0.021731359884142876, -0.009891565889120102, 0.15620353817939758, -0.2333584874868393, -0.29717692732810974, -0.19811150431632996, -0.21837937831878662, -0.27604910731315613, -0.2504367232322693, -0.05948808044195175, 0.014276004396378994, -0.028068028390407562, -0.02174600400030613, 0.20509882271289825, 0.16154111921787262, 0.13590146601200104, -0.27098190784454346, 0.0848458930850029, 0.46276333928108215, 0.1262015402317047, 0.35576558113098145, 0.014618665911257267, 0.10445047169923782, 0.23877207934856415, -0.004394213669002056, -0.8710508346557617, -0.0026190439239144325, -0.24271653592586517, -0.021671703085303307, -0.16789166629314423, 0.7541067004203796, 0.25283560156822205, -0.010350904427468777, 0.08812643587589264, -0.4110294282436371, 0.06988763064146042, 0.13436326384544373, 0.08816961944103241, 0.10956040024757385, -0.2086983025074005, -0.14431466162204742, -0.07828787714242935, 0.2508775591850281, 0.29445958137512207, 0.03769591450691223, -0.22662562131881714, 0.17390833795070648, 0.06694391369819641, 0.17500735819339752, 0.039633337408304214, -0.16749945282936096, -0.02872120775282383, -0.07461390644311905, 0.13011933863162994, 0.24827952682971954, -0.3038940131664276, -0.1456543505191803, -0.19232667982578278, -0.23630942404270172, 0.05695614218711853, -0.15911073982715607, -0.19542212784290314, 0.5508769750595093, 0.17765125632286072, -0.18458233773708344, -0.08568228036165237, -0.3953022062778473, -0.22302986681461334, -0.16632094979286194, -0.24631375074386597, 0.09832347184419632, -0.003959526773542166, 0.20339709520339966, -0.3629010021686554, -0.06651748716831207, 0.06179613992571831, 0.03707887604832649, -0.1448284387588501, -0.1476764678955078, -0.3712838590145111, 0.17159080505371094, 0.31077274680137634, 0.22557419538497925, 0.12112192809581757, 0.11933869123458862, 0.15706901252269745, -0.9667395949363708, 0.17756055295467377, 0.42349907755851746, 0.10551062971353531, -0.5326908230781555, 0.27922284603118896, 0.14052532613277435, 0.4287353754043579, -0.3861015737056732, 0.054674264043569565, 0.06862000375986099, 0.1947803497314453, -0.2007061243057251, 0.0782485157251358, -0.14925570785999298, -0.07542546838521957, 0.12838850915431976, 0.06714463233947754, 0.09174055606126785, 0.05535455420613289, -0.09579699486494064, -0.4401659667491913, 0.19006463885307312, 0.14947354793548584, -0.15544970333576202, -0.4315057694911957, -0.42792385816574097, 0.2753440737724304, 0.13599413633346558, -0.47863665223121643, -0.002689887536689639, -0.40072542428970337, 0.09572353959083557, -0.6457951664924622, 0.18115292489528656, 0.05727904289960861, -0.02624894678592682, -0.5556591749191284, 0.2775866687297821, -0.047656018286943436, 0.1275816261768341, 0.17130492627620697, 0.2601912021636963, 0.17074908316135406, 0.1343134045600891, -0.26111698150634766, 0.09328463673591614, 0.21880996227264404, 0.14471201598644257, 0.24477916955947876, 0.18109868466854095, 0.06510739773511887, 0.0640234425663948, -0.28247708082199097, -0.005179467611014843, -0.11755984276533127, 0.10426883399486542, 0.18661728501319885, 0.2504158914089203, -0.41134974360466003, 0.19678455591201782, -0.019860461354255676, -0.026489248499274254, -0.16598160564899445, 0.031755153089761734, 0.10697982460260391, 0.07524536550045013, -0.07034535706043243], [0.22146427631378174, 0.19507130980491638, -0.04225190356373787, 0.15353408455848694, 0.2680460214614868, -0.08734577894210815, 0.2055748701095581, 0.03071875497698784, -0.01957479491829872, 0.2894945442676544, 0.03425998240709305, 0.007588483393192291, 0.22563230991363525, -0.16247375309467316, 0.11244307458400726, 0.039656639099121094, -0.09794394671916962, 0.05446210131049156, 0.2127443253993988, 0.22496123611927032, 0.05352569743990898, 0.12551172077655792, 0.00811641477048397, 0.11670273542404175, 0.07427412271499634, 0.1204242929816246, 0.09882739931344986, 0.03665005415678024, 0.03459988906979561, 0.3150535821914673, 0.07416648417711258, 0.21587972342967987, 0.3289529085159302, 0.06420158594846725, 0.1512005478143692, -0.008071723394095898, -0.09075441211462021, 0.05700426176190376, 0.034202586859464645, 0.07734338939189911, 0.03895486146211624, 0.07683051377534866, -0.030956974253058434, 0.17744256556034088, 0.28818604350090027, 0.009811713360249996, 0.03190058469772339, 0.19414643943309784, 0.14618417620658875, 0.012740149162709713, 0.06352444738149643, -0.06609310954809189, -0.19878314435482025, 0.07306575775146484, 0.14281800389289856, 0.05247603729367256, 0.019196629524230957, 0.20261801779270172, 0.21950405836105347, -0.011762223206460476, 0.0464344322681427, 0.038934409618377686, 0.3088453710079193, -0.09894286096096039, 0.11144349724054337, -4.055644603795372e-05, 0.0793382078409195, 0.14007297158241272, 0.2511797547340393, 0.25644439458847046, 0.0697859525680542, 0.052181847393512726, -0.02854876220226288, 0.11945649981498718, 0.10113131254911423, 0.3103550970554352, 0.08923883736133575, 0.2284114956855774, -0.0005500910338014364, 0.22740449011325836, 0.08789008855819702, -0.00662822462618351, 0.07122968882322311, -0.029742110520601273, -0.018419591709971428, 0.06340225785970688, 0.08779402077198029, -0.029995692893862724, 0.04678555205464363, 0.030140575021505356, 0.03144028037786484, 0.038685377687215805, -0.06136889383196831, 0.040076401084661484, 0.29839178919792175, 0.011024000123143196, 0.02838088385760784, -0.0766230896115303, 0.12065945565700531, 0.14905914664268494, 0.1585351824760437, -0.0438867025077343, 0.16213366389274597, 0.21930216252803802, -0.06294859200716019, -0.009343879297375679, 0.17609848082065582, -0.0291419867426157, -0.050719212740659714, 0.11702557653188705, 0.1953822821378708, 0.02396387606859207, 0.0197996124625206, 0.032608017325401306, -0.13971559703350067, 0.07261337339878082, 0.22571207582950592, 0.08805906772613525, -0.11101394891738892, 0.08325366675853729, 0.07763253152370453, 0.06419540196657181, 0.15888027846813202, 0.08637436479330063, 0.13431744277477264, 0.1757735013961792, 0.014852314256131649, -0.015500865876674652, 0.2143765687942505, 0.003542529884725809, 0.1061704233288765, 0.07828161865472794, -0.02121283859014511, -0.009637909010052681, 0.11924722045660019, -0.05324681103229523, 0.24832646548748016, 0.3091457486152649, 0.03583753481507301, -0.16465455293655396, 0.04983653873205185, 0.13435852527618408, 0.1234792023897171, 0.02047833986580372, 0.02905312366783619, 0.13540974259376526, 0.01619907282292843, 0.14612559974193573, -0.0025490405969321728, 0.0306675024330616, 0.04516753554344177, 0.1821478307247162, 0.07341045141220093, 0.026655934751033783, 0.1444242149591446, 0.13198891282081604, 0.201008602976799, -0.03904292359948158, 0.1875312775373459, 0.15346118807792664, 0.05524779111146927, 0.07276087999343872, 0.1893293559551239, 0.09577415138483047, 0.1615915298461914, 0.08540600538253784, 0.2715265154838562, 0.07471495866775513, 0.05323268845677376, 0.09094545245170593, -0.05251336470246315, 0.12331794947385788, 0.12663109600543976, 0.014179582707583904, 0.18635335564613342, 0.35968518257141113, 0.08862654119729996, 0.013300692662596703, 0.06859958916902542, 0.034364692866802216, 0.1407134085893631, 0.011494118720293045, 0.05124255642294884, 0.17336492240428925, -0.04401344060897827, 0.20241829752922058, 0.16564294695854187, -0.032715994864702225, 0.09923015534877777, 0.2210719883441925, 0.09086626768112183, 0.13437823951244354, 0.17668622732162476, 0.20713122189044952, 0.11819165199995041, 0.0744045302271843, 0.017675958573818207, 0.2190900444984436, 0.0632442906498909, 0.09029848128557205, 0.07643722742795944, 0.14722810685634613, 0.32757607102394104, 0.15284115076065063, -0.0027223399374634027, 0.11968204379081726, 0.08400256931781769, 0.2297607809305191, 0.07310694456100464, -0.10633469372987747, 0.07323434948921204, 0.04406105354428291, -0.015397291630506516, 0.11965823173522949, 0.2587362229824066, 0.06201735511422157, 0.2754059433937073, 0.053598131984472275, 0.004092528950423002, 0.10428078472614288, 0.06583859771490097, 0.06260620802640915, 0.05122779682278633, 0.12803538143634796, 0.06247682496905327, 0.009662723168730736, -0.022102972492575645, 0.048698198050260544, 0.22746019065380096, 0.05776037275791168, -0.04196333512663841, -0.07689734548330307, 0.08478531241416931, -0.003940714988857508, 0.049411941319704056, 0.1354375034570694, 0.10082577168941498, 0.18836094439029694, 0.2064032405614853, 0.2153078019618988, 0.24973145127296448, 0.02626856043934822, 0.05580278858542442, 0.011960215866565704, 0.07525389641523361, 0.32022836804389954, 0.19161243736743927, 0.04920336231589317, 0.1034521833062172, -0.021463289856910706, -0.04207703471183777, -0.05147076025605202, 0.21529075503349304, 0.12468323856592178, 0.1920817345380783, 0.07992397993803024], [-0.03885554522275925, -0.05221012234687805, -0.012922360561788082, -0.03889244422316551, -0.030662158504128456, 0.030400926247239113, -0.011244921013712883, 0.003851040732115507, -0.05608952045440674, 0.012804563157260418, -0.04348483681678772, -0.03927348181605339, -0.0857783704996109, -0.020534582436084747, -0.024659527465701103, -0.01489393413066864, 0.01004006341099739, 0.024314802139997482, -0.0695975199341774, 0.029550381004810333, -0.03851666674017906, -0.0878564789891243, -0.026377534493803978, -0.06805390864610672, -0.023238083347678185, 0.009602061472833157, -0.01621854119002819, -0.027748867869377136, -0.04812285304069519, -0.015223247930407524, 0.00585686881095171, 0.03579843044281006, -0.06415495276451111, 0.03547593951225281, -0.04809938371181488, -0.0009601270430721343, -0.022312162443995476, -0.0020890580490231514, -0.03760240972042084, -0.0005418283981271088, -0.08911802619695663, 0.03864971920847893, -0.04448716342449188, 0.023758813738822937, -0.049900464713573456, -0.02400619350373745, -0.03025675006210804, 0.05217270180583, -0.014026733115315437, 0.01953289285302162, 