{"layer_0": {"kernel": [0.3111206591129303, 0.3871336281299591, 0.25783294439315796, -0.09099478274583817, -0.14667022228240967, 0.1325179636478424, -0.019131304696202278, 0.01661727949976921, -0.05002686008810997, -0.05057881772518158, 0.0028102134820073843, -0.1589076966047287, 0.307743102312088, -0.0704832524061203, 0.23407553136348724, -0.21976138651371002, -0.10903532058000565, -0.21822087466716766, -0.07305944710969925, -0.15589138865470886, 0.4377073049545288, -0.2247297167778015, 0.12476024031639099, -0.17985697090625763, 0.22493883967399597, -0.2521170675754547, -0.11856298893690109, 0.082721047103405, -0.26725301146507263, 0.191398486495018, -0.002562150591984391, -0.2694686949253082, 0.18720951676368713, 0.30119460821151733, -0.012228301726281643, -0.12242776900529861, 0.03945288434624672, -0.22619198262691498, -0.43122225999832153, -0.21632681787014008, 0.0021393345668911934, -0.009948108345270157, -0.19532617926597595, 0.14898283779621124, 0.2233830839395523, -0.10070466995239258, -0.06202615424990654, 0.036402925848960876, 0.08592665940523148, 0.2726730406284332, -0.3189561367034912, 0.03037096932530403, -0.26062655448913574, 0.21034936606884003, -0.2204822301864624, -0.25941821932792664, 0.11789637804031372, -0.16600102186203003, 0.22564277052879333, -0.02350883185863495, -0.033850278705358505, 0.12011492997407913, 0.10647686570882797, -0.0005308556137606502, 0.33319732546806335, 0.1004396602511406, -0.03969089686870575, -0.23212769627571106, 0.07149142771959305, -0.001704082707874477, 0.21820878982543945, -0.17641133069992065, 0.04814252629876137, -0.06562095880508423, -0.18700195848941803, -0.10616158694028854, -0.012336925603449345, 0.07739216834306717, -0.019318370148539543, -0.3683999478816986, -0.03667307272553444, 0.11872926354408264, -0.03207163140177727, -0.08525346219539642, 0.5656147599220276, 0.009427126497030258, -0.26738840341567993, 0.3285285234451294, 0.05925748497247696, -0.10256723314523697, -0.1228337213397026, -0.2309885174036026, -0.049718644469976425, -0.40145155787467957, 0.015547873452305794, -0.039542969316244125, 0.05474133789539337, -0.033600617200136185, -0.13030235469341278, 0.24260741472244263, 0.22730666399002075, 0.39358726143836975, 0.09323909878730774, -0.017568081617355347, -0.1315203160047531, 0.2775973975658417, -0.16579003632068634, -0.06965979188680649, -0.03615677356719971, -0.2081291228532791, 0.0570366345345974, -0.35100212693214417, 0.15273380279541016, 0.10940506309270859, -0.03844641521573067, -0.447429895401001, -0.0055767083540558815, -0.25284242630004883, 0.08473776280879974, 0.21900007128715515, -0.0686676874756813, -0.21418143808841705, 0.049458809196949005, 0.20505766570568085, -0.09884191304445267, 0.346742182970047, -0.05088605731725693, -0.132651686668396, 0.013730240985751152, 0.23183055222034454, 0.19845056533813477, 0.2367662936449051, -0.3113519847393036, 0.08823653310537338, 0.17565391957759857, 0.0933428630232811, -0.2972904145717621, -0.06379056721925735, -0.36039090156555176, 0.07656430453062057, -0.11805496364831924, -0.023254860192537308, -0.026226088404655457, 0.29903659224510193, 0.3513107895851135, 0.07580702006816864, -0.04996496066451073, 0.2244434803724289, 0.05822448432445526, 0.06699708849191666, -0.2723270654678345, 0.035115111619234085, 0.18688368797302246, -0.031517304480075836, -0.0472710058093071, -0.03847090154886246, 0.08284972608089447, 0.11270270496606827, 0.16202501952648163, 0.1967008113861084, -0.15391431748867035, 0.041688624769449234, -0.3083380460739136, -0.24968895316123962, 0.008638725616037846, -0.022180205211043358, 0.13037927448749542, 0.25533944368362427, -0.032302919775247574, 0.11998836696147919, -0.18240992724895477, 0.02512902393937111, -0.07474608719348907, 0.07035158574581146, -0.028195463120937347, -0.11372992396354675, -0.04365864768624306, -0.09656903892755508, 0.15442050993442535, 0.17064130306243896, -0.23907075822353363, -0.20969891548156738, -0.03237621858716011, -0.29262131452560425, -0.22702881693840027, -0.0809234008193016, -0.2573605179786682, -0.20441694557666779, 0.05112411454319954, 0.08313905447721481, 0.03609709441661835, 0.06841052323579788, -0.02194206975400448, 0.13164009153842926, -0.05567682161927223, 0.11758880317211151, 0.05009658262133598, -0.07003193348646164, -0.06822967529296875, 0.31106868386268616, -0.1784639060497284, 0.13518363237380981, -0.22612883150577545, 0.15913131833076477, 0.039085179567337036, 0.10201623290777206, 0.1432182788848877, -0.22879020869731903, -0.17460216581821442, -0.09059827029705048, 0.002376038348302245, -0.5434237718582153, 0.09784326702356339, -0.19554808735847473, 0.07527600228786469, 0.005057724192738533, -0.008448692969977856, 0.11968034505844116, 0.11795619130134583, 0.12647634744644165, 0.047924675047397614, -0.2532346546649933, -0.08603349328041077, 0.0017006961861625314, 0.11365710943937302, 0.04353760927915573, 0.11888323724269867, 0.10504693537950516, 0.09563467651605606, -0.07957097142934799, -0.18735605478286743, 0.05233130604028702, -0.09151984006166458, 0.03968256711959839, 0.03562232106924057, -0.21079260110855103, -0.10852523893117905, 0.03485418111085892, 0.02589288167655468, -0.20344068109989166, 0.1728050857782364, -0.15945936739444733, 0.055238742381334305, -0.23545880615711212, 0.022269118577241898, 0.062196388840675354, -0.05150983855128288, 0.11700025945901871, 0.19224615395069122, 0.08063896745443344, -0.24032674729824066, 0.15471535921096802, 0.23097537457942963, -0.15781229734420776, 0.09539859741926193, 0.1722288280725479, -0.033224523067474365, 0.08400388807058334, -0.0088540343567729, 0.0039113056845963, -0.07705364376306534, 0.03717426210641861, -0.16782903671264648, 0.021056581288576126, -0.003576229326426983, 0.10735096782445908, -0.014019221998751163, 0.012997256591916084, -0.18970805406570435, -0.2877212464809418, -0.2317691445350647, 0.020772282034158707, -0.011940949596464634, -0.14548851549625397, 0.13129590451717377, -0.19887538254261017, -0.0253083948045969, -0.34841522574424744, 0.006598910316824913, -0.048217061907052994, 0.1263432502746582, -0.0027177082374691963, 0.12327654659748077, 0.04790645092725754, 0.17755083739757538, -0.04929355904459953, 0.003673053113743663, -0.12850874662399292, -0.1328907310962677, 0.02348468080163002, 0.17737425863742828, -0.13334091007709503, -0.04988551512360573, -0.1184207946062088, 0.10427061468362808, 0.0012657548068091273, -0.10989327728748322, 0.06313459575176239, -0.2117806375026703, -0.060628265142440796, 0.004507757723331451, -0.0362895168364048, -0.1693364679813385, 0.13431504368782043, 0.02286926843225956, 0.11431995034217834, 0.1206699013710022, -0.027698848396539688, 0.06830219179391861, 0.017988501116633415, -0.11624163389205933, 0.07128139585256577, -0.11407190561294556, 0.045532770454883575, 0.08711399883031845, 0.01924172230064869, -0.09536626935005188, 0.11643457412719727, -0.038758285343647, 0.1408090442419052, -0.12916840612888336, 0.04031788185238838, 0.016522947698831558, -0.16246414184570312, 0.07442586123943329, -0.05031919851899147, 0.19067233800888062, -0.048854902386665344, -0.18926039338111877, 0.014228623360395432, -0.08682241290807724, -0.0667521208524704, -0.05393415316939354, -0.012432906776666641, 0.009044050239026546, 0.037411585450172424, -0.0860973671078682, 0.1772458404302597, -0.01514473557472229, -0.03091748058795929, 0.17078204452991486, 0.02308155782520771, -0.2210618555545807, 0.017962925136089325, 0.024950092658400536, -0.14705073833465576, 0.08853448182344437, -0.17523084580898285, 0.05115780234336853, -0.131993368268013, 0.009870260953903198, 0.1782998889684677, 0.05258388817310333, 0.01493303757160902, -0.14309532940387726, -0.11152146756649017, -0.12280567735433578, 0.0762588381767273, 0.22091136872768402, 0.0190140213817358, -0.0640949234366417, -0.031863197684288025, 0.02882479690015316, 0.05885817110538483, 0.07150189578533173, 0.022619973868131638, 0.13276393711566925, 0.057500679045915604, -0.10876878350973129, -0.08521062880754471, 0.03282247111201286, 0.04528959468007088, 0.028269391506910324, -0.09331396222114563, 0.10681087523698807, -0.05786043033003807, 0.001475973054766655, 0.10134594142436981, -0.1188071072101593, -0.03755979612469673, -0.024357087910175323, -0.08478596806526184, 0.023230765014886856, 0.023422911763191223, 0.032790232449769974, 0.021754687651991844, 0.049150899052619934, -0.14754493534564972, -0.08031554520130157, -0.023892659693956375, 0.03742147982120514, -0.11986900120973587, 0.08409972488880157, 0.07883553206920624, -0.025696279481053352, -0.06887891888618469, -0.0562966912984848, 0.1360265463590622, 0.13463227450847626, -0.0013330368092283607, 0.0959058552980423, 0.04080113768577576, -0.14247916638851166, 0.07745195925235748, 0.04026972874999046, 0.008982749655842781, 0.12631627917289734, 0.07796027511358261, 0.07504633069038391, -0.0940978080034256, 0.06457751244306564, -0.0198303684592247, 0.020483974367380142, -0.020312165841460228, 0.01746043935418129, -0.12824717164039612, -0.08123736828565598, 0.06477602571249008, -0.08661778271198273, 0.14376717805862427, -0.06564532965421677, 0.050080180168151855, 0.2496354728937149, -0.07797296345233917, 0.002957769203931093, 0.0740291178226471, -0.039575330913066864, 0.04931206628680229, 0.02274545654654503, 0.045136503875255585, -0.021053234115242958, -0.07251057773828506, 0.04358099773526192, 0.0034706012811511755, -0.11508858948945999, -0.09601116925477982, -0.06676412373781204, -0.026326654478907585, -0.06884080171585083, -0.12968695163726807, 0.03363381326198578, 0.019739201292395592, 0.013571345247328281, -0.08925795555114746, 0.015262868255376816, 0.1037946417927742, -0.06179318204522133, 0.03473735600709915, -0.018129810690879822, 0.018643081188201904, -0.006980633828788996, 0.062117237597703934, -0.09694063663482666, 0.010979171842336655, -0.00938097108155489, -0.11280688643455505, -0.0055244117975234985, -0.14529861509799957, 0.00996609777212143, 0.12390188872814178, -0.0996432974934578, 0.05946521461009979, 0.011153548024594784, -0.024609962478280067, -0.11263266950845718, 0.03841555118560791, 0.01008192915469408, -0.15783320367336273, 0.00022779933351557702, -0.002351489383727312, 0.039553552865982056, 0.0795791745185852, -0.2042626440525055, -0.11784448474645615, 0.11043266206979752, 0.1347082406282425, 0.00589626282453537, -0.26952195167541504, -0.22069181501865387, -0.0457744337618351, 0.025945592671632767, -0.05638968199491501, -0.08022089302539825, -0.0669168159365654, 0.04532404616475105, 0.021828917786478996, 0.13935036957263947, -0.1833399087190628, 0.050459202378988266, -0.0008864859701134264, 0.024395832791924477, -0.21905824542045593, -0.0503191240131855, -0.10196985304355621, 0.012492408975958824, -0.021029064431786537, -0.08867935091257095, -0.034760747104883194, -0.12069863826036453, 0.03897251933813095, -0.10943660885095596, -0.012270533479750156, -0.017339304089546204, -0.12745846807956696, -0.003611914347857237, -0.004570276942104101, -0.09339716285467148, -0.0538838766515255, -0.012107458896934986, -0.06851034611463547, -0.07817763835191727, -0.11467964947223663, -0.007951483130455017, 1.204768180847168, -1.4664746522903442, -0.09559737145900726, -1.448426365852356, 0.35992178320884705, -1.0856139659881592, 2.1102283000946045, 1.1018285751342773, -0.7533910274505615, 1.5177501440048218, 1.3551028966903687, -0.7660332322120667, 1.595555305480957, -0.22698386013507843, -0.286571741104126, 0.32700294256210327, 0.709993839263916, 2.089613676071167, 0.5771681070327759, 0.16272461414337158, -0.9287422299385071, 1.9705915451049805, -0.3261677026748657, 0.595289945602417, 0.8087615966796875, 0.04528998211026192, 0.7235830426216125, 0.1980014443397522, 2.674391508102417, -0.023621421307325363, -0.23735226690769196, 0.1369379162788391, 0.48646044731140137, 0.49494242668151855, -0.43492478132247925, -0.15806961059570312, -0.7756929397583008, 0.13880084455013275, 0.8146592378616333, 1.1175678968429565, 2.081000328063965, -0.9807793498039246, 1.1944422721862793, 0.09688025712966919, -1.0805351734161377, 0.8717036843299866, 1.5307739973068237, -0.7576377391815186, -0.668402910232544, 0.6372018456459045, -0.3091285228729248, -1.5803571939468384, -1.1087173223495483, -2.546442747116089, 0.34976404905319214, -1.3283090591430664, 1.0018551349639893, -0.9886904358863831, -0.7152606844902039, -0.6273261904716492, 1.5299986600875854, -0.10549483448266983, -0.18881765007972717, 0.35353145003318787, -0.36527886986732483, -0.7711020112037659, -1.9535554647445679, -0.542484700679779, 0.31865042448043823, 0.40678930282592773, -1.0322885513305664, -1.048694372177124, -2.172354221343994, -0.7250401377677917, -0.8576698899269104, -2.625706195831299, -0.1340114027261734, -3.276078224182129, -1.5025520324707031, -0.013849367387592793, 1.8250046968460083, -0.7902708053588867, 3.470926284790039, -1.0825527906417847, -0.8679141998291016, 0.08924390375614166, -0.30069082975387573, -0.5493069887161255, 0.24469052255153656, 0.7617908120155334, 0.1619354635477066, 1.1654959917068481, 0.051804155111312866, 0.7109928131103516, -0.17067427933216095, 0.8883798122406006, -0.3670039772987366, -1.6982550621032715, 0.6439579129219055, -1.6678446531295776, -0.1768912374973297, 0.8476617336273193, 2.899916410446167, -0.1955680102109909, -0.8775202035903931, -0.9882534146308899, 1.624192476272583, 2.07047176361084, -0.3128249943256378, -0.6936721801757812, 0.2768351435661316, 0.11050466448068619, -0.5821601748466492, 2.200183868408203, 0.22493213415145874, 1.0521191358566284, -0.82474285364151, -1.5060161352157593, 0.7928982973098755, -0.526733934879303, 0.11333879828453064, 0.8499985337257385, -1.6740432977676392, 1.0714302062988281, -0.0195219237357378, -0.5158702731132507, 0.27440983057022095, 1.749354600906372, -0.3069189488887787, 0.1942063421010971, -0.1353820264339447, -1.0853105783462524, -1.3119629621505737, -1.2385920286178589, -1.2421447038650513, 0.17827482521533966, -0.2708156108856201, 0.5608667731285095, -1.1137888431549072, 0.08505687117576599, 0.1212976798415184, -0.05952947959303856, -0.540799617767334, 0.01980721578001976, -0.04218125715851784, -0.5487662553787231, 0.5641414523124695, -0.35087916254997253, -1.1712771654129028, -1.034880518913269, 0.510916531085968, -0.09891397505998611, 0.14003399014472961, 0.8951260447502136, 2.361624002456665, -1.5213903188705444, 0.37661001086235046, -1.0132442712783813, -1.3841354846954346, -0.634000837802887, 0.93630450963974, -1.0370466709136963, 0.28936201333999634, 0.8261424899101257, 0.8212748169898987, -0.11120516806840897, 1.6534713506698608, -0.39390695095062256, 0.23849204182624817, -0.9530407190322876, -0.5017751455307007, 1.186128854751587, 0.022138239815831184, 0.10379637032747269, -0.9118058085441589, -0.6373767256736755, 0.03800392523407936, -1.0483393669128418, -1.6326053142547607, -0.6786205172538757, 0.3899897038936615, -0.2886132597923279, 0.1684233546257019, -1.4258308410644531, -1.624991536140442, 0.09448975324630737, -0.5937886238098145, -0.2012791931629181, 0.23474526405334473, -0.5312842130661011, 0.6593466401100159, -3.1996870040893555, 1.0462754964828491, 2.521070957183838, 0.337490439414978, -0.07048647850751877, -1.4034396409988403, 0.27380314469337463, 0.38305312395095825, -1.204854965209961, 0.039696451276540756, 0.46877074241638184, 0.5211142897605896, -2.450289487838745, -1.02744460105896, -0.9398385882377625, -0.3904556334018707, -0.39656633138656616, 1.288490891456604, 1.6247292757034302, -1.2555533647537231, -1.4231113195419312, 0.5196669697761536, 0.9481706023216248, -2.6727206707000732, -1.19204580783844, -1.041306972503662, -1.1038079261779785, 1.275138020515442, -1.7389296293258667, -1.0165863037109375, 0.719996452331543, 0.7021565437316895, 1.1027495861053467, 2.06587815284729, -1.9592559337615967, 0.07771600782871246, 0.17354564368724823, -0.3536040484905243, -0.6070113182067871, 0.12948116660118103, -0.2081214189529419, -0.10580046474933624, -4.2629923820495605, 0.9012438058853149, -0.1936425417661667, 1.5669509172439575, -1.7484462261199951, -1.2473843097686768, 0.0594039224088192, -0.9580179452896118, 1.209391713142395, 0.0008564164745621383, -1.1519161462783813, -2.004027843475342, 1.0837219953536987, -0.3577612042427063, -2.343168020248413, -2.474529981613159, 0.6428707838058472, 0.15252158045768738, -0.6707949638366699, -1.2638187408447266, -0.1653849184513092, -0.845442533493042, 0.41142094135284424, 0.34148651361465454, -0.323518842458725, 0.13447590172290802, 0.33836638927459717, 0.8764703869819641, 0.33084389567375183, -0.6335655450820923, -0.9584816694259644, 0.559142529964447, 0.41172492504119873, -0.9645018577575684, -0.4268379509449005, 0.04586046189069748, -0.8110388517379761, -2.7155847549438477, -0.14921320974826813, -0.035505495965480804, 0.34340935945510864, -0.34350696206092834, -1.404718041419983, 0.23070399463176727, -1.4209120273590088, -0.0003245519183110446, 0.5778578519821167, 0.48060142993927, -0.2810360789299011, -0.5975590944290161, 0.3668639063835144, -0.0312870629131794, -1.441001057624817, -0.2793636918067932, 0.8093075752258301, 0.12439986318349838, 0.35909098386764526, 0.09063597768545151, -0.046888213604688644, -0.43501943349838257, -0.1418459117412567, -0.07440760731697083, 0.6254884600639343, 0.03766946494579315, -0.2430877685546875, -1.3872307538986206, -1.1579982042312622, -0.29281094670295715, 1.1233916282653809, -0.871135413646698, -2.30566668510437, -0.8586480021476746, -0.2622393071651459, -0.2515423595905304, 0.16592402756214142, -0.8825326561927795, 0.019929831847548485, 1.8707894086837769, -0.541897177696228, 0.1220669075846672, -0.23870162665843964, 0.026139885187149048, -0.47131213545799255, 0.5895721912384033, -1.137094259262085, 0.6627439856529236, -1.290192723274231, 0.7785987854003906, -0.36646100878715515, 0.07637853920459747, 0.9445747137069702, 0.10343043506145477, -0.5854520797729492, -0.37740159034729004, -0.4795564115047455, -0.08094284683465958, -1.033313274383545, -0.4545450508594513, 0.12875784933567047, 0.3362981677055359, 0.5205843448638916, -1.7562304735183716, 0.4682989716529846, 0.2624969780445099, 0.9855016469955444, 0.0685000792145729, 0.9813656210899353, 0.2751937806606293, 0.14453159272670746, 0.3646400570869446, 0.13914638757705688, 1.0585435628890991, 0.6006456613540649, -1.355310082435608, 0.40885284543037415, -0.21855449676513672, -1.0489152669906616, -0.0457371287047863, 0.3703249990940094, -0.15748444199562073, 0.802200436592102, -0.3992532789707184, 0.12582531571388245, -0.04733110964298248, 0.7926390171051025, -1.1687607765197754, 0.2689330577850342, -0.597755491733551, -1.2510970830917358, -0.4823208749294281, 0.2875165641307831, -0.05527010187506676, 0.7451463341712952, -0.8423513174057007, -0.2639875113964081, 0.223690465092659, 0.10808839648962021, -1.3648818731307983, -0.73668372631073, -0.7505028247833252, -0.665279746055603, -0.8085600733757019, -0.22636686265468597, -0.9436960220336914, 1.3250750303268433, 0.7641851902008057, -0.8572461605072021, 0.43600335717201233, -2.465432643890381, 0.3088507354259491, -0.5035033226013184, 0.562061071395874, 0.5114614963531494, -0.28218168020248413, -0.5940840244293213, 0.6110685467720032, 0.9845635890960693, -0.8981097936630249, 0.1063208058476448, 0.9335870742797852, 0.14154759049415588, 0.22051313519477844, -1.113878607749939, -0.3616492450237274, -1.1147756576538086, -0.2953717112541199, 0.13187803328037262, 0.5458698868751526, 0.2146351933479309, -0.4750446081161499, 0.3050801157951355, -1.396824836730957, 0.16765561699867249, -0.6821285486221313, -1.340312123298645, 0.6010438799858093, -0.17509904503822327, -1.0390064716339111, 0.6158422827720642, -0.3629249036312103, 0.7471346855163574, 0.4421063959598541, 0.10800355672836304, 0.4599194824695587, 0.9074655771255493, -0.1651999056339264, -2.317441701889038, -0.12474138289690018, 0.30157309770584106, -1.6110491752624512, 0.2762763202190399, -0.13181078433990479, 0.6355904340744019, 0.5307313799858093, 0.1812993437051773, 0.4180935323238373, 0.7085204124450684, 0.43538206815719604, 0.5777817368507385, 0.4074937403202057, -0.547683596611023, 0.37649551033973694, -1.5068830251693726, -0.07837766408920288, -0.6946495175361633, -0.7974565029144287, -0.6911532878875732, -0.7785946130752563, -0.4469115436077118, 0.31713053584098816, 0.47713154554367065, 0.2397363781929016, 1.0158251523971558, 0.3629247546195984, 0.06431473791599274, 0.341826856136322, -0.7485357522964478, -0.7668960094451904, 0.7124233245849609, 0.4593427777290344, -0.15739360451698303, -0.6487524509429932, 0.09705285727977753, -0.24831829965114594, 0.38382774591445923, -0.46183088421821594, -1.2229551076889038, 0.12475313991308212, -0.03417620807886124, -0.2471654862165451, 0.6179690361022949, 0.3493587076663971, 0.7305812239646912, -0.4275475740432739, -0.22999891638755798, 0.06910713016986847, -1.2768498659133911, -0.4811578691005707, 0.40227147936820984, 0.8342961072921753, 0.5735481977462769, 0.10383982956409454, 0.03903677314519882, -0.2344358116388321, -0.6288627982139587, 0.11056701093912125, -0.7331764698028564, -1.6325527429580688, 0.0051224688068032265, 0.857549786567688, 0.07980630546808243, 0.29991012811660767, -0.5811534523963928, -0.7643327713012695, 0.05671253055334091, -0.0961127057671547, -0.3173072040081024, -0.07163192331790924, 1.2621854543685913, 0.037652794271707535, 0.7870432734489441, 0.1642589122056961, 0.3751569092273712, -0.2817012369632721, -1.062046766281128, -0.6483810544013977, -0.14165270328521729, -0.7884525656700134, -1.4961427450180054, 0.493532657623291, -0.21617616713047028, -0.6938838958740234, 0.3208150863647461, -0.4749544858932495, 0.6978989243507385, -1.286298155784607, -0.21949370205402374, -0.3251407742500305, 0.07770068198442459, 0.07452306151390076, -0.27779483795166016, -0.16006578505039215, -0.17370493710041046, 0.39409738779067993, 0.18858270347118378, -0.08494595438241959, -0.212896466255188, -0.11739151179790497, -0.09779775142669678, 0.3205738365650177, 0.10521385073661804, -0.3399635851383209, 0.07649856805801392, -0.5485178828239441, 0.0003536350268404931, -0.23479028046131134, 0.36518850922584534, 0.051030442118644714, 0.25976884365081787, -0.15476952493190765, 0.1312912255525589, -0.00570790097117424, 0.24883964657783508, -0.16929110884666443, -0.12793248891830444, -0.08230146765708923, -0.01719481870532036, -0.1245349869132042, -0.22988291084766388, -0.15703675150871277, 0.20735515654087067, 0.031794801354408264, 0.12174642086029053, -0.010793139226734638, -0.244649738073349, -0.09636987745761871, -0.17666484415531158, 0.008527154102921486, -0.16478894650936127, -0.06587406992912292, 0.02177746221423149, 0.07177691906690598, 0.31337711215019226, 0.11672912538051605, 0.1445392370223999, 0.05764913558959961, 0.15618674457073212, -0.41411352157592773, -0.09017820656299591, 0.4053279161453247, -0.04752307012677193, -0.04679154232144356, 0.1371650993824005, 0.3000411093235016, -0.0165255144238472, 0.03542201966047287, 0.3677719533443451, -0.2243090271949768, -0.2878638803958893, 0.08426696807146072, 0.05838865786790848, 0.15409889817237854, 0.21200472116470337, 0.4851718246936798, 0.14021019637584686, -0.022427791729569435, 0.06059495359659195, 0.09464020282030106, -0.05573219805955887, -0.08372332155704498, 0.28525495529174805, -0.1377710998058319, 0.033857643604278564, -0.15304073691368103, 0.0003853527596220374, -0.5613216757774353, -0.07373958081007004, -0.4786228835582733, -0.27958229184150696, 0.1252465397119522, -0.18678168952465057, 0.36296918988227844, 0.03118976764380932, -0.3263978660106659, 0.3221634328365326, -0.0041625299490988255, -0.20525196194648743, -0.036235518753528595, -0.13492240011692047, -0.15877674520015717, -0.24378296732902527, -0.26661989092826843, -0.042134400457143784, -0.032374169677495956, -0.2269890010356903, -0.3417195677757263, 0.11982916295528412, 0.17233586311340332, 0.10476358234882355, 0.25927457213401794, 0.19169779121875763, 0.1904848963022232, -0.3617290258407593, -0.13906393945217133, -0.14600379765033722, -0.17271290719509125, -0.3329615592956543, 0.06378860026597977, 0.2582509517669678, -0.18221832811832428, 0.45564785599708557, 0.14265301823616028, 0.15175925195217133, -0.17507420480251312, -0.19559292495250702, 0.014294120483100414, -0.2143535614013672, 0.006682630628347397, -0.2728663682937622, -0.08081711828708649, 0.253736287355423, -0.1255316436290741, -0.1564706712961197, -0.16858530044555664, -0.2767351567745209, -0.46751365065574646, 0.034257031977176666, -0.018227731809020042, -0.22429883480072021, -0.04995305836200714, -0.21908432245254517, 0.22375164926052094, 0.021556604653596878, 0.21302932500839233, -0.07613895833492279, -0.18474262952804565, -0.007915999740362167, -0.04909820109605789, -0.14599144458770752, -0.4062340557575226, 0.060937799513339996, 0.10614467412233353, 0.6193653345108032, -0.24143879115581512, 0.18589413166046143, -0.2676624059677124, 0.021703273057937622, -0.02017672173678875, -0.4127364754676819, 0.32688483595848083, -0.017517266795039177, -0.15050433576107025, 0.11196689307689667, 0.31547385454177856, 0.15431134402751923, 0.2854993939399719, -0.014095528051257133, 0.32473206520080566, 0.08078290522098541, 0.1635366529226303, -0.07379617542028427, -0.05431196838617325, -0.13230426609516144, -0.3018965423107147, 0.2026543766260147, 0.07167290896177292, -0.2324356883764267, -0.0015214731683954597, -0.05288902297616005, -0.2367795705795288, -0.13498546183109283, -0.04492104798555374, -0.5164970755577087, -0.13439373672008514, -0.021753761917352676, 0.21709159016609192, 0.10412584245204926, -0.10103622823953629, 0.09026540070772171, 0.10362845659255981, 0.014937108382582664, 0.09617484360933304, -0.16002777218818665, 0.08375009149312973, -0.16146163642406464, 0.398067444562912, 0.08414875715970993, 0.018483279272913933, -0.010449104942381382, -0.10962749272584915, -0.12091659754514694, -0.44693705439567566, -0.05691661685705185, -0.035833876579999924, -0.3248984217643738, -0.18823817372322083, 0.25695356726646423, 0.15344713628292084, 0.0730988010764122, 0.05159483104944229, -0.21239487826824188, 0.0380263514816761, -0.5042257308959961, -0.026598172262310982, -0.04728053882718086, -0.15571030974388123, 0.3033316731452942, 0.14847534894943237, 0.03590936213731766, 0.07939645648002625, -0.7622789144515991, -0.07408417761325836, -0.1547452062368393, -0.25428149104118347, 0.43039777874946594, 0.011130631901323795, -0.06749770790338516, 0.23930932581424713, -0.06383064389228821, 0.004203645046800375, -0.01989366114139557, -0.01737421378493309, -0.1796645224094391, -0.03841530904173851, 0.038722772151231766, -0.5162186026573181, -0.08622787892818451, -0.020133571699261665, -0.10047841817140579, 0.14154298603534698, -0.2113690823316574, 0.2650030553340912, -0.44915419816970825, 0.13910241425037384, -0.2671729624271393, 0.4935688078403473, -0.15322741866111755, -0.13357791304588318, 0.38559219241142273, 0.05546289309859276, 0.19895321130752563, 0.037292011082172394, -0.1458396464586258, -0.19422867894172668, -0.2889666259288788, -0.03922892361879349, 0.09386831521987915, -0.04402531310915947, -0.051387351006269455, -0.06874795258045197, 0.07984582334756851, 0.03450595587491989, 0.2355014830827713, 0.20701344311237335, 0.7348652482032776, -0.23431575298309326, -0.07300204783678055, -2.4610495567321777, 1.946296215057373, 0.7763906121253967, 1.7111461162567139, -3.0864813327789307, -0.43974635004997253, 1.9378758668899536, -2.5659244060516357, -1.2058539390563965, -0.05025017261505127, -4.748697280883789, -1.278816819190979, -1.0562269687652588, 0.4046778082847595, -1.2712301015853882, -2.2260637283325195, 0.7818219065666199, -0.22779178619384766, -0.7101671099662781, -0.5428050756454468, 2.0887255668640137, 0.4351261854171753, -1.4578828811645508, -1.4611350297927856, 1.998085856437683, -0.925973117351532, -2.622732400894165, -2.4052820205688477, -1.6179395914077759, -1.2827903032302856, -1.594212293624878, -0.08753643184900284, 0.28161391615867615, -1.8976434469223022, 0.936179518699646, 1.9537498950958252, 1.808049201965332, -2.148695230484009, -1.4326446056365967, -0.8523450493812561, 1.2355231046676636, 1.5462712049484253, 0.9995660781860352, -0.9020131826400757, 0.16451600193977356, -1.1091289520263672, -0.786013126373291, -0.797652006149292, 1.582753300666809, 0.6786012649536133, -0.21301919221878052, 1.583247423171997, -0.46515193581581116, -0.060831453651189804, -0.8074130415916443, 1.6382955312728882, -2.056791067123413, -0.7139486074447632, 0.25594595074653625, -1.1570391654968262, -0.6765259504318237, -0.9362054467201233, -1.178199052810669, 2.316904067993164, 0.2330125868320465, 1.8877805471420288, 1.6758955717086792, -0.16973423957824707, 1.5675886869430542, -0.643287181854248, 0.49352535605430603, -1.2705127000808716, -1.4287734031677246, 3.134934902191162, -1.9719252586364746, 2.8070666790008545, 0.07621467113494873, -1.7378175258636475, 1.0041600465774536, 1.7266814708709717, 0.1604001671075821, -0.39677533507347107, 2.3149213790893555, 2.296018362045288, -0.9495849013328552, 2.3861966133117676, -1.0892258882522583, 0.29037219285964966, 0.6751387119293213, 0.400579571723938, -0.9089671969413757, 1.681383728981018, 1.4826120138168335, -0.658808708190918, -1.2520513534545898, 2.7084813117980957, 0.9303505420684814, -0.5518088936805725, 0.18333213031291962, 0.10722413659095764, -0.342251181602478, 0.1932026445865631, -1.5692672729492188, -0.25068822503089905, -0.30154353380203247, -1.3854072093963623, 1.1745067834854126, 2.1087865829467773, -0.5920969247817993, 1.8812719583511353, -0.5555340647697449, 1.1133219003677368, -0.18699413537979126, -2.087531566619873, 1.2515517473220825, 0.6544256210327148, -1.0672820806503296, 2.4118740558624268, 0.08993037790060043, -1.7207653522491455, 1.0671714544296265, 0.19686076045036316, -0.22624103724956512, 0.24462242424488068, -0.23333404958248138, -2.9803478717803955, -0.021375831216573715, 0.2150978147983551, -0.2762005627155304, 0.6716957688331604, 0.21624267101287842, 0.09307917207479477, 1.743477702140808, 1.9472172260284424, 0.8292107582092285, -0.929684042930603, 0.6095584034919739, -0.5123558640480042, -1.3989784717559814, 0.04848884418606758, 0.20501255989074707, 1.775882601737976, 1.689570665359497, 0.7219892144203186, -1.2606886625289917, 3.0654046535491943, -2.2511146068573, -0.12952131032943726, 2.2430710792541504, 0.3509654700756073, -0.6119975447654724, 2.6012656688690186, 0.09558858722448349, 2.17006254196167, 0.9631821513175964, 0.2563444972038269, 0.31494441628456116, 1.4100509881973267, -0.8388214707374573, -0.5768311023712158, 1.1187342405319214, -0.711605429649353, -0.6219301819801331, 2.9100849628448486, -1.2049661874771118, 0.5424933433532715, 1.3489668369293213, -1.2416046857833862, -2.0021443367004395, -1.173791766166687, -1.8221428394317627, -0.24700982868671417, -0.6961579322814941, -0.8792855143547058, 2.7216413021087646, 0.7981624603271484, 1.486335039138794, -1.0397847890853882, 2.0713512897491455, 2.554346799850464, 0.48692116141319275, 0.23277904093265533, -0.592613160610199, -1.6655817031860352, -0.7289814352989197, 0.8266102075576782, 1.0184085369110107, 1.6756354570388794, -2.8459014892578125, 3.477139949798584, -1.166505217552185, -2.3001468181610107, -0.6111623048782349, -0.37988218665122986, 2.0720906257629395, 3.096229314804077, -0.6275742650032043, 1.1414018869400024, -1.4157822132110596, -0.4149681627750397, 1.0162171125411987, 0.2034590244293213, -1.4045674800872803, -1.1753910779953003, 1.618631362915039, 1.1909273862838745, -2.791757106781006, 0.4766683280467987, 0.6653977036476135, 0.4719614088535309, 1.9138813018798828, -0.2723308801651001, 0.6188811659812927, 0.29891976714134216, 1.1049715280532837, -0.13482271134853363, 0.32983601093292236, -1.0868587493896484, -0.1998922973871231, -1.613359808921814, -2.2487454414367676, -1.4408925771713257, -1.1816980838775635, 1.3197051286697388, 0.11104803532361984, 0.7970392107963562, -0.5335631966590881, 0.4392531216144562, 1.6223456859588623, -0.8323419690132141, 2.675172805786133, 0.18907643854618073, -0.63284832239151, 0.19801652431488037, -0.9415108561515808, 1.0274759531021118, 0.021339554339647293, 0.5570898056030273, -0.8584688305854797, 0.579585075378418, -1.2583891153335571, 0.5409032702445984, 0.25301891565322876, -1.386602520942688, -0.03527335077524185, -1.2362558841705322, 1.2336121797561646, -1.797974705696106, -2.1059868335723877, -0.1841103583574295, -0.2770247757434845, -2.1748697757720947, 0.48928654193878174, -1.4675670862197876, -0.4359900951385498, -0.8668652772903442, -0.11288226395845413, 0.4399317502975464, -0.6131129860877991, 0.18062354624271393, 0.2316228300333023, 0.12464257329702377, -0.8163287043571472, 0.038175564259290695, -0.5657776594161987, -0.07604174315929413, 0.53211510181427, -0.5745668411254883, -0.11286530643701553, -0.9001815915107727, -0.2937186360359192, -0.07697901874780655, -0.8702967762947083, -0.561320960521698, -0.830623209476471, -0.3801693916320801, -0.10285718739032745, 0.030525697395205498, -1.397264838218689, -0.9605880975723267, -0.9886322021484375, -1.477811336517334, -0.621004581451416, -0.5166012048721313, -0.08029970526695251, -0.06627827882766724, -0.11858891695737839, 0.09008937329053879, -1.3559445142745972, 0.4290045201778412, -0.3299555778503418, -0.15975446999073029, -0.3625233769416809, -0.522879958152771, 0.03750799968838692, -0.8025297522544861, -0.6803632974624634, -0.41172513365745544, -0.5731114149093628, -0.7990241050720215, 0.1645989567041397, -0.9738407731056213, -0.14763163030147552, -0.9313398599624634, 1.1321074962615967, -1.0363532304763794, -0.09204638749361038, -0.8985283374786377, -1.0045745372772217, 0.020667534321546555, -0.44175028800964355, 0.490349680185318, -0.9773632287979126, 0.056986622512340546, -0.4508967995643616, -0.3915601968765259, -0.27012670040130615, 0.11500856280326843, -0.6592927575111389, 0.6185673475265503, -0.4488263428211212, -0.5527769923210144, -0.6512973308563232, -0.6529229283332825, 0.3974132537841797, -0.269995778799057, 0.24783208966255188, -0.32611432671546936, -0.8909856677055359, 0.046952344477176666, -0.9903606176376343, -0.5418546199798584, -0.7124989628791809, -0.2852158844470978, -0.3137784004211426, -2.159198522567749, -0.10763287544250488, -1.355562448501587, -1.0749168395996094, -0.9041567444801331, -0.7839211225509644, -0.7062311768531799, -0.3698149621486664, -0.290828138589859, -0.28569266200065613, -0.860910177230835, -0.25929442048072815, -0.4086761772632599, -0.31551310420036316, -0.5450018048286438, -0.02142215520143509, -0.6872378587722778, -1.117788553237915, -0.6572853326797485, -0.1888929009437561, -0.7979914546012878, 0.4958581328392029, -0.22123388946056366, -0.2946990430355072, -0.6177830100059509, 0.3464382588863373, -0.5820117592811584, -0.0769924744963646, 0.012458473443984985, -0.1742262989282608, 0.5070755481719971, -0.9195879101753235, -0.9786049127578735, -1.3565491437911987, -0.7735102772712708, -0.7624109983444214, -0.9747979640960693, -0.036793265491724014, 0.1273021548986435, 0.435679167509079, -0.7897838950157166, -0.2283879816532135, -0.07395714521408081, -1.0503005981445312, 0.4868757128715515, -0.8575615882873535, -0.13875769078731537, -0.7378304600715637, -0.16431531310081482, -0.33001330494880676, 0.25720837712287903, 0.3294772207736969, -1.158884882926941, 0.515258252620697, -0.6212958693504333, -0.626095712184906, -0.5717242956161499, 0.4931950867176056, -1.0207468271255493, 0.4473233222961426, 0.07155560702085495, -1.1148964166641235, -0.8726670145988464, -0.6467074155807495, -0.09978696703910828, -0.5389742255210876, -0.2594890296459198, -0.6495692133903503, -0.5088003277778625, -0.4037644565105438, -0.863844633102417, -0.28762829303741455, -0.26676443219184875, -1.040103793144226, -0.48509570956230164, -0.3749091923236847, -0.3602350950241089, -0.32153597474098206, 0.024255376309156418, 0.1494700014591217, -1.554539680480957, -0.8181571364402771, -0.8300830125808716, -0.5545156002044678, -0.5956406593322754, 0.15687277913093567, -0.33804410696029663, -0.24507293105125427, -0.5224894285202026, -0.978331446647644, 0.005035949870944023, -0.4670078158378601, -1.253358244895935, -0.7226424813270569, -0.8737003803253174, -0.6365923881530762, -0.15125887095928192, -1.060168743133545, -0.47313016653060913, -0.10023759305477142, -0.32392120361328125, -0.3191191554069519, -0.18190212547779083, -0.23492524027824402, -0.968485414981842, -0.6623339653015137, -0.7583959698677063, -0.3734482526779175, -0.6134318113327026, -0.501625120639801, 0.4166974723339081, -0.9545501470565796, -0.9204694032669067, 0.10621070861816406, -0.5403949022293091, -0.9574859738349915, -0.7410345077514648, -1.209279179573059, -0.42510950565338135, 0.048806846141815186, 0.290780246257782, 0.29158443212509155, 0.330570787191391, 0.4312763810157776, 0.18334327638149261, -0.07981602102518082, -0.38647618889808655, -0.06109783425927162, -1.1985701322555542, -0.5720911026000977, 0.7269843816757202, -0.5166128873825073, -0.2702699303627014, 0.37457457184791565, -0.09123575687408447, -0.32090097665786743, 0.3262411653995514, 0.24536901712417603, 0.3786661922931671, -0.2837969958782196, -1.1169267892837524, -0.5557226538658142, 0.09098971635103226, -0.38457390666007996, -0.2351454198360443, -0.2323431372642517, -0.2980463206768036, -0.07603495568037033, -0.6011868119239807, -0.33149686455726624, -0.13351760804653168, -0.3006103038787842, -0.5419571399688721, -1.1591585874557495, -0.9011673331260681, -1.5680114030838013, -0.27987346053123474, 0.058724988251924515, -0.3970177471637726, -0.9974453449249268, -1.0940998792648315, -0.45881780982017517, -0.30839449167251587, 0.021750345826148987, -0.5425992012023926, -0.34135177731513977, -0.31828272342681885, -0.24439214169979095, -0.010618822649121284, 0.5925553441047668, -0.1280066817998886, 0.3474988639354706, -0.18384306132793427, 0.3703494668006897, 0.019022079184651375, -0.16358669102191925, 0.02918398007750511, -0.1853206753730774, -0.03864462673664093, 0.17341704666614532, 0.11473702639341354, -0.26348698139190674, 0.24620673060417175, 0.16743804514408112, -0.2123716175556183, -0.17962221801280975, -0.004579351749271154, -0.4122590720653534, -0.21074090898036957, -0.14548441767692566, -0.19202837347984314, 0.021076934412121773, -0.18577532470226288, -0.09494460374116898, -0.0568675696849823, -0.07920780032873154, 0.026547737419605255, 0.15604020655155182, 0.06684189289808273, -0.381023108959198, 0.1369817852973938, 0.13404777646064758, -0.0359172448515892, -0.019094320014119148, -0.1585116982460022, -0.31079229712486267, -0.13329046964645386, -0.24085558950901031, -0.0694911926984787, 0.4022916555404663, -0.21481353044509888, -0.15269769728183746, 0.2799268960952759, 0.04873678833246231, -0.14771106839179993, -0.04914253205060959, -0.29273277521133423, 0.00010331625526305288, -0.2690280079841614, -0.21032460033893585, -0.10836772620677948, 0.11811371892690659, -0.0011871171882376075, -0.192852184176445, -0.1936943680047989, 0.07936480641365051, 0.07553541660308838, -0.04165260121226311, -0.15578460693359375, -0.19928036630153656, 0.029262928292155266, -0.5502387881278992, -0.11916495114564896, -0.23112496733665466, -0.1305982619524002, -0.08887286484241486, 0.051291681826114655, -0.3488926589488983, -0.23151043057441711, 0.08451798558235168, -0.03209192305803299, 0.050272487103939056, 0.022726092487573624, 0.32316941022872925, -0.3583810329437256, 0.20407810807228088, -0.21456612646579742, 0.16790065169334412, -0.20827391743659973, -0.2303372472524643, 0.18059828877449036, -0.3649597465991974, 0.20809811353683472, -0.04261758551001549, 0.031427476555109024, -0.1292150914669037, 0.18769529461860657, 0.0979229062795639, 0.046270351856946945, 0.09206578880548477, -0.05420911684632301, -0.47151392698287964, -0.16919246315956116, -0.15510746836662292, -0.24157553911209106, -0.03855695575475693, 0.14315517246723175, 0.012416640296578407, -0.07597152888774872, -0.00402692798525095, 0.025451654568314552, -0.21016886830329895, 0.03879876062273979, 0.09818216413259506, 0.16621330380439758, -0.11919362843036652, 0.04261019453406334, -0.0274566188454628, -0.18579822778701782, -0.2599996328353882, 0.07797539979219437, 0.045107726007699966, 0.13759060204029083, -0.21570958197116852, 0.4402165114879608, 0.15756943821907043, 0.006713655311614275, 0.22370381653308868, 0.31815510988235474, 0.05435549467802048, -0.07041291892528534, 0.06669391691684723, -0.06042782962322235, -0.25785499811172485, -0.3696955740451813, -0.47052305936813354, 0.25710007548332214, -0.3423430323600769, -0.2914387881755829, -0.27045148611068726, -0.1125638484954834, -0.16995078325271606, -0.5212137699127197, -0.07292197644710541, -0.22833380103111267, -0.20708951354026794, 0.025077715516090393, -0.050536252558231354, -0.12000441551208496, 0.17122487723827362, -0.0022522155195474625, 0.1265491545200348, -0.07673946768045425, 0.21088407933712006, 0.15925072133541107, -0.2452678382396698, 0.0743708685040474, -0.1906440109014511, 0.23036351799964905, 0.06294257938861847, 0.0808844119310379, 0.21338388323783875, 0.14713527262210846, -0.1258053481578827, -0.04977937787771225, 0.4233867824077606, -0.00281933113001287, 0.15424245595932007, 0.3220704197883606, 0.08769650012254715, 0.27654147148132324, -0.3146042227745056, -0.005385957192629576, 0.144095316529274, 0.12724097073078156, 0.07647407054901123, 0.13620947301387787, -0.10624262690544128, -0.018258916214108467, 0.16559284925460815, 0.30402785539627075, -0.06516125053167343, -0.10414686799049377, 0.014295331202447414, -0.19224514067173004, -0.054726362228393555, -0.4906882047653198, -0.5798700451850891, -0.06283784657716751, 0.0942380502820015, 0.4404814541339874, -0.02711762860417366, 0.03368077054619789, 0.16805902123451233, 0.2114199846982956, -0.21883296966552734, 0.12082985788583755, 0.22327546775341034, 0.10360724478960037, 0.12448824942111969, -0.23074939846992493, -0.28734058141708374, 0.30427131056785583, 0.05693599209189415, 0.19338828325271606, -0.12759052217006683, 0.3083226680755615, -0.23332954943180084, -0.11901213228702545, -0.019300859421491623, -0.14164111018180847, -0.1312156766653061, 0.0536356084048748, 0.048877790570259094, 0.3137770891189575, -0.1670711189508438, 0.10522867739200592, 0.0711388811469078, -0.04446934908628464, -0.018650436773896217, -0.477027028799057, -0.10202745348215103, 0.30373895168304443, -0.12375418841838837, 0.06225235387682915, -0.013140574097633362, 0.06165772303938866, 0.0823206976056099, -0.5171809196472168, -0.06804721802473068, 0.03934742510318756, -0.09169501811265945, 0.12349797040224075, -0.1492827832698822, -0.08435465395450592, 0.2433941811323166, -0.354793518781662, -0.21195067465305328, -0.530148983001709, -0.21956893801689148, 0.08588392287492752, -0.0745624527335167, -0.2120993584394455, 0.03828329220414162, 0.1508438140153885, 0.2006080597639084, 0.029861947521567345, -0.06146730110049248, -0.07733355462551117, -0.40037310123443604, 0.06656968593597412, -0.31365466117858887, -0.03982275351881981, -0.1296474039554596, -0.418456494808197, -0.11458471417427063, -0.30400219559669495, -0.21500597894191742, -0.06474041193723679, 0.019968843087553978, -0.11303862929344177, 0.12638528645038605, -0.017593439668416977, -0.03403005376458168, 0.04045824334025383, -0.033122871071100235, -0.0024673088919371367, -0.03030826523900032, -0.18440982699394226, 0.3204200863838196], "bias": [-0.8861210942268372, -0.37659505009651184, -1.346922516822815, -0.6324121356010437, -0.39411506056785583, -0.8101277351379395, -0.6362808346748352, 0.3799383342266083, -0.14729313552379608, -0.5531588792800903, -0.7810545563697815, -0.7451728582382202, -1.4844341278076172, -0.4836624562740326, -1.2609237432479858, -0.3174097239971161, -1.1952346563339233, -0.5211306810379028, 0.48531827330589294, -0.6990689635276794, -0.4310659170150757, -0.5755476951599121, -1.2310450077056885, -0.6150100231170654, -0.8112229108810425, -0.2540024518966675, -0.8980488777160645, -0.7705828547477722, -1.0388349294662476, 0.12898501753807068, -0.2930339276790619, -0.7428397536277771, -1.1054210662841797, -0.6608012914657593, -0.7380349636077881, -1.0054569244384766, -0.3196519911289215, -0.7180762887001038, -1.2669649124145508, -0.6564621329307556, 0.40324094891548157, -0.8988443613052368, -1.170036792755127, -0.5675606727600098, -0.949758768081665, -0.9757171273231506, -0.47720226645469666, -0.7413171529769897, -0.24583680927753448, -0.2010621875524521, -1.0114243030548096, -1.4572662115097046, -0.9727309942245483, -1.581046462059021, -0.4438047409057617, -0.37626683712005615, -1.0740119218826294, -1.123170018196106, -0.4868652820587158, -0.2553701102733612, -0.9182270765304565, -0.42961084842681885, -0.9031058549880981, -1.3344333171844482, -1.0748494863510132, -0.09130118787288666, -0.25513777136802673, -0.537467896938324, -0.1325186938047409, -0.9266812801361084, -1.060017466545105, -0.2922539710998535, -0.9632195830345154, -0.19233860075473785, -0.5752415657043457, -0.5916185975074768, -0.009748700074851513, -0.4902525246143341, 0.46786874532699585, -1.015476942062378, -0.930364191532135, 0.3567984104156494, 0.41002553701400757, 0.047842998057603836, -1.2617275714874268, 0.08234003931283951, -1.345931053161621, -1.0848842859268188, -0.3857552111148834, -0.3850153982639313, -0.887108325958252, -1.403767704963684, -0.9114617109298706, -1.3111984729766846, -0.32085272669792175, -1.398684024810791, -1.6590348482131958, -0.7814739942550659, -0.3036884665489197, -0.736592710018158, -0.7423076629638672, -1.0418508052825928, -0.23455466330051422, -0.5326550602912903, -0.9326959252357483, -0.378385066986084, -0.7358534336090088, -0.8497419953346252, -0.2019171118736267, -1.1431822776794434, -0.8661018013954163, -1.425944209098816, -0.677915096282959, -1.3347344398498535, -0.1150251179933548, -1.0279921293258667, -0.5648258328437805, -1.151564598083496, -1.7315384149551392, -0.7254582643508911, -0.25086578726768494, -0.9374895095825195, -0.6319633722305298, -0.47022438049316406, -0.8694575428962708, -1.3899058103561401, 0.20227426290512085, -0.561296820640564, 0.10127924382686615, -0.6865825653076172, -1.5762183666229248, -1.1034032106399536, -1.0895334482192993, -1.025399923324585, -0.25489628314971924, -0.9945298433303833, -1.3523629903793335, -0.6321206092834473, -0.9428333044052124, -0.5235762596130371, -0.3356570899486542, -1.325310468673706, -1.6746015548706055, -0.9719412326812744, -0.6313860416412354, -0.7766113877296448, -1.5629843473434448, -0.6314035654067993, -0.3056640625, -0.3584541082382202, -1.1839218139648438, -0.35057714581489563, -0.20416967570781708, -1.4997518062591553, -1.401447057723999, -1.093445062637329, -0.6855243444442749, -1.3411427736282349, -1.0213879346847534, -0.16426686942577362, -0.8400585055351257, -1.539342999458313, -0.5423023700714111, -1.0331919193267822, -0.13763463497161865, -0.09729170799255371, -0.018757453188300133, -0.33329907059669495, -0.6084204316139221, -0.868906557559967, -0.390242338180542, -0.4918287992477417, -0.669072151184082, -0.18848109245300293, -0.9802661538124084, -0.7468617558479309, -0.45735958218574524, -0.5667054653167725, -1.0322726964950562, -0.5007327795028687, -0.3452453017234802, -0.9583165049552917, -1.1678587198257446, -1.2811791896820068, -0.9780059456825256, -1.1068195104599, -1.1055514812469482, -1.2669001817703247, -0.30528321862220764, -1.3363046646118164, -0.4469219446182251, -0.8554736375808716, 0.08297387510538101, -0.5534873008728027, 0.5953848958015442, -1.3656514883041382, -0.8727710247039795, -1.1752545833587646, -0.5901510715484619, -0.673538088798523, -0.7682267427444458, -1.3705406188964844, -2.2704670429229736, -0.7448327541351318, -0.42459261417388916, -0.8519671559333801, -1.0597563982009888, -1.0046603679656982, -0.8331970572471619, -0.758712649345398, -0.07394034415483475, -1.6812416315078735, -0.7149168848991394, -1.022141695022583, -0.5130273699760437, -0.20898790657520294, -1.2015129327774048, -0.9607769250869751, -0.6817622184753418, -0.7176676988601685, -0.46495485305786133, -0.5773003697395325, -0.386650025844574, -0.8097168207168579, -0.6527059078216553, -0.5272358059883118, -0.808020830154419, -1.559721827507019, -1.1141893863677979, -1.4434784650802612, -0.6702630519866943, -1.5300030708312988, -1.421762228012085, -0.6678060293197632, -0.2532317638397217, 0.2681540548801422, -0.14247341454029083, -0.35686665773391724, -1.2595102787017822, -1.2620190382003784, -0.9627229571342468, -0.9484140872955322, -0.7617972493171692, -1.3336857557296753, -1.5216962099075317, -1.249779462814331, -0.1356813907623291, -1.1375125646591187, -0.6467175483703613, -0.9762568473815918, -0.8786336183547974, -0.4636036455631256, -1.0271313190460205, -0.7027546167373657, -0.8034141063690186, -0.9571133852005005]}, "layer_1": {"kernel": [-0.16657313704490662, -0.02852320857346058, -0.39256808161735535, 0.45201823115348816, 0.08787649869918823, -0.35871875286102295, -2.4314332008361816, -0.28168976306915283, -0.0020101708360016346, 0.09176379442214966, 0.13589105010032654, -0.40414953231811523, 0.431232750415802, -0.20756922662258148, -0.04925135150551796, 0.6303251385688782, -0.5136694312095642, -0.19706980884075165, -0.3908579647541046, -0.023648696020245552, -0.7299174070358276, 0.19214856624603271, 0.6152634620666504, -1.2721946239471436, -0.8085772395133972, 0.47262585163116455, -0.034984927624464035, 0.7886441349983215, 0.26795443892478943, -0.22180387377738953, -0.007089493330568075, 0.060929086059331894, 0.20801785588264465, 0.51137775182724, -0.011775510385632515, 0.06695207208395004, -1.114886999130249, -0.7865580320358276, 0.18025703728199005, -0.10089392215013504, -0.27593302726745605, -0.0013060371857136488, -0.5355737209320068, -0.018560294061899185, -0.024811645969748497, -0.4213598370552063, -0.46117791533470154, 0.17619988322257996, -0.3194975256919861, -0.6485766172409058, -0.7392979264259338, -0.010555895045399666, 0.02054513432085514, -0.28180399537086487, -0.8078657984733582, 0.7083936333656311, -0.3576299548149109, -0.6135018467903137, 0.10933896899223328, -0.8058745861053467, -0.2222270965576172, -0.6272153854370117, -0.6334044337272644, 0.5436562895774841, 0.06818578392267227, -1.4644074440002441, -0.8654096126556396, -0.7535922527313232, -0.4963323771953583, 0.3302876651287079, -0.16610023379325867, 0.8337299823760986, -0.03194911777973175, -0.02331497333943844, 0.2740676999092102, -1.1852468252182007, 0.14196138083934784, 0.4775506258010864, -0.2026997059583664, -0.2735269069671631, -0.559199869632721, -0.0002239325549453497, 0.33855000138282776, -0.3288513123989105, -0.11303375661373138, 0.019899150356650352, 0.08729337900876999, -0.3282368779182434, 0.0737244188785553, 0.776038646697998, 0.8226190805435181, -0.181396946310997, 0.6460397243499756, -0.12724503874778748, -1.2523022890090942, 0.18126554787158966, -0.14905160665512085, -2.6483545303344727, -0.3921288251876831, -0.2729078531265259, -0.8968042135238647, -0.9651600122451782, -1.0683046579360962, -0.06341633200645447, -0.383940726518631, 0.2502591907978058, -0.2628302276134491, -0.9265388250350952, 0.18351735174655914, 0.5113407969474792, -0.19812019169330597, -0.23583213984966278, -0.2841174006462097, 0.2304992973804474, -0.572143018245697, 0.11369401961565018, -0.057334743440151215, -0.3658173084259033, -0.44495388865470886, 0.576924741268158, -1.2342396974563599, -0.332553505897522, -0.0942934900522232, 1.3701837062835693, -0.34132787585258484, -0.043114133179187775, -1.0033339262008667, -0.03243256360292435, 0.21057038009166718, -0.07872210443019867, -0.14176829159259796, -0.36177361011505127, -1.5317472219467163, 0.2163534313440323, -0.9721271991729736, 0.06506612151861191, -1.513655662536621, 0.3568097949028015, -0.270380437374115, -0.12619855999946594, -0.06901966035366058, -0.04510745033621788, 0.21342070400714874, -0.47018054127693176, 0.027914654463529587, -0.027319185435771942, 0.027556559070944786, 0.021875863894820213, -0.021536417305469513, 0.4609895348548889, -0.3727779686450958, -0.05259077996015549, 0.4269341230392456, 0.018226101994514465, 0.021309856325387955, 0.07588763535022736, -0.03869590535759926, -0.72527676820755, 0.2880278527736664, 0.6198064088821411, 0.03176723048090935, -0.07345835119485855, -0.035810139030218124, -0.3880822956562042, 0.11031963676214218, 0.25212353467941284, -0.6739444136619568, -0.5992438197135925, 0.5641231536865234, -0.8904440999031067, -0.07517700642347336, -1.322147250175476, -0.72600919008255, -0.0944499745965004, 0.17650769650936127, -0.21132484078407288, -0.3665635287761688, -0.0008204429177567363, 0.3929480016231537, -0.26540979743003845, 0.019629348069429398, -0.9030075669288635, 0.2390165627002716, 0.5094859600067139, -0.003934046719223261, -0.3651849627494812, 0.2287043333053589, -1.4080919027328491, 0.9406185150146484, -0.32261934876441956, -0.3519226312637329, -0.6302057504653931, -0.36131441593170166, -0.3527127206325531, -1.2644720077514648, 0.08689365535974503, -0.3471360504627228, 0.5110567212104797, -1.0568257570266724, 0.31022340059280396, 0.2867858111858368, -0.3160133361816406, 0.001603343989700079, 0.06671629846096039, 0.49468863010406494, -0.48068156838417053, -0.05247194319963455, -0.3669275641441345, -1.5092934370040894, -0.20095199346542358, 0.06983955204486847, -0.48044368624687195, -0.612159788608551, 0.678555965423584, -0.07014656066894531, -0.22864556312561035, -0.04055201634764671, 0.03692902252078056, -0.18251155316829681, -0.3494831621646881, -0.07658027857542038, -0.28556910157203674, 0.17238223552703857, -0.09585756063461304, -0.025119690224528313, -0.07581709325313568, 0.2206970602273941, 0.5677390098571777, -0.23709845542907715, -0.05996497720479965, -0.25973421335220337, -0.8153600096702576, -0.1114664226770401, 0.3892345130443573, -0.04976194351911545, -0.7845478057861328, -0.4318215847015381, 0.22976189851760864, -1.2353556156158447, 0.2938025891780853, 1.3820608854293823, 0.3477078080177307, 0.49456587433815, -0.08801262080669403, -0.2530992925167084, -0.1593349277973175, 0.25332337617874146, 0.3867092430591583, -0.00861060619354248, -0.9998461604118347, -0.2898162305355072, -0.282486230134964, 0.38685110211372375, -1.276333212852478, -0.15235202014446259, -1.1202826499938965, -1.2480757236480713, 0.574079692363739, -0.38263529539108276, 0.4514760375022888, -3.0867714881896973, -0.41955479979515076, -0.1444111168384552, -0.8848019242286682, 0.02081463672220707, -0.48369038105010986, 0.22755451500415802, -0.4556562602519989, -2.879411220550537, 0.058688659220933914, -0.027884671464562416, 0.1979628950357437, 0.12543556094169617, -0.03231494128704071, 0.09013776481151581, -0.5440646409988403, 0.1188996359705925, 0.16892841458320618, 0.4913918375968933, 0.5501997470855713, -0.6382566690444946, 0.1417303830385208, -1.2298169136047363, 0.4519462287425995, -0.49889782071113586, -0.05385485664010048, 0.023261329159140587, 0.01408457662910223, -0.059971582144498825, 0.8023635745048523, 0.026924286037683487, -0.19569635391235352, -0.4134201407432556, -0.011003331281244755, -0.46086275577545166, -0.40482470393180847, -0.19197286665439606, -0.12258517742156982, -1.01059889793396, -0.7372943162918091, -0.04978545755147934, -1.049111247062683, -0.7958675026893616, -0.03255832567811012, -1.0241584777832031, -0.02809865213930607, 0.08941521495580673, 0.4198471009731293, -0.04945676773786545, -0.24963314831256866, 0.00652926554903388, 0.09442483633756638, -0.060789208859205246, -0.6954795122146606, -0.32008054852485657, 0.1439293920993805, -0.277960866689682, -0.23299069702625275, -0.2557574212551117, -0.288914293050766, -0.11532563716173172, -0.2738373577594757, -3.4120595455169678, 0.0791565328836441, 0.24738061428070068, 0.06514768302440643, -0.4104175269603729, -0.3213747441768646, 0.15523380041122437, -0.25651252269744873, -0.6246238350868225, -0.6102114915847778, 0.07378680258989334, 0.05181318521499634, 0.03535892441868782, -0.055884506553411484, -0.5321676731109619, -0.02066400647163391, 0.6825065016746521, -0.35390204191207886, -0.37139058113098145, -0.0582677386701107, 0.2950693666934967, 0.21119366586208344, -1.054592251777649, -0.061489321291446686, -0.13219110667705536, -0.7892748713493347, 0.3994836211204529, -0.06565932929515839, -1.8671579360961914, -0.1670846790075302, -0.88149493932724, 0.23169569671154022, -0.014900372363626957, -0.2902703881263733, 0.02930942364037037, -0.23180387914180756, -0.522262692451477, -0.0347415953874588, -0.46603134274482727, -1.1193500757217407, 0.10880393534898758, 0.8899317979812622, -0.41719648241996765, 0.3640318810939789, -0.15111768245697021, 0.7896336913108826, -0.055387478321790695, 0.08489909023046494, 0.759835422039032, 0.08718700706958771, 0.038989610970020294, -2.0981321334838867, -0.5295641422271729, 0.16617748141288757, -0.2676853537559509, -1.051366925239563, -0.035293109714984894, 0.528031051158905, 0.3259086608886719, 0.018922632560133934, 0.14652271568775177, -0.07529472559690475, 0.41073480248451233, 0.259799599647522, 0.013019860722124577, 0.02053496055305004, -1.3502861261367798, -1.7602828741073608, 0.2853257656097412, -1.2369167804718018, -0.5476139783859253, -0.13015320897102356, -0.1631651073694229, -0.011299222707748413, 0.9222767949104309, -0.29263371229171753, -0.25478285551071167, -0.4249636232852936, 0.0616760216653347, -0.0640723928809166, 0.4120722711086273, -1.2653021812438965, -0.8273777365684509, -0.12140767276287079, -0.04577566683292389, 0.04686981812119484, 0.5661666989326477, 0.19388985633850098, -0.03732677176594734, -0.33407753705978394, -0.026947375386953354, -0.33302363753318787, -0.8125398755073547, -1.2025105953216553, -0.028154559433460236, -0.06107676029205322, -1.333647608757019, 0.41154929995536804, 0.10544151812791824, -0.9938114881515503, -0.9284590482711792, 0.1659650355577469, 0.6824562549591064, -0.23426923155784607, -0.01700848527252674, 0.25498658418655396, 1.1217752695083618, 0.46485254168510437, -0.3529076874256134, 0.05829821154475212, 0.2783520519733429, -0.0056679206900298595, 0.3542199432849884, -0.4155348539352417, 0.010011892765760422, 0.04403376579284668, -0.394389271736145, 0.11890304088592529, 0.0019541012588888407, -0.3935096859931946, -0.2964007556438446, 0.21305395662784576, 0.283703088760376, 0.13950467109680176, 0.23220336437225342, 0.5323025584220886, -0.1879211813211441, 0.23064176738262177, -0.48766353726387024, 0.4104698896408081, -1.1605556011199951, -0.8081988096237183, -0.9399398565292358, 0.09301303327083588, -0.03658869117498398, 0.31341442465782166, -0.06228861212730408, -0.026901397854089737, -0.40265780687332153, 0.37651655077934265, -0.005922945216298103, 0.1624131202697754, -0.0422995425760746, -0.680908739566803, -0.031924933195114136, -0.7517262101173401, 0.426028311252594, -0.4468410909175873, -0.028299305588006973, -0.4930016100406647, -0.031785763800144196, 0.025932617485523224, -0.8691647052764893, 0.8631451725959778, -0.8615654706954956, 1.3651453256607056, -0.18403707444667816, -1.1767988204956055, 0.0930476114153862, 0.05330590531229973, -0.985512912273407, -1.0469118356704712, -0.17089098691940308, -0.5365954637527466, 0.08099076896905899, -1.3994724750518799, 0.635902464389801, 0.0800531804561615, 0.04452543333172798, 0.04213199019432068, 0.42487987875938416, -0.24556228518486023, 0.061576083302497864, 0.20220351219177246, 0.5946958065032959, -1.1395891904830933, -0.22360315918922424, 0.07503501325845718, -0.047770995646715164, 0.30589404702186584, 0.139260396361351, 0.6996917724609375, -0.026647740975022316, -0.09511835128068924, -0.4319273829460144, -0.4612305760383606, 0.34653040766716003, 0.7913438677787781, -0.6990225911140442, 0.004350322298705578, -0.49641337990760803, -1.3558300733566284, -0.12092982977628708, 0.1802254170179367, 0.11086404323577881, 0.4679547846317291, -0.4918414354324341, 0.2835303843021393, 0.0077497814781963825, 0.7009385228157043, -0.04503043740987778, -0.08812034875154495, 0.11957095563411713, -0.710817277431488, -0.04518337920308113, -1.027884840965271, -0.735413670539856, -0.5787209868431091, 0.025088125839829445, -0.47995707392692566, -3.417546272277832, -0.008542316034436226, -0.7911384701728821, -0.8068475723266602, -2.0892131328582764, 0.01641361601650715, 0.05504222586750984, 0.45241761207580566, -1.6143124103546143, -1.4510071277618408, -0.08274545520544052, -0.8978689312934875, 0.26661139726638794, -0.6921924948692322, -0.007032070308923721, -0.3597232699394226, 0.1789689064025879, -1.234548568725586, -0.30529212951660156, 0.42126545310020447, -0.6258348822593689, 0.4565613865852356, -0.02296927198767662, 0.5697560906410217, 0.07578602433204651, -1.22012460231781, 0.2984420955181122, 0.010857874527573586, -0.11481326818466187, -0.7155526876449585, -1.9331804513931274, -0.9467974901199341, -0.029810938984155655, 0.8505297899246216, -0.8812217116355896, -0.6997361779212952, -2.901329278945923, 0.08642612397670746, 0.0477294884622097, -0.4365959167480469, -0.437402606010437, -0.15907280147075653, -0.04113052040338516, -0.9939945936203003, 0.09415967017412186, -0.05018461495637894, 0.0616287998855114, -5.40178918838501, -0.8068392872810364, 0.7005882263183594, 0.6603446006774902, -1.4057705402374268, -0.24290849268436432, -1.1431430578231812, -0.8624485731124878, -1.0841801166534424, -1.0902220010757446, -1.214807152748108, -0.6705724596977234, 0.9990949630737305, -0.13169831037521362, -0.007362655363976955, 0.6790885329246521, -1.2693592309951782, -0.5895566940307617, -0.04293209686875343, 0.019918784499168396, -0.3146440088748932, -1.9117549657821655, 0.8204149603843689, -0.9489926695823669, -0.5269947052001953, 0.07650011777877808, 0.48735544085502625, -0.4700724184513092, -2.6733124256134033, -0.0850004330277443, -0.1906348019838333, -0.08216976374387741, 0.7857853174209595, -0.9928740859031677, -0.4994022846221924, -0.2726251780986786, 0.031847257167100906, -0.597064197063446, -0.2313469648361206, -0.9616135358810425, -2.9764158725738525, 0.07317014038562775, -0.1445355862379074, -0.8140274286270142, -0.2415243536233902, -2.752598524093628, -0.44321879744529724, 0.6928066611289978, 0.13503031432628632, -0.0880628228187561, 0.03456621244549751, -0.19036854803562164, 0.8728244304656982, -0.5412845611572266, -2.4213099479675293, 0.011728285811841488, -1.4120197296142578, 0.13905315101146698, -0.008412979543209076, 0.3383525013923645, 0.025242824107408524, 0.24217034876346588, -0.27813518047332764, 0.1287478655576706, -2.9583687782287598, -1.84157133102417, -1.7817308902740479, -0.8274365067481995, -0.36296290159225464, 0.07508541643619537, 0.6896101236343384, -0.22298608720302582, 0.007250519003719091, -0.2808167636394501, -1.75550377368927, -1.7355129718780518, 0.7673453092575073, 0.8102505207061768, 0.029709013178944588, -1.1155900955200195, 0.11449291557073593, 0.36827921867370605, -1.0481703281402588, -0.09365104883909225, -0.13084566593170166, -0.4227447807788849, 0.45566296577453613, 0.03618781641125679, 0.17209210991859436, 0.03729289025068283, -0.7325472235679626, 0.28694695234298706, 1.386555790901184, 0.046542827039957047, 0.4912862479686737, -0.25235211849212646, -1.8442398309707642, 0.5055457949638367, -0.43820062279701233, -0.08758853375911713, -0.06830374151468277, 0.4990485906600952, -1.538581132888794, -0.07069081813097, 0.35619136691093445, -0.07205220311880112, -0.4822995960712433, 0.5854125618934631, -1.6035826206207275, -1.4666669368743896, -0.00975048914551735, 0.03764680027961731, -1.168481707572937, -0.03602445498108864, -2.0654263496398926, -0.4670695960521698, -1.516669750213623, 0.058009784668684006, -0.41857439279556274, 0.2890840172767639, -0.6894371509552002, 0.05965016037225723, -0.04360777512192726, 0.09381652623414993, 0.13825173676013947, -0.16121040284633636, -0.10112755000591278, -0.9227720499038696, 0.07951374351978302, 0.041266068816185, 0.513320803642273, -0.19529777765274048, -0.31619659066200256, -2.439305305480957, -0.13751062750816345, 0.0417986698448658, 0.5493758916854858, -0.07300848513841629, -1.3940272331237793, -0.022380614653229713, 0.42724066972732544, 1.3536804914474487, -0.36982011795043945, 0.016538545489311218, -2.4722089767456055, -0.07988927513360977, 0.004512803629040718, -5.185507297515869, 1.084996223449707, -0.057980507612228394, 0.03980942443013191, -0.3613356053829193, 0.4323936402797699, 0.1282140612602234, 0.12148843705654144, -0.015114113688468933, -0.0034513953141868114, -0.23077870905399323, -1.248125672340393, -0.018806105479598045, 0.1645398736000061, 0.09698323905467987, -0.5915622115135193, -0.40064290165901184, 0.12108234316110611, 0.43013623356819153, -1.6573344469070435, -0.012105443514883518, -0.21013155579566956, -1.3742268085479736, 0.3180980980396271, 1.1461836099624634, -0.49702921509742737, 0.15063805878162384, 0.1275128722190857, -2.341262102127075, 0.32920071482658386, -0.9238348007202148, -0.24204662442207336, 0.11585954576730728, 0.2991408109664917, -0.02835850603878498, -0.47004568576812744, 0.5085169672966003, -0.6301029920578003, 0.28201353549957275, -0.5352901816368103, -0.03666941821575165, -0.07751843333244324, 0.30685386061668396, 0.6680248975753784, 0.6701279282569885, -2.0987229347229004, -0.08623550087213516, 0.5750250220298767, -0.6522309184074402, -0.09650969505310059, -0.0560145378112793, -0.04051664099097252, 0.25004738569259644, -0.4100479483604431, 1.2116855382919312, 0.18387827277183533, 0.06005926430225372, 0.651585578918457, -0.08989549428224564, 0.02593815140426159, -0.6535972952842712, -0.01540001854300499, -0.668164074420929, -0.21710026264190674, -1.6049396991729736, -1.2362236976623535, 0.2149314135313034, 0.8171060681343079, -0.6908591389656067, 0.5517381429672241, 0.33491480350494385, 0.15413634479045868, -0.05618465691804886, -0.5647086501121521, -0.004645884037017822, -0.20423679053783417, 0.024212636053562164, 0.0974312499165535, -0.5633016228675842, 0.27063363790512085, 0.2118033915758133, 0.3189597427845001, -0.4194832146167755, 0.7632461786270142, 0.22935931384563446, 0.5487216114997864, 0.05172881856560707, -0.5519695281982422, -0.12632134556770325, -0.41624003648757935, -0.02577102556824684, 0.06875962764024734, 0.11462220549583435, 1.5622061491012573, -0.04466089978814125, -1.7387678623199463, 0.012153137475252151, -1.2336012125015259, 0.7545626163482666, 1.0166934728622437, 0.1974593698978424, -1.4166145324707031, 0.2591473460197449, -0.28429338335990906, 0.331667423248291, -0.6891578435897827, 0.5647153258323669, 0.3326631188392639, -0.012363528832793236, 0.7430608868598938, -0.3343172073364258, 0.25440433621406555, -0.14681588113307953, 0.41319525241851807, 0.01547950692474842, 0.32415950298309326, 0.4821510910987854, -0.07695433497428894, -0.13997744023799896, -0.2438221573829651, -0.360831081867218, -0.10254676640033722, -0.34247782826423645, 0.02670879289507866, 0.9874930381774902, -1.0067106485366821, -1.163056492805481, -0.023540642112493515, -0.3480500280857086, -0.35273057222366333, 0.40552961826324463, 0.4985025227069855, -1.129369854927063, 0.3400265574455261, 0.4949992299079895, -0.2417582869529724, -0.8008467555046082, -0.13394345343112946, -0.8069015145301819, -0.05613992363214493, 0.3134396970272064, -1.0644917488098145, -0.3642614781856537, 0.10318426787853241, 0.3775564134120941, -0.013575342483818531, 0.0036955424584448338, 0.24841460585594177, -0.007686750963330269, 0.01935282163321972, 0.6252804398536682, 1.083875298500061, -0.1669914871454239, 0.06218814104795456, -0.3518265187740326, -0.49145573377609253, 0.0597936250269413, 0.9959035515785217, 0.020385416224598885, 0.12226561456918716, 0.9015806913375854, -0.4847031533718109, 0.7195011377334595, -0.21461725234985352, 0.16298064589500427, -0.9236679077148438, -0.3430252969264984, 0.05577640235424042, -2.1181371212005615, -0.053623318672180176, 0.18378692865371704, 0.3651246726512909, -1.2074748277664185, 0.36721768975257874, 0.16318757832050323, -0.1161440834403038, -0.1038801372051239, -0.0043354700319468975, 0.23867473006248474, -0.12662151455879211, 0.4172278940677643, -0.39062434434890747, -0.2072584331035614, -0.9643070101737976, 0.8774392604827881, -0.09662961214780807, 0.8451116681098938, -0.03647034242749214, 0.09112783521413803, -0.301303505897522, -0.4701981246471405, -0.803630530834198, 0.13034366071224213, -0.4350994825363159, -0.14580149948596954, 0.04338677227497101, -0.0030939404387027025, 0.03974364325404167, -0.0255835372954607, 0.3522801995277405, -0.364855021238327, 0.18898777663707733, 0.0035734912380576134, 0.69371098279953, -0.5247344970703125, -0.4001287817955017, -0.06244492903351784, -0.6049975752830505, 0.538189172744751, 0.24189049005508423, -0.09559676051139832, 0.12494029104709625, -0.04351935535669327, 0.28768038749694824, 0.7220240235328674, -0.023245008662343025, -1.5931700468063354, -0.10396210104227066, -0.8530955910682678, -0.05750738084316254, -0.5959776043891907, -0.3515113890171051, 0.023161564022302628, -2.252638101577759, -0.5543338656425476, -3.175534248352051, -0.06150232255458832, -0.7149510383605957, 0.11995092034339905, 0.03855203092098236, 0.752484142780304, 0.051680732518434525, -0.10233742743730545, 0.34722763299942017, 0.30339738726615906, 0.02520582266151905, 0.5181789994239807, 0.018847640603780746, -0.6666731834411621, -0.6331714987754822, 0.19130831956863403, 0.025159237906336784, 0.21760109066963196, -0.22757981717586517, 0.011956161819398403, -0.014343724586069584, 0.5920724272727966, -0.522180438041687, -0.028398359194397926, -0.006034153513610363, 0.27165383100509644, 0.1267147958278656, -0.07036808878183365, -0.19736145436763763, 0.15105359256267548, -0.6851732730865479, -0.6230098009109497, 1.5011889934539795, 0.03122423216700554, -0.046939704567193985, -0.009331599809229374, -0.2180933803319931, 0.3741978704929352, 0.43336328864097595, -0.3246745467185974, -0.19436126947402954, -2.3488755226135254, -0.805648148059845, 0.2755119204521179, 0.4192415177822113, -0.2940676808357239, -0.858199417591095, 0.5218051075935364, 0.16732345521450043, -0.38378962874412537, 1.4760888814926147, -0.04378886893391609, 0.05092115327715874, 0.0842217430472374, 1.1211656332015991, 0.22317034006118774, -0.6383227705955505, -1.2454158067703247, -1.298398494720459, 0.07282327115535736, 0.581449568271637, -0.0358363538980484, 0.17165549099445343, -0.3620704412460327, -0.26729556918144226, -0.07756460458040237, -0.6606902480125427, 0.5636563897132874, 0.03585491329431534, -0.36304131150245667, -0.9396425485610962, -0.190780907869339, -0.6121399402618408, 0.18953116238117218, 0.09942878037691116, -0.39327436685562134, -0.9560497999191284, -0.03395438194274902, -0.5875298976898193, 0.13920958340168, -0.30431288480758667, 0.002236416330561042, -0.635303258895874, -0.045803483575582504, 0.2983790338039398, 0.30635160207748413, -1.2439815998077393, -0.10747817158699036, -0.7275072932243347, -0.8518379330635071, 0.824712872505188, -0.4695141017436981, 0.10686736553907394, 0.4093291163444519, 0.07118137180805206, 0.5368303656578064, 0.5807791948318481, -0.5489922165870667, -0.06219259276986122, 0.10673613101243973, -0.02946505695581436, -0.8497412204742432, -1.9449200630187988, -0.02556176483631134, 0.00848457682877779, -0.2989610731601715, 0.1731574386358261, -0.05940575152635574, -0.5755013823509216, -0.2122943103313446, -1.0077946186065674, 0.05301371589303017, 0.02897004969418049, -0.0616939514875412, -0.4395076036453247, 0.003945058677345514, 1.1239650249481201, -0.12151498347520828, -0.43849775195121765, -1.3523850440979004, -0.4032764136791229, -0.7089696526527405, -0.4311966598033905, -0.11475374549627304, 0.3262588679790497, -0.04192937910556793, 0.44530683755874634, 0.20443063974380493, 0.17390528321266174, 0.41521692276000977, 0.07272512465715408, 0.08540238440036774, 0.2523881196975708, -0.6511013507843018, 0.06385273486375809, 0.04594351351261139, 0.39542311429977417, -0.3159889578819275, -0.22923117876052856, -0.190094456076622, 0.4092847406864166, -0.08437111228704453, -0.5979543328285217, 0.18296344578266144, -0.30441051721572876, -0.8424926996231079, -0.08706508576869965, -0.4313151240348816, 0.8540691137313843, -2.1175122261047363, 0.3931119740009308, -0.23326019942760468, 0.24046140909194946, 0.04103127866983414, -0.05519673228263855, 0.6314786076545715, -0.6412973403930664, 0.4211655259132385, -0.025077197700738907, 0.23209086060523987, 0.7349289059638977, -0.3357286751270294, -0.2447609305381775, -0.7507631182670593, -0.18462198972702026, -0.2995455265045166, 0.04704592376947403, 0.2850480079650879, -0.037141378968954086, -0.3228986859321594, -1.242380142211914, -0.046301472932100296, -0.372764527797699, 0.3118094205856323, -0.4539206922054291, -0.1429292857646942, -0.03260233253240585, 0.14258484542369843, 0.2582058608531952, 0.2322361320257187, 0.3699260652065277, -2.044098138809204, -3.33967661857605, -0.9238908290863037, 0.48101210594177246, -0.5786216855049133, -0.3850834369659424, -0.1947006732225418, 0.21863985061645508, 0.04062584415078163, -0.7066293954849243, 0.10879543423652649, -0.187326580286026, -0.5168470740318298, -0.512791097164154, 0.03667749837040901, -0.6751693487167358, -0.49088254570961, -0.0498347133398056, -0.06202061101794243, -0.030261466279625893, -0.21460941433906555, -0.08961925655603409, 0.6190171241760254, -0.7811427712440491, -2.520307779312134, 0.8538196682929993, -0.053817469626665115, 0.026837533339858055, -1.0171200037002563, 0.635225236415863, -0.43661022186279297, 0.011360641568899155, 0.09730110317468643, -2.359837293624878, -0.2287091463804245, 0.6241870522499084, -0.22461996972560883, 0.01994665153324604, 0.198976531624794, 0.2715023159980774, 0.23985230922698975, 0.3177666962146759, -0.39485394954681396, -0.3586432933807373, -2.593839168548584, -1.4065018892288208, -0.013738221488893032, 0.3476297855377197, -0.008195817470550537, 0.12367064505815506, -0.27022048830986023, -0.572786271572113, -0.06510064005851746, -0.7326003313064575, 0.1500493586063385, -1.2826323509216309, -0.07725350558757782, -0.43272218108177185, -0.2633697986602783, -0.13665442168712616, 0.1417488008737564, 0.1049293726682663, -0.03845050558447838, -1.036512017250061, -0.1835993528366089, -0.11819727718830109, -0.36885276436805725, 0.11227088421583176, -0.16621902585029602, 0.012180984951555729, 0.15831966698169708, 0.18352854251861572, -0.0496663860976696, -0.9498417973518372, -0.6075304746627808, -0.01525599230080843, -0.07899346947669983, -0.6166394948959351, -0.08054602891206741, -0.5107750296592712, 0.15248043835163116, 0.2994232475757599, 0.034526195377111435, -0.14550134539604187, 0.21904896199703217, -0.18455946445465088, -0.0847775861620903, -0.90810626745224, -0.03974994271993637, -0.07433301955461502, -1.4062530994415283, -0.03929651528596878, -0.5007697343826294, -0.12733979523181915, -0.04011084511876106, 0.04956040531396866, 0.010001156479120255, -0.8993126153945923, -0.06043499708175659, -0.13230262696743011, -1.0017242431640625, -0.7173214554786682, -0.03038467839360237, -0.6182400584220886, 0.5650022625923157, -0.30561643838882446, -0.47629234194755554, -0.3582289516925812, -0.03653200715780258, -0.07042389363050461, 0.4096657931804657, -1.2780144214630127, -0.09009331464767456, -0.6072068810462952, -0.30667296051979065, -0.15508708357810974, -0.10855312645435333, -0.27384090423583984, 0.007096868008375168, -0.1823514997959137, -0.2775495648384094, -0.004734127316623926, -0.45371055603027344, 0.24842026829719543, -0.5577811002731323, 1.0412108898162842, 0.013596209697425365, -0.4873868227005005, -0.2754819393157959, -0.11985792964696884, -0.16371655464172363, -0.16449697315692902, 0.2836863696575165, -0.1479804515838623, -0.8936538100242615, -0.4005213677883148, 0.036819230765104294, 0.09234591573476791, 0.2472415417432785, 0.10888025164604187, -0.050929874181747437, -0.30950114130973816, 0.3033260703086853, 0.007337100338190794, -1.2914726734161377, -2.615776777267456, 0.4008070230484009, 0.07832612842321396, -0.16868856549263, -0.18434974551200867, -0.2623102068901062, 0.49006927013397217, -1.4825410842895508, -0.33859673142433167, -0.4237906336784363, -0.8991120457649231, 0.019567759707570076, -0.3970293700695038, 0.272173136472702, 0.2558329701423645, -0.42061647772789, -0.30548718571662903, -0.025858543813228607, -0.07905521988868713, -0.15826520323753357, 0.10563891381025314, -0.21501553058624268, 0.7670765519142151, -0.5337426662445068, 0.5031699538230896, -0.7679948806762695, -0.8449004888534546, -0.29195937514305115, 0.6381173133850098, 0.41208556294441223, 0.17652153968811035, 0.021134043112397194, -1.0117307901382446, -0.02636868506669998, 0.012106473557651043, 0.02871454507112503, -0.7714623808860779, -0.08118322491645813, -0.19630520045757294, -0.8158165812492371, -0.1229901984333992, -1.9771896600723267, -0.5789804458618164, -0.033999454230070114, 0.34219178557395935, 0.08574797213077545, 0.26050400733947754, 0.004530788399279118, -2.0623981952667236, 0.062490373849868774, -0.7811468839645386, -1.4691510200500488, -0.2378465235233307, -0.41303545236587524, -0.4570232927799225, -0.04193265363574028, -0.31275683641433716, -0.49427300691604614, -0.41793346405029297, -0.24140387773513794, -0.8676140308380127, -0.007090786937624216, -0.13834460079669952, 0.528523325920105, -0.6977166533470154, 1.580116629600525, -0.4277118146419525, 0.44873759150505066, -1.8771346807479858, -0.3575510084629059, -0.5811592936515808, -1.4595550298690796, 0.4661027491092682, 0.8919405937194824, -0.2429545521736145, -0.023340068757534027, 0.19167281687259674, 0.15065635740756989, -0.004602878354489803, 0.3515405058860779, -0.675290584564209, -0.777275562286377, -0.49989303946495056, -0.1791580617427826, 0.03376923128962517, -0.2782353162765503, 0.5212826132774353, -1.377841591835022, -0.02096829004585743, -1.2967467308044434, -1.0046509504318237, -0.5021966099739075, -0.5254483819007874, -0.39760905504226685, 0.06263181567192078, -0.7967908382415771, 0.08108241856098175, 0.4511745870113373, -0.24830469489097595, -1.128077745437622, 0.024926165118813515, -1.731478214263916, 0.4419183135032654, 0.9911605715751648, 0.16858801245689392, -0.482577383518219, -0.06734094023704529, -0.08727117627859116, -5.876954078674316, 0.5558744072914124, 0.14601555466651917, -1.357566237449646, 0.5017990469932556, -0.2779444754123688, 0.3731027841567993, 0.19414375722408295, 0.5531100034713745, 0.36731722950935364, -0.5639761686325073, -0.00456889858469367, 1.2345508337020874, -0.17467550933361053, 0.1361418068408966, -0.9899324178695679, 1.1896392107009888, 0.025656457990407944, -0.17161938548088074, 0.13866184651851654, 0.011365711688995361, 0.29163578152656555, -0.04591142758727074, -0.464399516582489, 0.4288557767868042, -0.672724723815918, -0.31152254343032837, -0.4250616133213043, 0.25172489881515503, -0.12547029554843903, -0.8861515522003174, -2.250818967819214, 0.20299598574638367, -0.5939142107963562, -0.0048070368357002735, -0.7319127917289734, -0.5856156945228577, -3.1759450435638428, 0.06154512241482735, 0.10639555007219315, 0.029662594199180603, 0.6674444675445557, 0.1196153461933136, -0.15064789354801178, -0.3031335473060608, 0.1805504858493805, -0.22432872653007507, -0.4358443319797516, -2.3099677562713623, -0.06864460557699203, 0.3250437080860138, -0.031230663880705833, -0.27762287855148315, -0.11806181073188782, 0.556176483631134, 0.02501787431538105, -0.005991125479340553, -0.30011510848999023, 0.3370884656906128, 0.023735759779810905, -0.2659568786621094, 0.1599724441766739, 0.4559200704097748, -0.08091814815998077, -0.22309647500514984, -0.07790599763393402, -1.349745273590088, -0.7202691435813904, -0.10800426453351974, 0.9311643242835999, 0.014677881263196468, -1.1880345344543457, 0.03510884568095207, 0.07226353138685226, -0.5967811942100525, -0.02443806454539299, -0.41130250692367554, -0.28389257192611694, 0.08618780225515366, -0.017040381208062172, -1.1820074319839478, 0.5729180574417114, 0.0174521766602993, -0.6081084609031677, -0.05127973482012749, -0.02815559320151806, -1.2733855247497559, 0.23927336931228638, 0.9948879480361938, -0.10638803243637085, -0.11065996438264847, -1.171338438987732, -0.2545289993286133, -0.21934381127357483, 0.3794975280761719, -1.1986223459243774, -0.46209150552749634, -0.07803370803594589, -0.29916009306907654, 0.3682079017162323, 0.022014383226633072, -0.007261465769261122, 0.6798127293586731, -0.172506183385849, -0.013549485243856907, -0.007297314237803221, -0.8778422474861145, 0.05263104662299156, -0.14270585775375366, 0.14718015491962433, -0.9328324198722839, 0.04756014049053192, -0.05048796534538269, 0.15735618770122528, 0.43617552518844604, -0.7897562980651855, -0.043884702026844025, 0.026667408645153046, -0.5207038521766663, 0.3655475080013275, 0.23293812572956085, -1.4413301944732666, -0.7659112811088562, 0.030103683471679688, -0.0245063416659832, -0.8885568380355835, -0.6058052778244019, -0.9354362487792969, -0.0947592556476593, 0.03930610790848732, -0.4312750995159149, -0.4946645498275757, -0.04606250673532486, -0.16833855211734772, -0.2946162223815918, -0.02563890442252159, -1.3603276014328003, -0.38081592321395874, 0.03708077222108841, -0.5949938893318176, -0.6256265640258789, -0.0592728815972805, 0.030418086796998978, 0.04042479768395424, -0.35989347100257874, 0.23132094740867615, -0.19024984538555145, -0.23403210937976837, 0.11542756110429764, -0.44544410705566406, 0.1336228847503662, -1.614692211151123, -0.3421213626861572, 0.18225301802158356, -0.24606113135814667, 0.4538068175315857, -0.5727689862251282, -0.38012048602104187, -0.39136940240859985, -0.04047267138957977, 0.43030428886413574, 0.649529755115509, -0.9540581107139587, 0.7240886688232422, -0.288347989320755, -0.05645325779914856, 0.5534436106681824, -0.14357706904411316, -0.34609299898147583, -0.07225995510816574, 0.13988785445690155, 0.317016065120697, 0.7082374095916748, -0.336340993642807, 0.7961552739143372, 0.07503979653120041, -0.6103515028953552, 0.051883865147829056, -0.37354791164398193, 0.0440174825489521, -2.462613821029663, 0.019547991454601288, -0.2655501365661621, -0.4761950373649597, 0.5449902415275574, 0.018255921080708504, -0.33696529269218445, -0.19748951494693756, 0.6510400176048279, 0.4232192039489746, 0.07087056338787079, -0.7177093029022217, 0.13338838517665863, -0.7975640296936035, -0.7232266664505005, 0.052638303488492966, -0.5826873779296875, 0.44149836897850037, 0.2696446180343628, -0.417525976896286, -1.3327926397323608, -0.6562245488166809, 0.049575481563806534, -0.01349707879126072, 0.5154849290847778, 0.15718044340610504, 0.31306058168411255, -0.3831755220890045, 0.28077954053878784, -0.06289637833833694, 0.4801085889339447, -0.27827298641204834, -0.06775085628032684, -0.34559154510498047, 0.21692049503326416, -1.6245723962783813, -0.2805802822113037, 0.35494595766067505, 0.36749377846717834, 0.3667169511318207, -0.14493179321289062, -0.12248530238866806, 0.017040664330124855, -0.1897851824760437, -0.1440037488937378, 0.03212142363190651, -0.08608638495206833, -0.18603025376796722, 0.5857790112495422, 0.23807792365550995, -0.12645727396011353, -0.43649962544441223, 0.029898157343268394, -0.0876714214682579, -0.5376927852630615, -1.4499239921569824, -0.05590427294373512, -0.1271098107099533, 0.29416945576667786, 0.010658576153218746, -0.8569349646568298, -0.007875744253396988, -0.5910472273826599, -0.2686413824558258, -0.5471130013465881, 0.5954222679138184, -0.17152060568332672, -0.531389057636261, 0.051183708012104034, -0.9769790768623352, -0.824263870716095, 0.36845770478248596, 0.3539229929447174, -0.16935354471206665, -0.04470767825841904, 0.38976165652275085, -0.3236187994480133, -1.4883558750152588, 0.4097895622253418, 0.28458529710769653, -1.223044753074646, -0.40626031160354614, -2.0794129371643066, -0.17155802249908447, -0.0070478725247085094, 0.15240859985351562, 0.5479391813278198, -0.02185208536684513, -0.6332089900970459, -0.22580775618553162, 0.19421124458312988, -0.2217317819595337, -1.1333190202713013, -0.5578699111938477, -0.45355644822120667, -1.0756243467330933, 0.0009419254492968321, 0.03399156779050827, -0.03077145293354988, 0.11249594390392303, -0.4260520040988922, 0.5277337431907654, -0.7394325733184814, -1.1042917966842651, -0.2988126277923584, -0.20832741260528564, -0.09687947481870651, 0.3017454445362091, -0.261587917804718, -0.7057721018791199, -0.3828796148300171, -0.004185831639915705, -0.601426899433136, 0.24637891352176666, 0.028835216537117958, -0.7064488530158997, -0.06278936564922333, -0.28860247135162354, -0.9346170425415039, 0.5422090291976929, 0.201897531747818, -0.4399154484272003, 0.18250247836112976, -0.6320154666900635, -1.164941430091858, 0.010458589531481266, 0.032304923981428146, -0.070831798017025, -0.4143838882446289, 0.17056886851787567, -0.18318524956703186, -0.07892290502786636, -0.040196970105171204, -0.06561937183141708, 0.5191681385040283, 0.23811031877994537, -0.24685733020305634, -0.307338148355484, 0.29252827167510986, -0.334642618894577, 0.9211868643760681, -0.05314084514975548, -0.5258302688598633, 0.27971112728118896, 0.28960707783699036, 0.04143637791275978, 0.19990049302577972, -0.23627428710460663, -0.09500786662101746, -0.34327462315559387, -0.3250288665294647, -0.016050560399889946, 0.865403413772583, 0.23838183283805847, 0.36989498138427734, -0.02877732552587986, 0.35428816080093384, 0.05798536166548729, -0.2980625033378601, 0.04181142896413803, 0.014453480020165443, -0.4947497248649597, -0.7864357829093933, -0.0010106725385412574, -0.6196689009666443, 0.5641403198242188, -0.02133125066757202, -0.9603566527366638, -0.020103923976421356, -0.04778473824262619, 0.25702616572380066, -0.4678136110305786, 0.04251905530691147, 0.04662112146615982, 0.02558327466249466, -1.2134181261062622, -0.38251152634620667, -0.06626037508249283, -0.536034882068634, -0.20675233006477356, -0.47719329595565796, 0.0009441289585083723, -0.13187721371650696, -0.12903502583503723, -0.07792162895202637, 0.0790419951081276, -0.07185056805610657, 0.03332476317882538, -0.024918220937252045, -0.41523170471191406, -1.2163280248641968, -0.05263476446270943, -0.6240827441215515, -0.029286935925483704, -0.02973533235490322, -0.6214068531990051, -0.1578267365694046, 0.13202857971191406, 0.20059028267860413, -0.5646938681602478, -0.2601482570171356, -0.4290211796760559, -0.05589735507965088, -0.7403458952903748, 0.21299763023853302, -0.052043359726667404, -0.6173837184906006, 0.04400729387998581, -0.375650554895401, 0.46971240639686584, -1.7652769088745117, 0.1843797117471695, -0.59187251329422, -0.776045560836792, 0.7247001528739929, -0.07110442966222763, 0.008031053468585014, -0.4097801148891449, -0.053985875099897385, 0.027348730713129044, 0.0732661634683609, -0.09554485231637955, 0.31741663813591003, -0.7975174784660339, -0.5622174739837646, 0.16896386444568634, -0.6878644227981567, -0.04195696860551834, 0.12138628959655762, 0.23798856139183044, -0.04019225016236305, -0.7046999931335449, 0.2465815544128418, -0.12785407900810242, 0.24609503149986267, -0.06332661211490631, -0.20230890810489655, 0.11968965828418732, -0.05635213851928711, -0.9768754839897156, -0.45210036635398865, -0.07041776180267334, 0.03654041886329651, -0.013635666109621525, -0.30245068669319153, -0.6539432406425476, -1.856590986251831, 0.17447315156459808, -0.12076614797115326, -0.8515288233757019, -1.9804891347885132, -0.04624277353286743, -0.3868862986564636, -0.5486875772476196, -2.7144081592559814, 0.06428253650665283, 0.030323004350066185, 0.0024108458310365677, -0.811329185962677, -0.10800621658563614, -0.3968392312526703, -0.031606048345565796, -0.009039634838700294, -0.055124614387750626, 0.21151167154312134, -0.25374922156333923, 0.004790798760950565, -0.026855099946260452, 0.21256527304649353, -1.5198683738708496, -0.44353070855140686, -0.046794891357421875, 0.16369514167308807, -0.20863941311836243, 0.03223017230629921, -0.08091456443071365, -0.23456375300884247, 0.007389852311462164, -2.6099469661712646, -0.019666990265250206, -0.08511073142290115, 0.16994421184062958, -0.5279495120048523, 0.14225977659225464, -0.9968715906143188, -0.6473139524459839, -0.9696731567382812, -0.057377349585294724, -0.2351311445236206, -0.5848897695541382, -0.36800843477249146, -0.14648620784282684, -0.06448809057474136, -0.0943729355931282, 0.2877999246120453, 0.14523081481456757, 0.23240889608860016, -0.03672754019498825, -0.9439623355865479, 0.2733619213104248, -0.6213253140449524, -1.0228838920593262, 0.2669731080532074, -0.03837810084223747, -0.8093982934951782, 0.08800549805164337, -0.18165871500968933, -0.10238891839981079, -0.02076723612844944, -1.4601738452911377, -0.142478808760643, -1.4430444240570068, 0.02790961228311062, -0.22661514580249786, 0.6467214822769165, -0.45080816745758057, 0.02907506190240383, -0.27219831943511963, -0.4808047413825989, 0.4269239604473114, 0.08446090668439865, -1.9953587055206299, -1.412371039390564, -0.23727300763130188, -0.017439721152186394, 0.23068472743034363, -1.673440933227539, -0.19587606191635132, 0.09682610630989075, -0.03212622180581093, -0.07633037865161896, -0.243750661611557, -0.7734149694442749, 0.04827861115336418, 0.2065383642911911, 0.843887984752655, 0.04287872090935707, 1.5159785747528076, -0.7662897706031799, -0.18597789108753204, -0.22538846731185913, 0.10577616840600967, -1.0444772243499756, 0.015834588557481766, -0.020640797913074493, 0.006813002284616232, -0.69391268491745, 0.22149355709552765, 0.02070275880396366, -0.07449274510145187, 0.09204667806625366, -0.8970507383346558, -0.04786236956715584, 0.051393117755651474, 0.0350041538476944, 0.14689096808433533, -0.23939652740955353, 0.9052677750587463, -1.849933385848999, -0.30776873230934143, 0.05476059764623642, -0.19975091516971588, -0.7551498413085938, 0.15583397448062897, 0.06553894281387329, -0.3821808695793152, -0.9524847865104675, 0.0689408928155899, -0.18643391132354736, 0.057595498859882355, -0.652121901512146, -0.6377545595169067, -0.04307534173130989, 0.015068490989506245, -0.6048831939697266, -1.1821216344833374, -0.8553847074508667, -0.16230155527591705, 0.0556066632270813, -0.3863856792449951, -0.08592916280031204, -0.0019802958704531193, -1.2790645360946655, 0.025809457525610924, 0.11329672485589981, -0.025059744715690613, -0.48892903327941895, -0.0363243892788887, -0.28930801153182983, -0.4482457935810089, -0.2624015510082245, -0.9007020592689514, -1.4914536476135254, 0.2353292554616928, 0.37303584814071655, -0.42695319652557373, 0.20143593847751617, 0.022914428263902664, -0.12186495959758759, -0.13255004584789276, 0.037230826914310455, 0.33258092403411865, -0.368606835603714, 0.18340593576431274, -0.06784074008464813, -1.8448220491409302, -0.3638637959957123, 0.024364210665225983, 0.8621371984481812, -0.06023990735411644, -1.3596075773239136, -0.04366512969136238, -0.4968566596508026, -0.25015202164649963, -0.02423766255378723, -0.18494559824466705, 0.25298961997032166, -1.7409485578536987, 0.09238845854997635, -1.1449902057647705, 0.3438650071620941, 0.29704779386520386, -0.5651450157165527, -0.2704297602176666, -0.42095625400543213, 0.024562837556004524, -0.4407845437526703, 0.05067131668329239, -2.159627676010132, -0.07573098689317703, -0.12286977469921112, -0.7386966347694397, 0.09620504826307297, 0.012123201973736286, -0.030408382415771484, -1.2116812467575073, -0.16202367842197418, 0.012420237995684147, -0.11669661849737167, -0.21358409523963928, -0.5938647389411926, -0.0068816449493169785, 0.24758528172969818, -0.02044195868074894, 0.007146552670747042, -0.6094354391098022, 0.38071930408477783, -0.19859354197978973, -0.14234910905361176, -0.06715138256549835, -0.11638826131820679, 0.924538791179657, -0.1721191257238388, 0.17198505997657776, 0.10696562379598618, 0.3232293128967285, -0.44777923822402954, -0.10610627382993698, -1.3760781288146973, -1.068563461303711, 0.07534758746623993, -0.0474589504301548, -0.23563635349273682, 0.11287571489810944, -0.8768324851989746, 0.48620590567588806, -0.1923486590385437, -2.312805652618408, -0.00794274266809225, -0.07096363604068756, -0.7369168996810913, 0.14630070328712463, -0.5632656812667847, -0.90155029296875, -0.6963058114051819, -0.005904010031372309, -0.2777522802352905, -0.7742184996604919, -0.9564375281333923, 0.17866644263267517, -1.0875617265701294, -0.3995208740234375, 0.031225847080349922, -0.031828898936510086, -0.24793274700641632, 0.2414083629846573, -0.2963258922100067, -0.5769169330596924, -0.31068289279937744, 0.1438332498073578, -0.8416932225227356, -0.0728197917342186, -0.035488225519657135, 0.3199504017829895, 0.046556584537029266, -1.0630342960357666, -0.2417045533657074, -0.10328163951635361, -0.16835062205791473, 0.30706092715263367, 0.11272431910037994, -0.36266449093818665, 0.022669976577162743, -0.36357173323631287, 0.10809054225683212, -0.016578998416662216, 0.47159409523010254, -0.059350065886974335, -0.7839990854263306, -0.24935835599899292, -0.8829048871994019, 0.15681882202625275, -0.337199330329895, -0.009322768077254295, 0.04193972796201706, 0.08296721428632736, -0.2764331102371216, -0.0662296861410141, 0.023150140419602394, -0.16625632345676422, 0.05725523829460144, 0.009310704655945301, 0.23091883957386017, -0.1490572839975357, -0.8398664593696594, 0.7297759056091309, 0.19017082452774048, 0.011249625124037266, -0.297820121049881, 0.34725987911224365, 0.014210757799446583, 0.011262292973697186, -0.38118603825569153, -0.6841287612915039, 0.6196532249450684, -0.024036401882767677, -0.3143188953399658, 0.22095337510108948, 0.22261281311511993, 0.48793426156044006, -1.146384596824646, -0.2893553674221039, -1.8719229698181152, 0.11221632361412048, -0.03729575499892235, 0.18109486997127533, -0.8671538829803467, 0.32583940029144287, 0.1680351346731186, -0.33342134952545166, 0.31170883774757385, 0.31446412205696106, 0.02046988345682621, -0.13424602150917053, -0.6971767544746399, -0.11324642598628998, -0.39874762296676636, -2.5043864250183105, 0.5770847201347351, -0.23270586133003235, -1.0544793605804443, 0.054083336144685745, 0.2953263223171234, -0.26567402482032776, -0.0703606903553009, -0.052648432552814484, -0.08659021556377411, -0.6366345286369324, 0.040098026394844055, 0.258654922246933, -0.9459154009819031, -0.14315330982208252, -0.4788272976875305, 0.31163930892944336, -0.08651109039783478, -0.3289963901042938, 0.1455192267894745, 1.323926329612732, -0.12401486188173294, -0.4794141352176666, 0.4471794068813324, -0.12747077643871307, -0.2572493553161621, 0.34189072251319885, -0.3650411367416382, -0.05252651497721672, -0.06524546444416046, -0.5673822164535522, -1.6348237991333008, -0.18221569061279297, 0.2905712127685547, -0.9406907558441162, -0.15739423036575317, -0.13495813310146332, 0.745944082736969, -0.00975075550377369, 0.5115309953689575, 0.42188143730163574, -0.02060418203473091, -0.024070004001259804, -1.5716122388839722, 0.5067333579063416, -1.0098975896835327, 0.258183091878891, -1.0170536041259766, -0.21305029094219208, 0.04115569591522217, 0.24364137649536133, 0.022781023755669594, -0.311297208070755, -0.009078596718609333, 0.17731361091136932, -0.06257971376180649, -0.8076973557472229, -1.2046939134597778, -0.24725501239299774, 0.16442909836769104, -0.13527730107307434, -0.25870198011398315, -0.007828430272638798, -0.5751655101776123, -0.4989154636859894, -2.618356943130493, 0.268789678812027, 0.3089313507080078, 0.2422928363084793, -0.1961321085691452, 0.17064324021339417, -0.04820959270000458, 0.17560210824012756, -0.41094934940338135, -0.005637381691485643, -0.8800870776176453, 0.051059454679489136, -0.0994611531496048, -0.0731775164604187, 0.9804686307907104, -0.06630359590053558, -0.6666448712348938, -0.06174049898982048, -0.18084058165550232, 0.24968381226062775, 0.025277994573116302, -0.07685332745313644, -0.36885711550712585, 0.08854524791240692, 0.79411381483078, -0.37356850504875183, -0.6819510459899902, -0.13256944715976715, 0.1962333470582962, -0.5020852088928223, -0.33355897665023804, 0.009799311868846416, 0.3283291161060333, -0.9879695177078247, -0.3048720359802246, 0.3588916063308716, -0.060454461723566055, 0.14556436240673065, 0.010988795198500156, -1.0116065740585327, 0.5369470119476318, -0.0732748955488205, -0.24641594290733337, -0.4980684220790863, -0.7225441336631775, 0.0034317842219024897, -1.506675124168396, 0.13359269499778748, 0.07135873287916183, -0.06285206973552704, 0.06711819767951965, 0.0683111622929573, -0.21400924026966095, 0.575692892074585, -0.0491507351398468, -0.08880041539669037, 0.024065131321549416, 0.24518504738807678, -0.025987645611166954, -0.35453033447265625, -0.43085142970085144, 0.0016581459203734994, 1.4350858926773071, 0.0007481085485778749, -1.2396166324615479, -0.1423463374376297, 0.3913007974624634, -0.04310500994324684, 0.6300475001335144, -0.21545524895191193, -0.03785230219364166, -0.07429540902376175, -0.4130021631717682, 0.45411568880081177, -0.4986560344696045, 0.48013293743133545, 0.4762851595878601, 0.017089098691940308, -0.05020889267325401, 0.1737421154975891, -0.06079276278614998, -0.4811973571777344, 0.3488341271877289, -0.22412286698818207, -0.602209746837616, 0.13752765953540802, 0.11023713648319244, -0.25080791115760803, -0.054499026387929916, 0.49602895975112915, -0.5848828554153442, 0.02063054032623768, -2.294991970062256, -0.780938982963562, -0.26973602175712585, -0.0371105894446373, -0.14675483107566833, 0.1349615454673767, -0.8703117966651917, 0.14504779875278473, 0.28451645374298096, -0.6388000249862671, 0.253182977437973, -0.22199039161205292, -0.27463048696517944, -0.3501001298427582, -0.6045759320259094, -0.01056984718888998, -0.2879238426685333, -0.08279504626989365, 0.16488318145275116, -0.15886850655078888, -2.1639158725738525, -0.20922338962554932, 0.19193483889102936, 0.20123621821403503, 0.16706113517284393, 0.7258260250091553, 0.38667580485343933, 0.09792288392782211, 0.11325880885124207, 0.2095111906528473, 0.35404255986213684, -0.7806904911994934, -0.6316091418266296, -0.030409708619117737, 0.9698911309242249, -0.5752515196800232, -1.0624643564224243, -0.07893946021795273, 0.039777956902980804, 0.031060494482517242, -0.06275905668735504, 0.3764047920703888, -2.414766788482666, 0.1776660680770874, -0.6534766554832458, -0.6738707423210144, -0.5323657989501953, -1.1375677585601807, -1.3503409624099731, -0.02713867276906967, 0.16514021158218384, -0.13538679480552673, -0.41058292984962463, -0.3331610858440399, -0.8005430102348328, 0.01128118671476841, -0.22500374913215637, -0.1545897126197815, -0.45764046907424927, -0.052625760436058044, 0.06305276602506638, 0.36395737528800964, 2.412616014480591, 0.1110355406999588, 0.06180287525057793, -0.3339043855667114, -0.21307526528835297, -0.712952733039856, 0.49210479855537415, 0.026566563174128532, 0.7645447850227356, -1.7115466594696045, 0.7504670023918152, -0.19929389655590057, -0.7141082882881165, 0.37221840023994446, -0.9409012198448181, -0.04405159875750542, -0.3705660104751587, 0.11652038991451263, -2.63801908493042, 0.33794623613357544, -0.6871621608734131, -0.1651320457458496, -0.055523891001939774, -1.0009266138076782, -0.16194285452365875, -0.2008787989616394, 0.3198101222515106, -0.019928796216845512, 0.7382892370223999, 0.8282527327537537, -1.6189336776733398, 0.28896859288215637, -0.21166010200977325, 0.005653276573866606, 0.25216153264045715, -0.36383578181266785, -0.012244910933077335, -0.03379439562559128, -1.5591645240783691, -0.462673544883728, -0.025735007598996162, -0.20196804404258728, -0.6171166896820068, -0.5810326337814331, -0.060399919748306274, -0.7252984642982483, 0.1049397885799408, -0.04876992106437683, -0.03318903222680092, -0.43089810013771057, 0.40529748797416687, 0.16016408801078796, -0.16573145985603333, -0.09040883928537369, -0.4119914174079895, -0.6107619404792786, 0.7383167147636414, -0.7806065082550049, 0.2506152093410492, -0.04279717057943344, 0.043971993029117584, -2.0970606803894043, -0.1456592082977295, 0.23336997628211975, -0.08482396602630615, -0.9609957933425903, 0.029017044231295586, -1.1947468519210815, -0.07298249006271362, -0.6578392386436462, 0.11437209695577621, -0.06855715811252594, 1.28707754611969, -1.5745716094970703, -0.49337249994277954, -0.3676978349685669, -0.6616518497467041, 0.37245726585388184, 0.16410556435585022, 0.02650447003543377, -0.8584238290786743, -0.021165402606129646, -0.0481574647128582, 0.29615020751953125, 0.37684786319732666, 