{"layer_0": {"kernel": [0.30724164843559265, 0.3864940106868744, 0.2534811198711395, -0.0839603990316391, -0.1475270837545395, 0.12376239150762558, -0.03056657500565052, 0.023515265434980392, -0.05747934803366661, -0.05518125370144844, -0.009227694012224674, -0.15548713505268097, 0.3047681152820587, -0.07046249508857727, 0.2351905107498169, -0.20825934410095215, -0.1020057275891304, -0.1949985772371292, -0.06538251042366028, -0.16022494435310364, 0.4450431764125824, -0.20426319539546967, 0.1353541612625122, -0.16321681439876556, 0.21272355318069458, -0.24511252343654633, -0.11776544153690338, 0.07465481758117676, -0.26452064514160156, 0.20815247297286987, 0.0020292254630476236, -0.2571038603782654, 0.19353993237018585, 0.2982294261455536, -0.01212780736386776, -0.1245008036494255, 0.028779802843928337, -0.2301655411720276, -0.4375362694263458, -0.20845964550971985, 0.012144970707595348, -0.012807035818696022, -0.18586552143096924, 0.14729543030261993, 0.22204869985580444, -0.09607961028814316, -0.06382196396589279, 0.037050627171993256, 0.0878336951136589, 0.2745388448238373, -0.32583239674568176, 0.008125162683427334, -0.2598579227924347, 0.2079247236251831, -0.2173512876033783, -0.26071780920028687, 0.11624923348426819, -0.17365269362926483, 0.22586233913898468, -0.0013116010231897235, -0.026556426659226418, 0.08950598537921906, 0.10336768627166748, -0.00741037679836154, 0.33811619877815247, 0.09618566185235977, -0.03408937528729439, -0.23251484334468842, 0.06800016015768051, -0.007684885058552027, 0.21874377131462097, -0.18257711827754974, 0.04965536668896675, -0.05370837077498436, -0.18191811442375183, -0.10368908196687698, -0.023124806582927704, 0.06638779491186142, -0.03721350431442261, -0.3729170560836792, -0.03856150433421135, 0.13080130517482758, -0.024117229506373405, -0.07422409951686859, 0.5518752336502075, 0.010609881021082401, -0.263420432806015, 0.3081853985786438, 0.06606830656528473, -0.10038575530052185, -0.13378217816352844, -0.2348451167345047, -0.04631549119949341, -0.4140295088291168, 0.01678876206278801, -0.05630314350128174, 0.05805864930152893, -0.027036309242248535, -0.1358550786972046, 0.23831665515899658, 0.22895152866840363, 0.36943531036376953, 0.09872624278068542, -0.019813930615782738, -0.12663045525550842, 0.2781793177127838, -0.1659061759710312, -0.06977453827857971, -0.03267373517155647, -0.20309406518936157, 0.05040466785430908, -0.3487456440925598, 0.15600967407226562, 0.10817855596542358, -0.04035012423992157, -0.44723886251449585, -0.01009447406977415, -0.2639755606651306, 0.08675536513328552, 0.21587273478507996, -0.07069861143827438, -0.20775075256824493, 0.03717195615172386, 0.17639726400375366, -0.11208201944828033, 0.3477732539176941, -0.05637292191386223, -0.13479776680469513, 0.014025320298969746, 0.22660420835018158, 0.19836583733558655, 0.2340601086616516, -0.2957655191421509, 0.10134892910718918, 0.18582238256931305, 0.09427309036254883, -0.2939138114452362, -0.06507192552089691, -0.3673120141029358, 0.07393095642328262, -0.11188963800668716, -0.014892920851707458, -0.016691455617547035, 0.2956273853778839, 0.347238153219223, 0.07831550389528275, -0.05231599137187004, 0.22875411808490753, 0.050284985452890396, 0.061057016253471375, -0.24749289453029633, 0.030631549656391144, 0.18364109098911285, -0.03442348539829254, -0.04673817381262779, -0.0356016606092453, 0.08252160996198654, 0.12501440942287445, 0.1591937392950058, 0.20601028203964233, -0.1377226561307907, 0.033549241721630096, -0.29696983098983765, -0.24498380720615387, 0.011997263878583908, -0.018421204760670662, 0.12343652546405792, 0.25544273853302, -0.04395022243261337, 0.12851163744926453, -0.17838354408740997, 0.035870522260665894, -0.07873769849538803, 0.06399775296449661, -0.018578534945845604, -0.11658024042844772, -0.06882207840681076, -0.09886397421360016, 0.14665813744068146, 0.171677827835083, -0.2489062398672104, -0.20789746940135956, -0.03894222527742386, -0.3044385015964508, -0.23802527785301208, -0.07834391295909882, -0.24654029309749603, -0.2044781595468521, 0.04826483130455017, 0.07895874232053757, 0.008468692190945148, 0.06528052687644958, -0.03275270015001297, 0.12234048545360565, -0.0787845104932785, 0.13614989817142487, 0.06048164516687393, -0.06629744172096252, -0.06701544672250748, 0.32349324226379395, -0.18881110846996307, 0.12984319031238556, -0.23713335394859314, 0.15517649054527283, 0.046964578330516815, 0.1052451953291893, 0.1269528865814209, -0.22871838510036469, -0.17806199193000793, -0.08544306457042694, 0.010509646497666836, -0.5441785454750061, 0.08874832093715668, -0.20356471836566925, 0.08163803070783615, -0.0017318075988441706, 0.009817315265536308, 0.11977145820856094, 0.10166806727647781, 0.12264839559793472, 0.04037828370928764, -0.24581903219223022, -0.08061878383159637, 0.0053092194721102715, 0.09970827400684357, 0.03732484579086304, 0.11618514358997345, 0.10230924189090729, 0.09533043205738068, -0.07957097142934799, -0.18815378844738007, 0.05464783310890198, -0.09313429892063141, 0.041825175285339355, 0.030589822679758072, -0.18636630475521088, -0.11459933966398239, 0.04107141122221947, 0.03513213247060776, -0.2063692957162857, 0.1656656712293625, -0.1588115245103836, 0.05818891152739525, -0.2344243824481964, 0.021539971232414246, 0.0613144226372242, -0.04897405207157135, 0.12503835558891296, 0.19107326865196228, 0.07766280323266983, -0.246761754155159, 0.15002712607383728, 0.22864295542240143, -0.15698498487472534, 0.09568658471107483, 0.16373871266841888, -0.03219393640756607, 0.08396799117326736, -0.007282963953912258, -0.005078268703073263, -0.08265192806720734, 0.03706437721848488, -0.17021766304969788, 0.025784999132156372, -0.002378560835495591, 0.10682014375925064, -0.008957474492490292, 0.013407804071903229, -0.18701015412807465, -0.28831785917282104, -0.2319377064704895, 0.02487468719482422, -0.00468116020783782, -0.1496567279100418, 0.1466030329465866, -0.1964053511619568, -0.022800983861088753, -0.37246817350387573, 0.006711107678711414, -0.04608047008514404, 0.11700872331857681, 0.00044643814908340573, 0.12572027742862701, 0.052647802978754044, 0.1794165074825287, -0.043513886630535126, 0.0035928457509726286, -0.1286061704158783, -0.13067694008350372, 0.006279841531068087, 0.15983125567436218, -0.13388457894325256, -0.05656013265252113, -0.11888371407985687, 0.06756426393985748, 0.013094323687255383, -0.09466882795095444, 0.0660279393196106, -0.2097371369600296, -0.06109821796417236, 0.0038348857779055834, -0.0336729921400547, -0.17812542617321014, 0.1351100355386734, 0.023812487721443176, 0.12191525101661682, 0.122113898396492, -0.02710799127817154, 0.07190000265836716, 0.024045346304774284, -0.09816335886716843, 0.06806628406047821, -0.11267650127410889, 0.035882193595170975, 0.09355698525905609, 0.019473474472761154, -0.08847540616989136, 0.1271144300699234, -0.03443946689367294, 0.14254963397979736, -0.12972061336040497, 0.02986699528992176, 0.025396505370736122, -0.16872040927410126, 0.07392600923776627, -0.04583587124943733, 0.19222059845924377, -0.04907524585723877, -0.18531352281570435, 0.02262207865715027, -0.08234399557113647, -0.06370927393436432, -0.0703807845711708, -0.020573444664478302, -0.018926911056041718, 0.03588326647877693, -0.08601267635822296, 0.18267589807510376, -0.0162399522960186, -0.014821563847362995, 0.17211221158504486, 0.02660132572054863, -0.21590057015419006, 0.020198186859488487, 0.027603333815932274, -0.1312257945537567, 0.07746221125125885, -0.17991162836551666, 0.04769416153430939, -0.13350078463554382, 0.01235884241759777, 0.15899379551410675, 0.05716092884540558, 0.01935926452279091, -0.16679096221923828, -0.10514768213033676, -0.12161418050527573, 0.07247734069824219, 0.23152464628219604, 0.015930036082863808, -0.059742290526628494, -0.02973029389977455, 0.027840642258524895, 0.057787470519542694, 0.08720146119594574, 0.022619973868131638, 0.12771235406398773, 0.05649450421333313, -0.10836711525917053, -0.07624975591897964, 0.024700375273823738, 0.046330370008945465, 0.019746603444218636, -0.09230723232030869, 0.1068698838353157, -0.05507534742355347, -0.009033425711095333, 0.11012953519821167, -0.11145105212926865, -0.04953497648239136, -0.03250276297330856, -0.08546554297208786, 0.02898363023996353, 0.022886192426085472, 0.026718182489275932, 0.019742993637919426, 0.04956594854593277, -0.13866528868675232, -0.08011399954557419, -0.03713653236627579, 0.02910842001438141, -0.11920604854822159, 0.07898320257663727, 0.06339985877275467, -0.00046676016063429415, -0.061049383133649826, -0.051580943167209625, 0.13320358097553253, 0.1375036984682083, -0.00018396746600046754, 0.09540794044733047, 0.042206719517707825, -0.14168061316013336, 0.07132496684789658, 0.05903680622577667, 0.013529125601053238, 0.13112330436706543, 0.08020271360874176, 0.07313304394483566, -0.09486701339483261, 0.0640372633934021, -0.01899454928934574, 0.021406589075922966, -0.016282590106129646, 0.0011502570705488324, -0.12594009935855865, -0.08201047778129578, 0.05382823199033737, -0.08546839654445648, 0.14725646376609802, -0.06671552360057831, 0.0555524118244648, 0.22540684044361115, -0.07771389186382294, 0.003177359001711011, 0.07440587878227234, -0.040578003972768784, 0.03448471426963806, 0.016499707475304604, 0.039731159806251526, -0.021213021129369736, -0.07114198058843613, 0.03757267817854881, 0.006245124619454145, -0.11916434019804001, -0.09687992930412292, -0.06792033463716507, -0.017677202820777893, -0.06804633885622025, -0.12756888568401337, 0.0392138808965683, 0.021074887365102768, 0.029578346759080887, -0.0945470854640007, 0.013953568413853645, 0.10162925720214844, -0.06154381111264229, 0.039144858717918396, -0.03022976964712143, 0.020686669275164604, -0.00866472627967596, 0.08697967231273651, -0.09492909163236618, 0.010105100460350513, -0.008111725561320782, -0.11019639670848846, -0.0013501914218068123, -0.14377187192440033, 0.01954292319715023, 0.12244870513677597, -0.09412191808223724, 0.0620625875890255, 0.0095327477902174, -0.043092574924230576, -0.10144440829753876, 0.050885289907455444, 0.010207610204815865, -0.14963723719120026, -1.8682520021684468e-05, -0.005542957689613104, 0.04843331500887871, 0.06931878626346588, -0.20020414888858795, -0.1198534220457077, 0.09790249913930893, 0.13752508163452148, 0.00708709005266428, -0.25563305616378784, -0.21708014607429504, -0.05745428428053856, 0.023722195997834206, -0.05449509993195534, -0.07992135733366013, -0.06910412758588791, 0.043876875191926956, 0.021828917786478996, 0.14033055305480957, -0.18468502163887024, 0.04924744740128517, 0.0008524139411747456, 0.026336435228586197, -0.20456495881080627, -0.05209345743060112, -0.09982860088348389, 0.0281895212829113, -0.027977848425507545, -0.08996977657079697, -0.033900413662195206, -0.12748004496097565, 0.03674469515681267, -0.10918905586004257, -0.01174086518585682, -0.023091677576303482, -0.12328824400901794, -0.002074586693197489, -0.003941960167139769, -0.09923814237117767, -0.0640927106142044, -0.020994974300265312, -0.0685819759964943, -0.07335280627012253, -0.11879181116819382, -0.010164611041545868, 1.1977602243423462, -1.4663335084915161, -0.09486701339483261, -1.4102729558944702, 0.3536317050457001, -1.0452011823654175, 2.121731758117676, 1.09915030002594, -0.7484495043754578, 1.5429463386535645, 1.3546737432479858, -0.7633495926856995, 1.5883691310882568, -0.22701777517795563, -0.2820670008659363, 0.3168206214904785, 0.725770115852356, 2.066646099090576, 0.5824620723724365, 0.15915320813655853, -0.8706084489822388, 1.971804141998291, -0.2893674969673157, 0.5862504243850708, 0.8178195953369141, 0.043463870882987976, 0.7334587574005127, 0.1971476972103119, 2.6509225368499756, -0.025369271636009216, -0.2297847867012024, 0.13212253153324127, 0.485960990190506, 0.5157339572906494, -0.4379916191101074, -0.11311126500368118, -0.7769761085510254, 0.12171853333711624, 0.813123881816864, 1.105185627937317, 2.08385968208313, -0.938386082649231, 1.1949995756149292, 0.09695062041282654, -1.0828584432601929, 0.8415493369102478, 1.5312992334365845, -0.7593334913253784, -0.6705763339996338, 0.6307415962219238, -0.3328068256378174, -1.583585500717163, -1.1091059446334839, -2.5523414611816406, 0.3367761969566345, -1.3267945051193237, 1.013757348060608, -0.996577262878418, -0.6977896690368652, -0.6292605400085449, 1.5451877117156982, -0.10198129713535309, -0.18725928664207458, 0.3521581292152405, -0.3731893002986908, -0.7480584979057312, -1.9520699977874756, -0.5307818055152893, 0.32290327548980713, 0.4058951139450073, -1.0511683225631714, -1.054861068725586, -2.174445867538452, -0.7168006896972656, -0.8609037399291992, -2.623082160949707, -0.13764838874340057, -3.2274038791656494, -1.4987449645996094, -0.009064349345862865, 1.830754041671753, -0.7898445129394531, 3.5008790493011475, -1.0765286684036255, -0.8785849213600159, 0.0995003804564476, -0.2818925976753235, -0.5686108469963074, 0.22846153378486633, 0.7450138926506042, 0.163154736161232, 1.1616332530975342, 0.05973750352859497, 0.7119155526161194, -0.15042300522327423, 0.9080495834350586, -0.3412436842918396, -1.6961562633514404, 0.6386713981628418, -1.6696792840957642, -0.17096996307373047, 0.8645631670951843, 2.8980324268341064, -0.1958005279302597, -0.8781129717826843, -0.98808753490448, 1.6278339624404907, 2.090904951095581, -0.3192156255245209, -0.7035810351371765, 0.27025046944618225, 0.11583966761827469, -0.5847837924957275, 2.194699764251709, 0.2242371141910553, 1.0566984415054321, -0.8199936747550964, -1.5036444664001465, 0.7890841960906982, -0.5267840027809143, 0.10775410383939743, 0.8109562397003174, -1.628180742263794, 1.059896469116211, -0.016086503863334656, -0.5183877944946289, 0.2621088922023773, 1.7360084056854248, -0.303975909948349, 0.19230584800243378, -0.14710526168346405, -1.0738543272018433, -1.3231028318405151, -1.2298773527145386, -1.2413928508758545, 0.17466899752616882, -0.24301546812057495, 0.5802254676818848, -1.1278669834136963, 0.07944171130657196, 0.15903393924236298, -0.061841901391744614, -0.5400344729423523, 0.01988661289215088, -0.04940858110785484, -0.5422037839889526, 0.5608041286468506, -0.3296089172363281, -1.1673192977905273, -1.0316051244735718, 0.5110528469085693, -0.09955835342407227, 0.14048926532268524, 0.8627910614013672, 2.360588312149048, -1.5178611278533936, 0.3732437491416931, -1.0101265907287598, -1.3795245885849, -0.6432123780250549, 0.9501150846481323, -1.0409365892410278, 0.28931277990341187, 0.8234333395957947, 0.8333372473716736, -0.11165143549442291, 1.6500638723373413, -0.39609259366989136, 0.2577338218688965, -0.9376094937324524, -0.49727195501327515, 1.1695022583007812, 0.02869906648993492, 0.12209652364253998, -0.9126203656196594, -0.6450550556182861, 0.049088913947343826, -1.0409061908721924, -1.6313565969467163, -0.675956666469574, 0.3647254705429077, -0.2797197699546814, 0.1797492951154709, -1.4273407459259033, -1.6262387037277222, 0.08507131040096283, -0.6220114231109619, -0.1993846893310547, 0.23822465538978577, -0.49545612931251526, 0.6622990965843201, -3.186856269836426, 1.0222164392471313, 2.514580011367798, 0.3167508542537689, -0.0625595673918724, -1.4003052711486816, 0.2727656662464142, 0.37767264246940613, -1.194777488708496, 0.03749459236860275, 0.49296697974205017, 0.5229174494743347, -2.453406572341919, -1.0241862535476685, -0.9703431129455566, -0.3849315941333771, -0.3856753408908844, 1.284244418144226, 1.6228729486465454, -1.2564610242843628, -1.4121907949447632, 0.5251120328903198, 0.9422213435173035, -2.685441017150879, -1.1560219526290894, -1.044942855834961, -1.116402506828308, 1.2758740186691284, -1.7687232494354248, -1.0445013046264648, 0.7154222130775452, 0.6986340284347534, 1.0976530313491821, 2.0643391609191895, -1.9551390409469604, 0.07283686101436615, 0.1744799166917801, -0.3536040484905243, -0.6126381754875183, 0.1288774311542511, -0.20380456745624542, -0.1067333072423935, -4.267036437988281, 0.8676049113273621, -0.17614547908306122, 1.565195083618164, -1.7586103677749634, -1.2480376958847046, 0.06048819422721863, -0.9587903618812561, 1.2156234979629517, -0.0055758338421583176, -1.145761251449585, -2.0036511421203613, 1.0918694734573364, -0.34806331992149353, -2.3429062366485596, -2.472501516342163, 0.6537215709686279, 0.14699475467205048, -0.6585925221443176, -1.262695550918579, -0.1661604791879654, -0.8567427396774292, 0.40960538387298584, 0.3403477072715759, -0.32044175267219543, 0.1402222216129303, 0.3322139382362366, 0.8891069889068604, 0.329345703125, -0.628307580947876, -0.9594685435295105, 0.5686048865318298, 0.4194411635398865, -0.9641693830490112, -0.4212876260280609, 0.045757830142974854, -0.8139939904212952, -2.7233259677886963, -0.15638676285743713, -0.0454031340777874, 0.3509874641895294, -0.34055033326148987, -1.404844880104065, 0.23027534782886505, -1.4179127216339111, 0.0070624821819365025, 0.5794727206230164, 0.479838490486145, -0.28163352608680725, -0.5918894410133362, 0.3668612241744995, -0.027673354372382164, -1.441476821899414, -0.2872711718082428, 0.8091714978218079, 0.12069317698478699, 0.3459666967391968, 0.08972851186990738, -0.051636409014463425, -0.4358619749546051, -0.13184785842895508, -0.08745894581079483, 0.6265127658843994, 0.040544141083955765, -0.24726182222366333, -1.386059045791626, -1.159333348274231, -0.29348108172416687, 1.1179016828536987, -0.8702272772789001, -2.298389196395874, -0.8610256314277649, -0.26595744490623474, -0.2296416461467743, 0.16130417585372925, -0.8836566805839539, 0.014264269731938839, 1.8668428659439087, -0.5397688150405884, 0.13218797743320465, -0.2401939034461975, 0.02114838920533657, -0.47737836837768555, 0.610567569732666, -1.1343010663986206, 0.665369987487793, -1.2895318269729614, 0.7856006622314453, -0.3700045347213745, 0.0691937729716301, 0.9390235543251038, 0.10883569717407227, -0.5865039229393005, -0.37897029519081116, -0.4836549162864685, -0.08181572705507278, -1.0365753173828125, -0.4511858820915222, 0.132305309176445, 0.33861181139945984, 0.5232874751091003, -1.7479099035263062, 0.4590612053871155, 0.2520449161529541, 0.9821770787239075, 0.060309842228889465, 0.9773452877998352, 0.2773790657520294, 0.15167005360126495, 0.3660440444946289, 0.13876432180404663, 1.057938575744629, 0.605554461479187, -1.3453378677368164, 0.4086931347846985, -0.20782500505447388, -1.0516339540481567, -0.024413753300905228, 0.36112532019615173, -0.15706542134284973, 0.8080542683601379, -0.40162795782089233, 0.12229417264461517, -0.048943113535642624, 0.7892057299613953, -1.161000370979309, 0.2705727517604828, -0.5981866717338562, -1.253340482711792, -0.48597252368927, 0.2867386043071747, -0.06024366617202759, 0.7392059564590454, -0.8424264788627625, -0.25545161962509155, 0.21723048388957977, 0.11117714643478394, -1.3661750555038452, -0.7583352327346802, -0.7557773590087891, -0.6611774563789368, -0.805094301700592, -0.22261740267276764, -0.9509360790252686, 1.3162381649017334, 0.7615816593170166, -0.8512728810310364, 0.4253300428390503, -2.4638631343841553, 0.31018027663230896, -0.5055248141288757, 0.5592029690742493, 0.5161727070808411, -0.286440372467041, -0.6005592346191406, 0.5848150253295898, 0.9850621819496155, -0.896371066570282, 0.10225627571344376, 0.9279443025588989, 0.14679677784442902, 0.2187255173921585, -1.1142053604125977, -0.3631978929042816, -1.1147507429122925, -0.2940680682659149, 0.12953263521194458, 0.5429567694664001, 0.21037666499614716, -0.4800749719142914, 0.29308053851127625, -1.3954756259918213, 0.1586117446422577, -0.6841642260551453, -1.3425101041793823, 0.60369873046875, -0.16919995844364166, -1.0388275384902954, 0.6147873997688293, -0.363459050655365, 0.7284356355667114, 0.44448211789131165, 0.10006432235240936, 0.4499775469303131, 0.8964028358459473, -0.16065619885921478, -2.320040464401245, -0.11906568706035614, 0.2919895648956299, -1.6118199825286865, 0.27222973108291626, -0.10906820744276047, 0.6366968750953674, 0.5076748132705688, 0.18185420334339142, 0.41090908646583557, 0.7024236917495728, 0.43130722641944885, 0.5986765623092651, 0.4183873236179352, -0.5420319437980652, 0.387507826089859, -1.502000331878662, -0.09076222777366638, -0.6770378947257996, -0.7842667102813721, -0.6796916723251343, -0.7779641151428223, -0.46397438645362854, 0.315289705991745, 0.4757906198501587, 0.22113238275051117, 1.0133086442947388, 0.3624987304210663, 0.0611448809504509, 0.3456227779388428, -0.7408167719841003, -0.7542427182197571, 0.7103573679924011, 0.44625672698020935, -0.1608886420726776, -0.6490707993507385, 0.10831566154956818, -0.21789446473121643, 0.3888886570930481, -0.46615996956825256, -1.222048044204712, 0.12261390686035156, -0.03421149402856827, -0.233146533370018, 0.6092904806137085, 0.3474768400192261, 0.7287194728851318, -0.42869284749031067, -0.24765902757644653, 0.07966907322406769, -1.2933226823806763, -0.4694198966026306, 0.3939584791660309, 0.8353427052497864, 0.5672399997711182, 0.10019607841968536, 0.03562222048640251, -0.24761027097702026, -0.631430447101593, 0.11027074605226517, -0.7252010703086853, -1.6312187910079956, 0.010444791987538338, 0.8555949926376343, 0.08372382074594498, 0.29991012811660767, -0.578838586807251, -0.7633949518203735, 0.05492252856492996, -0.0981128066778183, -0.3208611309528351, -0.10171643644571304, 1.261289358139038, 0.03564624488353729, 0.7712649703025818, 0.16485081613063812, 0.37809768319129944, -0.2828567326068878, -1.057841420173645, -0.6471440196037292, -0.14410676062107086, -0.7879328727722168, -1.4969342947006226, 0.48726797103881836, -0.21893346309661865, -0.693840503692627, 0.3190493881702423, -0.4824247360229492, 0.6953543424606323, -1.2849987745285034, -0.2189035564661026, -0.32158544659614563, 0.07879813015460968, 0.07543400675058365, -0.27608174085617065, -0.14069198071956635, -0.13734254240989685, 0.4030730426311493, 0.2048509567975998, -0.08180852979421616, -0.21068985760211945, -0.11960469186306, -0.09855660051107407, 0.32129964232444763, 0.10798674821853638, -0.3442619740962982, 0.07625291496515274, -0.5439246296882629, 0.007414281368255615, -0.19194215536117554, 0.37860408425331116, 0.051032889634370804, 0.261486291885376, -0.14846454560756683, 0.13140782713890076, 0.005228761583566666, 0.23365269601345062, -0.19759482145309448, -0.1263975352048874, -0.07596173882484436, -0.015470338985323906, -0.11858174204826355, -0.2309119999408722, -0.15831711888313293, 0.1960073560476303, 0.052048493176698685, 0.1506071537733078, -0.027103163301944733, -0.24955663084983826, -0.10046812891960144, -0.16258986294269562, 0.025999564677476883, -0.14314334094524384, -0.0688449814915657, 0.017712287604808807, 0.07179134339094162, 0.3131166100502014, 0.11828366667032242, 0.16648632287979126, 0.05827585235238075, 0.15638478100299835, -0.410111665725708, -0.08892529457807541, 0.39580658078193665, -0.043329015374183655, -0.04311078414320946, 0.13650445640087128, 0.30579668283462524, -0.015819953754544258, 0.026133740320801735, 0.37046003341674805, -0.22180883586406708, -0.2892519235610962, 0.07732413709163666, 0.06194726377725601, 0.15267059206962585, 0.21089686453342438, 0.49798884987831116, 0.14302371442317963, -0.014570765197277069, 0.05243722349405289, 0.09966926276683807, -0.05472803860902786, -0.06184860318899155, 0.28674566745758057, -0.11051973700523376, 0.03362727537751198, -0.15349096059799194, -0.010630632750689983, -0.5709993243217468, -0.06833700835704803, -0.4797166883945465, -0.2785913050174713, 0.12066511809825897, -0.1894409954547882, 0.32415586709976196, 0.0343887023627758, -0.32803624868392944, 0.321522057056427, 0.015688927844166756, -0.1991572231054306, -0.041405461728572845, -0.18079228699207306, -0.15793660283088684, -0.24492809176445007, -0.2688421607017517, -0.04224035143852234, -0.05383005738258362, -0.22580023109912872, -0.3359227180480957, 0.09794063121080399, 0.17566640675067902, 0.1068577691912651, 0.2578422725200653, 0.2269190400838852, 0.19056491553783417, -0.37377315759658813, -0.13716532289981842, -0.14796766638755798, -0.16757048666477203, -0.32955679297447205, 0.058592360466718674, 0.26153668761253357, -0.18318845331668854, 0.44983598589897156, 0.14979863166809082, 0.16249783337116241, -0.17411468923091888, -0.20128251612186432, 0.018280331045389175, -0.2141767293214798, 0.009557904675602913, -0.27712759375572205, -0.07143918424844742, 0.2542528212070465, -0.13588422536849976, -0.1620594561100006, -0.16989685595035553, -0.27735432982444763, -0.46652793884277344, 0.02078876830637455, -0.0143349664285779, -0.22827783226966858, -0.04737795889377594, -0.22555632889270782, 0.23893257975578308, 0.023397911339998245, 0.2133515477180481, -0.07067710906267166, -0.18295222520828247, -0.03305279091000557, -0.06574809551239014, -0.14347444474697113, -0.4059964418411255, 0.06293254345655441, 0.10714301466941833, 0.6194220781326294, -0.2437911033630371, 0.1842687427997589, -0.27320948243141174, 0.006780110765248537, -0.015561560168862343, -0.41682207584381104, 0.3303360342979431, -0.017894182354211807, -0.14635898172855377, 0.10878333449363708, 0.31623101234436035, 0.1552087813615799, 0.2888360917568207, -0.016396816819906235, 0.32728299498558044, 0.06171024963259697, 0.13476763665676117, -0.023156555369496346, -0.053662918508052826, -0.13559593260288239, -0.3006433844566345, 0.22064976394176483, 0.07312481105327606, -0.23105685412883759, -0.007384565193206072, -0.069927878677845, -0.23277632892131805, -0.12966835498809814, -0.05093127116560936, -0.5207733511924744, -0.12053792178630829, -0.022007862105965614, 0.20800422132015228, 0.09983275085687637, -0.10487966239452362, 0.09337387979030609, 0.09881698340177536, 0.020824039354920387, 0.11350534856319427, -0.15412652492523193, 0.08455370366573334, -0.14577126502990723, 0.3931952118873596, 0.08389168232679367, 0.014287170022726059, 0.003307352075353265, -0.10972090810537338, -0.12411575764417648, -0.4475878179073334, -0.0655229464173317, 0.004103062674403191, -0.34421783685684204, -0.19128939509391785, 0.2565128207206726, 0.15465998649597168, 0.06405182182788849, 0.057673465460538864, -0.20382951200008392, 0.039051804691553116, -0.5102227330207825, -0.03506022319197655, -0.052607737481594086, -0.1664944589138031, 0.2920425832271576, 0.16986623406410217, 0.034219805151224136, 0.07990851998329163, -0.7571008801460266, -0.07245524227619171, -0.13666106760501862, -0.23479188978672028, 0.4235266447067261, -0.004175873938947916, -0.05892976000905037, 0.24013732373714447, -0.09059402346611023, 0.015287552960216999, -0.011530652642250061, -0.022860141471028328, -0.18065457046031952, -0.031497638672590256, 0.039142049849033356, -0.521831214427948, -0.08573274314403534, -0.020133571699261665, -0.09938263148069382, 0.14116157591342926, -0.21216151118278503, 0.26470595598220825, -0.45113900303840637, 0.1403600126504898, -0.30078911781311035, 0.49608445167541504, -0.17053799331188202, -0.0954316109418869, 0.3837062418460846, 0.056532736867666245, 0.19663330912590027, 0.03434811159968376, -0.14588123559951782, -0.1944483071565628, -0.2885417938232422, -0.04277975857257843, 0.09612296521663666, -0.043107375502586365, -0.03237402066588402, -0.07595483213663101, 0.035657454282045364, 0.035672642290592194, 0.240751251578331, 0.2163369208574295, 0.7378553748130798, -0.24259784817695618, -0.07107844203710556, -2.4722490310668945, 1.985573410987854, 0.7565168738365173, 1.7519594430923462, -3.0802395343780518, -0.44199079275131226, 1.9405194520950317, -2.5578136444091797, -1.2106103897094727, -0.047706469893455505, -4.754806041717529, -1.2782384157180786, -1.0537625551223755, 0.4147551953792572, -1.2470760345458984, -2.2452948093414307, 0.7825800180435181, -0.23466773331165314, -0.6676144599914551, -0.5229983329772949, 2.1373932361602783, 0.423543781042099, -1.4689266681671143, -1.4604068994522095, 2.009387254714966, -0.9321697354316711, -2.6416144371032715, -2.4025580883026123, -1.6191341876983643, -1.2823450565338135, -1.5937052965164185, -0.058288753032684326, 0.28351423144340515, -1.8636654615402222, 0.9367988109588623, 1.958870768547058, 1.806198000907898, -2.1751794815063477, -1.4297891855239868, -0.8161126375198364, 1.2359085083007812, 1.5459657907485962, 0.9741653203964233, -0.9130887389183044, 0.16551128029823303, -1.110953450202942, -0.7822165489196777, -0.7869366407394409, 1.559101939201355, 0.6620458960533142, -0.20846371352672577, 1.5960602760314941, -0.46955403685569763, -0.059027984738349915, -0.7973089218139648, 1.6210534572601318, -2.0590169429779053, -0.7143949270248413, 0.23933009803295135, -1.1541197299957275, -0.6597852110862732, -0.9422701001167297, -1.1819525957107544, 2.3269264698028564, 0.24785669147968292, 1.9126518964767456, 1.6801707744598389, -0.1628296673297882, 1.5625401735305786, -0.6539861559867859, 0.4692476987838745, -1.262956142425537, -1.4284158945083618, 3.141829252243042, -1.9670648574829102, 2.8697168827056885, 0.07750066369771957, -1.7338554859161377, 1.0166125297546387, 1.7242777347564697, 0.1590883433818817, -0.3917529582977295, 2.2946832180023193, 2.3001561164855957, -0.9291974306106567, 2.3649420738220215, -1.1025632619857788, 0.2869390547275543, 0.677440345287323, 0.3958492577075958, -0.9031270742416382, 1.6818393468856812, 1.461541771888733, -0.6266470551490784, -1.2528382539749146, 2.7351975440979004, 0.9197182655334473, -0.5519806742668152, 0.20595693588256836, 0.11683229357004166, -0.3455438017845154, 0.19685140252113342, -1.5709869861602783, -0.2491040974855423, -0.2974059283733368, -1.3890166282653809, 1.1684401035308838, 2.098727226257324, -0.6006940007209778, 1.905203104019165, -0.5522533655166626, 1.096352458000183, -0.18156033754348755, -2.08119797706604, 1.2706876993179321, 0.6517749428749084, -1.071256399154663, 2.427746057510376, 0.09008350223302841, -1.7769719362258911, 1.1062555313110352, 0.19416303932666779, -0.2210615873336792, 0.24305705726146698, -0.24553443491458893, -2.971691608428955, -0.013104748912155628, 0.2140996754169464, -0.28835225105285645, 0.6857060194015503, 0.2433418333530426, 0.09493209421634674, 1.7374176979064941, 1.9438050985336304, 0.8599997758865356, -0.9151562452316284, 0.5901768803596497, -0.5193788409233093, -1.379197359085083, 0.01874743029475212, 0.20950272679328918, 1.785679578781128, 1.6801215410232544, 0.7281327843666077, -1.265184998512268, 3.0662691593170166, -2.2423386573791504, -0.12785007059574127, 2.2483694553375244, 0.3518622815608978, -0.6123484373092651, 2.5935351848602295, 0.07649743556976318, 2.176171064376831, 0.9582460522651672, 0.2589534521102905, 0.3102985918521881, 1.4069212675094604, -0.8338321447372437, -0.5676402449607849, 1.1059563159942627, -0.7130945920944214, -0.6133368611335754, 2.957482099533081, -1.2034798860549927, 0.5425739884376526, 1.3366461992263794, -1.2349547147750854, -1.9959869384765625, -1.193150281906128, -1.811906099319458, -0.2332514226436615, -0.7032419443130493, -0.8956540822982788, 2.7428300380706787, 0.8047887086868286, 1.4835166931152344, -1.036696434020996, 2.037208318710327, 2.562532901763916, 0.5004014372825623, 0.22619959712028503, -0.5947280526161194, -1.682165503501892, -0.7515212893486023, 0.8333379030227661, 0.9950000047683716, 1.7250467538833618, -2.8426573276519775, 3.495795726776123, -1.1872648000717163, -2.3031728267669678, -0.6206282377243042, -0.3728952407836914, 2.0758097171783447, 3.092625617980957, -0.6383318305015564, 1.1434181928634644, -1.416405200958252, -0.38141903281211853, 1.020402193069458, 0.19776198267936707, -1.4045783281326294, -1.18916916847229, 1.6292839050292969, 1.182499885559082, -2.7949228286743164, 0.4783628284931183, 0.6665650606155396, 0.48664161562919617, 1.91936194896698, -0.27826035022735596, 0.6126013994216919, 0.34325411915779114, 1.1083604097366333, -0.14204047620296478, 0.32498547434806824, -1.0918999910354614, -0.21808651089668274, -1.620351791381836, -2.2521514892578125, -1.4448028802871704, -1.1841514110565186, 1.3232473134994507, 0.10811873525381088, 0.7992011904716492, -0.5335631966590881, 0.4274575114250183, 1.6205267906188965, -0.8247157335281372, 2.673448085784912, 0.17935746908187866, -0.6774144172668457, 0.2208377569913864, -0.9605366587638855, 1.017385721206665, 0.009328851476311684, 0.5540096759796143, -0.8618248701095581, 0.6025948524475098, -1.30890953540802, 0.5506765246391296, 0.2544367015361786, -1.3775019645690918, -0.027758857235312462, -1.2350510358810425, 1.2410579919815063, -1.8123916387557983, -2.1070950031280518, -0.175792396068573, -0.27207204699516296, -2.1724371910095215, 0.4838002622127533, -1.4693952798843384, -0.43625423312187195, -0.8695926070213318, -0.10736656188964844, 0.43398618698120117, -0.6009191870689392, 0.17848123610019684, 0.2366182953119278, 0.12349638342857361, -0.8102788329124451, 0.045908913016319275, -0.5655153393745422, -0.07830087095499039, 0.5319430828094482, -0.575576663017273, -0.11940047889947891, -0.907373309135437, -0.30354586243629456, -0.06951991468667984, -0.867046594619751, -0.5620807409286499, -0.8343885540962219, -0.37784212827682495, -0.09941425919532776, 0.03346889093518257, -1.3986902236938477, -0.9619648456573486, -0.9910240173339844, -1.478629231452942, -0.616250216960907, -0.5163613557815552, -0.08930857479572296, -0.06627374142408371, -0.12168338894844055, 0.0774531215429306, -1.3525211811065674, 0.42416664958000183, -0.3308883607387543, -0.15060578286647797, -0.3703213036060333, -0.5218814611434937, 0.040381722152233124, -0.8071895837783813, -0.6793123483657837, -0.41269412636756897, -0.5744797587394714, -0.8051477074623108, 0.16536234319210052, -0.9722837805747986, -0.15342473983764648, -0.9352449178695679, 1.1548881530761719, -1.0406908988952637, -0.09900707006454468, -0.9039419293403625, -1.0083657503128052, 0.01949390396475792, -0.4312264621257782, 0.4884152114391327, -0.9754437804222107, 0.05114198848605156, -0.42993733286857605, -0.3934771716594696, -0.2666645050048828, 0.11597640067338943, -0.6520547866821289, 0.6153298616409302, -0.4557758569717407, -0.5582469701766968, -0.6568091511726379, -0.6538377404212952, 0.3955651521682739, -0.273442804813385, 0.24703392386436462, -0.3312036395072937, -0.889950156211853, 0.05081627890467644, -0.9888387322425842, -0.5390315651893616, -0.7087313532829285, -0.2938784956932068, -0.32385894656181335, -2.158031463623047, -0.11591672897338867, -1.3596817255020142, -1.0716195106506348, -0.8969535827636719, -0.8060733675956726, -0.7056237459182739, -0.37068068981170654, -0.28589847683906555, -0.28128740191459656, -0.8573159575462341, -0.2504886984825134, -0.40970900654792786, -0.29481375217437744, -0.5436710715293884, -0.021019870415329933, -0.681658148765564, -1.119445562362671, -0.6609159708023071, -0.1904602199792862, -0.801197350025177, 0.49585822224617004, -0.2199866771697998, -0.2958211600780487, -0.6181882619857788, 0.34067875146865845, -0.5816868543624878, -0.08198076486587524, 0.00553324818611145, -0.17264306545257568, 0.5147271156311035, -0.9325522184371948, -0.9745970368385315, -1.3576568365097046, -0.7704840302467346, -0.765243411064148, -0.9717310667037964, -0.0370391346514225, 0.13088828325271606, 0.4284590780735016, -0.7981052994728088, -0.23096993565559387, -0.06788903474807739, -1.0553020238876343, 0.4863416850566864, -0.8558580875396729, -0.14163528382778168, -0.7407068014144897, -0.1614970862865448, -0.33668598532676697, 0.25148501992225647, 0.3012445867061615, -1.15818190574646, 0.5148167014122009, -0.6253380179405212, -0.630806028842926, -0.5667391419410706, 0.49128100275993347, -1.0226483345031738, 0.4460965692996979, 0.07059437036514282, -1.1146622896194458, -0.8744487166404724, -0.6463454961776733, -0.10412239283323288, -0.53224778175354, -0.2694126069545746, -0.6535400152206421, -0.515775740146637, -0.4074985384941101, -0.8643876910209656, -0.28798070549964905, -0.26160526275634766, -1.0402346849441528, -0.48623982071876526, -0.37632718682289124, -0.3621397614479065, -0.31932416558265686, 0.01867600530385971, 0.1759205460548401, -1.5657516717910767, -0.8146264553070068, -0.8289293646812439, -0.54916912317276, -0.6056388020515442, 0.15509043633937836, -0.34316474199295044, -0.2252373844385147, -0.5212967395782471, -0.9879725575447083, 0.00556140998378396, -0.4742840826511383, -1.2544775009155273, -0.726601779460907, -0.8541409969329834, -0.626928985118866, -0.14588125050067902, -1.052062749862671, -0.47155559062957764, -0.11322597414255142, -0.32584303617477417, -0.3249629735946655, -0.18174327909946442, -0.23527809977531433, -0.9855645298957825, -0.664025604724884, -0.7570839524269104, -0.373444527387619, -0.6162445545196533, -0.5032005906105042, 0.4135250449180603, -0.9549180865287781, -0.9157277345657349, 0.06694014370441437, -0.5413464903831482, -0.9539148807525635, -0.7425051331520081, -1.2076152563095093, -0.41398561000823975, 0.05645248666405678, 0.28157052397727966, 0.28999581933021545, 0.33067652583122253, 0.4315265715122223, 0.1833181381225586, -0.06635324656963348, -0.39426952600479126, -0.06282046437263489, -1.2007145881652832, -0.5731909871101379, 0.7091534733772278, -0.5013821721076965, -0.2850213348865509, 0.3864927589893341, -0.09994976967573166, -0.3195200264453888, 0.3194189965724945, 0.24247398972511292, 0.37510472536087036, -0.29711827635765076, -1.1189988851547241, -0.5510376691818237, 0.09572994709014893, -0.38710737228393555, -0.2325107455253601, -0.22897382080554962, -0.2992907464504242, -0.07603495568037033, -0.6011942625045776, -0.32977208495140076, -0.13343018293380737, -0.30017584562301636, -0.5461437702178955, -1.1883070468902588, -0.9016870856285095, -1.5697892904281616, -0.2679806351661682, 0.05882894620299339, -0.3942769467830658, -0.9984609484672546, -1.0898195505142212, -0.4585725963115692, -0.3088005781173706, 0.02087598852813244, -0.5420030951499939, -0.34803080558776855, -0.3214528262615204, -0.24517619609832764, -0.012417580932378769, 0.5867029428482056, -0.12735827267169952, 0.347564160823822, -0.18551495671272278, 0.3730982840061188, 0.018789146095514297, -0.1642938107252121, 0.02920612506568432, -0.1900070458650589, -0.06627269834280014, 0.18527987599372864, 0.11400700360536575, -0.28226667642593384, 0.2538672983646393, 0.16473077237606049, -0.22818630933761597, -0.1836262047290802, -0.006560721900314093, -0.4171764552593231, -0.21077197790145874, -0.13991372287273407, -0.19946525990962982, 0.026084687560796738, -0.2038373500108719, -0.09913529455661774, -0.0658063068985939, -0.08274222910404205, 0.007070131599903107, 0.1497659832239151, 0.0895702987909317, -0.4024634063243866, 0.13729166984558105, 0.12168815732002258, -0.03298717364668846, -0.00860137864947319, -0.15910658240318298, -0.31285831332206726, -0.15112188458442688, -0.2776499390602112, -0.0629342570900917, 0.4189055562019348, -0.2329247146844864, -0.14028345048427582, 0.2832540273666382, 0.12309133261442184, -0.16643689572811127, -0.05203977972269058, -0.3109969198703766, 0.00147976353764534, -0.27153778076171875, -0.20598992705345154, -0.09274929016828537, 0.11910266429185867, -0.0039248038083314896, -0.194885715842247, -0.19307661056518555, 0.07596844434738159, 0.07481935620307922, -0.044137224555015564, -0.14606109261512756, -0.1646551787853241, 0.02863403968513012, -0.5621635913848877, -0.12290216237306595, -0.2296721339225769, -0.109439417719841, -0.10038884729146957, 0.049681615084409714, -0.35875049233436584, -0.22406260669231415, 0.05960910767316818, -0.049176011234521866, 0.04055976867675781, 0.007797899190336466, 0.3187709152698517, -0.3557118773460388, 0.23597438633441925, -0.2015722543001175, 0.12714681029319763, -0.27943092584609985, -0.23963354527950287, 0.1983785480260849, -0.3530485928058624, 0.21413752436637878, -0.04432694613933563, 0.033157769590616226, -0.14648517966270447, 0.19040212035179138, 0.14842404425144196, 0.040920697152614594, 0.09769467264413834, -0.043245963752269745, -0.4672318994998932, -0.16141897439956665, -0.18075133860111237, -0.2504536211490631, -0.04264519363641739, 0.14461219310760498, 0.01902667246758938, -0.06742788106203079, -0.025989452376961708, 0.02148374542593956, -0.2303996980190277, 0.046706151217222214, 0.1054777130484581, 0.16631527245044708, -0.11897795647382736, 0.043868571519851685, -0.03211147338151932, -0.17784637212753296, -0.2573295831680298, 0.07796487957239151, 0.0418924018740654, 0.14015862345695496, -0.22317637503147125, 0.44841432571411133, 0.1587926596403122, 0.02052139863371849, 0.22080524265766144, 0.3241279125213623, 0.06045779585838318, -0.06700769066810608, 0.052700359374284744, -0.06334748864173889, -0.25691139698028564, -0.34098049998283386, -0.48146745562553406, 0.26139578223228455, -0.34618857502937317, -0.2956903576850891, -0.26878276467323303, -0.11233729124069214, -0.16423337161540985, -0.5221579670906067, -0.07863640785217285, -0.22866807878017426, -0.2016790509223938, 0.03233117237687111, -0.10191492736339569, -0.1330188512802124, 0.17084507644176483, 0.0005942487041465938, 0.1341570019721985, -0.11441970616579056, 0.18300113081932068, 0.15820832550525665, -0.2444089949131012, 0.07770159840583801, -0.19448232650756836, 0.22460031509399414, 0.06384187191724777, 0.1026487872004509, 0.2195172905921936, 0.12142924964427948, -0.13248023390769958, -0.043435558676719666, 0.41671276092529297, -0.004199538379907608, 0.15375854074954987, 0.3265257477760315, 0.08642660081386566, 0.2774542570114136, -0.3148570954799652, 0.010574430227279663, 0.12166328728199005, 0.12128188461065292, 0.06474024057388306, 0.10599048435688019, -0.10527709126472473, -0.011865628883242607, 0.16684189438819885, 0.31535494327545166, -0.06384122371673584, -0.09848101437091827, 0.020424602553248405, -0.19922174513339996, -0.042816758155822754, -0.505735456943512, -0.600107729434967, -0.06891851872205734, 0.10105320811271667, 0.4516212046146393, -0.03632030263543129, 0.028930526226758957, 0.16625253856182098, 0.20505331456661224, -0.20803456008434296, 0.10395780950784683, 0.20271126925945282, 0.09947673976421356, 0.1163303405046463, -0.2454981654882431, -0.27764207124710083, 0.3034727871417999, 0.06324994564056396, 0.1988864243030548, -0.14550107717514038, 0.31700843572616577, -0.22600452601909637, -0.12323632091283798, -0.0034611066803336143, -0.14422662556171417, -0.13171017169952393, 0.0554308146238327, 0.06058252975344658, 0.30982062220573425, -0.19757544994354248, 0.09586387872695923, 0.06515645235776901, -0.04761834442615509, -0.017308736220002174, -0.45933401584625244, -0.11584454029798508, 0.27021849155426025, -0.11452541500329971, 0.059331197291612625, -0.022760162129998207, 0.06572460383176804, 0.09187056869268417, -0.5009701251983643, -0.07417147606611252, 0.03629767894744873, -0.05995691195130348, 0.15181243419647217, -0.1572398692369461, -0.046170324087142944, 0.23346956074237823, -0.34007835388183594, -0.19850172102451324, -0.5354482531547546, -0.22071000933647156, 0.08239391446113586, -0.07484468072652817, -0.2129073292016983, 0.03828329220414162, 0.14874471724033356, 0.19936399161815643, 0.030804477632045746, -0.06127999350428581, -0.07339794188737869, -0.4313333332538605, 0.06742403656244278, -0.317012757062912, -0.03084813430905342, -0.13019855320453644, -0.41683506965637207, -0.117767833173275, -0.32435086369514465, -0.2144755870103836, -0.06562215089797974, 0.0188349150121212, -0.12187787890434265, 0.12490981072187424, -0.016560666263103485, -0.03633499518036842, 0.010894744656980038, -0.03272632136940956, 0.03680369257926941, -0.03971328213810921, -0.18678522109985352, 0.3188210427761078], "kernelShape": [8, 256], "bias": [-0.8842471241950989, -0.38120269775390625, -1.3518003225326538, -0.6267549991607666, -0.3997943699359894, -0.8004563450813293, -0.6381990313529968, 0.38474324345588684, -0.1504887044429779, -0.558948278427124, -0.7730119228363037, -0.7453547120094299, -1.4874374866485596, -0.48394012451171875, -1.2605680227279663, -0.322960764169693, -1.1880404949188232, -0.5300434827804565, 0.49247318506240845, -0.6954038739204407, -0.4284209609031677, -0.5800474286079407, -1.2333712577819824, -0.6119042038917542, -0.8073240518569946, -0.2538001239299774, -0.8971641063690186, -0.7737627029418945, -1.0380527973175049, 0.13354258239269257, -0.2917744517326355, -0.7517068386077881, -1.1059505939483643, -0.6621691584587097, -0.7482407689094543, -1.002199411392212, -0.3246585428714752, -0.7191905975341797, -1.2576727867126465, -0.6613284349441528, 0.4041749835014343, -0.8959720134735107, -1.1743930578231812, -0.5684349536895752, -0.9488068222999573, -0.9743905663490295, -0.48348167538642883, -0.7431358695030212, -0.2442798763513565, -0.19330933690071106, -1.007505178451538, -1.4463658332824707, -0.9684038758277893, -1.5798043012619019, -0.4483874440193176, -0.37989237904548645, -1.0757074356079102, -1.1127843856811523, -0.4866364896297455, -0.26409801840782166, -0.9242300391197205, -0.41809695959091187, -0.9055920839309692, -1.330338954925537, -1.0747731924057007, -0.08342208713293076, -0.25793612003326416, -0.5468143224716187, -0.1353650540113449, -0.9327017068862915, -1.059098243713379, -0.2940278649330139, -0.9665379524230957, -0.19348134100437164, -0.5818902850151062, -0.5901329517364502, -0.005372707732021809, -0.49078914523124695, 0.4709131419658661, -1.023534893989563, -0.9396613240242004, 0.34720560908317566, 0.41185739636421204, 0.03901281952857971, -1.26564359664917, 0.07526737451553345, -1.3513363599777222, -1.1017239093780518, -0.3912632465362549, -0.3860228955745697, -0.8821969032287598, -1.3985373973846436, -0.9064062237739563, -1.3024711608886719, -0.3278655409812927, -1.4187194108963013, -1.6528873443603516, -0.7801882028579712, -0.29787710309028625, -0.7401675581932068, -0.7387745976448059, -1.043798804283142, -0.2359415590763092, -0.5351874828338623, -0.9315765500068665, -0.37844839692115784, -0.732864260673523, -0.8523341417312622, -0.20107172429561615, -1.1482160091400146, -0.8733696937561035, -1.4241725206375122, -0.6712872385978699, -1.330283522605896, -0.11252560466527939, -1.0268027782440186, -0.5678591728210449, -1.148354411125183, -1.7346388101577759, -0.7285687923431396, -0.2469608038663864, -0.9297844767570496, -0.6394764184951782, -0.4730866849422455, -0.8634834289550781, -1.3901708126068115, 0.19833828508853912, -0.5597315430641174, 0.10534491389989853, -0.6895381212234497, -1.5746948719024658, -1.1093705892562866, -1.0954418182373047, -1.0422459840774536, -0.2545335292816162, -0.9956638216972351, -1.3563556671142578, -0.6360146403312683, -0.9379176497459412, -0.5255571007728577, -0.3317309021949768, -1.3260540962219238, -1.6738201379776, -0.9718024730682373, -0.6296467185020447, -0.7757352590560913, -1.5672128200531006, -0.628205418586731, -0.3197123408317566, -0.3600464165210724, -1.1899482011795044, -0.35054224729537964, -0.2020293027162552, -1.502201795578003, -1.404052972793579, -1.0933187007904053, -0.6860608458518982, -1.33969247341156, -1.024404764175415, -0.1620112508535385, -0.8455870747566223, -1.5528327226638794, -0.5529720783233643, -1.0325157642364502, -0.13635630905628204, -0.092645563185215, -0.023399773985147476, -0.3326573669910431, -0.6143218278884888, -0.8803695440292358, -0.38903534412384033, -0.49866166710853577, -0.6685802936553955, -0.1972341239452362, -0.9797484278678894, -0.7507573366165161, -0.4438866376876831, -0.5591052174568176, -1.0382577180862427, -0.5075690746307373, -0.347177118062973, -0.9669210910797119, -1.1689480543136597, -1.287945032119751, -0.9906497001647949, -1.106082797050476, -1.0884541273117065, -1.2677048444747925, -0.30439066886901855, -1.3358492851257324, -0.44934362173080444, -0.8585727214813232, 0.08158420771360397, -0.5544342398643494, 0.6068568229675293, -1.3407241106033325, -0.8742762207984924, -1.171838402748108, -0.5935712456703186, -0.6708138585090637, -0.7574583888053894, -1.3651612997055054, -2.2799925804138184, -0.7425687909126282, -0.4250038266181946, -0.8512831330299377, -1.0600372552871704, -0.9911336898803711, -0.8423579931259155, -0.7606397271156311, -0.07395634800195694, -1.6825251579284668, -0.7331863641738892, -1.0099934339523315, -0.5277742743492126, -0.19748419523239136, -1.2079025506973267, -0.9592390656471252, -0.6851567029953003, -0.7153480052947998, -0.4672301113605499, -0.5905243158340454, -0.38951388001441956, -0.8060811161994934, -0.6512120962142944, -0.5325813293457031, -0.813317060470581, -1.555412769317627, -1.11298406124115, -1.4434784650802612, -0.6701818108558655, -1.5269967317581177, -1.4229239225387573, -0.6661126017570496, -0.2584810256958008, 0.22986207902431488, -0.14272090792655945, -0.3550756871700287, -1.24479341506958, -1.2619493007659912, -0.9654388427734375, -0.9474248886108398, -0.7581390142440796, -1.334033727645874, -1.5214289426803589, -1.2509198188781738, -0.13000689446926117, -1.1439930200576782, -0.6448141932487488, -0.9771746397018433, -0.8803431987762451, -0.4689677357673645, -1.0272817611694336, -0.7035699486732483, -0.802849292755127, -0.9460022449493408], "biasShape": [256]}, "layer_1": {"kernel": [-0.16657313704490662, -0.015562331303954124, -0.39256808161735535, 0.45201823115348816, 0.08787649869918823, -0.35632258653640747, -2.4314332008361816, -0.28168976306915283, -0.0020101708360016346, 0.09176379442214966, 0.13589105010032654, -0.40414953231811523, 0.431232750415802, -0.20756922662258148, -0.04925135150551796, 0.6307074427604675, -0.5119665861129761, -0.19706980884075165, -0.3908579647541046, -0.023648696020245552, -0.7299174070358276, 0.19214856624603271, 0.6152634620666504, -1.2721946239471436, -0.8084529042243958, 0.47537896037101746, -0.034984927624464035, 0.7886441349983215, 0.26795443892478943, -0.22180387377738953, -0.007089493330568075, 0.060929086059331894, 0.194116473197937, 0.51137775182724, -0.011775510385632515, 0.06695207208395004, -1.114886999130249, -0.7872202396392822, 0.18025703728199005, -0.10089392215013504, -0.27593302726745605, -0.0013060371857136488, -0.5355737209320068, -0.018095100298523903, -0.024811645969748497, -0.4213598370552063, -0.46117791533470154, 0.17737875878810883, -0.3194975256919861, -0.6485766172409058, -0.7392979264259338, -0.010555895045399666, 0.02054513432085514, -0.28180399537086487, -0.8078657984733582, 0.7083936333656311, -0.3576299548149109, -0.6135018467903137, 0.10933896899223328, -0.8058745861053467, -0.2222270965576172, -0.6272153854370117, -0.6334044337272644, 0.5436562895774841, 0.06818578392267227, -1.4644074440002441, -0.8650162816047668, -0.7535922527313232, -0.4961718022823334, 0.3302876651287079, -0.16610023379325867, 0.8337299823760986, -0.03194911777973175, -0.0265454463660717, 0.27832862734794617, -1.1852468252182007, 0.14196138083934784, 0.4775506258010864, -0.2026997059583664, -0.2735269069671631, -0.559199869632721, -0.0002239325549453497, 0.33855000138282776, -0.3267623484134674, -0.11303375661373138, 0.019899150356650352, 0.08729337900876999, -0.3282368779182434, 0.07532714307308197, 0.776038646697998, 0.8226190805435181, -0.181396946310997, 0.6460397243499756, -0.12724503874778748, -1.2523022890090942, 0.18126554787158966, -0.14905160665512085, -2.6483545303344727, -0.3917441964149475, -0.2729078531265259, -0.8968042135238647, -0.9651600122451782, -1.0683046579360962, -0.06341633200645447, -0.383940726518631, 0.2502591907978058, -0.2628302276134491, -0.9265388250350952, 0.18351735174655914, 0.5113407969474792, -0.19812019169330597, -0.23583213984966278, -0.2844875752925873, 0.2304992973804474, -0.572143018245697, 0.11369401961565018, -0.057334743440151215, -0.3658173084259033, -0.44495388865470886, 0.576924741268158, -1.2342396974563599, -0.33828943967819214, -0.0942934900522232, 1.3701837062835693, -0.34132787585258484, -0.043114133179187775, -1.0033339262008667, -0.03243256360292435, 0.21954688429832458, -0.07872210443019867, -0.15422043204307556, -0.36126112937927246, -1.5317472219467163, 0.2163534313440323, -0.9733276963233948, 0.06452815979719162, -1.513655662536621, 0.3568097949028015, -0.270380437374115, -0.12619855999946594, -0.06901966035366058, -0.04510745033621788, 0.21265809237957, -0.47018054127693176, 0.027914654463529587, -0.027319185435771942, 0.027556559070944786, 0.021875863894820213, -0.021536417305469513, 0.4670296013355255, -0.3727779686450958, -0.05259077996015549, 0.4269341230392456, 0.018226101994514465, 0.021309856325387955, 0.07588763535022736, -0.03869590535759926, -0.72527676820755, 0.2870240807533264, 0.6198064088821411, 0.03176723048090935, -0.07345835119485855, -0.035810139030218124, -0.3880822956562042, 0.14824816584587097, 0.25212353467941284, -0.6739444136619568, -0.5997058153152466, 0.5641231536865234, -0.8831838965415955, -0.07517700642347336, -1.3209275007247925, -0.72600919008255, -0.0944499745965004, 0.17650769650936127, -0.21132484078407288, -0.36872920393943787, -0.0008204429177567363, 0.3929480016231537, -0.26540979743003845, 0.019629348069429398, -0.9030075669288635, 0.2383444607257843, 0.5094859600067139, -0.003934046719223261, -0.3651849627494812, 0.2287043333053589, -1.4091167449951172, 0.942162811756134, -0.32261934876441956, -0.3519226312637329, -0.6302057504653931, -0.36131441593170166, -0.3527127206325531, -1.2644720077514648, 0.08689365535974503, -0.3471360504627228, 0.5110567212104797, -1.0568257570266724, 0.31022340059280396, 0.2867858111858368, -0.31654950976371765, 0.001603343989700079, 0.06671629846096039, 0.49468863010406494, -0.48068156838417053, -0.05247194319963455, -0.3669275641441345, -1.5092934370040894, -0.20095199346542358, 0.06983955204486847, -0.48044368624687195, -0.612159788608551, 0.6847512125968933, -0.07014656066894531, -0.22864556312561035, -0.04055201634764671, 0.03692902252078056, -0.18246939778327942, -0.3494831621646881, -0.07658027857542038, -0.28556910157203674, 0.17238223552703857, -0.09585756063461304, -0.025119690224528313, -0.07581709325313568, 0.2206970602273941, 0.5658468008041382, -0.23752115666866302, -0.05996497720479965, -0.25973421335220337, -0.8153600096702576, -0.1114664226770401, 0.3886677622795105, -0.04976194351911545, -0.7845478057861328, -0.4318215847015381, 0.2287837564945221, -1.2365590333938599, 0.2938025891780853, 1.3820608854293823, 0.3477078080177307, 0.49507462978363037, -0.08776190876960754, -0.2530992925167084, -0.1593349277973175, 0.25332337617874146, 0.3867092430591583, -0.00861060619354248, -0.9998461604118347, -0.2904249429702759, -0.282486230134964, 0.38685110211372375, -1.276333212852478, -0.15235202014446259, -1.1202826499938965, -1.2480757236480713, 0.5806911587715149, -0.38263529539108276, 0.4514760375022888, -3.0867714881896973, -0.4200386106967926, -0.1444111168384552, -0.8848019242286682, 0.02081463672220707, -0.48369038105010986, 0.22755451500415802, -0.45001187920570374, -2.879411220550537, 0.058688659220933914, -0.027884671464562416, 0.19883382320404053, 0.14494311809539795, -0.03231494128704071, 0.09013776481151581, -0.5440646409988403, 0.1462102085351944, 0.16892841458320618, 0.4913918375968933, 0.5501997470855713, -0.6384420394897461, 0.14362236857414246, -1.2298169136047363, 0.4519462287425995, -0.5140118598937988, -0.05385485664010048, 0.023261329159140587, 0.01408457662910223, -0.06191389635205269, 0.8023635745048523, 0.026924286037683487, -0.19569635391235352, -0.4134201407432556, -0.01214869786053896, -0.4607226848602295, -0.42610183358192444, -0.15774308145046234, -0.12258517742156982, -1.01059889793396, -0.7372943162918091, -0.04978545755147934, -1.3133840560913086, -0.7958675026893616, -0.03204578161239624, -1.0241584777832031, -0.02809865213930607, 0.08941521495580673, 0.4253018796443939, -0.04945676773786545, -0.20460878312587738, 0.005909296218305826, 0.18048705160617828, -0.019596902653574944, -0.6954795122146606, -0.32008054852485657, 0.15763598680496216, -0.277960866689682, -0.23299069702625275, -0.2482958436012268, -0.288914293050766, -0.11532563716173172, -0.2738373577594757, -3.39639949798584, 0.05927528813481331, 0.2267228662967682, 0.06514768302440643, -0.4104175269603729, -0.3213747441768646, 0.15523380041122437, -0.270679235458374, -0.6242428421974182, -0.6102114915847778, 0.07378680258989334, 0.07298073917627335, 0.03535892441868782, -0.055884506553411484, -0.5321676731109619, -0.02066400647163391, 0.6825065016746521, -0.3531795144081116, -0.37139058113098145, -0.0582677386701107, 0.2950693666934967, 0.21119366586208344, -1.0205223560333252, -0.061489321291446686, -0.13219110667705536, -0.7892748713493347, 0.3994836211204529, -0.06565932929515839, -1.8671579360961914, -0.1670846790075302, -0.88149493932724, 0.23169569671154022, -0.014900372363626957, -0.2902703881263733, 0.02930942364037037, -0.23180387914180756, -0.522262692451477, -0.0347415953874588, -0.46603134274482727, -1.1193500757217407, 0.10880393534898758, 0.8763065338134766, -0.41719648241996765, 0.3640318810939789, -0.14747348427772522, 0.7896336913108826, -0.054385602474212646, 0.07640451937913895, 0.759835422039032, 0.08718700706958771, 0.038989610970020294, -2.079862356185913, -0.5295641422271729, 0.16617748141288757, -0.2676853537559509, -1.0513464212417603, -0.035293109714984894, 0.528031051158905, 0.3259086608886719, 0.018922632560133934, 0.15187335014343262, -0.07529472559690475, 0.39145922660827637, 0.259799599647522, 0.002584346802905202, 0.026100631803274155, -1.348827838897705, -1.7602828741073608, 0.28484946489334106, -1.2369167804718018, -0.5476139783859253, -0.13015320897102356, -0.1631651073694229, -0.011299222707748413, 0.9222767949104309, -0.29263371229171753, -0.2556014358997345, -0.4249636232852936, 0.0616760216653347, -0.0640723928809166, 0.47446638345718384, -1.2653021812438965, -0.8273777365684509, -0.11943069845438004, -0.04577566683292389, 0.04686981812119484, 0.5661666989326477, 0.19388985633850098, -0.03732677176594734, -0.33407753705978394, -0.026947375386953354, -0.33302363753318787, -0.8133981823921204, -1.2025105953216553, -0.028154559433460236, -0.06107676029205322, -1.2975761890411377, 0.41154929995536804, 0.11674566566944122, -0.9938114881515503, -0.9284590482711792, 0.15691885352134705, 0.6824562549591064, -0.22408895194530487, -0.01700848527252674, 0.2618246376514435, 1.1147624254226685, 0.46485254168510437, -0.3529076874256134, 0.05829821154475212, 0.27184194326400757, -0.0056679206900298595, 0.3295775353908539, -0.4155348539352417, 0.010011892765760422, 0.04403376579284668, -0.3951098918914795, 0.11890304088592529, 0.0019541012588888407, -0.3935096859931946, -0.2964007556438446, 0.21840624511241913, 0.2615273594856262, 0.12139199674129486, 0.23220336437225342, 0.5323025584220886, -0.1879211813211441, 0.23064176738262177, -0.48766353726387024, 0.4104698896408081, -1.1605556011199951, -0.9108083844184875, -0.9399398565292358, 0.09301303327083588, -0.03658869117498398, 0.2894749343395233, -0.06228861212730408, -0.026901397854089737, -0.40265780687332153, 0.3972663879394531, -0.005922945216298103, 0.1624131202697754, -0.04797607660293579, -0.680908739566803, -0.031924933195114136, -0.7517262101173401, 0.426028311252594, -0.44270405173301697, -0.028299305588006973, -0.4930016100406647, -0.031785763800144196, 0.025932617485523224, -0.8797164559364319, 0.8653553128242493, -0.838344395160675, 1.3674190044403076, -0.18403707444667816, -1.1767988204956055, 0.07644704729318619, 0.05330590531229973, -0.985512912273407, -1.042327880859375, -0.12655305862426758, -0.5365954637527466, 0.08099076896905899, -1.3994724750518799, 0.635902464389801, 0.0691542997956276, 0.04452543333172798, 0.030011281371116638, 0.42487987875938416, -0.2455674707889557, 0.06428889185190201, 0.20220351219177246, 0.5946958065032959, -1.1395891904830933, -0.22281110286712646, 0.07503501325845718, -0.047770995646715164, 0.2942431569099426, 0.14494918286800385, 0.6996917724609375, -0.026647740975022316, -0.09511835128068924, -0.43068239092826843, -0.4612305760383606, 0.34653040766716003, 0.7843183279037476, -0.6902050971984863, 0.0020872564055025578, -0.49641337990760803, -1.350637674331665, -0.12092982977628708, 0.1802254170179367, 0.11086404323577881, 0.47103941440582275, -0.4918414354324341, 0.2835303843021393, 0.0077497814781963825, 0.7009385228157043, -0.04503043740987778, -0.08812034875154495, 0.11957095563411713, -0.710817277431488, -0.04518337920308113, -1.027884840965271, -0.7364938855171204, -0.5787209868431091, 0.025088125839829445, -0.47995707392692566, -3.417546272277832, -0.008542316034436226, -0.7911384701728821, -0.8068475723266602, -2.0892131328582764, 0.010139340534806252, 0.05504222586750984, 0.45241761207580566, -1.6143124103546143, -1.4510071277618408, -0.08274545520544052, -0.8978689312934875, 0.2637532353401184, -0.6921924948692322, -0.007032070308923721, -0.3597232699394226, 0.1789689064025879, -1.234548568725586, -0.30529212951660156, 0.42126545310020447, -0.6258348822593689, 0.4565613865852356, -0.02296927198767662, 0.5697560906410217, 0.09130123257637024, -1.22012460231781, 0.2984420955181122, 0.010857874527573586, -0.11481326818466187, -0.7155526876449585, -1.9331804513931274, -0.9467974901199341, -0.029810938984155655, 0.8505297899246216, -0.8812217116355896, -0.6997361779212952, -2.901329278945923, 0.08642612397670746, 0.0477294884622097, -0.4365959167480469, -0.437402606010437, -0.15907280147075653, -0.108589768409729, -0.9939945936203003, 0.09415967017412186, -0.05018461495637894, 0.03528871387243271, -5.401712417602539, -0.8061639070510864, 0.7005882263183594, 0.6603446006774902, -1.4057705402374268, -0.24290849268436432, -1.1431430578231812, -0.8630404472351074, -1.0841801166534424, -1.0902220010757446, -1.19858980178833, -0.6705724596977234, 0.9990949630737305, -0.13169831037521362, -0.007362655363976955, 0.6790885329246521, -1.2693592309951782, -0.5895566940307617, -0.04293209686875343, 0.019918784499168396, -0.3146440088748932, -1.9159883260726929, 0.8204149603843689, -0.9489926695823669, -0.5269947052001953, 0.07650011777877808, 0.48735544085502625, -0.4700724184513092, -2.6733124256134033, -0.0850004330277443, -0.1906348019838333, -0.08216976374387741, 0.7846694588661194, -0.9928740859031677, -0.4994022846221924, -0.2726251780986786, 0.031847257167100906, -0.597064197063446, -0.2313469648361206, -0.9616135358810425, -2.9764158725738525, 0.07317014038562775, -0.1445355862379074, -0.8140274286270142, -0.2415243536233902, -2.752598524093628, -0.44321879744529724, 0.6928066611289978, 0.14119574427604675, -0.0880628228187561, 0.032449107617139816, -0.19036854803562164, 0.8728244304656982, -0.5412845611572266, -2.4213099479675293, 0.011728285811841488, -1.4120197296142578, 0.13905315101146698, -0.008412979543209076, 0.3383525013923645, 0.025242824107408524, 0.24473269283771515, -0.27813518047332764, 0.11874404549598694, -2.941375970840454, -1.84157133102417, -1.7817308902740479, -0.8274365067481995, -0.36296290159225464, 0.06991548091173172, 0.6896101236343384, -0.22298608720302582, 0.007250519003719091, -0.2808167636394501, -1.75550377368927, -1.7355129718780518, 0.7673453092575073, 0.8102505207061768, 0.029709013178944588, -1.1155900955200195, 0.11449291557073593, 0.365593284368515, -1.0533645153045654, -0.09365104883909225, -0.13084566593170166, -0.4227447807788849, 0.45566296577453613, 0.03618781641125679, 0.17209210991859436, 0.03729289025068283, -0.7325472235679626, 0.28694695234298706, 1.386555790901184, 0.046542827039957047, 0.4912862479686737, -0.25235211849212646, -1.8442398309707642, 0.5032409429550171, -0.43820062279701233, -0.08758853375911713, -0.06830374151468277, 0.4990485906600952, -1.538581132888794, -0.07069081813097, 0.36267179250717163, -0.07205220311880112, -0.4822995960712433, 0.5854125618934631, -1.6035826206207275, -1.45270836353302, -0.00975048914551735, 0.03764680027961731, -1.168481707572937, -0.03602445498108864, -2.0654263496398926, -0.4670695960521698, -1.516669750213623, 0.058009784668684006, -0.41857439279556274, 0.2890840172767639, -0.6894371509552002, 0.06044444069266319, -0.04360777512192726, 0.09381652623414993, 0.13825173676013947, -0.16121040284633636, -0.10112755000591278, -0.9227720499038696, 0.07951374351978302, 0.028760535642504692, 0.513320803642273, -0.19529777765274048, -0.31619659066200256, -2.439305305480957, -0.13751062750816345, 0.0417986698448658, 0.5493758916854858, -0.07300848513841629, -1.3940272331237793, -0.022380614653229713, 0.42724066972732544, 1.3536804914474487, -0.36982011795043945, 0.016538545489311218, -2.4722089767456055, -0.07988927513360977, 0.004512803629040718, -5.185507297515869, 1.084996223449707, -0.057980507612228394, 0.03980942443013191, -0.3613356053829193, 0.4323936402797699, 0.13288278877735138, 0.12148843705654144, -0.015114113688468933, -0.0034513953141868114, -0.23077870905399323, -1.248125672340393, -0.013889801688492298, 0.1645398736000061, 0.09677474945783615, -0.5915622115135193, -0.40064290165901184, 0.12108234316110611, 0.43013623356819153, -1.6573344469070435, -0.012105443514883518, -0.21013155579566956, -1.3742268085479736, 0.3180980980396271, 1.1461836099624634, -0.49702921509742737, 0.15063805878162384, 0.1275128722190857, -2.3487675189971924, 0.32920071482658386, -0.9238348007202148, -0.2411799430847168, 0.11585954576730728, 0.2991408109664917, -0.02835850603878498, -0.47004568576812744, 0.49972003698349, -0.6301029920578003, 0.28201353549957275, -0.5352901816368103, 0.008335670456290245, -0.08776330202817917, 0.34043949842453003, 0.6429355144500732, 0.6701279282569885, -2.0987229347229004, -0.08623550087213516, 0.5294086933135986, -0.6522309184074402, -0.09650969505310059, -0.0560145378112793, -0.04051664099097252, 0.25004738569259644, -0.4100479483604431, 1.2198911905288696, 0.18387827277183533, 0.06005926430225372, 0.651585578918457, -0.05774299427866936, 0.02593815140426159, -0.6535972952842712, -0.01540001854300499, -0.6017481684684753, -0.21710026264190674, -1.6963348388671875, -1.2133206129074097, 0.2149314135313034, 0.8337575197219849, -0.6914252042770386, 0.5517381429672241, 0.2707805037498474, 0.15413634479045868, -0.05618465691804886, -0.5647086501121521, 0.08086806535720825, -0.20423679053783417, 0.024212636053562164, 0.0974312499165535, -0.5633016228675842, 0.27063363790512085, 0.2118033915758133, 0.3361923396587372, -0.3830552101135254, 0.7632461786270142, 0.22935931384563446, 0.5487216114997864, 0.056641049683094025, -0.5342313051223755, -0.12412597239017487, -0.41624003648757935, -0.02577102556824684, 0.06875962764024734, 0.11462220549583435, 1.5622061491012573, -0.04466089978814125, -1.6484431028366089, 0.007522246800363064, -1.2336012125015259, 0.7546523809432983, 1.0514352321624756, 0.20247198641300201, -1.4166145324707031, 0.2591473460197449, -0.28429338335990906, 0.331667423248291, -0.7420236468315125, 0.5647153258323669, 0.3326631188392639, -0.029966063797473907, 0.74957275390625, -0.3343172073364258, 0.25440433621406555, -0.14681588113307953, 0.41319525241851807, 0.01547950692474842, 0.32637572288513184, 0.48613569140434265, -0.07680102437734604, -0.13997744023799896, -0.2438221573829651, -0.360831081867218, -0.04387103393673897, -0.34247782826423645, 0.02670879289507866, 0.9934715628623962, -1.0067106485366821, -1.1655393838882446, -0.023540642112493515, -0.3480500280857086, -0.35273057222366333, 0.4133773148059845, 0.4982733130455017, -1.129369854927063, 0.3400265574455261, 0.4949992299079895, -0.2417582869529724, -0.8110550045967102, -0.13394345343112946, -0.8069015145301819, -0.05613992363214493, 0.3134396970272064, -0.9808490872383118, -0.3642614781856537, 0.10318426787853241, 0.3775564134120941, -0.013575342483818531, 0.01909032091498375, 0.29482603073120117, -0.007686750963330269, 0.01935282163321972, 0.6483705043792725, 1.083875298500061, -0.1669914871454239, 0.06218814104795456, -0.3518265187740326, -0.49145573377609253, 0.0597936250269413, 0.9959035515785217, 0.020385416224598885, 0.12283303588628769, 0.916063129901886, -0.49480941891670227, 0.7195011377334595, -0.21461725234985352, 0.16298064589500427, -0.9236679077148438, -0.3430252969264984, 0.05577640235424042, -2.0864739418029785, -0.053623318672180176, 0.1859692633152008, 0.3651246726512909, -1.1705124378204346, 0.36721768975257874, 0.11814139783382416, -0.1161440834403038, -0.11076083034276962, -0.0043354700319468975, 0.24830837547779083, -0.12662151455879211, 0.4172278940677643, -0.39062434434890747, -0.2072584331035614, -0.9643070101737976, 0.8774392604827881, -0.09662961214780807, 0.8451116681098938, -0.03647034242749214, 0.09085321426391602, -0.301303505897522, -0.4701981246471405, -0.7623273730278015, 0.13034366071224213, -0.4350994825363159, -0.14580149948596954, 0.04338677227497101, -0.0030939404387027025, 0.03974364325404167, -0.0255835372954607, 0.3522801995277405, -0.364855021238327, 0.17343740165233612, 0.0035734912380576134, 0.69371098279953, -0.5226088762283325, -0.41494572162628174, -0.06853047013282776, -0.6025261282920837, 0.538189172744751, 0.24189049005508423, -0.09559676051139832, 0.12494029104709625, -0.04351935535669327, 0.28995904326438904, 0.717466413974762, -0.023245008662343025, -1.5579893589019775, -0.13694824278354645, -0.8530955910682678, -0.05750738084316254, -0.5863038897514343, -0.3405451774597168, 0.023161564022302628, -2.171356201171875, -0.5543338656425476, -3.1952626705169678, -0.06150232255458832, -0.7149510383605957, 0.12125696986913681, 0.03855203092098236, 0.7183177471160889, 0.09624659270048141, -0.10233742743730545, 0.34722763299942017, 0.31317341327667236, 0.02520582266151905, 0.5181789994239807, 0.018847640603780746, -0.6666731834411621, -0.6331714987754822, 0.19130831956863403, 0.025159237906336784, 0.21760109066963196, -0.23642751574516296, 0.011956161819398403, -0.014343724586069584, 0.5920724272727966, -0.5198045969009399, -0.028398359194397926, -0.006034153513610363, 0.27165383100509644, 0.1267147958278656, -0.07036808878183365, -0.19736145436763763, 0.15105359256267548, -0.6772648692131042, -0.6230098009109497, 1.5011889934539795, 0.03122423216700554, -0.046939704567193985, 0.00795829202979803, -0.23420338332653046, 0.3562915623188019, 0.3886934220790863, -0.3246745467185974, -0.19436126947402954, -2.354128122329712, -0.805648148059845, 0.2755119204521179, 0.4192415177822113, -0.2985265552997589, -0.858199417591095, 0.5218051075935364, 0.16732345521450043, -0.38378962874412537, 1.49306058883667, -0.04378886893391609, 0.057579029351472855, 0.0842217430472374, 1.1211656332015991, 0.22317034006118774, -0.6383227705955505, -1.2454158067703247, -1.298398494720459, 0.07282327115535736, 0.581449568271637, -0.0358363538980484, 0.1736476719379425, -0.4114282429218292, -0.26729556918144226, -0.07756460458040237, -0.6606902480125427, 0.5636563897132874, 0.03585491329431534, -0.36304131150245667, -0.9706809520721436, -0.17886216938495636, -0.6121399402618408, 0.18459632992744446, 0.14534178376197815, -0.39327436685562134, -0.9537826776504517, -0.03395438194274902, -0.5875298976898193, 0.13920958340168, -0.30431288480758667, 0.002236416330561042, -0.635303258895874, -0.045803483575582504, 0.29403239488601685, 0.2824323773384094, -1.2439815998077393, -0.10747817158699036, -0.7275072932243347, -0.8391730785369873, 0.824712872505188, -0.4695141017436981, 0.10686736553907394, 0.408365935087204, 0.07118137180805206, 0.5591732263565063, 0.59299236536026, -0.5489922165870667, -0.06219259276986122, 0.09989853948354721, -0.02946505695581436, -0.8562889695167542, -1.9449200630187988, -0.02556176483631134, 0.00848457682877779, -0.32089558243751526, 0.1731574386358261, -0.05940575152635574, -0.5755013823509216, -0.2122943103313446, -1.0077946186065674, 0.05301371589303017, 0.044216085225343704, -0.053976766765117645, -0.4395076036453247, 0.005039704963564873, 1.1239650249481201, -0.10785084217786789, -0.42809221148490906, -1.350544810295105, -0.4032764136791229, -0.7089696526527405, -0.4311966598033905, -0.11475374549627304, 0.3373027741909027, -0.04192937910556793, 0.47459307312965393, 0.19556933641433716, 0.17253614962100983, 0.3656674027442932, 0.07595647126436234, 0.08235371112823486, 0.23328526318073273, -0.6511013507843018, 0.06385273486375809, 0.06996851414442062, 0.4022430181503296, -0.3159889578819275, -0.22923117876052856, -0.1680510938167572, 0.4189508259296417, -0.08670821040868759, -0.5979543328285217, 0.18296344578266144, -0.30441051721572876, -0.8424926996231079, -0.06630787998437881, -0.42321860790252686, 0.8470121026039124, -2.1175122261047363, 0.3914973735809326, -0.23326019942760468, 0.24257025122642517, 0.04103127866983414, -0.05519673228263855, 0.6232059001922607, -0.6412973403930664, 0.41883352398872375, -0.025077197700738907, 0.23209086060523987, 0.7349289059638977, -0.3220483362674713, -0.23851464688777924, -0.7507631182670593, -0.18462198972702026, -0.2995455265045166, 0.04704592376947403, 0.2870292663574219, -0.037141378968954086, -0.3228986859321594, -1.242380142211914, -0.046301472932100296, -0.3761041760444641, 0.3118094205856323, -0.4539206922054291, -0.1429292857646942, -0.03260233253240585, 0.12183679640293121, 0.23936866223812103, 0.2322361320257187, 0.3859536647796631, -2.0365800857543945, -3.33967661857605, -0.9247259497642517, 0.48101210594177246, -0.5786216855049133, -0.40311795473098755, -0.1947006732225418, 0.22540639340877533, 0.04062584415078163, -0.7066293954849243, 0.11135181784629822, -0.185029998421669, -0.5168470740318298, -0.512791097164154, 0.03667749837040901, -0.6751693487167358, -0.49088254570961, -0.0498347133398056, -0.04726460203528404, -0.030261466279625893, -0.2195671647787094, -0.08961925655603409, 0.6229786276817322, -0.7811427712440491, -2.560590982437134, 0.8595004081726074, -0.051348067820072174, 0.026837533339858055, -1.020982027053833, 0.635225236415863, -0.43661022186279297, 0.011360641568899155, 0.09730110317468643, -2.359837293624878, -0.2287091463804245, 0.6241870522499084, -0.22461996972560883, 0.01994665153324604, 0.1956702470779419, 0.2670109272003174, 0.2326139360666275, 0.277871698141098, -0.39485394954681396, -0.3586432933807373, -2.593839168548584, -1.4065018892288208, -0.013738221488893032, 0.3476297855377197, -0.008195817470550537, 0.11427609622478485, -0.27022048830986023, -0.5717057585716248, -0.06510064005851746, -0.7326003313064575, 0.14565987884998322, -1.2819709777832031, -0.07725350558757782, -0.4385072886943817, -0.2633697986602783, -0.13665442168712616, 0.1417488008737564, 0.1393514722585678, -0.03845050558447838, -1.036512017250061, -0.15684795379638672, -0.11819727718830109, -0.398989200592041, 0.07160484790802002, -0.1594795137643814, 0.012180984951555729, 0.178110733628273, 0.17664818465709686, -0.0496663860976696, -0.9481952786445618, -0.6075304746627808, -0.021044526249170303, -0.07899346947669983, -0.6166394948959351, -0.0790303573012352, -0.5107750296592712, 0.1530066579580307, 0.33132562041282654, 0.034526195377111435, -0.14550134539604187, 0.2107284814119339, -0.18455946445465088, -0.0847775861620903, -0.90810626745224, -0.04830915108323097, -0.07891172170639038, -1.4062530994415283, -0.03929651528596878, -0.5007697343826294, -0.1194528117775917, -0.04011084511876106, 0.04956040531396866, 0.010001156479120255, -0.8832690715789795, -0.06043499708175659, -0.13230262696743011, -1.0092629194259644, -0.7173214554786682, -0.03038467839360237, -0.6182400584220886, 0.5658454298973083, -0.3051099479198456, -0.4676190912723541, -0.3582289516925812, -0.03653200715780258, -0.07042389363050461, 0.4139712154865265, -1.2813767194747925, -0.09458225220441818, -0.6086952686309814, -0.30667296051979065, -0.15508708357810974, -0.10669836401939392, -0.27384090423583984, 0.012027191929519176, -0.1750534176826477, -0.27449831366539, -0.004734127316623926, -0.45371055603027344, 0.24842026829719543, -0.5577811002731323, 1.0745691061019897, 0.013596209697425365, -0.4677630662918091, -0.2754819393157959, -0.11985792964696884, -0.16371655464172363, -0.16449697315692902, 0.2755354642868042, -0.1479804515838623, -0.8936538100242615, -0.4005213677883148, 0.036819230765104294, 0.09234591573476791, 0.24674072861671448, 0.10888025164604187, -0.050929874181747437, -0.30950114130973816, 0.305645227432251, 0.007337100338190794, -1.2914726734161377, -2.655322313308716, 0.3834143579006195, 0.07427500188350677, -0.16868856549263, -0.16361211240291595, -0.2623102068901062, 0.49006927013397217, -1.4825410842895508, -0.3392750322818756, -0.4237906336784363, -0.8991120457649231, 0.019567759707570076, -0.3970293700695038, 0.272173136472702, 0.2558329701423645, -0.43185266852378845, -0.30548718571662903, -0.025858543813228607, -0.07756190747022629, -0.15755145251750946, 0.10563891381025314, -0.21501553058624268, 0.7670765519142151, -0.5337426662445068, 0.5031699538230896, -0.7679948806762695, -0.8350782990455627, -0.29195937514305115, 0.6393261551856995, 0.41208556294441223, 0.17652153968811035, 0.021134043112397194, -1.0117307901382446, -0.02636868506669998, 0.012106473557651043, 0.02692490816116333, -0.7714623808860779, -0.08118322491645813, -0.19630520045757294, -0.8158165812492371, -0.12354523688554764, -1.9771896600723267, -0.5789804458618164, -0.033999454230070114, 0.34219178557395935, 0.08574797213077545, 0.26050400733947754, 0.004530788399279118, -2.0623981952667236, 0.062490373849868774, -0.7811468839645386, -1.4691510200500488, -0.2378465235233307, -0.41303545236587524, -0.4570232927799225, -0.04193265363574028, -0.3076947033405304, -0.49427300691604614, -0.41793346405029297, -0.24140387773513794, -0.8676140308380127, -0.007090786937624216, -0.127359539270401, 0.528523325920105, -0.6977166533470154, 1.580116629600525, -0.4283999502658844, 0.44873759150505066, -1.8771346807479858, -0.35561659932136536, -0.5811592936515808, -1.4595550298690796, 0.4661027491092682, 0.8919405937194824, -0.2429545521736145, -0.023340068757534027, 0.18370503187179565, 0.15151508152484894, -0.004602878354489803, 0.3515405058860779, -0.675290584564209, -0.777275562286377, -0.49989303946495056, -0.1791580617427826, 0.03376923128962517, -0.2782353162765503, 0.5212826132774353, -1.377841591835022, -0.02096829004585743, -1.2967467308044434, -1.0046509504318237, -0.5021966099739075, -0.5254483819007874, -0.39760905504226685, 0.06263181567192078, -0.7967908382415771, 0.08108241856098175, 0.4511745870113373, -0.24830469489097595, -1.128077745437622, 0.024926165118813515, -1.731478214263916, 0.4419183135032654, 0.9911605715751648, 0.16858801245689392, -0.482577383518219, -0.06734094023704529, -0.08727117627859116, -5.876954078674316, 0.5558744072914124, 0.1526796966791153, -1.357566237449646, 0.5017990469932556, -0.2779444754123688, 0.3731027841567993, 0.19414375722408295, 0.5531100034713745, 0.36731722950935364, -0.5639761686325073, -0.00456889858469367, 1.2345508337020874, -0.17467550933361053, 0.1361418068408966, -0.9899324178695679, 1.1896392107009888, 0.025656457990407944, -0.17161938548088074, 0.13866184651851654, 0.011365711688995361, 0.29163578152656555, -0.04591142758727074, -0.46723103523254395, 0.4288557767868042, -0.7013587951660156, -0.3109201490879059, -0.4250616133213043, 0.25172489881515503, -0.12547029554843903, -0.8861515522003174, -2.250818967819214, 0.20299598574638367, -0.5939142107963562, -0.0048070368357002735, -0.7319127917289734, -0.5856156945228577, -3.1759450435638428, 0.06154512241482735, 0.10639555007219315, 0.029662594199180603, 0.6578840017318726, 0.1196153461933136, -0.15064789354801178, -0.2921954393386841, 0.1805504858493805, -0.22432872653007507, -0.4358443319797516, -2.3099677562713623, -0.06864460557699203, 0.3250437080860138, -0.031230663880705833, -0.27762287855148315, -0.11806181073188782, 0.5294474363327026, 0.02501787431538105, -0.005991125479340553, -0.2921256124973297, 0.3370884656906128, 0.029973283410072327, -0.2659568786621094, 0.1599724441766739, 0.45340681076049805, -0.08091814815998077, -0.21680869162082672, -0.07790599763393402, -1.3428044319152832, -0.7270681858062744, -0.10800426453351974, 0.9346194863319397, 0.014677881263196468, -1.1880345344543457, 0.03510884568095207, 0.086126908659935, -0.5967811942100525, -0.02443806454539299, -0.3920164108276367, -0.2840297520160675, 0.08618780225515366, -0.017040381208062172, -1.1820074319839478, 0.5729180574417114, 0.019725898280739784, -0.6072181463241577, -0.05127973482012749, -0.02815559320151806, -1.2733855247497559, 0.23927336931228638, 0.9948879480361938, -0.10638803243637085, -0.11065996438264847, -1.171338438987732, -0.2545289993286133, -0.21934381127357483, 0.3794975280761719, -1.1986223459243774, -0.4636889696121216, -0.07803370803594589, -0.29916009306907654, 0.3682079017162323, 0.022014383226633072, -0.007261465769261122, 0.6798127293586731, -0.172506183385849, -0.013549485243856907, -0.007297314237803221, -0.8778422474861145, 0.05263104662299156, -0.1359034776687622, 0.14718015491962433, -0.9328324198722839, 0.04756014049053192, -0.05048796534538269, 0.15735618770122528, 0.43617552518844604, -0.7897562980651855, -0.043884702026844025, 0.026667408645153046, -0.5207038521766663, 0.3655475080013275, 0.23293812572956085, -1.4413301944732666, -0.7636367082595825, 0.030103683471679688, -0.0245063416659832, -0.8885568380355835, -0.6058052778244019, -0.9354362487792969, -0.09729301184415817, 0.03930610790848732, -0.4312750995159149, -0.4946645498275757, -0.04606250673532486, -0.16983988881111145, -0.2946162223815918, -0.026679210364818573, -1.3603276014328003, -0.38098323345184326, 0.03708077222108841, -0.5949938893318176, -0.6256265640258789, -0.07099172472953796, 0.030418086796998978, 0.04042479768395424, -0.35989347100257874, 0.23304788768291473, -0.19024984538555145, -0.23403210937976837, 0.11542756110429764, -0.4550457000732422, 0.1336228847503662, -1.619777798652649, -0.3421213626861572, 0.18225301802158356, -0.24606113135814667, 0.4538068175315857, -0.5727689862251282, -0.38012048602104187, -0.39136940240859985, -0.04047267138957977, 0.43030428886413574, 0.649529755115509, -1.0149574279785156, 0.7384809255599976, -0.288347989320755, -0.05645325779914856, 0.5534436106681824, -0.14423970878124237, -0.34609299898147583, -0.07225995510816574, 0.13988785445690155, 0.3274644613265991, 0.7082374095916748, -0.26703304052352905, 0.807367205619812, 0.07503979653120041, -0.6103515028953552, 0.03304737061262131, -0.37354791164398193, 0.04397069662809372, -2.462613821029663, 0.019547991454601288, -0.2655501365661621, -0.47898590564727783, 0.5449902415275574, 0.018255921080708504, -0.33696529269218445, -0.19748951494693756, 0.6510400176048279, 0.4232192039489746, 0.07087056338787079, -0.6032488942146301, 0.13338838517665863, -0.7975640296936035, -0.7232266664505005, 0.059228669852018356, -0.5818310379981995, 0.44327571988105774, 0.2696446180343628, -0.417525976896286, -1.3327926397323608, -0.6562245488166809, 0.056015245616436005, -0.01349707879126072, 0.6035112738609314, 0.15445344150066376, 0.30856746435165405, -0.41769325733184814, 0.28280672430992126, -0.06457578390836716, 0.44748619198799133, -0.27827298641204834, -0.06775085628032684, -0.34070447087287903, 0.20365113019943237, -1.6245723962783813, -0.2805802822113037, 0.32631078362464905, 0.3718847930431366, 0.3674074709415436, -0.14493179321289062, -0.12248530238866806, 0.017040664330124855, -0.1897851824760437, -0.12381402403116226, 0.03212142363190651, -0.10608131438493729, -0.18603025376796722, 0.5835524797439575, 0.23807792365550995, -0.11616569012403488, -0.43649962544441223, 0.029898157343268394, -0.07053538411855698, -0.5376927852630615, -1.4494367837905884, -0.05590427294373512, -0.1271098107099533, 0.29416945576667786, 0.060737885534763336, -0.8546230792999268, -0.007875744253396988, -0.5910472273826599, -0.2686413824558258, -0.5471130013465881, 0.5923047065734863, -0.17152060568332672, -0.531389057636261, 0.051183708012104034, -0.9769790768623352, -0.8599792122840881, 0.36845770478248596, 0.3539229929447174, -0.16935354471206665, -0.04470767825841904, 0.3449765741825104, -0.3588578999042511, -1.4883558750152588, 0.43034642934799194, 0.28458529710769653, -1.223044753074646, -0.40626031160354614, -2.0794129371643066, -0.17155802249908447, -0.0070478725247085094, 0.15240859985351562, 0.5500586628913879, -0.02185208536684513, -0.6332089900970459, -0.2243778258562088, 0.19354337453842163, -0.2217317819595337, -1.1333190202713013, -0.5578699111938477, -0.45355644822120667, -1.0756243467330933, 0.0009419254492968321, 0.0474567711353302, -0.03077145293354988, 0.1061655804514885, -0.4260520040988922, 0.5277337431907654, -0.7394325733184814, -1.1042917966842651, -0.3760702908039093, -0.20228929817676544, -0.09687947481870651, 0.316402405500412, -0.261587917804718, -0.7057721018791199, -0.3828796148300171, -0.004185831639915705, -0.601426899433136, 0.24637891352176666, 0.028835216537117958, -0.7064488530158997, -0.06278936564922333, -0.30726999044418335, -0.9347654581069946, 0.5377606749534607, 0.1815066933631897, -0.4399154484272003, 0.18250247836112976, -0.6320154666900635, -1.164941430091858, 0.010458589531481266, 0.032304923981428146, -0.070831798017025, -0.4241601824760437, 0.17056886851787567, -0.19690380990505219, -0.07892290502786636, -0.040196970105171204, -0.0562601275742054, 0.5191681385040283, 0.23811031877994537, -0.26334720849990845, -0.307338148355484, 0.29252827167510986, -0.334642618894577, 0.9012499451637268, -0.05314084514975548, -0.5258302688598633, 0.37782877683639526, 0.28960707783699036, -0.09109856188297272, 0.1845148354768753, -0.2208370417356491, -0.09500786662101746, -0.34585970640182495, -0.3243423104286194, -0.016050560399889946, 0.8681467771530151, 0.23838183283805847, 0.3586158752441406, -0.02877732552587986, 0.35428816080093384, 0.05798536166548729, -0.2980625033378601, 0.04307390749454498, 0.06530063599348068, -0.4947497248649597, -0.7864357829093933, -0.008104341104626656, -0.6196689009666443, 0.5641403198242188, -0.02133125066757202, -0.9608896970748901, -0.10299956798553467, -0.04778473824262619, 0.25702616572380066, -0.4678136110305786, 0.04251905530691147, 0.04662112146615982, 0.02558327466249466, -1.2134181261062622, -0.26648765802383423, -0.06626037508249283, -0.536034882068634, -0.19632764160633087, -0.47719329595565796, 0.0009441289585083723, -0.13187721371650696, -0.12903502583503723, -0.09616978466510773, 0.07148474454879761, -0.07185056805610657, 0.03332476317882538, -0.024918220937252045, -0.5110548138618469, -1.2171226739883423, -0.061029478907585144, -0.6763871908187866, -0.029286935925483704, -0.02973533235490322, -0.6310102939605713, -0.1578267365694046, 0.1366121917963028, 0.20262466371059418, -0.5888628959655762, -0.2601482570171356, -0.4290211796760559, -0.05589735507965088, -0.7403458952903748, 0.29013246297836304, -0.052043359726667404, -0.6190744042396545, 0.04400729387998581, -0.375650554895401, 0.46971240639686584, -1.7652769088745117, 0.18177936971187592, -0.59187251329422, -0.776045560836792, 0.7247001528739929, -0.07110442966222763, 0.008031053468585014, -0.39401888847351074, -0.053985875099897385, 0.027348730713129044, 0.0732661634683609, -0.1082022413611412, 0.31741663813591003, -0.7975174784660339, -0.5622174739837646, 0.07635458558797836, -0.6878964304924011, -0.04862640053033829, 0.10218897461891174, 0.23798856139183044, -0.031275637447834015, -0.7046999931335449, 0.2465815544128418, -0.12785407900810242, 0.24609503149986267, -0.06332661211490631, -0.20230890810489655, 0.11968965828418732, -0.03464497625827789, -0.9758663177490234, -0.45210036635398865, -0.07041776180267334, 0.021421782672405243, 0.03713471442461014, -0.30245068669319153, -0.6539432406425476, -1.856590986251831, 0.16815458238124847, -0.12076614797115326, -0.8857876062393188, -1.9879952669143677, -0.04689986631274223, -0.35958173871040344, -0.5193619132041931, -2.7144081592559814, 0.08474244177341461, 0.030323004350066185, 0.0024108458310365677, -0.811329185962677, -0.09523822367191315, -0.3968392312526703, -0.031606048345565796, -0.009039634838700294, -0.055124614387750626, 0.19784854352474213, -0.2820322513580322, -1.0493022273294628e-05, -0.021333709359169006, 0.21256527304649353, -1.5198683738708496, -0.4396990239620209, -0.046794891357421875, 0.13903386890888214, -0.20863941311836243, 0.0334915891289711, -0.08091456443071365, -0.23456375300884247, 0.007389852311462164, -2.6131997108459473, -0.019666990265250206, -0.08981813490390778, 0.16584071516990662, -0.5200129747390747, 0.1508590430021286, -1.0164673328399658, -0.6366008520126343, -0.9560605883598328, -0.057377349585294724, -0.2351311445236206, -0.5400806069374084, -0.35635608434677124, -0.14648620784282684, -0.06448809057474136, -0.03831380978226662, 0.30302175879478455, 0.14072568714618683, 0.23240889608860016, -0.03672754019498825, -0.9439623355865479, 0.2733619213104248, -0.6504307389259338, -1.019159197807312, 0.24511878192424774, -0.03837810084223747, -0.810779869556427, 0.08800549805164337, -0.14354322850704193, -0.10238891839981079, -0.02076723612844944, -1.4519928693771362, -0.1412549763917923, -1.4430444240570068, 0.02790961228311062, -0.22661514580249786, 0.6467214822769165, -0.5021423697471619, 0.03593268617987633, -0.27219831943511963, -0.4808047413825989, 0.4269239604473114, 0.08446090668439865, -2.007794141769409, -1.412371039390564, -0.23727300763130188, -0.017439721152186394, 0.22999811172485352, -1.6747186183929443, -0.19587606191635132, 0.09682610630989075, -0.03212622180581093, -0.07633037865161896, -0.22846338152885437, -0.7757364511489868, 0.04827861115336418, 0.20290428400039673, 0.8291653990745544, 0.04287872090935707, 1.5172467231750488, -0.7662897706031799, -0.18357796967029572, -0.23296618461608887, 0.10577616840600967, -1.0444772243499756, 0.015834588557481766, -0.02012423425912857, 0.037510477006435394, -0.7201991081237793, 0.22149355709552765, 0.02594553865492344, -0.07449274510145187, 0.09204667806625366, -0.8970507383346558, -0.04786236956715584, 0.06936625391244888, 0.0350041538476944, 0.14527572691440582, -0.23939652740955353, 0.9258357882499695, -1.849933385848999, -0.3169945776462555, 0.022006411105394363, -0.23109829425811768, -0.7540526390075684, 0.16658897697925568, 0.06553894281387329, -0.3821808695793152, -0.9524847865104675, 0.0689408928155899, -0.18643391132354736, 0.057039156556129456, -0.652121901512146, -0.6377545595169067, -0.04307534173130989, 0.02324267104268074, -0.6125023365020752, -1.1821216344833374, -0.767116904258728, -0.16230155527591705, 0.0556066632270813, -0.3863856792449951, -0.08592916280031204, -0.0019802958704531193, -1.2790645360946655, 0.025809457525610924, 0.14681409299373627, -0.02539168857038021, -0.5067659616470337, -0.0363243892788887, -0.28930801153182983, -0.4358164966106415, -0.261528342962265, -0.9230970144271851, -1.4699634313583374, 0.2353292554616928, 0.36055606603622437, -0.42695319652557373, 0.09171412140130997, 0.022914428263902664, -0.12186495959758759, -0.155501589179039, 0.037230826914310455, 0.34954124689102173, -0.26439276337623596, 0.1842959076166153, -0.06784074008464813, -1.8467624187469482, -0.37194162607192993, 0.024364210665225983, 0.8439633250236511, -0.04577729478478432, -1.3726983070373535, -0.04366512969136238, -0.4968566596508026, -0.24869419634342194, -0.008473594672977924, -0.18667344748973846, 0.26317477226257324, -1.7409485578536987, 0.09238845854997635, -1.13249671459198, 0.3438650071620941, 0.29704779386520386, -0.5651450157165527, -0.27042141556739807, -0.3789748549461365, 0.024562837556004524, -0.4407845437526703, 0.05067131668329239, -2.162309408187866, -0.07573098689317703, -0.12286977469921112, -0.7386966347694397, 0.06817802041769028, 0.012123201973736286, -0.030408382415771484, -1.193758249282837, -0.16202367842197418, 0.012420237995684147, -0.11669661849737167, -0.2059110850095749, -0.5864100456237793, 0.0007454708102159202, 0.24758528172969818, -0.02044195868074894, 0.007146552670747042, -0.6235838532447815, 0.38123250007629395, -0.20575328171253204, -0.1215454563498497, -0.06715138256549835, -0.11638826131820679, 0.9247753024101257, -0.1721191257238388, 0.17198505997657776, 0.10696562379598618, 0.3198818266391754, -0.44777923822402954, -0.10610627382993698, -1.3760781288146973, -1.068563461303711, -0.05049743875861168, -0.0474589504301548, -0.25091442465782166, 0.11287571489810944, -0.874858021736145, 0.4444092810153961, -0.1923486590385437, -2.312805652618408, -0.00794274266809225, -0.08631737530231476, -0.7365127801895142, 0.14630070328712463, -0.5591118335723877, -0.8948404788970947, -0.6963058114051819, -0.005904010031372309, -0.2777522802352905, -0.7588126063346863, -0.9564375281333923, 0.17866644263267517, -1.147133469581604, -0.4255208373069763, 0.023248083889484406, -0.031828898936510086, -0.26209020614624023, 0.2414083629846573, -0.2963258922100067, -0.5769169330596924, -0.31068289279937744, 0.1438332498073578, -0.8416932225227356, -0.0728197917342186, -0.035488225519657135, 0.3199504017829895, 0.046556584537029266, -1.0630342960357666, -0.2417045533657074, -0.10328163951635361, -0.16853979229927063, 0.3068959414958954, 0.11272431910037994, -0.36266449093818665, 0.022669976577162743, -0.34965676069259644, 0.10809054225683212, -0.016578998416662216, 0.47159409523010254, -0.05913909897208214, -0.7669334411621094, -0.24935835599899292, -0.8829048871994019, 0.15681882202625275, -0.337199330329895, -0.009322768077254295, 0.04193972796201706, 0.08042535930871964, -0.2764331102371216, -0.0662296861410141, 0.023150140419602394, -0.16625632345676422, 0.05679762735962868, 0.009310704655945301, 0.23091883957386017, -0.1490572839975357, -0.8398664593696594, 0.7297759056091309, 0.19296811521053314, 0.02467160113155842, -0.297820121049881, 0.34725987911224365, 0.014781665056943893, 0.011262292973697186, -0.38118603825569153, -0.6841287612915039, 0.6196532249450684, -0.024036401882767677, -0.3143188953399658, 0.21809335052967072, 0.23524737358093262, 0.48793426156044006, -1.146384596824646, -0.2893553674221039, -1.8719229698181152, 0.11221632361412048, -0.03729575499892235, 0.1707359403371811, -0.8671538829803467, 0.32583940029144287, 0.1680351346731186, -0.3215280771255493, 0.3052985370159149, 0.3143009543418884, 0.02046988345682621, -0.13424602150917053, -0.6971767544746399, -0.11324642598628998, -0.39874762296676636, -2.489286422729492, 0.5770847201347351, -0.23270586133003235, -1.047034740447998, 0.054083336144685745, 0.29686012864112854, -0.26567402482032776, -0.0703606903553009, -0.052648432552814484, -0.08645680546760559, -0.6366345286369324, 0.040098026394844055, 0.258654922246933, -0.9459154009819031, -0.14098471403121948, -0.4788272976875305, 0.31163930892944336, -0.08651109039783478, -0.3289963901042938, 0.1455192267894745, 1.323926329612732, -0.12401486188173294, -0.4794141352176666, 0.4471794068813324, -0.12719766795635223, -0.25910040736198425, 0.34189072251319885, -0.3650411367416382, -0.05252651497721672, -0.06524546444416046, -0.5673822164535522, -1.6348237991333008, -0.18221569061279297, 0.2905629575252533, -0.9406907558441162, -0.15739423036575317, -0.13495813310146332, 0.745944082736969, -0.011468136683106422, 0.5115309953689575, 0.42188143730163574, -0.012547347694635391, -0.024070004001259804, -1.5585683584213257, 0.5067333579063416, -1.0098975896835327, 0.258183091878891, -1.0042747259140015, -0.21305029094219208, 0.04115569591522217, 0.24364137649536133, 0.022781023755669594, -0.311297208070755, -0.009078596718609333, 0.1409846991300583, -0.06257971376180649, -0.8203917741775513, -1.2046939134597778, -0.24725501239299774, 0.16442909836769104, -0.1326717734336853, -0.25895926356315613, -0.01365689653903246, -0.5751655101776123, -0.4989154636859894, -2.618356943130493, 0.268789678812027, 0.3089313507080078, 0.24163994193077087, -0.1961321085691452, 0.17064324021339417, -0.04820959270000458, 0.143781378865242, -0.41094934940338135, -0.009236745536327362, -0.8800870776176453, 0.051059454679489136, -0.0994611531496048, -0.0731775164604187, 0.9804686307907104, -0.06630359590053558, -0.6666448712348938, -0.06174049898982048, -0.18084058165550232, 0.24947060644626617, 0.025277994573116302, -0.07685332745313644, -0.36885711550712585, 0.08854524791240692, 0.79411381483078, -0.3166218101978302, -0.6819510459899902, -0.13256944715976715, 0.19640648365020752, -0.5020852088928223, -0.33328211307525635, 0.009799311868846416, 0.3283291161060333, -0.9879695177078247, -0.3048720359802246, 0.3588916063308716, -0.060454461723566055, 0.14732645452022552, 0.010988795198500156, -1.0116065740585327, 0.5369470119476318, -0.0732748955488205, -0.24641594290733337, -0.4980684220790863, -0.7225441336631775, 0.0034317842219024897, -1.506675124168396, 0.13359269499778748, 0.07166178524494171, -0.06189936026930809, 0.053611770272254944, 0.0683111622929573, -0.21400924026966095, 0.575692892074585, -0.0491507351398468, -0.08880041539669037, 0.024065131321549416, 0.23675067722797394, -0.025987645611166954, -0.35453033447265625, -0.43085142970085144, 0.0016581459203734994, 1.4350858926773071, 0.0007481085485778749, -1.2396166324615479, -0.1423463374376297, 0.3913007974624634, -0.04310500994324684, 0.6300475001335144, -0.21545524895191193, -0.03785230219364166, -0.07429540902376175, -0.4130021631717682, 0.45411568880081177, -0.4986560344696045, 0.48013293743133545, 0.4762851595878601, 0.017089098691940308, -0.05020889267325401, 0.17409367859363556, -0.06079276278614998, -0.45500877499580383, 0.3488341271877289, -0.22412286698818207, -0.602209746837616, 0.13752765953540802, 0.11023713648319244, -0.24584607779979706, -0.054499026387929916, 0.4978909492492676, -0.5848828554153442, 0.02063054032623768, -2.294991970062256, -0.780938982963562, -0.2693869471549988, -0.0371105894446373, -0.14675483107566833, 0.1349615454673767, -0.8706063032150269, 0.14475460350513458, 0.28451645374298096, -0.6388000249862671, 0.253182977437973, -0.21982164680957794, -0.2739999294281006, -0.3501001298427582, -0.6146908402442932, -0.014515059068799019, -0.2879238426685333, -0.08279504626989365, 0.16488318145275116, -0.15886850655078888, -2.1639158725738525, -0.20922338962554932, 0.19193483889102936, 0.20312462747097015, 0.16389091312885284, 0.7258260250091553, 0.3866311013698578, 0.09792288392782211, 0.11743961274623871, 0.2095111906528473, 0.3555958867073059, -0.7806904911994934, -0.6316091418266296, -0.030409708619117737, 0.9698911309242249, -0.5752515196800232, -1.0624643564224243, -0.07893946021795273, 0.039777956902980804, 0.031060494482517242, -0.06049514189362526, 0.3812740445137024, -2.414766788482666, 0.1776660680770874, -0.6534766554832458, -0.6738707423210144, -0.5323657989501953, -1.1375677585601807, -1.3547852039337158, -0.02713867276906967, 0.1670152097940445, -0.13538679480552673, -0.41058292984962463, -0.3331610858440399, -0.8005430102348328, 0.01128118671476841, -0.22500374913215637, -0.1688026636838913, -0.45764046907424927, -0.052625760436058044, 0.06305276602506638, 0.36395737528800964, 2.412616014480591, 0.1110355406999588, 0.06180287525057793, -0.3339043855667114, -0.21307526528835297, -0.712952733039856, 0.49210479855537415, 0.03633585944771767, 0.760147750377655, -1.7115466594696045, 0.7504670023918152, -0.19929389655590057, -0.7141082882881165, 0.37221840023994446, -0.9453470706939697, -0.04405159875750542, -0.3705660104751587, 0.11652038991451263, -2.63801908493042, 0.33794623613357544, -0.6871621608734131, -0.1651320457458496, -0.055523891001939774, -1.0009266138076782, -0.16194285452365875, -0.2570296823978424, 0.32429322600364685, -0.019928796216845512, 0.7382892370223999, 0.8314756155014038, -1.618911623954773, 0.2921319007873535, -0.21166010200977325, 0.005653276573866606, 0.25216153264045715, -0.36383578181266785, -0.012244910933077335, -0.03583082929253578, -1.5591645240783691, -0.462673544883728, -0.01527606975287199, -0.20196804404258728, -0.6171166896820068, -0.5810326337814331, -0.060399919748306274, -0.7252984642982483, 0.1049397885799408, -0.04876992106437683, -0.03318903222680092, -0.43089810013771057, 0.40529748797416687, 0.16448713839054108, -0.16573145985603333, -0.09040883928537369, -0.4119914174079895, -0.6107619404792786, 0.7383167147636414, -0.7806065082550049, 0.2506152093410492, -0.04279717057943344, 0.043971993029117584, -2.0970606803894043, -0.16247709095478058, 0.23336997628211975, -0.08482396602630615, -0.9609957933425903, 0.029017044231295586, -1.1947468519210815, -0.07298249006271362, -0.6578392386436462, 0.11437209695577621, -0.06855715811252594, 1.28707754611969, -1.5745716094970703, -0.49337249994277954, -0.3676978349685669, -0.6616518497467041, 0.37245726585388184, 0.16973522305488586, 0.02650447003543377, -0.8584238290786743, -0.021165402606129646, 